<?xml version="1.0"?>
<opencv_storage>
<opencv_ml_knn>
  <format>3</format>
  <is_classifier>1</is_classifier>
  <default_k>5</default_k>
  <samples type_id="opencv-matrix">
    <rows>598</rows>
    <cols>6</cols>
    <dt>f</dt>
    <data>
      -7.19443178e+00 3.24361324e-01 9.04852772e+00 -8.17853868e-01
      1.13447440e+00 -4.74157810e+00 -7.90995502e+00 -2.06316084e-01
      8.42821026e+00 -4.44259226e-01 1.21106470e+00 -5.44698143e+00
      -6.56984043e+00 1.27926970e+00 9.23537540e+00 -2.44664431e+00
      6.22680008e-01 -3.69473386e+00 -6.86225510e+00 6.67299688e-01
      9.44449043e+00 -7.20819294e-01 7.38633275e-01 -4.65935373e+00
      -6.86206579e+00 6.26291275e-01 9.12712765e+00 -9.91441846e-01
      1.37027109e+00 -4.79986954e+00 -5.28514814e+00 1.35956931e+00
      9.87873077e+00 -1.26045310e+00 1.30514234e-01 -3.58757043e+00
      -7.25564194e+00 1.59955770e-01 7.57369375e+00 -1.59964299e+00
      -9.51353848e-01 -2.58027339e+00 -8.16025448e+00 -4.42475110e-01
      7.81943750e+00 -3.15340966e-01 9.61416006e-01 -5.20175791e+00
      -8.68663788e+00 -5.87489069e-01 7.69446468e+00 -1.29570091e+00
      1.41147208e+00 -5.52693748e+00 -5.37328720e+00 1.14337277e+00
      9.72355270e+00 -5.30418277e-01 1.09737098e+00 -4.75696945e+00
      -7.93508959e+00 1.30413994e-01 8.66328716e+00 -9.34046865e-01
      1.63694263e+00 -6.24015331e+00 -6.37039137e+00 5.29396176e-01
      8.78132629e+00 -2.28662491e+00 -9.90562856e-01 -3.29932952e+00
      -6.54113579e+00 8.72608542e-01 9.58683300e+00 -8.04896951e-01
      9.58780468e-01 -5.15733051e+00 -6.52706766e+00 1.19409049e+00
      9.32605839e+00 -1.91745925e+00 1.65318036e+00 -4.71795750e+00
      -6.81236553e+00 9.33661699e-01 9.67820644e+00 -1.64825904e+00
      1.29403615e+00 -4.70098782e+00 -7.15750265e+00 1.09068382e+00
      8.80405235e+00 -2.88805819e+00 5.69044292e-01 -3.53172660e+00
      -6.15228176e+00 1.56254518e+00 8.70644379e+00 -3.29243636e+00
      -7.47806430e-01 -2.56317925e+00 -7.86063623e+00 7.18483806e-01
      8.21356297e+00 -2.73769641e+00 7.88437724e-01 -4.28173828e+00
      -7.12763977e+00 5.44471920e-01 9.31598091e+00 -1.68241954e+00
      7.41311014e-01 -4.77702761e+00 -6.33715105e+00 5.87575436e-01
      8.60972881e+00 -3.22565627e+00 -5.11696577e-01 -2.91749787e+00
      -9.91401482e+00 -2.37291074e+00 3.20954776e+00 -5.95406711e-01
      -5.90702534e-01 -3.53118920e+00 -6.74062490e+00 1.01702392e+00
      9.34263992e+00 -1.18300104e+00 1.64267731e+00 -5.57409859e+00
      -9.11428070e+00 -6.73192441e-01 6.11508942e+00 -1.23818278e+00
      6.55251443e-01 -4.89340687e+00 -7.26277113e+00 8.40428174e-01
      9.14163589e+00 -1.55855274e+00 5.39934993e-01 -4.28482533e+00
      -9.24349308e+00 -1.02565038e+00 5.95929718e+00 -1.76396155e+00
      5.70121586e-01 -3.82111001e+00 -1.01644545e+01 -2.73469090e+00
      1.88306916e+00 7.15302050e-01 -1.65500119e-01 -4.81065512e+00
      -8.53459549e+00 9.60277766e-02 7.73161077e+00 -1.35441577e+00
      8.92857432e-01 -4.84665155e+00 -9.86374378e+00 -1.73362267e+00
      3.61157370e+00 5.23578048e-01 7.48740196e-01 -6.31211710e+00
      -8.40628719e+00 -3.22009251e-02 8.17518330e+00 -8.27698827e-01
      1.37769508e+00 -5.73924446e+00 -9.56314564e+00 -1.51224172e+00
      5.94672918e+00 -8.14488888e-01 1.26283073e+00 -5.21498442e+00
      -1.01625891e+01 -2.95226693e+00 2.03497934e+00 -3.60538691e-01
      -2.87435591e-01 -4.29293871e+00 -7.39769125e+00 8.31294596e-01
      9.07066250e+00 -2.16653681e+00 1.58581352e+00 -4.53235579e+00
      -9.86694622e+00 -2.47109509e+00 3.76222563e+00 -2.12308496e-01
      3.70255917e-01 -4.48563766e+00 -1.06992617e+01 -3.47173333e+00
      7.43402898e-01 2.54574031e-01 2.50084586e-02 -4.98200035e+00
      -9.82585144e+00 -2.07529879e+00 4.79153204e+00 9.82806683e-02
      1.75807261e+00 -6.46530199e+00 -9.48308277e+00 -2.28168774e+00
      4.22951889e+00 -1.75905392e-01 2.08042338e-01 -4.91582680e+00
      -9.19634247e+00 -9.09265637e-01 7.23609495e+00 -1.22966552e+00
      2.04362631e+00 -5.44334412e+00 -1.01131706e+01 -3.70463681e+00
      1.14842713e+00 1.07231510e+00 9.46047366e-01 -6.20072174e+00
      -9.44198418e+00 -2.56732821e+00 4.78184080e+00 1.65438339e-01
      1.31718004e+00 -6.52447557e+00 -9.58032322e+00 -1.44801641e+00
      5.71600294e+00 -1.23861825e+00 1.27448976e+00 -4.72944069e+00
      -1.00361691e+01 -2.87686753e+00 3.25691843e+00 -7.96307743e-01
      1.05402923e+00 -4.69263935e+00 -7.64162159e+00 5.36347628e-01
      9.19160652e+00 -1.52830589e+00 2.02321196e+00 -5.11417246e+00
      -7.89968061e+00 2.02094495e-01 8.54651737e+00 -1.51873934e+00
      1.92492867e+00 -5.65683746e+00 -8.14272785e+00 4.40439314e-01
      8.19831848e+00 -2.32407904e+00 1.59048808e+00 -4.65855598e+00
      -8.78333092e+00 -2.14841083e-01 7.52902603e+00 -1.97223270e+00
      1.22787988e+00 -4.72256899e+00 -8.71556473e+00 -9.62850358e-03
      7.98027515e+00 -2.02409577e+00 1.69074047e+00 -4.98286057e+00
      -8.44988441e+00 -2.68879145e-01 7.98877144e+00 -9.96572971e-01
      2.60263276e+00 -6.37678623e+00 -9.65095997e+00 -1.91365290e+00
      5.46293545e+00 -7.78335214e-01 1.26446962e+00 -5.54311419e+00
      -9.67136288e+00 -1.07775581e+00 5.79132509e+00 -9.79740560e-01
      1.53836358e+00 -5.58905268e+00 -8.78367710e+00 -4.53871280e-01
      7.40952587e+00 -4.96746451e-01 2.13496757e+00 -6.52694130e+00
      -1.01741676e+01 -3.05468082e+00 2.21657348e+00 6.12561405e-01
      1.14805198e+00 -6.14260721e+00 -8.01032829e+00 1.60278633e-01
      8.64754009e+00 -8.51673722e-01 2.29532957e+00 -6.46884584e+00
      -9.79349136e+00 -7.20929146e-01 5.87966681e+00 -1.40752172e+00
      2.24752283e+00 -5.78182077e+00 -9.83302784e+00 -1.03413963e+00
      5.28424454e+00 -6.48490489e-01 1.74449193e+00 -5.43870974e+00
      -8.40604782e+00 -1.30742699e-01 8.45287418e+00 -1.37133133e+00
      2.91127205e+00 -6.66357231e+00 -1.06000175e+01 -2.81954098e+00
      2.42106462e+00 2.72294790e-01 1.32931864e+00 -6.69985723e+00
      -1.03708220e+01 -3.00569797e+00 2.42423296e+00 5.66579223e-01
      1.90117228e+00 -7.52065563e+00 -1.02653627e+01 -1.25144553e+00
      4.33119774e+00 -1.59224248e+00 1.00032544e+00 -4.68067646e+00
      -9.69146156e+00 -8.71853948e-01 6.20985842e+00 -8.74470830e-01
      2.01140451e+00 -6.36294603e+00 -7.86563110e+00 6.66888535e-01
      8.91962242e+00 -2.37140799e+00 1.91601384e+00 -5.10777140e+00
      -1.04528189e+01 -4.47799730e+00 -3.14589947e-01 1.17019439e+00
      7.37865746e-01 -6.18275023e+00 -9.43937206e+00 -1.05455303e+00
      5.89306450e+00 -3.81510556e-01 1.86266100e+00 -6.25031710e+00
      -9.44484711e+00 -5.81371188e-01 6.18820572e+00 -1.44934130e+00
      1.88162851e+00 -4.68110514e+00 -7.82532501e+00 2.36873120e-01
      9.21043491e+00 -1.18020177e+00 2.27845383e+00 -5.99666977e+00
      -9.32360744e+00 -3.53238225e-01 6.69354391e+00 -1.93204546e+00
      2.46987152e+00 -5.96957588e+00 -1.01862364e+01 -1.66861558e+00
      4.01626396e+00 2.08208457e-01 1.60348105e+00 -6.88447762e+00
      -8.69004822e+00 6.70611858e-02 7.95909405e+00 -1.28150845e+00
      1.82456577e+00 -5.74001980e+00 -1.06507111e+01 -2.24276233e+00
      2.62600684e+00 5.86784244e-01 1.11005139e+00 -7.06643963e+00
      -9.53724289e+00 -3.99054229e-01 6.20444441e+00 -2.04539943e+00
      1.61876321e+00 -4.79472876e+00 -1.04031515e+01 -1.71094811e+00
      4.31349707e+00 -4.05995607e-01 1.48289192e+00 -6.53696442e+00
      -9.63690758e+00 -6.88828230e-01 6.25447226e+00 -1.02541518e+00
      2.06151986e+00 -6.83936405e+00 -1.05717964e+01 -1.95376813e+00
      2.87258244e+00 -3.42880875e-01 3.40068012e-01 -4.92195177e+00
      -1.01139231e+01 -1.32208323e+00 5.51952028e+00 -6.65187716e-01
      2.06759882e+00 -6.80841827e+00 -9.69784641e+00 -8.92428398e-01
      6.27162933e+00 -8.61135006e-01 2.33999038e+00 -6.22801781e+00
      -1.08367167e+01 -2.55748105e+00 7.84376144e-01 -6.92494446e-03
      3.00509393e-01 -4.90495110e+00 -9.79999352e+00 -1.41270053e+00
      4.14342737e+00 -7.50114620e-02 2.21245146e+00 -7.61644793e+00
      -9.73106289e+00 -6.85633481e-01 5.96828508e+00 -1.40301728e+00
      1.93632734e+00 -5.88360023e+00 -1.09029293e+01 -2.22355580e+00
      1.70125484e+00 4.85321254e-01 1.28144312e+00 -7.19413137e+00
      -1.08047791e+01 -2.64880657e+00 1.08906305e+00 9.80775654e-01
      1.47310281e+00 -7.55102777e+00 -9.47308159e+00 -8.19799781e-01
      5.68485022e+00 -8.62614691e-01 2.67664671e+00 -7.61731863e+00
      -9.79296970e+00 -1.11155927e+00 3.09581423e+00 -1.33353627e+00
      -1.82652816e-01 -4.05745745e+00 -1.01980133e+01 -4.26617765e+00
      -1.33649421e+00 1.79041219e+00 -1.50933694e-02 -5.98885250e+00
      -1.03629961e+01 -1.89854109e+00 1.07391679e+00 -6.55438304e-01
      -1.19891536e+00 -3.11414742e+00 -7.07977295e+00 1.38104665e+00
      8.93615532e+00 -2.65723920e+00 1.27375460e+00 -4.09031010e+00
      -8.44582081e+00 4.09159064e-01 7.61866140e+00 -1.86269522e+00
      1.40309465e+00 -5.05893755e+00 -7.23628998e+00 1.32256854e+00
      8.86017609e+00 -2.94076252e+00 8.19789588e-01 -3.60710287e+00
      -9.01885128e+00 -3.28607887e-01 6.80430889e+00 -9.13204610e-01
      1.86501920e+00 -5.88403940e+00 -9.58786678e+00 -6.24670744e-01
      5.39311981e+00 -1.56382596e+00 1.37921047e+00 -5.46290874e+00
      -9.48019791e+00 -1.26271141e+00 4.28476572e+00 2.60436654e-01
      7.96615243e-01 -6.20848465e+00 -9.17319012e+00 -1.51784196e-01
      6.43264151e+00 -2.57417870e+00 2.01773620e+00 -4.96560955e+00
      -9.13641262e+00 -4.79801357e-01 6.15018940e+00 -1.46117592e+00
      1.33250880e+00 -5.39652681e+00 -9.51064014e+00 -5.51026940e-01
      6.05883741e+00 -1.50395727e+00 1.99190593e+00 -5.78099442e+00
      -6.53956509e+00 1.33357346e+00 9.58221054e+00 -2.10367918e+00
      1.47892964e+00 -4.65100670e+00 -9.83022213e+00 -1.39261937e+00
      3.44948840e+00 3.31213206e-01 1.16568661e+00 -7.04219675e+00
      -9.06354046e+00 5.72643466e-02 7.13072920e+00 -2.07184005e+00
      1.68157017e+00 -5.04941845e+00 -1.00202522e+01 -1.56591582e+00
      2.70051360e+00 6.92221671e-02 7.71350741e-01 -6.32001925e+00
      -9.32021618e+00 -4.86346275e-01 4.92138529e+00 -2.65032673e+00
      -3.71503457e-02 -2.55068636e+00 -6.76638412e+00 1.41631079e+00
      9.06357479e+00 -2.52096605e+00 1.73810971e+00 -4.61774778e+00
      -1.02040091e+01 -2.11567116e+00 2.06225801e+00 8.33698690e-01
      1.16789055e+00 -7.34561729e+00 -7.87456226e+00 7.59115934e-01
      8.24655628e+00 -1.81058598e+00 1.87009299e+00 -5.10628843e+00
      -8.89546680e+00 2.30564699e-01 7.12387753e+00 -2.65583205e+00
      1.30857909e+00 -4.69375038e+00 -9.93633652e+00 -7.55146563e-01
      4.42002726e+00 -1.63670278e+00 1.24604452e+00 -5.18507004e+00
      -1.02814331e+01 -2.08918071e+00 2.24748492e+00 2.14693770e-01
      3.18028510e-01 -5.76789713e+00 -9.10672092e+00 -4.43138987e-01
      5.78005266e+00 -1.06087697e+00 7.22231269e-01 -5.41995335e+00
      -9.54256916e+00 -1.57856357e+00 3.91781640e+00 2.02195674e-01
      1.09384263e+00 -6.95625925e+00 -9.96187210e+00 -1.63052535e+00
      2.19344449e+00 1.62073269e-01 1.79328352e-01 -5.88788986e+00
      -7.35859489e+00 5.51718950e-01 8.33703423e+00 -1.18237352e+00
      1.00635898e+00 -5.01123810e+00 -7.68140984e+00 1.99377745e-01
      7.69866228e+00 -3.97057772e-01 7.87118554e-01 -5.89571381e+00
      -9.38071918e+00 -1.17760468e+00 3.61004949e+00 1.09975278e-01
      -2.70301819e-01 -5.96475220e+00 -7.90134764e+00 6.76688373e-01
      8.04381561e+00 -2.12345934e+00 4.21069711e-01 -4.26974249e+00
      -7.98128033e+00 2.64600158e-01 7.48201132e+00 -1.67112184e+00
      -2.20107153e-01 -4.94865465e+00 -7.67383194e+00 5.44471085e-01
      8.25002289e+00 -1.52657044e+00 2.72440016e-01 -4.92524099e+00
      -9.51124287e+00 -1.64126527e+00 2.67146564e+00 6.88222170e-01
      -3.67838234e-01 -6.46083069e+00 -8.05949116e+00 4.54268754e-01
      7.70474243e+00 -2.41893554e+00 -1.12638839e-01 -4.21182680e+00
      -9.05673885e+00 -1.25695586e+00 3.62914371e+00 -1.39211789e-01
      -1.57364142e+00 -5.25981617e+00 -6.11653900e+00 2.12104004e-02
      8.51193619e+00 -7.52408087e-01 -2.39207602e+00 -5.36452627e+00
      -5.78337193e+00 -1.71601832e-01 7.54861307e+00 8.13497186e-01
      -2.56157589e+00 -6.67077303e+00 -6.62327814e+00 -9.59533274e-01
      7.09965086e+00 -1.67038310e+00 -2.90340042e+00 -5.09048891e+00
      -4.85109615e+00 -4.28681999e-01 6.68486881e+00 -9.69793737e-01
      -3.84450674e+00 -5.74935341e+00 -8.52050972e+00 -1.45891321e+00
      4.46801662e+00 -7.57200539e-01 -2.29327607e+00 -5.04472923e+00
      -7.67885923e+00 -3.28382516e+00 2.82202458e+00 1.02477956e+00
      -3.15311956e+00 -5.22090435e+00 -8.46469879e+00 -1.64223826e+00
      3.96843457e+00 -9.97531116e-01 -2.65958691e+00 -4.18887520e+00
      -1.00435343e+01 -1.83573616e+00 2.84465981e+00 -8.30902934e-01
      -5.17020881e-01 -4.92323780e+00 -9.81376362e+00 -2.39445829e+00
      1.77514052e+00 3.74871329e-03 -1.51723039e+00 -4.85836840e+00
      -1.02308464e+01 -1.72085047e+00 2.55105758e+00 -5.77013612e-01
      -3.78484935e-01 -5.75897980e+00 -1.00768137e+01 -2.78258014e+00
      -4.33713317e-01 -4.64616627e-01 -1.80132556e+00 -3.58243394e+00
      -1.01412392e+01 -2.39601469e+00 2.79006124e-01 -9.49392021e-01
      -1.66266215e+00 -3.74938917e+00 -1.00249062e+01 -2.41932607e+00
      2.08994359e-01 8.19033980e-01 -1.53040612e+00 -5.51496267e+00
      -1.01797180e+01 -1.86272001e+00 2.85296202e+00 -1.03735137e+00
      -1.30174071e-01 -4.57025909e+00 -1.04094219e+01 -2.81045818e+00
      -5.68030894e-01 -3.64099681e-01 -1.88511729e+00 -3.28883100e+00
      -9.46439362e+00 -3.88882422e+00 -8.34990740e-01 7.90409297e-02
      -2.22154999e+00 -3.53557396e+00 -8.54407024e+00 -5.96135235e+00
      -2.31279135e+00 1.27881420e+00 -2.04774094e+00 -4.12550974e+00
      -1.01125250e+01 -2.17325950e+00 1.28834212e+00 -3.94081920e-01
      -7.92881846e-01 -4.65860748e+00 -9.19216061e+00 -7.29194641e-01
      6.35331631e+00 -1.47936261e+00 8.86896625e-02 -5.21737862e+00
      -9.57476902e+00 -1.85235858e+00 2.48149323e+00 6.10556781e-01
      -5.96883357e-01 -6.13801765e+00 -8.86155796e+00 -6.77802026e-01
      6.16256428e+00 -8.63017321e-01 -2.59394884e-01 -5.61045551e+00
      -8.67369366e+00 -2.53418744e-01 6.98782682e+00 -7.68017530e-01
      3.72907937e-01 -5.97335768e+00 -8.04227638e+00 -4.68743108e-02
      7.95454216e+00 -1.06223381e+00 -7.98518807e-02 -5.83761549e+00
      -9.42776203e+00 -1.17309606e+00 4.68975544e+00 -4.47476417e-01
      -1.07656825e+00 -4.80906820e+00 -6.40083551e+00 7.60617733e-01
      8.86317921e+00 -8.66477489e-01 -7.39952743e-01 -5.36060143e+00
      -8.86286449e+00 -5.11026800e-01 6.08631420e+00 -8.24522495e-01
      -9.36839104e-01 -5.39256763e+00 -8.19179630e+00 -3.09927501e-02
      7.42558813e+00 -1.55250514e+00 -1.01033199e+00 -5.00945997e+00
      -8.06694698e+00 -6.27229884e-02 6.87732744e+00 -3.23367387e-01
      -2.28920691e-02 -5.94431353e+00 -8.77508068e+00 -1.43112689e-01
      5.17213726e+00 -1.87631440e+00 -1.24518096e+00 -3.76430035e+00
      -5.30222988e+00 2.07883477e+00 9.47710991e+00 -2.88471174e+00
      -7.19124258e-01 -2.71330261e+00 -7.06871367e+00 1.38508916e+00
      8.22360611e+00 -2.90752482e+00 -1.17203438e+00 -2.62729764e+00
      -8.74068165e+00 -2.09153116e-01 4.67483282e+00 -1.87035573e+00
      -2.08247948e+00 -2.64242101e+00 -9.48513889e+00 -1.08458567e+00
      2.38572025e+00 -1.33507645e+00 -2.36659265e+00 -2.93900228e+00
      -9.25657749e+00 -1.24296176e+00 1.76465225e+00 -1.77999496e+00
      -3.36039925e+00 -1.24061716e+00 -9.51198959e+00 -1.78760386e+00
      7.39755154e-01 -1.53417453e-01 -3.55352569e+00 -2.61979270e+00
      -9.04687786e+00 -2.28284895e-01 5.94498825e+00 -1.26214135e+00
      -1.30024922e+00 -4.12057066e+00 -9.80781937e+00 -1.25405645e+00
      2.07026172e+00 -1.26360703e+00 -2.51538157e+00 -1.93249261e+00
      -9.64838409e+00 -1.23058438e+00 2.25641227e+00 -1.46391642e+00
      -2.55615664e+00 -1.31434929e+00 -9.68100548e+00 -6.08830750e-01
      4.53162909e+00 -8.60195637e-01 -1.61466002e-01 -4.53127956e+00
      -9.12314987e+00 -4.24014390e-01 5.06117439e+00 -1.51547611e+00
      -7.68822491e-01 -3.64215517e+00 -9.95419025e+00 -2.14019966e+00
      9.55203325e-02 1.00015748e+00 -2.56513786e+00 -3.55600333e+00
      -9.76477814e+00 -1.30557823e+00 3.09648108e+00 -9.33695197e-01
      -1.70324481e+00 -2.82501340e+00 -9.98936653e+00 -2.24329138e+00
      2.63565838e-01 9.04370606e-01 -2.29645634e+00 -3.77063560e+00
      -1.00642948e+01 -1.24091613e+00 2.27957416e+00 -1.13920987e+00
      -1.81325400e+00 -2.53289056e+00 -1.01840410e+01 -2.39622951e+00
      1.25858709e-01 5.65442502e-01 -2.33456135e+00 -3.08669114e+00
      -1.02808466e+01 -2.07611179e+00 1.15635455e+00 2.83444792e-01
      -1.84160519e+00 -4.20361996e+00 -1.00182905e+01 -1.94374156e+00
      1.70905817e+00 -9.08371568e-01 -2.64103460e+00 -1.36562455e+00
      -9.88024712e+00 -1.47891772e+00 1.90154052e+00 -1.34078264e+00
      -2.41823649e+00 -1.10625851e+00 -9.93845272e+00 -1.32267380e+00
      3.33172989e+00 -3.03272065e-02 -9.80198503e-01 -5.08995819e+00
      -9.55756950e+00 -4.74571991e+00 -1.94086945e+00 2.21229225e-01
      -3.50105000e+00 -1.13336587e+00 -8.95634937e+00 -6.22184277e+00
      -2.38439274e+00 1.03172731e+00 -3.28016472e+00 -1.29406822e+00
      -9.96737003e+00 -1.65284479e+00 2.29902864e+00 -6.49605036e-01
      -2.50824976e+00 -1.81445289e+00 -9.63686275e+00 -1.41468728e+00
      3.84549785e+00 -5.59844732e-01 -1.64462280e+00 -3.10569596e+00
      -1.02202930e+01 -1.94125593e+00 6.13906384e-01 -1.26491338e-01
      -3.11532784e+00 -2.73923039e+00 -9.36352539e+00 -4.54374641e-01
      3.87755632e+00 -1.52546966e+00 -2.41636610e+00 -2.37124944e+00
      -9.60079288e+00 -1.55324769e+00 2.34750485e+00 -8.76585364e-01
      -2.74891138e+00 -2.59390259e+00 -9.97414303e+00 -1.88101459e+00
      2.32562065e+00 -2.29127750e-01 -2.36306858e+00 -2.71866107e+00
      -9.98185921e+00 -4.07013702e+00 -8.04924905e-01 -2.42259338e-01
      -3.26187968e+00 -6.38144553e-01 -9.65174007e+00 -1.42466009e+00
      2.84740448e+00 1.87789313e-02 -2.17697334e+00 -4.42662239e+00
      -9.90268707e+00 -4.04529047e+00 -1.01641321e+00 8.10320258e-01
      -3.57418871e+00 -1.52733076e+00 -9.15941620e+00 -5.13967133e+00
      -2.00503325e+00 1.30413866e+00 -3.34738088e+00 -2.03091526e+00
      -9.43589687e+00 -4.00916243e+00 -5.09454846e-01 -2.87621528e-01
      -3.65971637e+00 -7.40906179e-01 -8.20061016e+00 -4.37478018e+00
      5.91651142e-01 -1.10446513e+00 -4.58945513e+00 -2.14306459e-01
      -9.77353001e+00 -4.17235470e+00 -8.60594690e-01 5.33042490e-01
      -2.68346953e+00 -2.25475979e+00 -9.36894989e+00 -1.30517280e+00
      2.57255673e+00 -1.44475126e+00 -3.50276923e+00 -1.45349205e+00
      -9.92290497e+00 -4.55506659e+00 -1.21486747e+00 7.04848707e-01
      -3.85307050e+00 -7.12968946e-01 -1.01410723e+01 -2.40163088e+00
      1.13733399e+00 5.70119083e-01 -1.61209667e+00 -3.95939326e+00
      -1.00415173e+01 -1.64272714e+00 1.84330404e+00 -8.92857835e-02
      -2.41039133e+00 -2.65429187e+00 -9.38317394e+00 -3.49481964e+00
      3.64231318e-02 -1.01639330e+00 -3.96017551e+00 2.78414518e-01
      -9.48273373e+00 -1.48185122e+00 2.17826009e+00 -1.25140154e+00
      -2.72139955e+00 -1.07147110e+00 -1.01637545e+01 -4.13115931e+00
      -8.35402906e-01 4.58907604e-01 -2.79124522e+00 -1.86522746e+00
      -9.86058521e+00 -1.41787159e+00 3.39269471e+00 -2.36210257e-01
      -1.26092851e+00 -3.47154212e+00 -9.84877586e+00 -4.76994705e+00
      -2.10767770e+00 1.07571220e+00 -3.04892945e+00 -1.30261707e+00
      -1.00740128e+01 -2.87438345e+00 1.15964079e+00 7.97852337e-01
      -1.33736527e+00 -4.44404411e+00 -8.59879208e+00 2.73402452e-01
      6.63141060e+00 -2.57874846e+00 -1.13018870e+00 -2.42373514e+00
      -9.68944836e+00 -1.81871772e+00 2.50029230e+00 -1.33016992e+00
      -2.83184552e+00 -1.07679689e+00 -1.00942316e+01 -1.50887966e+00
      2.92617607e+00 4.35545780e-02 -1.19900417e+00 -4.67841053e+00
      -9.45644379e+00 -6.13842297e+00 -2.29940271e+00 5.20149648e-01
      -3.14831519e+00 -2.31918499e-01 -1.03184681e+01 -3.75367951e+00
      -5.10649621e-01 8.39759231e-01 -2.06772280e+00 -3.20626855e+00
      -9.25070381e+00 -5.01643515e+00 -8.34116817e-01 -4.56738174e-01
      -3.45308852e+00 -1.03752410e+00 -9.39473152e+00 -3.41131544e+00
      -3.69245447e-02 -1.66613376e+00 -3.81760836e+00 -2.32266486e-02
      -1.00783901e+01 -3.76459074e+00 6.81313276e-01 2.06434399e-01
      -2.35404444e+00 -3.21887350e+00 -9.95892239e+00 -4.38706350e+00
      -7.31444597e-01 8.70753765e-01 -2.60321593e+00 -3.28013563e+00
      -9.94800377e+00 -3.13989544e+00 1.21167505e+00 -1.46304015e-02
      -1.97268999e+00 -2.82012606e+00 -1.03590345e+01 -4.34744787e+00
      -1.12648618e+00 6.13726377e-01 -2.60258770e+00 -2.83134913e+00
      -1.03380728e+01 -3.85176086e+00 -2.42746547e-01 1.31775892e+00
      -1.06795347e+00 -5.07388353e+00 -1.00063362e+01 -3.11232495e+00
      1.96556616e+00 3.68532479e-01 -9.53438163e-01 -4.60169840e+00
      -9.56252861e+00 -9.20139134e-01 4.76845551e+00 -6.25080824e-01
      -7.29318202e-01 -4.88828945e+00 -9.90117836e+00 -4.45970726e+00
      -1.42711341e+00 1.75281262e+00 -2.54447913e+00 -3.87135458e+00
      -9.57086658e+00 -2.85475373e+00 2.51311660e+00 -1.34757161e-01
      -1.63505101e+00 -3.80096722e+00 -9.43555737e+00 -8.92127693e-01
      3.91986609e+00 -1.18434727e+00 -1.62459731e+00 -4.17050457e+00
      -9.83145142e+00 -3.21051192e+00 1.53088009e+00 -6.83083534e-02
      -1.14144218e+00 -4.11518526e+00 -9.95506763e+00 -2.06304073e+00
      1.94225252e+00 6.84270620e-01 -1.40995228e+00 -5.07740402e+00
      -9.23752975e+00 -4.83381689e-01 5.98657084e+00 -1.31518722e+00
      -6.22992888e-02 -4.89662266e+00 -9.91003895e+00 -4.12385750e+00
      -3.02231669e-01 4.13549095e-02 -1.77575898e+00 -3.42960954e+00
      -1.00346642e+01 -1.17175460e+00 3.59351850e+00 -6.00383759e-01
      2.28230227e-02 -5.40870476e+00 -9.69376945e+00 -1.24974918e+00
      4.02730560e+00 -4.74792272e-01 -3.25953126e-01 -5.01270390e+00
      -5.66436005e+00 2.64706343e-01 7.86345720e+00 -1.45268846e+00
      -2.18442535e+00 -6.36459494e+00 -9.69848824e+00 -1.54409099e+00
      3.80414867e+00 1.22045837e-01 -7.79419169e-02 -5.91274261e+00
      -8.19942570e+00 -2.79890388e-01 7.83440256e+00 -2.54397750e-01
      4.10755038e-01 -6.42497921e+00 -9.06326580e+00 -4.72693825e+00
      -1.73764065e-01 5.20900369e-01 -3.04532933e+00 -2.78319144e+00
      -8.00338268e+00 -7.14327240e+00 -9.89159584e-01 2.37088537e+00
      -1.75839603e+00 -4.93130350e+00 -1.10957890e+01 -3.08282828e+00
      2.66168445e-01 6.45228744e-01 1.51151466e+00 -7.44849062e+00
      -9.95308208e+00 -4.24358034e+00 4.43007410e-01 6.29538596e-02
      -1.32616386e-01 -4.77024412e+00 -9.77727699e+00 -6.81606960e+00
      -2.14494252e+00 1.14058769e+00 2.03645244e-01 -4.52550507e+00
      -9.95698166e+00 -1.17702770e+00 5.48064518e+00 -1.11495996e+00
      2.46694875e+00 -6.35408688e+00 -1.03790035e+01 -3.28569913e+00
      1.48702717e+00 -5.55960536e-01 8.29823732e-01 -5.17873478e+00
      -8.97043896e+00 -6.37688160e+00 -8.50697219e-01 -3.38440359e-01
      4.14839759e-02 -4.19458246e+00 -1.03719387e+01 -1.27533507e+00
      4.05769825e+00 -1.12916195e+00 2.49232674e+00 -7.25353003e+00
      -1.02123327e+01 -3.78166676e+00 8.29990447e-01 1.97607088e+00
      1.96480501e+00 -9.26797485e+00 -1.02890100e+01 -6.31890535e+00
      -2.15047383e+00 6.32595479e-01 3.37473452e-01 -4.80581951e+00
      -9.93148708e+00 -1.13598001e+00 5.39889812e+00 -9.34449315e-01
      3.10911965e+00 -7.86590958e+00 -1.11003942e+01 -2.25956821e+00
      1.71280909e+00 -2.89333284e-01 1.79885900e+00 -7.41127396e+00
      -1.11820765e+01 -4.77671480e+00 -1.35718870e+00 6.23421133e-01
      9.35302436e-01 -6.27035761e+00 -1.01155472e+01 -1.92737758e+00
      2.51355672e+00 -2.26166248e+00 4.90254641e-01 -3.73943686e+00
      -1.03890190e+01 -5.50700712e+00 -1.26517928e+00 -6.56542778e-02
      -1.76264271e-01 -4.17126513e+00 -1.07770262e+01 -3.59957886e+00
      9.01662230e-01 -3.17669898e-01 1.30425364e-01 -4.94674397e+00
      -1.09796753e+01 -4.87680292e+00 -1.03205466e+00 7.60575891e-01
      -4.19181854e-01 -4.51747227e+00 -1.07674246e+01 -4.74262857e+00
      -8.06974530e-01 7.44053364e-01 -4.65996355e-01 -5.27815342e+00
      -1.01826181e+01 -1.31368971e+00 4.70102644e+00 -1.04141355e+00
      2.13526225e+00 -6.53787947e+00 -1.08263311e+01 -3.93050218e+00
      -3.50944608e-01 1.79172623e+00 1.71580517e+00 -8.40714836e+00
      -1.10874157e+01 -5.11406231e+00 -2.31870818e+00 9.12632108e-01
      3.48401010e-01 -5.31133223e+00 -1.03967018e+01 -1.64314401e+00
      2.39798689e+00 -1.89005327e+00 1.35969535e-01 -3.69401598e+00
      -1.12189188e+01 -3.89450336e+00 -9.51607943e-01 7.13381529e-01
      7.33690798e-01 -6.16104317e+00 -1.03060617e+01 -6.26724291e+00
      -3.05605483e+00 2.43924141e+00 5.12666762e-01 -6.42703533e+00
      -1.04262037e+01 -1.56624210e+00 2.45144701e+00 -1.72416532e+00
      5.85265994e-01 -4.22076654e+00 -1.14440432e+01 -3.12847424e+00
      -2.43082568e-01 4.43809777e-01 3.38939518e-01 -5.59549522e+00
      -1.01482487e+01 -1.25528562e+00 4.40773964e+00 -1.36108530e+00
      2.09884286e+00 -5.30139971e+00 -1.13349714e+01 -2.70821810e+00
      3.51788491e-01 9.34022292e-02 7.25875080e-01 -6.08986855e+00
      -1.12284174e+01 -2.68391323e+00 1.18405747e+00 3.98738384e-02
      1.20613635e+00 -6.25939655e+00 -1.01116800e+01 -1.55769026e+00
      4.98285437e+00 -1.80857375e-01 2.32354975e+00 -7.83662081e+00
      -1.10711823e+01 -5.04653788e+00 -1.36209846e+00 7.53753483e-01
      1.81869403e-01 -5.44136190e+00 -1.09352274e+01 -4.57803011e+00
      -9.02590990e-01 1.68292415e+00 1.93171084e+00 -8.61851692e+00
      -1.08172255e+01 -2.30740094e+00 1.24930859e+00 -1.04917860e+00
      7.27415383e-01 -4.62961292e+00 -1.07771511e+01 -2.20316124e+00
      2.40514040e+00 2.64397860e-01 2.20046806e+00 -8.11996460e+00
      -1.08554325e+01 -2.60579991e+00 1.68653798e+00 7.73926616e-01
      2.09938455e+00 -8.28584671e+00 -1.06895084e+01 -2.22977090e+00
      2.87174511e+00 -3.62090617e-01 1.73089957e+00 -5.79917145e+00
      -1.02099504e+01 -6.05266380e+00 -2.93586159e+00 2.57773542e+00
      1.08178711e+00 -7.32657480e+00 -1.00777378e+01 -6.31974649e+00
      -2.88708591e+00 2.98946357e+00 1.08644807e+00 -8.12959862e+00
      -1.07570295e+01 -2.46016216e+00 1.78311813e+00 1.10541844e+00
      2.39065409e+00 -9.01664639e+00 -1.10936975e+01 -3.34746242e+00
      2.76026726e-01 4.36861962e-01 1.60464430e+00 -7.16188145e+00
      -1.08406477e+01 -4.67077637e+00 -3.38312656e-01 1.06964201e-01
      1.12890220e+00 -5.75060606e+00 -1.10387506e+01 -4.68432856e+00
      -1.15094697e+00 1.41268826e+00 1.76311493e+00 -7.74203348e+00
      -9.02729416e+00 -1.37541562e-01 7.20010281e+00 -2.60257792e+00
      2.69846249e+00 -5.46468878e+00 -1.10291166e+01 -4.93131113e+00
      -1.37106478e+00 1.13606668e+00 1.55788732e+00 -7.07521296e+00
      -1.08541021e+01 -2.89030170e+00 1.39375889e+00 1.10734546e+00
      2.56879878e+00 -9.24908733e+00 -1.07376213e+01 -2.25527310e+00
      1.54922104e+00 -9.33936119e-01 7.75207281e-01 -4.13127136e+00
      -1.07444773e+01 -3.54598713e+00 -3.52450192e-01 2.08986640e+00
      1.91649652e+00 -9.09944820e+00 -1.12452297e+01 -5.25828648e+00
      -2.52192235e+00 1.44072032e+00 6.40165925e-01 -5.89180136e+00
      -1.11686230e+01 -3.00217700e+00 4.85141665e-01 1.74333915e-01
      1.49352014e+00 -6.58376694e+00 -1.08236809e+01 -2.69426799e+00
      1.38999963e+00 1.11782897e+00 1.97717309e+00 -8.85415077e+00
      -1.08327904e+01 -2.45253491e+00 1.64511597e+00 8.15196931e-01
      2.10593462e+00 -8.74196339e+00 -1.06207380e+01 -2.62561131e+00
      1.61775160e+00 1.22225678e+00 2.27934551e+00 -9.06649017e+00
      -1.03373203e+01 -1.59557986e+00 4.49783134e+00 -3.58882219e-01
      3.14825845e+00 -8.36603260e+00 -1.12092342e+01 -3.39918852e+00
      -1.46896213e-01 7.62818977e-02 9.18661058e-01 -5.64751577e+00
      -1.12434101e+01 -5.00922632e+00 -2.34732771e+00 1.69806445e+00
      8.28330815e-01 -6.84051704e+00 -9.61312199e+00 -6.56109905e+00
      -3.03316140e+00 3.00089455e+00 8.74155045e-01 -7.74890947e+00
      -1.10619946e+01 -2.60840106e+00 1.22583044e+00 7.72861779e-01
      2.00864029e+00 -8.41392899e+00 -1.07187977e+01 -2.83291125e+00
      1.34815478e+00 1.32501137e+00 2.22347236e+00 -9.28169632e+00
      -1.09079943e+01 -4.09737206e+00 -3.37013960e-01 9.60475445e-01
      1.11600888e+00 -6.50359392e+00 -1.00157785e+01 -1.21970201e+00
      5.30444908e+00 -1.43538380e+00 2.82571459e+00 -6.40411854e+00
      -1.12021990e+01 -3.29021716e+00 2.04903603e-01 3.41087192e-01
      1.28114545e+00 -6.52796793e+00 -1.07856922e+01 -4.87477875e+00
      -1.37767768e+00 2.07534647e+00 1.74216473e+00 -8.58614540e+00
      -1.13042145e+01 -4.54843092e+00 -1.42943108e+00 9.43000376e-01
      1.05226636e+00 -6.50418854e+00 -1.01725597e+01 -5.78736496e+00
      -2.29292750e+00 2.65979028e+00 1.10500073e+00 -7.89441347e+00
      -1.05037785e+01 -1.78647828e+00 3.81228018e+00 -3.76843601e-01
      2.29194760e+00 -7.03759480e+00 -1.09280796e+01 -4.65560436e+00
      -1.30432701e+00 1.56740320e+00 1.88267756e+00 -8.13343334e+00
      -1.10896082e+01 -2.57538414e+00 1.79725957e+00 2.52679646e-01
      2.08899117e+00 -7.76418495e+00 -1.09441776e+01 -2.82059073e+00
      1.54643214e+00 -6.16258442e-01 1.38400209e+00 -5.85598373e+00
      -1.09333744e+01 -2.79136682e+00 1.33407784e+00 8.34492564e-01
      2.29149222e+00 -8.92339039e+00 -1.01177855e+01 -5.86399651e+00
      -2.15927315e+00 2.64961219e+00 1.39985859e+00 -8.61522198e+00
      -1.13598423e+01 -3.22586656e+00 7.77792558e-02 2.84961998e-01
      8.12362850e-01 -5.95943451e+00 -1.10568314e+01 -2.79460168e+00
      9.53050971e-01 7.34941304e-01 2.07163429e+00 -8.43657017e+00
      -1.09804258e+01 -4.13289452e+00 -1.16067481e+00 1.96226192e+00
      1.96895826e+00 -9.01397514e+00 -1.10451899e+01 -3.27291608e+00
      6.85527921e-02 1.62671518e+00 2.04827213e+00 -8.78971004e+00
      -1.01576014e+01 -1.47150421e+00 3.96449018e+00 -1.59024656e+00
      1.73638582e+00 -4.82476568e+00 -1.06695337e+01 -2.12344694e+00
      3.35411525e+00 1.90777630e-01 2.86626649e+00 -9.00326538e+00
      -1.01249018e+01 -7.29303265e+00 -3.69850683e+00 2.40589547e+00
      3.15438509e-01 -5.46193027e+00 -1.08982506e+01 -2.64293289e+00
      1.66240144e+00 9.83266890e-01 2.27928138e+00 -8.44708729e+00
      -1.10508795e+01 -4.74089432e+00 -1.33325446e+00 1.44935632e+00
      1.61396217e+00 -7.77545500e+00 -1.12446947e+01 -4.28963614e+00
      -6.28832519e-01 1.23104215e-01 1.03033590e+00 -5.44034243e+00
      -1.04726191e+01 -4.16866159e+00 -5.31785131e-01 2.32223225e+00
      2.07151818e+00 -9.83044338e+00 -1.02567215e+01 -1.54569614e+00
      4.71000671e+00 -6.79771900e-01 2.65076113e+00 -7.23667192e+00
      -1.11063166e+01 -3.26148224e+00 7.87515342e-01 -2.78362185e-02
      1.74446213e+00 -6.98083401e+00 1.11311893e+01 5.41581440e+00
      5.96835852e-01 -6.84889793e-01 2.78506637e+00 -1.53093886e+00
      9.25082111e+00 6.48021364e+00 1.07673430e+00 1.36151052e+00
      2.29582143e+00 -2.58932972e+00 1.20406551e+01 4.53649235e+00
      -2.51924932e-01 -2.29336357e+00 5.10092115e+00 -4.57704163e+00
      9.45773602e+00 6.45688105e+00 6.85962915e-01 9.84760940e-01
      3.43071985e+00 -4.27756739e+00 1.00364418e+01 6.71524572e+00
      9.56279039e-01 3.23254734e-01 1.22712982e+00 -3.06051159e+00
      7.41021681e+00 6.48508596e+00 1.92178178e+00 3.57941532e+00
      1.20303094e+00 -4.66262150e+00 9.57738018e+00 6.49842596e+00
      8.23522508e-01 -2.49036103e-01 8.00655603e-01 -3.32016230e+00
      8.14313889e+00 6.25053310e+00 2.76440167e+00 2.67606044e+00
      -1.09369302e+00 -3.49227929e+00 1.02899857e+01 5.03821182e+00
      3.24452591e+00 5.97968626e+00 -6.98463500e-01 -3.28827882e+00
      9.28636265e+00 4.38355684e+00 3.85281324e+00 5.46077871e+00
      8.86281252e-01 -2.68896914e+00 1.14133997e+01 5.65004969e+00
      -9.31875687e-03 -2.16548181e+00 7.64748514e-01 -4.45893621e+00
      1.13061104e+01 5.45970345e+00 1.37650645e+00 1.69637549e+00
      1.15679038e+00 -3.79617047e+00 9.84479237e+00 6.62798929e+00
      1.49069679e+00 2.33343458e+00 -1.08791554e+00 -4.90517521e+00
      1.35359020e+01 8.58596206e-01 1.83846295e+00 -1.44525087e+00
      3.07376552e+00 -2.32966137e+00 7.70274067e+00 5.96222734e+00
      3.40200162e+00 2.82705212e+00 -1.69009650e+00 -2.91098881e+00
      1.38846760e+01 -9.21282411e-01 1.62700760e+00 -5.24998605e-01
      4.08105803e+00 -1.14276361e+00 1.46004133e+01 -3.37869740e+00
      1.19518483e+00 -4.69361210e+00 3.44725633e+00 -1.00242889e+00
      1.37182255e+01 -2.06173134e+00 1.17296767e+00 -3.89043212e+00
      4.19561577e+00 -1.35128868e+00 1.51574335e+01 -2.14546227e+00
      4.04579258e+00 -3.28544998e+00 -3.57563353e+00 -7.79589272e+00
      1.35790176e+01 -4.99650300e-01 2.82192540e+00 -5.58074570e+00
      -4.70576954e+00 -7.06550741e+00 1.48534269e+01 -4.39107084e+00
      6.20371246e+00 -1.21514344e+00 -4.98639250e+00 -7.29809856e+00
      1.58506594e+01 -3.84695411e+00 5.92036104e+00 2.19378138e+00
      -4.18379354e+00 -1.13406601e+01 9.70202255e+00 3.40914994e-01
      5.53837156e+00 2.32224917e+00 -1.02045479e+01 -1.39536753e+01
      1.60163803e+01 -3.52756739e+00 4.59598351e+00 7.62448683e-02
      -5.57814693e+00 -1.40456352e+01 1.57663155e+01 -2.82156396e+00
      2.81745791e+00 -2.77614713e+00 -2.82962489e+00 -1.24560108e+01
      1.24444857e+01 -2.34716368e+00 4.42083979e+00 -1.64289260e+00
      -4.10746813e+00 -8.80485821e+00 1.34888287e+01 -1.13580141e+01
      4.06058455e+00 -4.72714615e+00 -1.12238359e+00 -4.95531130e+00
      1.52794886e+01 -1.07742891e+01 6.26725817e+00 1.08429933e+00
      -3.08433557e+00 -7.40560102e+00 1.44241171e+01 -1.16480694e+01
      5.85888338e+00 -1.13520253e+00 -3.43488145e+00 -7.18283319e+00
      1.59381342e+01 -4.24519634e+00 4.19288969e+00 2.55931473e+00
      -2.93516469e+00 -1.20378819e+01 1.59662781e+01 -7.31769180e+00
      4.40732050e+00 -4.21542376e-01 -3.45821172e-01 -6.28072929e+00
      1.49881411e+01 -9.15128517e+00 1.66902995e+00 -2.91362143e+00
      3.43105745e+00 -1.45025218e+00 1.60726624e+01 -1.27585468e+01
      5.58870077e+00 -1.83123195e+00 2.27585718e-01 -7.11751461e+00
      8.23003578e+00 -6.09109640e+00 8.29228520e-01 -7.02276754e+00
      -3.33521771e+00 -7.91687107e+00 1.57222624e+01 -8.26946354e+00
      6.62596464e+00 -2.49658719e-01 -4.04778242e+00 -7.25103521e+00
      1.47815523e+01 -7.62699080e+00 3.29233313e+00 -6.49891472e+00
      -1.51592290e+00 -4.03844547e+00 1.54881353e+01 -9.27329445e+00
      4.75399065e+00 2.54542089e+00 2.95588858e-02 -3.48295355e+00
      1.38079453e+01 -1.01875715e+01 5.19447231e+00 -3.15609962e-01
      -7.87216425e-01 -2.28638816e+00 1.34944038e+01 -7.87942839e+00
      6.26128149e+00 6.52970028e+00 -3.59370321e-01 -2.90247321e+00
      1.46672649e+01 -1.08675070e+01 6.05380487e+00 2.76372266e+00
      -1.24399221e+00 -2.86698174e+00 1.49725771e+01 -6.32945728e+00
      5.18542433e+00 2.26670384e+00 -8.79133821e-01 -5.16412401e+00
      1.23090954e+01 -4.99167919e+00 6.98361444e+00 6.96677160e+00
      -5.68843246e-01 -3.72426963e+00 1.36881170e+01 -4.05696964e+00
      6.22243357e+00 4.98515940e+00 -1.21371698e+00 -5.11062479e+00
      1.26912527e+01 -3.52145553e+00 6.03828001e+00 3.76959157e+00
      -1.67092907e+00 -4.58668470e+00 1.22449598e+01 4.63894606e-01
      5.22611713e+00 4.08034945e+00 -1.62893164e+00 -6.33182526e+00
      1.43733282e+01 -1.09258804e+01 6.79320431e+00 1.35360157e+00
      -2.09176373e+00 -2.18445063e+00 1.40824594e+01 -9.90513420e+00
      5.05804396e+00 -2.67580009e+00 -2.50391436e+00 -1.95199728e+00
      1.34552526e+01 -1.19316893e+01 5.61111689e+00 1.13191891e+00
      -2.85946846e+00 -4.18056965e+00 1.29265852e+01 -1.11628866e+01
      4.86064196e+00 2.53305864e+00 1.79395759e+00 -4.08187389e+00
      1.32046051e+01 -1.31019182e+01 6.47563314e+00 3.96802330e+00
      3.07574838e-01 -4.53905106e+00 1.58290758e+01 -1.03870583e+01
      5.39972639e+00 1.54470414e-01 -7.09165215e-01 -4.88235426e+00
      1.54813433e+01 -5.72823048e+00 1.82585692e+00 -4.62512541e+00
      -1.02714384e+00 -5.68116045e+00 1.32465935e+01 -9.44046783e+00
      7.38855028e+00 7.18375683e+00 -7.30537593e-01 -3.50137877e+00
      1.31511564e+01 -1.18014765e+01 5.00669098e+00 -1.50434041e+00
      3.08029860e-01 -2.73718143e+00 1.36002445e+01 -8.88630295e+00
      3.29943323e+00 5.12471914e+00 6.14450264e+00 -2.74366331e+00
      1.60945854e+01 -4.94964027e+00 4.25822067e+00 -3.00020313e+00
      -2.18204761e+00 -9.28942299e+00 1.65239201e+01 -1.10512009e+01
      4.64256334e+00 -4.06740379e+00 -2.36933255e+00 -5.92811441e+00
      1.57028942e+01 -1.23959579e+01 4.85235310e+00 -4.61125660e+00
      -1.71594429e+00 -7.77645445e+00 1.54752159e+01 -1.74389887e+00
      4.98877811e+00 1.57427502e+00 -3.90965939e+00 -1.13599138e+01
      1.13830910e+01 -1.37319899e+00 6.44861984e+00 2.79773784e+00
      -5.75639248e+00 -8.76066589e+00 1.62182789e+01 -9.42786598e+00
      3.92288160e+00 -2.46240115e+00 -3.46148312e-01 -6.41408014e+00
      1.58448887e+01 -1.01792603e+01 4.02591085e+00 -5.90022182e+00
      -3.09393024e+00 -4.70178986e+00 1.46962442e+01 -4.85289812e+00
      2.84120870e+00 -7.32287264e+00 -4.39148855e+00 -8.09819698e+00
      1.54285936e+01 -7.07300949e+00 2.88369346e+00 -6.07180405e+00
      -2.68778229e+00 -5.67863560e+00 1.45797729e+01 -1.08064899e+01
      2.96727848e+00 -5.10354376e+00 -3.16140741e-01 -4.78305149e+00
      1.56283989e+01 -8.77589893e+00 4.73780918e+00 1.18804204e+00
      -1.70532990e+00 -4.28127384e+00 1.43299685e+01 -1.33787317e+01
      5.36079216e+00 -1.50877440e+00 8.53601158e-01 -4.68626499e+00
      1.43194447e+01 2.31453323e+00 9.11772192e-01 -3.36400080e+00
      -2.17186117e+00 -7.74031401e+00 1.31016216e+01 -8.63550186e+00
      3.82823300e+00 -3.23223948e+00 -2.41096473e+00 -1.19587994e+00
      1.40561304e+01 -1.27880058e+01 5.46971560e+00 3.59763074e+00
      7.40110099e-01 -3.25365591e+00 1.48878756e+01 -1.21115017e+01
      4.13030910e+00 -7.64822423e-01 1.58977699e+00 -3.09145761e+00
      1.46961498e+01 -4.04336786e+00 3.87409854e+00 -6.28614187e-01
      5.06993890e-01 -4.49379253e+00 1.37593613e+01 -1.16129446e+01
      3.51707935e+00 -1.36222458e+00 3.05303454e+00 -3.01771092e+00
      1.17784319e+01 -7.57497120e+00 7.67597961e+00 7.16906786e+00
      3.10408258e+00 -4.89575958e+00 1.41545324e+01 -6.87777424e+00
      5.01143885e+00 3.14415622e+00 3.80925870e+00 -5.71469545e+00
      1.39540377e+01 -9.25722694e+00 5.42622709e+00 -2.47594619e+00
      -1.40481460e+00 -5.48032665e+00 1.55381365e+01 -7.30149841e+00
      2.68063998e+00 -7.04804230e+00 -5.44442713e-01 -6.36397934e+00
      1.50629253e+01 -1.06463881e+01 5.81550026e+00 -1.35702193e+00
      -3.97023946e-01 -3.72446346e+00 1.14946795e+01 4.73531097e-01
      4.35944605e+00 -2.07809830e+00 -4.96556425e+00 -7.47065592e+00
      1.23309107e+01 2.45279980e+00 2.73237801e+00 -1.71874452e+00
      -5.22072983e+00 -9.10396957e+00 6.73169470e+00 3.63481283e+00
      3.33324790e+00 6.44839108e-01 -6.11499453e+00 -9.85772419e+00
      1.23570852e+01 1.89044249e+00 3.91165471e+00 4.12196302e+00
      -5.37452507e+00 -1.08301878e+01 1.29730597e+01 2.94308394e-01
      3.48386335e+00 -1.29801393e+00 -6.48327971e+00 -1.02342014e+01
      1.60267735e+01 -9.61087036e+00 3.97173095e+00 -1.84201598e+00
      1.51583815e+00 -9.42438793e+00 1.59991894e+01 -2.07097602e+00
      3.93702388e+00 1.45324075e+00 -4.45974261e-01 -1.16816864e+01
      1.25012293e+01 9.88417685e-01 3.87254047e+00 1.51948288e-01
      -4.13822317e+00 -1.07331219e+01 1.55899258e+01 -8.73870277e+00
      5.28497648e+00 -1.32210076e+00 -1.15247047e+00 -6.36294651e+00
      1.06109505e+01 3.19653535e+00 3.95922041e+00 5.00112152e+00
      -4.82082081e+00 -8.75235176e+00 1.64791336e+01 -4.50133514e+00
      3.10324955e+00 -1.32734895e+00 1.01413822e+00 -4.23559427e+00
      1.57888031e+01 -3.68860769e+00 3.53018451e+00 1.16741610e+00
      -8.89074326e-01 -5.75740671e+00 1.45055685e+01 -3.69063425e+00
      4.07651997e+00 -1.94022560e+00 2.67511845e-01 -4.15341949e+00
      1.59370422e+01 -7.63321543e+00 3.85440421e+00 -2.59804058e+00
      -1.34531665e+00 -3.98321581e+00 1.66904030e+01 -7.78277826e+00
      4.12497425e+00 -1.29298115e+00 -7.48746753e-01 -5.85829830e+00
      1.48546295e+01 -1.00617275e+01 2.94768238e+00 2.81217265e+00
      2.48589253e+00 -5.36943913e+00 1.40560684e+01 -1.12673006e+01
      6.77885580e+00 1.21061647e+00 -2.07810473e+00 -1.85049438e+00
      1.50125027e+01 -1.06767597e+01 4.86560917e+00 5.48482752e+00
      4.30524737e-01 -4.06981421e+00 1.47076807e+01 -3.80295134e+00
      3.09749603e+00 3.19954681e+00 8.64229918e-01 -3.31193542e+00
      1.16728210e+01 -1.06772442e+01 6.92150354e+00 5.33082676e+00
      6.51310802e-01 -1.67523432e+00 1.17438784e+01 -5.15956497e+00
      6.92420006e+00 4.80293751e+00 -4.12433892e-01 -2.21497941e+00
      1.42188148e+01 -7.76426125e+00 5.90355968e+00 5.20011616e+00
      1.23927665e+00 -4.35401154e+00 1.43455582e+01 -8.18731213e+00
      1.32745242e+00 1.32313573e+00 5.93515921e+00 -5.40473175e+00
      1.56483822e+01 -5.86271000e+00 3.78221321e+00 -1.74811050e-01
      -1.42100155e+00 -1.08796206e+01 1.65987301e+01 -1.00698252e+01
      3.94735408e+00 2.31392868e-02 -1.15194350e-01 -9.83521652e+00
      1.55182447e+01 -1.14738674e+01 3.07512689e+00 -5.60533142e+00
      5.96989036e-01 -4.94068623e+00 1.61846561e+01 -1.20822258e+01
      5.02625847e+00 2.57172555e-01 -6.50037408e-01 -4.70674086e+00
      1.40432930e+01 -1.32414713e+01 5.79683399e+00 -5.31210959e-01
      -1.17249429e+00 -4.75187397e+00 1.27776594e+01 -1.08901691e+01
      5.95207834e+00 6.93816090e+00 3.02315950e-01 -2.27373624e+00
      1.66826782e+01 -1.00493898e+01 4.18065596e+00 -1.70576632e+00
      1.20505821e-02 -4.23076057e+00 1.48392038e+01 -1.28476992e+01
      5.93951607e+00 1.39813387e+00 -1.26466143e+00 -3.33183861e+00
      1.60466251e+01 -6.77300835e+00 2.52405381e+00 -5.89963818e+00
      -8.56432736e-01 -4.32938623e+00 1.35923271e+01 -1.04759111e+01
      6.16379356e+00 2.66145587e+00 -1.44006419e+00 -1.57506394e+00
      1.62043190e+01 -6.67514610e+00 2.68425250e+00 -3.50795984e+00
      3.56149152e-02 -4.22016573e+00 1.61013126e+01 -4.43502998e+00
      2.58659554e+00 -2.50338697e+00 -1.17315102e+00 -3.44197726e+00
      1.46862459e+01 -1.79985178e+00 2.87350702e+00 -2.80237126e+00
      -1.32382107e+00 -4.59767294e+00 1.14931612e+01 2.67966771e+00
      2.74396682e+00 -2.60729861e+00 -2.79980731e+00 -5.85437155e+00
      1.38185987e+01 -4.03346300e+00 3.23390961e+00 -5.77729225e+00
      -1.48117280e+00 -3.81556201e+00 1.36402359e+01 -9.41207504e+00
      4.74969912e+00 -2.11772490e+00 -1.21451128e+00 -9.17710781e-01
      1.40901194e+01 -6.16079664e+00 3.28313041e+00 -5.32664394e+00
      -2.66751313e+00 -1.46367764e+00 1.25729275e+01 -1.10582247e+01
      4.85086107e+00 3.28652883e+00 2.07398987e+00 -3.45632958e+00
      1.48745041e+01 -9.09025860e+00 3.51677060e+00 -6.43643856e-01
      3.16894740e-01 -2.41679120e+00 1.51751013e+01 -9.01773357e+00
      2.27038217e+00 -5.17185163e+00 -1.29717636e+00 -3.54820204e+00
      1.59533787e+01 -4.13343382e+00 3.22911215e+00 -2.21594989e-01
      -1.15603673e+00 -1.03739309e+01 1.52958450e+01 -3.54141736e+00
      3.74804878e+00 -2.81594253e+00 1.29745054e+00 -1.07936068e+01
      1.61268864e+01 -9.37956905e+00 2.52448940e+00 -4.83071899e+00
      2.27521229e+00 -8.45022011e+00 1.61484947e+01 -9.40528870e+00
      4.41711140e+00 1.22178376e+00 2.71856117e+00 -7.86236811e+00
      1.59416208e+01 -7.82366514e+00 1.59626007e+00 -5.81294823e+00
      1.03431845e+00 -8.06035900e+00 1.43057737e+01 -3.18182158e+00
      4.40004444e+00 -5.75341463e-01 -6.89115405e-01 -9.25322151e+00
      1.46391287e+01 -7.78973198e+00 5.46672249e+00 2.17032886e+00
      7.94063747e-01 -6.43587017e+00 1.63543720e+01 -9.67039680e+00
      3.73744535e+00 -2.08515406e+00 2.14205837e+00 -7.04666185e+00
      9.42438889e+00 7.39789546e-01 4.60195112e+00 2.42748451e+00
      -1.79269838e+00 -3.59903312e+00 1.34917221e+01 1.71697700e+00
      1.14171934e+00 -4.12347507e+00 -9.93031085e-01 -4.67743778e+00
      1.28977766e+01 2.30570006e+00 1.93628109e+00 1.93287754e+00
      2.18427920e+00 -5.50056982e+00 1.40078936e+01 -5.68876076e+00
      4.61367178e+00 6.64284754e+00 4.12750530e+00 -3.16093993e+00
      1.16744318e+01 -3.54169703e+00 7.00105286e+00 8.46657944e+00
      1.88445568e+00 -4.90723753e+00 5.44943810e+00 1.43013644e+00
      6.06697845e+00 8.58093166e+00 -2.06277084e+00 -6.23761606e+00
      1.45531368e+01 -4.72702980e+00 5.38525820e+00 4.43600130e+00
      2.01866031e+00 -2.90782189e+00 1.38018131e+01 -1.73929250e+00
      4.53501272e+00 3.08853340e+00 1.67915440e+00 -2.57462978e+00
      1.54828329e+01 -4.17825699e+00 1.51948392e+00 -4.78585386e+00
      8.29285681e-01 -1.70075941e+00 1.59475412e+01 -2.56507087e+00
      8.52177918e-01 -4.77460241e+00 2.64427185e+00 -2.52528262e+00
      1.18910446e+01 4.50652313e+00 1.89191675e+00 -3.05545092e-01
      -8.42734694e-01 -5.07736349e+00 1.50184050e+01 -7.31740618e+00
      3.32811999e+00 -3.61084723e+00 1.53409719e+00 -2.23680186e+00
      1.26412096e+01 3.10274887e+00 4.88619685e-01 -4.63622427e+00
      1.76552570e+00 -5.25553465e+00 1.44581938e+01 -3.62345791e+00
      2.39397955e+00 2.11127687e+00 4.45939445e+00 -2.35786104e+00
      1.34221220e+01 -2.70809436e+00 2.94014096e+00 4.86020851e+00
      5.77726650e+00 -4.71431923e+00 7.71711206e+00 3.58050108e+00
      4.03272963e+00 5.89153624e+00 3.47003162e-01 -4.96555042e+00
      1.32897511e+01 4.68068630e-01 2.47669053e+00 3.95955443e-01
      3.35900974e+00 -3.52601528e+00 1.21932049e+01 3.51009727e+00
      1.06794643e+00 -1.50132215e+00 1.15768933e+00 -2.99556613e+00
      1.26624680e+01 2.07790899e+00 1.41581154e+00 -1.79805839e+00
      2.68952394e+00 -2.09399152e+00 1.21566849e+01 4.69184160e+00
      1.31548494e-02 -6.15847051e-01 2.79232979e+00 -3.69777369e+00
      1.39650564e+01 -1.90330815e+00 -8.12742352e-01 -4.14016581e+00
      6.28956842e+00 -3.08991218e+00 1.11210241e+01 5.54313564e+00
      1.70774472e+00 2.14916515e+00 1.05763161e+00 -4.75121164e+00
      8.58398819e+00 5.37719488e+00 3.18538547e+00 4.66745138e+00
      1.78347230e-01 -3.51695275e+00 1.17720900e+01 5.23301172e+00
      9.86053109e-01 -3.53397846e-01 7.53025830e-01 -3.82636213e+00
      1.26165962e+01 4.20587683e+00 3.51384848e-01 -4.17445469e+00
      9.90737557e-01 -4.88134146e+00 1.34393215e+01 2.49505496e+00
      1.82362109e-01 -4.43995428e+00 3.67696524e+00 -4.40468264e+00
      9.55730915e+00 5.79463196e+00 1.83072853e+00 -1.39091194e-01
      4.06932123e-02 -3.88215613e+00 1.26764956e+01 2.79863191e+00
      5.17654836e-01 -4.44680119e+00 2.10242581e+00 -3.59065056e+00
      1.20377178e+01 4.27371979e+00 1.00191188e+00 -3.09625864e+00
      1.29838169e+00 -4.66020346e+00 1.16187859e+01 4.80038977e+00
      1.46040308e+00 -1.47206974e+00 7.14825630e-01 -4.27547836e+00
      9.78323650e+00 6.31296539e+00 1.09449029e+00 -2.38907576e+00
      -1.05298150e+00 -4.81062555e+00 1.02789164e+01 4.91783047e+00
      1.30301881e+00 -3.79503775e+00 9.86243486e-02 -4.35264921e+00
      7.74289560e+00 6.15889978e+00 3.33653617e+00 2.80855155e+00
      -3.08731246e+00 -5.30294752e+00 1.26052418e+01 3.13752627e+00
      1.70589232e+00 -1.82757473e+00 2.40602183e+00 -4.17358637e+00
      1.11231995e+01 5.16248417e+00 2.77704954e+00 2.95653152e+00
      3.30281496e-01 -5.07879877e+00 1.27779913e+01 2.57713437e+00
      1.84604084e+00 -3.92969823e+00 -1.34910792e-01 -3.38182306e+00
      8.92278004e+00 6.56937122e+00 2.43541718e+00 6.22331858e-01
      -1.75281608e+00 -4.59281063e+00 8.82992268e+00 2.83101845e+00
      4.38334799e+00 6.83842897e+00 7.89067507e-01 -4.04981852e+00
      1.35811005e+01 -1.13436854e+00 1.70794988e+00 -5.47078753e+00
      2.92025876e+00 -2.49516177e+00 1.09686537e+01 3.14567590e+00
      3.27714300e+00 1.28679204e+00 1.71738970e+00 -2.58666587e+00
      9.29382229e+00 4.36958122e+00 3.99763036e+00 5.24157047e+00
      -1.91088244e-01 -4.28904629e+00 1.10404196e+01 5.18883896e+00
      2.01643586e+00 4.26068246e-01 3.49174857e-01 -3.92178774e+00
      1.14000473e+01 5.37767363e+00 1.25821316e+00 -2.66936517e+00
      -5.15465021e-01 -4.24324465e+00 1.15416079e+01 4.07720661e+00
      2.37327218e+00 7.58832037e-01 7.62475193e-01 -3.43636203e+00
      8.75370502e+00 6.18443727e+00 3.04161692e+00 4.10837126e+00
      -3.59893227e+00 -4.95906496e+00 1.26651602e+01 -1.63181126e+00
      4.25656605e+00 6.03367519e+00 1.37021255e+00 -1.94712853e+00
      1.17630730e+01 3.13597441e+00 3.69496226e+00 2.06447387e+00
      5.57618976e-01 -2.86621261e+00 1.22147655e+01 2.65473294e+00
      3.37426186e+00 3.61936045e+00 3.75695616e-01 -3.32907319e+00
      1.26883812e+01 7.32270181e-01 3.17697001e+00 4.23999262e+00
      1.77558875e+00 -3.05740285e+00 9.35508728e+00 6.28751421e+00
      3.01287627e+00 1.91207051e+00 -2.92702127e+00 -3.83480263e+00
      1.15653000e+01 4.78460646e+00 1.82100952e+00 -7.99392983e-02
      -8.15765798e-01 -4.88731050e+00 1.15627232e+01 5.60985851e+00
      1.87284839e+00 7.70770192e-01 -1.08039165e+00 -4.45800638e+00
      6.25733614e+00 6.21235991e+00 2.41152263e+00 3.55934834e+00
      6.20679371e-03 -4.97067976e+00 1.05983696e+01 6.26583481e+00
      1.95811525e-01 -3.74411464e+00 3.67622077e-01 -4.89915705e+00
      8.89900970e+00 6.34776115e+00 2.29036927e+00 -2.50184387e-01
      -4.03299475e+00 -5.37591505e+00 1.04434595e+01 6.21054602e+00
      1.52348328e+00 -2.52618313e-01 -2.77604580e+00 -5.64962196e+00
      9.68504143e+00 6.91528511e+00 1.58820534e+00 5.33878922e-01
      -2.78756690e+00 -6.17781925e+00 1.08971720e+01 5.62342978e+00
      2.85066724e+00 2.93489003e+00 -2.04447770e+00 -5.75689745e+00
      1.47283249e+01 5.69489777e-01 3.30019903e+00 2.19508672e+00
      1.72557116e+00 -5.48705912e+00 1.38264847e+01 3.24870062e+00
      1.05175626e+00 -1.65463519e+00 -6.41269460e-02 -7.03995562e+00
      1.21683712e+01 4.57505369e+00 2.04293489e+00 3.08332801e-01
      -2.73261476e+00 -8.02904892e+00 1.21211014e+01 3.67468429e+00
      2.48076487e+00 1.57090330e+00 -2.23687720e+00 -8.78979111e+00
      1.00316820e+01 5.17624187e+00 2.98276639e+00 1.28655171e+00
      -4.98596096e+00 -7.71638203e+00 1.39973621e+01 2.39253736e+00
      2.35380149e+00 -4.92248803e-01 -4.93125886e-01 -7.03584814e+00
      9.90329742e+00 5.79382038e+00 2.43285418e+00 1.25887096e+00
      -4.02404928e+00 -7.48747873e+00 9.74148846e+00 6.49587154e+00
      2.44468689e+00 2.47246647e+00 -2.57318759e+00 -5.57562494e+00
      1.06649036e+01 4.29886723e+00 3.71359539e+00 4.86993837e+00
      -1.07320571e+00 -5.27453709e+00 1.00045843e+01 5.67177153e+00
      2.90830374e+00 3.18034601e+00 -1.57855463e+00 -4.74288702e+00
      9.55749702e+00 3.83552885e+00 4.34660721e+00 5.84410238e+00
      -1.39208424e+00 -4.83245516e+00 8.61509895e+00 6.68791008e+00
      2.11390352e+00 9.95281160e-01 -2.54556966e+00 -5.47445154e+00
      9.27724934e+00 5.64966345e+00 3.28014946e+00 4.08973122e+00
      -1.10329545e+00 -5.16517782e+00 6.95034790e+00 6.32060003e+00
      2.36101103e+00 -2.72708130e+00 -5.14843273e+00 -5.65478849e+00
      6.08911276e+00 6.30052996e+00 2.53244638e+00 -2.51657295e+00
      -5.17986298e+00 -5.77354193e+00 1.06935921e+01 2.82736945e+00
      4.77423906e+00 1.82091904e+00 -2.93209910e+00 -2.99678302e+00
      1.21173649e+01 3.24186826e+00 3.30945659e+00 1.99161434e+00
      -1.28768182e+00 -3.86931086e+00 1.16023350e+01 4.74007750e+00
      2.21377349e+00 -7.82767296e-01 -1.87929428e+00 -3.99592233e+00
      1.20381145e+01 7.62886047e-01 4.52261209e+00 3.79222012e+00
      1.81116909e-01 -2.79106736e+00 1.22344646e+01 4.99293232e+00
      1.08226955e+00 -2.62650442e+00 -2.28078055e+00 -4.94889355e+00
      1.15749044e+01 5.42457342e+00 2.51777411e+00 1.82210338e+00
      2.75475830e-02 -2.71892762e+00 1.04363995e+01 3.84129596e+00
      2.17433882e+00 -2.93330216e+00 -4.08607155e-01 -1.74195313e+00
      1.33325911e+01 -5.96160841e+00 3.27720237e+00 5.50560713e+00
      6.87248659e+00 -3.31657934e+00 1.34532022e+01 -2.80224061e+00
      1.78091204e+00 2.26913118e+00 6.93583775e+00 -3.23365068e+00
      1.25371609e+01 -3.21328998e+00 2.07353592e+00 -6.04946971e-01
      6.85449266e+00 -2.03683853e+00 1.29010115e+01 -6.39080524e+00
      2.55352736e-01 -8.26173306e+00 6.43073988e+00 -2.73671460e+00
      1.38523140e+01 1.46594214e+00 3.63470459e+00 6.15311027e-01
      -1.90311468e+00 -4.07825232e+00 1.35818892e+01 2.00813723e+00
      4.30534124e+00 5.54380894e+00 -1.27768099e+00 -4.56646442e+00
      1.37407722e+01 2.70705318e+00 3.07163763e+00 8.40699196e-01
      -1.06933868e+00 -4.01393747e+00 1.60430431e+01 -6.99555397e+00
      3.83106160e+00 5.48565447e-01 8.06274891e-01 -3.93679738e+00
      1.43236475e+01 -2.76665986e-01 2.63644505e+00 -2.74993688e-01
      6.14375949e-01 -4.31867743e+00 8.94416618e+00 6.06959772e+00
      2.28449845e+00 3.13388515e+00 1.89582789e+00 -3.70438814e+00
      1.27903204e+01 2.32948732e+00 7.98880160e-02 -7.21243525e+00
      3.83117008e+00 -4.53208637e+00 1.20022640e+01 4.50248528e+00
      -6.59755290e-01 -6.27768898e+00 3.14216185e+00 -6.26807976e+00
      1.32303619e+01 2.79201961e+00 3.82818073e-01 -4.26978254e+00
      4.64997292e+00 -4.65738916e+00 1.19283962e+01 4.55988121e+00
      8.45076680e-01 -1.72542787e+00 3.41422462e+00 -4.13233232e+00
      1.26063223e+01 2.61606073e+00 2.19972777e+00 -1.00555122e+00
      3.15259695e+00 -2.91868448e+00 1.36591606e+01 1.58674777e+00
      1.17749619e+00 -2.83960199e+00 5.08531904e+00 -3.83265090e+00
      1.34969120e+01 2.08939576e+00 5.18677890e-01 -5.02520609e+00
      2.90566134e+00 -5.57600260e+00 8.74898624e+00 1.03165078e+00
      -1.20077872e+00 -6.06090069e+00 1.75733119e-01 -5.43203545e+00
      7.74994183e+00 -1.49859869e+00 -2.03714538e+00 1.65796831e-01
      5.64471960e+00 -4.34141111e+00 1.62546425e+01 -6.12902927e+00
      1.92389524e+00 -1.25972927e+00 9.32717383e-01 -9.43501091e+00
      1.61662979e+01 -6.65978003e+00 3.95200521e-01 5.66939488e-02
      7.87446946e-02 -8.78100109e+00 1.39406013e+01 -1.39668190e+00
      2.24255085e+00 -6.33495617e+00 -3.93459868e+00 -8.68624783e+00
      1.36879492e+01 -1.71445513e+00 2.66258097e+00 -4.03202629e+00
      -3.38953829e+00 -6.08309364e+00 1.30143166e+01 9.25641358e-01
      2.59514618e+00 -3.49774957e+00 -3.68394423e+00 -8.01959229e+00
      1.42577190e+01 4.28732842e-01 2.87915277e+00 -4.55246150e-01
      -2.35552311e+00 -5.60890818e+00 1.54069786e+01 -1.84747088e+00
      3.53452992e+00 1.92159021e+00 2.38064498e-01 -4.68836117e+00
      1.35054398e+01 2.31221414e+00 2.64778113e+00 7.07812071e-01
      -2.83384895e+00 -7.57204008e+00 1.71613388e+01 -4.31940985e+00
      1.35558665e-01 -4.50883198e+00 4.69061315e-01 -6.66433144e+00
      1.60313625e+01 -4.13663960e+00 1.66733551e+00 -2.42007232e+00
      5.83149612e-01 -5.57663441e+00 1.55837011e+01 -3.00669909e+00
      1.20614374e+00 -2.56550169e+00 1.63919568e+00 -5.11391163e+00
      8.68703842e+00 5.09323311e+00 2.70192480e+00 4.82717228e+00
      2.44594479e+00 -6.83866405e+00 9.59698391e+00 6.35611200e+00
      5.06890059e-01 1.20848536e+00 2.00521803e+00 -6.29183340e+00
      9.71348095e+00 5.95135880e+00 1.39816606e+00 3.25805879e+00
      1.66007376e+00 -7.14876890e+00 8.94498920e+00 5.54278374e+00
      1.59409165e+00 8.57011199e-01 1.01726758e+00 -6.15846252e+00
      1.08214254e+01 4.96930456e+00 1.20887125e+00 2.30862999e+00
      2.43670225e+00 -6.29931355e+00 1.29985237e+01 1.50283587e+00
      2.27079105e+00 5.66303611e-01 5.46365595e+00 -4.44872618e+00
      1.39803696e+01 3.49748731e+00 -1.35305271e-01 -3.06335735e+00
      3.58616281e+00 -5.76230145e+00 8.93364334e+00 4.81087875e+00
      2.29492760e+00 4.47457075e+00 3.24639058e+00 -7.57066870e+00
      1.29440079e+01 4.67723370e+00 -4.35930014e-01 -3.98470592e+00
      3.31935430e+00 -6.42397690e+00 1.31031494e+01 4.22071409e+00
      -2.98184335e-01 -3.99428892e+00 3.43579698e+00 -5.05791998e+00
      1.18288832e+01 5.79287148e+00 -2.42459178e-01 -4.41904449e+00
      2.96941757e-01 -5.83407354e+00 1.05669231e+01 6.51864767e+00
      5.06788492e-01 -1.29322183e+00 8.50490332e-01 -4.92967367e+00
      1.22741261e+01 4.47133589e+00 5.27524054e-02 -5.38191319e+00
      1.88121402e+00 -4.68442440e+00 1.24565477e+01 4.10798883e+00
      -3.78772438e-01 -5.83390474e+00 4.14002943e+00 -5.77588701e+00
      1.25370378e+01 4.08656311e+00 -2.48246104e-01 -6.04804134e+00
      3.18911386e+00 -6.73234320e+00 1.25878525e+01 4.27284336e+00
      -2.58387715e-01 -3.52496958e+00 2.63826323e+00 -7.38722563e+00
      1.62222328e+01 -7.52791500e+00 3.53992414e+00 2.98262358e+00
      3.37944007e+00 -8.55160236e+00 1.14725237e+01 3.50402045e+00
      4.03643990e+00 7.61694956e+00 -1.71356308e+00 -5.04214048e+00
      1.14843359e+01 5.24140263e+00 3.13469386e+00 3.05629849e+00
      -2.17175317e+00 -4.30609798e+00 1.16815052e+01 4.04661322e+00
      3.61847401e+00 4.55737114e+00 -4.50067669e-01 -4.31186390e+00
      1.54041681e+01 1.03464043e+00 2.10482717e+00 -2.23616123e+00
      -7.84505188e-01 -7.57655334e+00 1.56114664e+01 -1.98009956e+00
      3.82396793e+00 1.79168093e+00 -5.28282106e-01 -6.03973484e+00
      9.90247822e+00 1.75314963e+00 4.51823044e+00 4.98824596e+00
      1.01364386e+00 -1.48135281e+00 1.06178675e+01 2.05960011e+00
      4.37137794e+00 4.40464735e+00 1.79340303e+00 -1.29610074e+00
      1.01665716e+01 4.52041149e+00 3.11050701e+00 2.93844867e+00
      2.15851426e-01 -1.86949980e+00 1.17180166e+01 5.68457794e+00
      1.26020300e+00 7.58349359e-01 9.48210955e-01 -2.94976807e+00
      1.14239559e+01 6.17910051e+00 5.77179551e-01 -2.00328970e+00
      1.35739899e+00 -3.46376348e+00 1.27351694e+01 1.96583927e+00
      3.43451738e+00 3.89852166e+00 3.37992239e+00 -2.22034979e+00
      1.35348768e+01 1.29264072e-01 2.50485396e+00 1.02158725e+00
      4.52032804e+00 -1.17169464e+00 9.59322357e+00 4.78281355e+00
      3.43110108e+00 5.89344645e+00 5.92000008e-01 -3.74174786e+00
      1.35864944e+01 -1.67867947e+00 1.89944410e+00 2.05150938e+00
      6.09800339e+00 -9.27321017e-01 1.33333740e+01 -3.23441100e+00
      4.92621803e+00 6.60899115e+00 1.57297885e+00 -4.99255705e+00
      1.05814915e+01 3.85806346e+00 3.83070111e+00 5.54426336e+00
      -1.55268323e+00 -5.29653597e+00 1.41031847e+01 -3.39012194e+00
      4.29196167e+00 4.48817587e+00 1.91280520e+00 -2.45424080e+00
      1.39959660e+01 -9.42081571e-01 2.34887910e+00 1.81456852e+00
      5.24272394e+00 -6.13502312e+00 1.40154276e+01 8.03012013e-01
      -4.78133321e-01 7.77655602e-01 3.81620407e+00 -8.93606663e+00
      1.64827023e+01 -7.24092007e+00 3.21728086e+00 1.45095873e+00
      1.74538696e+00 -6.70516539e+00 1.47202129e+01 -2.37417126e+00
      3.97422981e+00 3.57302451e+00 1.76580119e+00 -6.34386301e+00
      1.50213766e+01 -4.39916754e+00 2.72345448e+00 -1.12105072e+00
      1.06964874e+00 -1.96468031e+00 1.29725952e+01 2.21914506e+00
      2.73849511e+00 1.07363081e+00 -1.50290263e+00 -4.38159704e+00
      1.45770769e+01 1.41326833e+00 1.72558689e+00 -1.71396255e+00
      2.98475355e-01 -5.45412111e+00 1.57151146e+01 -1.81703186e+00
      6.41351163e-01 -4.88143921e+00 2.40996265e+00 -5.76516104e+00
      1.54817352e+01 -2.47743034e+00 2.59902072e+00 6.14050515e-02
      1.30957484e+00 -5.01174402e+00 1.43468027e+01 -5.41312277e-01
      2.82457447e+00 -1.14680421e+00 1.26605380e+00 -4.25134420e+00
      1.32541790e+01 -1.19338739e+00 3.70113969e+00 3.08688903e+00
      1.69322753e+00 -4.28683758e+00 1.40075960e+01 -2.30450821e+00
      2.48295832e+00 1.20693171e+00 1.81325400e+00 -3.39847469e+00
      8.57434559e+00 5.37099218e+00 1.38555586e+00 -3.17136812e+00
      -4.91235209e+00 -6.17143965e+00 9.74891186e+00 6.01030588e+00
      2.13163471e+00 3.81543040e-01 -4.44617796e+00 -5.93420458e+00
      1.25974264e+01 4.38930368e+00 1.28224027e+00 -3.04357934e+00
      -2.00218415e+00 -4.52992010e+00 1.53914137e+01 2.03333640e+00
      6.98398948e-01 -3.60382557e+00 4.94686842e-01 -6.42780972e+00
      1.54610462e+01 -3.95146012e+00 5.26581287e-01 -2.97771645e+00
      3.09408975e+00 -5.42988634e+00 1.43291655e+01 1.08738387e+00
      1.54093027e+00 -4.29380035e+00 -7.75638878e-01 -7.56923962e+00
      1.56841812e+01 -5.40972328e+00 1.30603802e+00 -2.18769884e+00
      3.17538476e+00 -5.70318842e+00 1.53324604e+01 -4.61632061e+00
      1.93407968e-01 -6.59507418e+00 3.07560921e+00 -6.24975348e+00
      1.55897675e+01 -8.63166094e-01 2.59955692e+00 -5.91574252e-01
      1.47177291e+00 -9.02538586e+00 1.38650694e+01 1.49825537e+00
      1.56630480e+00 -3.06579876e+00 1.18688679e+00 -8.66601753e+00
      1.47823992e+01 2.11958194e+00 1.60804498e+00 -1.68124366e+00
      1.26074517e+00 -7.51325274e+00 1.33486137e+01 5.06261230e-01
      3.49278450e+00 -4.79909897e-01 9.09946501e-01 -3.40560365e+00
      1.05008097e+01 6.10790920e+00 1.50271451e+00 -7.98966944e-01
      -9.58880067e-01 -6.22613335e+00 1.02847233e+01 5.93828964e+00
      1.84773791e+00 1.22169590e+00 -1.55286658e+00 -6.81117773e+00</data></samples>
  <responses type_id="opencv-matrix">
    <rows>598</rows>
    <cols>1</cols>
    <dt>f</dt>
    <data>
      0. 0. 0. 0. 0. 0. 0. 0. 0. 0. 0. 0. 0. 0. 0. 0. 0. 0. 0. 0. 0. 0.
      0. 0. 0. 0. 0. 0. 0. 0. 0. 0. 0. 0. 0. 0. 0. 0. 0. 0. 0. 0. 0. 0.
      0. 0. 0. 0. 0. 0. 0. 0. 0. 0. 0. 0. 0. 0. 0. 0. 0. 0. 0. 0. 0. 0.
      0. 0. 0. 0. 0. 0. 0. 0. 0. 0. 0. 0. 0. 0. 0. 0. 0. 0. 0. 0. 0. 0.
      0. 0. 0. 0. 0. 0. 0. 0. 0. 0. 0. 0. 0. 0. 0. 0. 0. 0. 0. 0. 0. 0.
      0. 0. 0. 0. 0. 0. 0. 0. 0. 0. 0. 0. 0. 0. 0. 0. 0. 0. 0. 0. 0. 0.
      0. 0. 0. 0. 0. 0. 0. 0. 0. 0. 0. 0. 0. 0. 0. 0. 0. 0. 0. 0. 0. 0.
      0. 0. 0. 0. 0. 0. 0. 0. 0. 0. 0. 0. 0. 0. 0. 0. 0. 0. 0. 0. 0. 0.
      0. 0. 0. 0. 0. 0. 0. 0. 0. 0. 0. 0. 0. 0. 0. 0. 0. 0. 0. 0. 0. 0.
      0. 0. 0. 0. 0. 0. 0. 0. 0. 0. 0. 0. 0. 0. 0. 0. 0. 0. 0. 0. 0. 0.
      0. 0. 0. 0. 0. 0. 0. 0. 0. 0. 0. 0. 0. 0. 0. 0. 0. 0. 0. 0. 0. 0.
      0. 0. 0. 0. 0. 0. 0. 0. 0. 0. 0. 0. 0. 0. 0. 0. 0. 0. 0. 0. 0. 0.
      0. 0. 0. 0. 0. 0. 0. 0. 0. 0. 0. 0. 0. 0. 0. 0. 0. 0. 0. 0. 0. 0.
      0. 0. 0. 0. 0. 0. 0. 0. 0. 0. 0. 0. 0. 1. 1. 1. 1. 1. 1. 1. 1. 1.
      1. 1. 1. 1. 1. 1. 1. 1. 1. 1. 1. 1. 1. 1. 1. 1. 1. 1. 1. 1. 1. 1.
      1. 1. 1. 1. 1. 1. 1. 1. 1. 1. 1. 1. 1. 1. 1. 1. 1. 1. 1. 1. 1. 1.
      1. 1. 1. 1. 1. 1. 1. 1. 1. 1. 1. 1. 1. 1. 1. 1. 1. 1. 1. 1. 1. 1.
      1. 1. 1. 1. 1. 1. 1. 1. 1. 1. 1. 1. 1. 1. 1. 1. 1. 1. 1. 1. 1. 1.
      1. 1. 1. 1. 1. 1. 1. 1. 1. 1. 1. 1. 1. 1. 1. 1. 1. 1. 1. 1. 1. 1.
      1. 1. 1. 1. 1. 1. 1. 1. 1. 1. 1. 1. 1. 1. 1. 1. 1. 1. 1. 1. 1. 1.
      1. 1. 1. 1. 1. 1. 1. 1. 1. 1. 1. 1. 1. 1. 1. 1. 1. 1. 1. 1. 1. 1.
      1. 1. 1. 1. 1. 1. 1. 1. 1. 1. 1. 1. 1. 1. 1. 1. 1. 1. 1. 1. 1. 1.
      1. 1. 1. 1. 1. 1. 1. 1. 1. 1. 1. 1. 1. 1. 1. 1. 1. 1. 1. 1. 1. 1.
      1. 1. 1. 1. 1. 1. 1. 1. 1. 1. 1. 1. 1. 1. 1. 1. 1. 1. 1. 1. 1. 1.
      1. 1. 1. 1. 1. 1. 1. 1. 1. 1. 1. 1. 1. 1. 1. 1. 1. 1. 1. 1. 1. 1.
      1. 1. 1. 1. 1. 1. 1. 1. 1. 1. 1. 1. 1. 1. 1. 1. 1. 1. 1. 1. 1. 1.
      1. 1. 1. 1. 1. 1. 1. 1. 1. 1. 1. 1. 1. 1. 1. 1. 1. 1. 1. 1. 1. 1.
      1. 1. 1. 1.</data></responses></opencv_ml_knn>
</opencv_storage>
