<?xml version="1.0"?>
<opencv_storage>
<opencv_ml_svm>
  <format>3</format>
  <svmType>C_SVC</svmType>
  <kernel>
    <type>RBF</type>
    <gamma>1.</gamma></kernel>
  <C>1.</C>
  <term_criteria><iterations>1000</iterations></term_criteria>
  <var_count>4</var_count>
  <class_count>32</class_count>
  <class_labels type_id="opencv-matrix">
    <rows>32</rows>
    <cols>1</cols>
    <dt>i</dt>
    <data>
      -15 -14 -13 -12 -11 -10 -9 -8 -7 -6 -5 -4 -3 -2 -1 0 1 2 3 4 5 6 7
      8 9 10 11 12 13 14 15 16</data></class_labels>
  <sv_total>1196</sv_total>
  <support_vectors>
    <_>
      1.37028873e-01 4.04088758e-02 7.99494982e-03 7.99494982e-03</_>
    <_>
      4.27543551e-01 2.33957797e-01 1.37028873e-01 4.04088758e-02</_>
    <_>
      6.21371150e-01 4.27543551e-01 2.33957797e-01 1.37028873e-01</_>
    <_>
      1.13287449e+00 6.21371150e-01 4.27543551e-01 2.33957797e-01</_>
    <_>
      1.71774268e+00 1.13287449e+00 6.21371150e-01 4.27543551e-01</_>
    <_>
      2.87976193e+00 1.71774268e+00 1.13287449e+00 6.21371150e-01</_>
    <_>
      3.91664553e+00 2.87976193e+00 1.71774268e+00 1.13287449e+00</_>
    <_>
      5.08577776e+00 3.91664553e+00 2.87976193e+00 1.71774268e+00</_>
    <_>
      6.64307976e+00 5.08577776e+00 3.91664553e+00 2.87976193e+00</_>
    <_>
      8.15210247e+00 6.64307976e+00 5.08577776e+00 3.91664553e+00</_>
    <_>
      9.38809967e+00 8.15210247e+00 6.64307976e+00 5.08577776e+00</_>
    <_>
      9.73802185e+00 9.38809967e+00 8.15210247e+00 6.64307976e+00</_>
    <_>
      9.73802185e+00 9.38809967e+00 8.15210247e+00 6.64307976e+00</_>
    <_>
      9.73802185e+00 9.38809967e+00 8.15210247e+00 6.64307976e+00</_>
    <_>
      -2.44266152e+00 9.73802185e+00 9.38809967e+00 8.15210247e+00</_>
    <_>
      -6.28274727e+00 -2.44266152e+00 9.73802185e+00 9.38809967e+00</_>
    <_>
      -1.03547297e+01 -6.28274727e+00 -2.44266152e+00 9.73802185e+00</_>
    <_>
      -1.35703878e+01 -1.03547297e+01 -6.28274727e+00 -2.44266152e+00</_>
    <_>
      -1.47799063e+01 -1.35703878e+01 -1.03547297e+01 -6.28274727e+00</_>
    <_>
      -1.47470016e+01 -1.47799063e+01 -1.35703878e+01 -1.03547297e+01</_>
    <_>
      -1.33684950e+01 -1.47470016e+01 -1.47799063e+01 -1.35703878e+01</_>
    <_>
      -1.02541142e+01 -1.33684950e+01 -1.47470016e+01 -1.47799063e+01</_>
    <_>
      -6.72779417e+00 -1.02541142e+01 -1.33684950e+01 -1.47470016e+01</_>
    <_>
      -2.63485122e+00 -6.72779417e+00 -1.02541142e+01 -1.33684950e+01</_>
    <_>
      -8.29975963e-01 -2.63485122e+00 -6.72779417e+00 -1.02541142e+01</_>
    <_>
      2.24059391e+00 -8.29975963e-01 -2.63485122e+00 -6.72779417e+00</_>
    <_>
      3.69807529e+00 2.24059391e+00 -8.29975963e-01 -2.63485122e+00</_>
    <_>
      7.39280462e+00 3.69807529e+00 2.24059391e+00 -8.29975963e-01</_>
    <_>
      9.90607834e+00 7.39280462e+00 3.69807529e+00 2.24059391e+00</_>
    <_>
      1.15111418e+01 9.90607834e+00 7.39280462e+00 3.69807529e+00</_>
    <_>
      9.80317497e+00 1.15111418e+01 9.90607834e+00 7.39280462e+00</_>
    <_>
      5.54144955e+00 9.80317497e+00 1.15111418e+01 9.90607834e+00</_>
    <_>
      -5.58713153e-02 5.54144955e+00 9.80317497e+00 1.15111418e+01</_>
    <_>
      -3.08758950e+00 -5.58713153e-02 5.54144955e+00 9.80317497e+00</_>
    <_>
      -7.57261181e+00 -3.08758950e+00 -5.58713153e-02 5.54144955e+00</_>
    <_>
      -9.86912346e+00 -7.57261181e+00 -3.08758950e+00 -5.58713153e-02</_>
    <_>
      -1.05166321e+01 -9.86912346e+00 -7.57261181e+00 -3.08758950e+00</_>
    <_>
      -8.50885487e+00 -1.05166321e+01 -9.86912346e+00 -7.57261181e+00</_>
    <_>
      -5.79437923e+00 -8.50885487e+00 -1.05166321e+01 -9.86912346e+00</_>
    <_>
      -1.69778335e+00 -5.79437923e+00 -8.50885487e+00 -1.05166321e+01</_>
    <_>
      1.71769524e+00 -1.69778335e+00 -5.79437923e+00 -8.50885487e+00</_>
    <_>
      5.05203581e+00 1.71769524e+00 -1.69778335e+00 -5.79437923e+00</_>
    <_>
      6.51606274e+00 5.05203581e+00 1.71769524e+00 -1.69778335e+00</_>
    <_>
      5.86274099e+00 6.51606274e+00 5.05203581e+00 1.71769524e+00</_>
    <_>
      2.81787896e+00 5.86274099e+00 6.51606274e+00 5.05203581e+00</_>
    <_>
      -1.18491602e+00 2.81787896e+00 5.86274099e+00 6.51606274e+00</_>
    <_>
      -2.82733083e+00 -1.18491602e+00 2.81787896e+00 5.86274099e+00</_>
    <_>
      -5.40793324e+00 -2.82733083e+00 -1.18491602e+00 2.81787896e+00</_>
    <_>
      -6.08808661e+00 -5.40793324e+00 -2.82733083e+00 -1.18491602e+00</_>
    <_>
      -4.88932753e+00 -6.08808661e+00 -5.40793324e+00 -2.82733083e+00</_>
    <_>
      -1.89522445e+00 -4.88932753e+00 -6.08808661e+00 -5.40793324e+00</_>
    <_>
      1.49235153e+00 -1.89522445e+00 -4.88932753e+00 -6.08808661e+00</_>
    <_>
      5.92773438e+00 1.49235153e+00 -1.89522445e+00 -4.88932753e+00</_>
    <_>
      9.80420303e+00 5.92773438e+00 1.49235153e+00 -1.89522445e+00</_>
    <_>
      1.21980181e+01 9.80420303e+00 5.92773438e+00 1.49235153e+00</_>
    <_>
      1.38469496e+01 1.21980181e+01 9.80420303e+00 5.92773438e+00</_>
    <_>
      1.29561653e+01 1.38469496e+01 1.21980181e+01 9.80420303e+00</_>
    <_>
      1.16059666e+01 1.29561653e+01 1.38469496e+01 1.21980181e+01</_>
    <_>
      9.18134785e+00 1.16059666e+01 1.29561653e+01 1.38469496e+01</_>
    <_>
      4.72688866e+00 9.18134785e+00 1.16059666e+01 1.29561653e+01</_>
    <_>
      3.29726607e-01 4.72688866e+00 9.18134785e+00 1.16059666e+01</_>
    <_>
      -3.50857759e+00 3.29726607e-01 4.72688866e+00 9.18134785e+00</_>
    <_>
      -6.89558363e+00 -3.50857759e+00 3.29726607e-01 4.72688866e+00</_>
    <_>
      -9.44461441e+00 -6.89558363e+00 -3.50857759e+00 3.29726607e-01</_>
    <_>
      -1.33697901e+01 -9.44461441e+00 -6.89558363e+00 -3.50857759e+00</_>
    <_>
      -1.41173801e+01 -1.33697901e+01 -9.44461441e+00 -6.89558363e+00</_>
    <_>
      -1.44752178e+01 -1.41173801e+01 -1.33697901e+01 -9.44461441e+00</_>
    <_>
      -1.30099850e+01 -1.44752178e+01 -1.41173801e+01 -1.33697901e+01</_>
    <_>
      -9.21797657e+00 -1.30099850e+01 -1.44752178e+01 -1.41173801e+01</_>
    <_>
      -6.44160080e+00 -9.21797657e+00 -1.30099850e+01 -1.44752178e+01</_>
    <_>
      -1.24964750e+00 -6.44160080e+00 -9.21797657e+00 -1.30099850e+01</_>
    <_>
      1.98210037e+00 -1.24964750e+00 -6.44160080e+00 -9.21797657e+00</_>
    <_>
      3.20634794e+00 1.98210037e+00 -1.24964750e+00 -6.44160080e+00</_>
    <_>
      7.45626545e+00 3.20634794e+00 1.98210037e+00 -1.24964750e+00</_>
    <_>
      9.74082088e+00 7.45626545e+00 3.20634794e+00 1.98210037e+00</_>
    <_>
      1.10177355e+01 9.74082088e+00 7.45626545e+00 3.20634794e+00</_>
    <_>
      9.57525635e+00 1.10177355e+01 9.74082088e+00 7.45626545e+00</_>
    <_>
      4.23934174e+00 9.57525635e+00 1.10177355e+01 9.74082088e+00</_>
    <_>
      -1.34796464e+00 4.23934174e+00 9.57525635e+00 1.10177355e+01</_>
    <_>
      -6.11806202e+00 -1.34796464e+00 4.23934174e+00 9.57525635e+00</_>
    <_>
      -9.67284584e+00 -6.11806202e+00 -1.34796464e+00 4.23934174e+00</_>
    <_>
      -1.04494410e+01 -9.67284584e+00 -6.11806202e+00 -1.34796464e+00</_>
    <_>
      -9.93077469e+00 -1.04494410e+01 -9.67284584e+00 -6.11806202e+00</_>
    <_>
      -6.50698996e+00 -9.93077469e+00 -1.04494410e+01 -9.67284584e+00</_>
    <_>
      -2.02387714e+00 -6.50698996e+00 -9.93077469e+00 -1.04494410e+01</_>
    <_>
      4.58832145e-01 -2.02387714e+00 -6.50698996e+00 -9.93077469e+00</_>
    <_>
      6.02595186e+00 4.58832145e-01 -2.02387714e+00 -6.50698996e+00</_>
    <_>
      1.02634087e+01 6.02595186e+00 4.58832145e-01 -2.02387714e+00</_>
    <_>
      1.47809372e+01 1.02634087e+01 6.02595186e+00 4.58832145e-01</_>
    <_>
      1.69193153e+01 1.47809372e+01 1.02634087e+01 6.02595186e+00</_>
    <_>
      1.68480301e+01 1.69193153e+01 1.47809372e+01 1.02634087e+01</_>
    <_>
      1.68480301e+01 1.69193153e+01 1.47809372e+01 1.02634087e+01</_>
    <_>
      1.68480301e+01 1.69193153e+01 1.47809372e+01 1.02634087e+01</_>
    <_>
      5.05140448e+00 1.68480301e+01 1.69193153e+01 1.47809372e+01</_>
    <_>
      2.81509471e+00 5.05140448e+00 1.68480301e+01 1.69193153e+01</_>
    <_>
      1.55796087e+00 2.81509471e+00 5.05140448e+00 1.68480301e+01</_>
    <_>
      -2.95862103e+00 1.55796087e+00 2.81509471e+00 5.05140448e+00</_>
    <_>
      -7.50452185e+00 -2.95862103e+00 1.55796087e+00 2.81509471e+00</_>
    <_>
      -1.10947990e+01 -7.50452185e+00 -2.95862103e+00 1.55796087e+00</_>
    <_>
      -1.42575655e+01 -1.10947990e+01 -7.50452185e+00 -2.95862103e+00</_>
    <_>
      -1.38956566e+01 -1.42575655e+01 -1.10947990e+01 -7.50452185e+00</_>
    <_>
      -1.16205759e+01 -1.38956566e+01 -1.42575655e+01 -1.10947990e+01</_>
    <_>
      -9.31338024e+00 -1.16205759e+01 -1.38956566e+01 -1.42575655e+01</_>
    <_>
      -3.63671875e+00 -9.31338024e+00 -1.16205759e+01 -1.38956566e+01</_>
    <_>
      1.38680768e+00 -3.63671875e+00 -9.31338024e+00 -1.16205759e+01</_>
    <_>
      6.95659399e+00 1.38680768e+00 -3.63671875e+00 -9.31338024e+00</_>
    <_>
      8.89676952e+00 6.95659399e+00 1.38680768e+00 -3.63671875e+00</_>
    <_>
      1.09181499e+01 8.89676952e+00 6.95659399e+00 1.38680768e+00</_>
    <_>
      1.30267525e+01 1.09181499e+01 8.89676952e+00 6.95659399e+00</_>
    <_>
      1.25974913e+01 1.30267525e+01 1.09181499e+01 8.89676952e+00</_>
    <_>
      1.27593346e+01 1.25974913e+01 1.30267525e+01 1.09181499e+01</_>
    <_>
      1.08208122e+01 1.27593346e+01 1.25974913e+01 1.30267525e+01</_>
    <_>
      9.80936241e+00 1.08208122e+01 1.27593346e+01 1.25974913e+01</_>
    <_>
      8.53318882e+00 9.80936241e+00 1.08208122e+01 1.27593346e+01</_>
    <_>
      6.29524517e+00 8.53318882e+00 9.80936241e+00 1.08208122e+01</_>
    <_>
      4.31263542e+00 6.29524517e+00 8.53318882e+00 9.80936241e+00</_>
    <_>
      1.79047549e+00 4.31263542e+00 6.29524517e+00 8.53318882e+00</_>
    <_>
      -1.09454584e+00 1.79047549e+00 4.31263542e+00 6.29524517e+00</_>
    <_>
      -4.60643148e+00 -1.09454584e+00 1.79047549e+00 4.31263542e+00</_>
    <_>
      -7.47716427e+00 -4.60643148e+00 -1.09454584e+00 1.79047549e+00</_>
    <_>
      -1.07186918e+01 -7.47716427e+00 -4.60643148e+00 -1.09454584e+00</_>
    <_>
      -1.29262705e+01 -1.07186918e+01 -7.47716427e+00 -4.60643148e+00</_>
    <_>
      -1.36142864e+01 -1.29262705e+01 -1.07186918e+01 -7.47716427e+00</_>
    <_>
      -1.36108732e+01 -1.36142864e+01 -1.29262705e+01 -1.07186918e+01</_>
    <_>
      -1.27633343e+01 -1.36108732e+01 -1.36142864e+01 -1.29262705e+01</_>
    <_>
      -1.12050104e+01 -1.27633343e+01 -1.36108732e+01 -1.36142864e+01</_>
    <_>
      -8.67690849e+00 -1.12050104e+01 -1.27633343e+01 -1.36108732e+01</_>
    <_>
      -5.83793068e+00 -8.67690849e+00 -1.12050104e+01 -1.27633343e+01</_>
    <_>
      -2.99985337e+00 -5.83793068e+00 -8.67690849e+00 -1.12050104e+01</_>
    <_>
      -1.55236745e+00 -2.99985337e+00 -5.83793068e+00 -8.67690849e+00</_>
    <_>
      1.51724184e+00 -1.55236745e+00 -2.99985337e+00 -5.83793068e+00</_>
    <_>
      4.46821451e+00 1.51724184e+00 -1.55236745e+00 -2.99985337e+00</_>
    <_>
      7.74792767e+00 4.46821451e+00 1.51724184e+00 -1.55236745e+00</_>
    <_>
      1.11817436e+01 7.74792767e+00 4.46821451e+00 1.51724184e+00</_>
    <_>
      1.40821333e+01 1.11817436e+01 7.74792767e+00 4.46821451e+00</_>
    <_>
      1.52132578e+01 1.40821333e+01 1.11817436e+01 7.74792767e+00</_>
    <_>
      1.41479692e+01 1.52132578e+01 1.40821333e+01 1.11817436e+01</_>
    <_>
      1.26936474e+01 1.41479692e+01 1.52132578e+01 1.40821333e+01</_>
    <_>
      7.81470394e+00 1.26936474e+01 1.41479692e+01 1.52132578e+01</_>
    <_>
      1.84780097e+00 7.81470394e+00 1.26936474e+01 1.41479692e+01</_>
    <_>
      -1.21893418e+00 1.84780097e+00 7.81470394e+00 1.26936474e+01</_>
    <_>
      -7.31362486e+00 -1.21893418e+00 1.84780097e+00 7.81470394e+00</_>
    <_>
      -1.11972580e+01 -7.31362486e+00 -1.21893418e+00 1.84780097e+00</_>
    <_>
      -1.35360622e+01 -1.11972580e+01 -7.31362486e+00 -1.21893418e+00</_>
    <_>
      -1.29480896e+01 -1.35360622e+01 -1.11972580e+01 -7.31362486e+00</_>
    <_>
      -1.13222332e+01 -1.29480896e+01 -1.35360622e+01 -1.11972580e+01</_>
    <_>
      -7.73131752e+00 -1.13222332e+01 -1.29480896e+01 -1.35360622e+01</_>
    <_>
      -1.99086487e+00 -7.73131752e+00 -1.13222332e+01 -1.29480896e+01</_>
    <_>
      5.57257462e+00 -1.99086487e+00 -7.73131752e+00 -1.13222332e+01</_>
    <_>
      1.12804527e+01 5.57257462e+00 -1.99086487e+00 -7.73131752e+00</_>
    <_>
      1.57799358e+01 1.12804527e+01 5.57257462e+00 -1.99086487e+00</_>
    <_>
      1.57799358e+01 1.12804527e+01 5.57257462e+00 -1.99086487e+00</_>
    <_>
      1.68313942e+01 1.57799358e+01 1.12804527e+01 5.57257462e+00</_>
    <_>
      1.51804180e+01 1.68313942e+01 1.57799358e+01 1.12804527e+01</_>
    <_>
      1.55476875e+01 1.51804180e+01 1.68313942e+01 1.57799358e+01</_>
    <_>
      1.46238327e+01 1.55476875e+01 1.51804180e+01 1.68313942e+01</_>
    <_>
      3.95695996e+00 1.46238327e+01 1.55476875e+01 1.51804180e+01</_>
    <_>
      -1.01771641e+00 3.95695996e+00 1.46238327e+01 1.55476875e+01</_>
    <_>
      -1.19091196e+01 -1.01771641e+00 3.95695996e+00 1.46238327e+01</_>
    <_>
      -1.52964697e+01 -1.19091196e+01 -1.01771641e+00 3.95695996e+00</_>
    <_>
      -1.52964697e+01 -1.19091196e+01 -1.01771641e+00 3.95695996e+00</_>
    <_>
      -1.52964697e+01 -1.19091196e+01 -1.01771641e+00 3.95695996e+00</_>
    <_>
      -1.40853415e+01 -1.52964697e+01 -1.19091196e+01 -1.01771641e+00</_>
    <_>
      -1.15175428e+01 -1.40853415e+01 -1.52964697e+01 -1.19091196e+01</_>
    <_>
      -8.08726406e+00 -1.15175428e+01 -1.40853415e+01 -1.52964697e+01</_>
    <_>
      -3.34491348e+00 -8.08726406e+00 -1.15175428e+01 -1.40853415e+01</_>
    <_>
      4.56481600e+00 -3.34491348e+00 -8.08726406e+00 -1.15175428e+01</_>
    <_>
      6.15737391e+00 4.56481600e+00 -3.34491348e+00 -8.08726406e+00</_>
    <_>
      7.52489090e+00 6.15737391e+00 4.56481600e+00 -3.34491348e+00</_>
    <_>
      5.51166058e+00 7.52489090e+00 6.15737391e+00 4.56481600e+00</_>
    <_>
      3.91607970e-01 5.51166058e+00 7.52489090e+00 6.15737391e+00</_>
    <_>
      -3.93089628e+00 3.91607970e-01 5.51166058e+00 7.52489090e+00</_>
    <_>
      -8.31227493e+00 -3.93089628e+00 3.91607970e-01 5.51166058e+00</_>
    <_>
      -1.13584881e+01 -8.31227493e+00 -3.93089628e+00 3.91607970e-01</_>
    <_>
      -1.25621834e+01 -1.13584881e+01 -8.31227493e+00 -3.93089628e+00</_>
    <_>
      -1.24735641e+01 -1.25621834e+01 -1.13584881e+01 -8.31227493e+00</_>
    <_>
      -9.77642441e+00 -1.24735641e+01 -1.25621834e+01 -1.13584881e+01</_>
    <_>
      -7.25209332e+00 -9.77642441e+00 -1.24735641e+01 -1.25621834e+01</_>
    <_>
      -2.60450482e+00 -7.25209332e+00 -9.77642441e+00 -1.24735641e+01</_>
    <_>
      2.10693884e+00 -2.60450482e+00 -7.25209332e+00 -9.77642441e+00</_>
    <_>
      5.14889908e+00 2.10693884e+00 -2.60450482e+00 -7.25209332e+00</_>
    <_>
      9.01950169e+00 5.14889908e+00 2.10693884e+00 -2.60450482e+00</_>
    <_>
      1.11487293e+01 9.01950169e+00 5.14889908e+00 2.10693884e+00</_>
    <_>
      1.32225246e+01 1.11487293e+01 9.01950169e+00 5.14889908e+00</_>
    <_>
      1.39501171e+01 1.32225246e+01 1.11487293e+01 9.01950169e+00</_>
    <_>
      1.31239347e+01 1.39501171e+01 1.32225246e+01 1.11487293e+01</_>
    <_>
      1.11158113e+01 1.31239347e+01 1.39501171e+01 1.32225246e+01</_>
    <_>
      7.32848120e+00 1.11158113e+01 1.31239347e+01 1.39501171e+01</_>
    <_>
      3.10958219e+00 7.32848120e+00 1.11158113e+01 1.31239347e+01</_>
    <_>
      8.82303476e-01 3.10958219e+00 7.32848120e+00 1.11158113e+01</_>
    <_>
      -3.92709923e+00 8.82303476e-01 3.10958219e+00 7.32848120e+00</_>
    <_>
      -7.34915733e+00 -3.92709923e+00 8.82303476e-01 3.10958219e+00</_>
    <_>
      -1.01608658e+01 -7.34915733e+00 -3.92709923e+00 8.82303476e-01</_>
    <_>
      -1.13973570e+01 -1.01608658e+01 -7.34915733e+00 -3.92709923e+00</_>
    <_>
      -1.10375338e+01 -1.13973570e+01 -1.01608658e+01 -7.34915733e+00</_>
    <_>
      -9.54277134e+00 -1.10375338e+01 -1.13973570e+01 -1.01608658e+01</_>
    <_>
      -7.28102255e+00 -9.54277134e+00 -1.10375338e+01 -1.13973570e+01</_>
    <_>
      -4.37704468e+00 -7.28102255e+00 -9.54277134e+00 -1.10375338e+01</_>
    <_>
      -2.82945442e+00 -4.37704468e+00 -7.28102255e+00 -9.54277134e+00</_>
    <_>
      -5.56889921e-02 -2.82945442e+00 -4.37704468e+00 -7.28102255e+00</_>
    <_>
      2.65729976e+00 -5.56889921e-02 -2.82945442e+00 -4.37704468e+00</_>
    <_>
      5.21266603e+00 2.65729976e+00 -5.56889921e-02 -2.82945442e+00</_>
    <_>
      7.06666231e+00 5.21266603e+00 2.65729976e+00 -5.56889921e-02</_>
    <_>
      8.52968502e+00 7.06666231e+00 5.21266603e+00 2.65729976e+00</_>
    <_>
      9.54186344e+00 8.52968502e+00 7.06666231e+00 5.21266603e+00</_>
    <_>
      9.54120445e+00 9.54186344e+00 8.52968502e+00 7.06666231e+00</_>
    <_>
      8.69261646e+00 9.54120445e+00 9.54186344e+00 8.52968502e+00</_>
    <_>
      7.22389984e+00 8.69261646e+00 9.54120445e+00 9.54186344e+00</_>
    <_>
      4.40035868e+00 7.22389984e+00 8.69261646e+00 9.54120445e+00</_>
    <_>
      1.03894508e+00 4.40035868e+00 7.22389984e+00 8.69261646e+00</_>
    <_>
      -3.02620435e+00 1.03894508e+00 4.40035868e+00 7.22389984e+00</_>
    <_>
      -4.96365452e+00 -3.02620435e+00 1.03894508e+00 4.40035868e+00</_>
    <_>
      -7.89813280e+00 -4.96365452e+00 -3.02620435e+00 1.03894508e+00</_>
    <_>
      -1.05216036e+01 -7.89813280e+00 -4.96365452e+00 -3.02620435e+00</_>
    <_>
      -1.16522551e+01 -1.05216036e+01 -7.89813280e+00 -4.96365452e+00</_>
    <_>
      -1.23708353e+01 -1.16522551e+01 -1.05216036e+01 -7.89813280e+00</_>
    <_>
      -1.19447241e+01 -1.23708353e+01 -1.16522551e+01 -1.05216036e+01</_>
    <_>
      -1.08428373e+01 -1.19447241e+01 -1.23708353e+01 -1.16522551e+01</_>
    <_>
      -9.25649929e+00 -1.08428373e+01 -1.19447241e+01 -1.23708353e+01</_>
    <_>
      -6.60580730e+00 -9.25649929e+00 -1.08428373e+01 -1.19447241e+01</_>
    <_>
      -3.92495251e+00 -6.60580730e+00 -9.25649929e+00 -1.08428373e+01</_>
    <_>
      -5.77538788e-01 -3.92495251e+00 -6.60580730e+00 -9.25649929e+00</_>
    <_>
      2.52653265e+00 -5.77538788e-01 -3.92495251e+00 -6.60580730e+00</_>
    <_>
      5.73236752e+00 2.52653265e+00 -5.77538788e-01 -3.92495251e+00</_>
    <_>
      8.10567474e+00 5.73236752e+00 2.52653265e+00 -5.77538788e-01</_>
    <_>
      1.12123680e+01 8.10567474e+00 5.73236752e+00 2.52653265e+00</_>
    <_>
      1.31553659e+01 1.12123680e+01 8.10567474e+00 5.73236752e+00</_>
    <_>
      1.37189674e+01 1.31553659e+01 1.12123680e+01 8.10567474e+00</_>
    <_>
      1.26908436e+01 1.37189674e+01 1.31553659e+01 1.12123680e+01</_>
    <_>
      1.04565897e+01 1.26908436e+01 1.37189674e+01 1.31553659e+01</_>
    <_>
      6.57641125e+00 1.04565897e+01 1.26908436e+01 1.37189674e+01</_>
    <_>
      2.04361725e+00 6.57641125e+00 1.04565897e+01 1.26908436e+01</_>
    <_>
      -2.79839706e+00 2.04361725e+00 6.57641125e+00 1.04565897e+01</_>
    <_>
      -7.56986523e+00 -2.79839706e+00 2.04361725e+00 6.57641125e+00</_>
    <_>
      -1.05106878e+01 -7.56986523e+00 -2.79839706e+00 2.04361725e+00</_>
    <_>
      -1.28802137e+01 -1.05106878e+01 -7.56986523e+00 -2.79839706e+00</_>
    <_>
      -1.46414347e+01 -1.28802137e+01 -1.05106878e+01 -7.56986523e+00</_>
    <_>
      -1.43205748e+01 -1.46414347e+01 -1.28802137e+01 -1.05106878e+01</_>
    <_>
      -1.31170626e+01 -1.43205748e+01 -1.46414347e+01 -1.28802137e+01</_>
    <_>
      -9.47623539e+00 -1.31170626e+01 -1.43205748e+01 -1.46414347e+01</_>
    <_>
      -5.57023811e+00 -9.47623539e+00 -1.31170626e+01 -1.43205748e+01</_>
    <_>
      -2.18458295e+00 -5.57023811e+00 -9.47623539e+00 -1.31170626e+01</_>
    <_>
      2.20359778e+00 -2.18458295e+00 -5.57023811e+00 -9.47623539e+00</_>
    <_>
      4.40265179e+00 2.20359778e+00 -2.18458295e+00 -5.57023811e+00</_>
    <_>
      6.73916721e+00 4.40265179e+00 2.20359778e+00 -2.18458295e+00</_>
    <_>
      1.01965275e+01 6.73916721e+00 4.40265179e+00 2.20359778e+00</_>
    <_>
      1.25611629e+01 1.01965275e+01 6.73916721e+00 4.40265179e+00</_>
    <_>
      1.39813929e+01 1.25611629e+01 1.01965275e+01 6.73916721e+00</_>
    <_>
      1.38820457e+01 1.39813929e+01 1.25611629e+01 1.01965275e+01</_>
    <_>
      1.22291708e+01 1.38820457e+01 1.39813929e+01 1.25611629e+01</_>
    <_>
      9.93436527e+00 1.22291708e+01 1.38820457e+01 1.39813929e+01</_>
    <_>
      6.80342102e+00 9.93436527e+00 1.22291708e+01 1.38820457e+01</_>
    <_>
      2.56099129e+00 6.80342102e+00 9.93436527e+00 1.22291708e+01</_>
    <_>
      -1.82980216e+00 2.56099129e+00 6.80342102e+00 9.93436527e+00</_>
    <_>
      -6.82944489e+00 -1.82980216e+00 2.56099129e+00 6.80342102e+00</_>
    <_>
      -9.70376015e+00 -6.82944489e+00 -1.82980216e+00 2.56099129e+00</_>
    <_>
      -1.32405901e+01 -9.70376015e+00 -6.82944489e+00 -1.82980216e+00</_>
    <_>
      -1.50007982e+01 -1.32405901e+01 -9.70376015e+00 -6.82944489e+00</_>
    <_>
      -1.51661310e+01 -1.50007982e+01 -1.32405901e+01 -9.70376015e+00</_>
    <_>
      -1.44723854e+01 -1.51661310e+01 -1.50007982e+01 -1.32405901e+01</_>
    <_>
      -1.10961170e+01 -1.44723854e+01 -1.51661310e+01 -1.50007982e+01</_>
    <_>
      -7.02164030e+00 -1.10961170e+01 -1.44723854e+01 -1.51661310e+01</_>
    <_>
      -4.92465401e+00 -7.02164030e+00 -1.10961170e+01 -1.44723854e+01</_>
    <_>
      -2.82112360e-01 -4.92465401e+00 -7.02164030e+00 -1.10961170e+01</_>
    <_>
      3.33476138e+00 -2.82112360e-01 -4.92465401e+00 -7.02164030e+00</_>
    <_>
      6.21759939e+00 3.33476138e+00 -2.82112360e-01 -4.92465401e+00</_>
    <_>
      9.47651482e+00 6.21759939e+00 3.33476138e+00 -2.82112360e-01</_>
    <_>
      1.25932112e+01 9.47651482e+00 6.21759939e+00 3.33476138e+00</_>
    <_>
      1.46083126e+01 1.25932112e+01 9.47651482e+00 6.21759939e+00</_>
    <_>
      1.51719389e+01 1.46083126e+01 1.25932112e+01 9.47651482e+00</_>
    <_>
      1.42131329e+01 1.51719389e+01 1.46083126e+01 1.25932112e+01</_>
    <_>
      1.22960100e+01 1.42131329e+01 1.51719389e+01 1.46083126e+01</_>
    <_>
      8.43014812e+00 1.22960100e+01 1.42131329e+01 1.51719389e+01</_>
    <_>
      3.82095885e+00 8.43014812e+00 1.22960100e+01 1.42131329e+01</_>
    <_>
      1.05230004e-01 3.82095885e+00 8.43014812e+00 1.22960100e+01</_>
    <_>
      -5.18148422e+00 1.05230004e-01 3.82095885e+00 8.43014812e+00</_>
    <_>
      -8.86013603e+00 -5.18148422e+00 1.05230004e-01 3.82095885e+00</_>
    <_>
      -1.09639120e+01 -8.86013603e+00 -5.18148422e+00 1.05230004e-01</_>
    <_>
      -1.22620640e+01 -1.09639120e+01 -8.86013603e+00 -5.18148422e+00</_>
    <_>
      -1.07386436e+01 -1.22620640e+01 -1.09639120e+01 -8.86013603e+00</_>
    <_>
      -8.24742699e+00 -1.07386436e+01 -1.22620640e+01 -1.09639120e+01</_>
    <_>
      -5.63353252e+00 -8.24742699e+00 -1.07386436e+01 -1.22620640e+01</_>
    <_>
      -1.63635194e+00 -5.63353252e+00 -8.24742699e+00 -1.07386436e+01</_>
    <_>
      2.10803509e+00 -1.63635194e+00 -5.63353252e+00 -8.24742699e+00</_>
    <_>
      6.06078482e+00 2.10803509e+00 -1.63635194e+00 -5.63353252e+00</_>
    <_>
      8.92130947e+00 6.06078482e+00 2.10803509e+00 -1.63635194e+00</_>
    <_>
      1.06527090e+01 8.92130947e+00 6.06078482e+00 2.10803509e+00</_>
    <_>
      1.13746367e+01 1.06527090e+01 8.92130947e+00 6.06078482e+00</_>
    <_>
      1.04236641e+01 1.13746367e+01 1.06527090e+01 8.92130947e+00</_>
    <_>
      8.75488281e+00 1.04236641e+01 1.13746367e+01 1.06527090e+01</_>
    <_>
      6.44562387e+00 8.75488281e+00 1.04236641e+01 1.13746367e+01</_>
    <_>
      3.84960341e+00 6.44562387e+00 8.75488281e+00 1.04236641e+01</_>
    <_>
      4.01068293e-02 3.84960341e+00 6.44562387e+00 8.75488281e+00</_>
    <_>
      -4.02297783e+00 4.01068293e-02 3.84960341e+00 6.44562387e+00</_>
    <_>
      -7.60213041e+00 -4.02297783e+00 4.01068293e-02 3.84960341e+00</_>
    <_>
      -9.02249146e+00 -7.60213041e+00 -4.02297783e+00 4.01068293e-02</_>
    <_>
      -1.11899586e+01 -9.02249146e+00 -7.60213041e+00 -4.02297783e+00</_>
    <_>
      -1.15148344e+01 -1.11899586e+01 -9.02249146e+00 -7.60213041e+00</_>
    <_>
      -1.09402790e+01 -1.15148344e+01 -1.11899586e+01 -9.02249146e+00</_>
    <_>
      -8.95874691e+00 -1.09402790e+01 -1.15148344e+01 -1.11899586e+01</_>
    <_>
      -6.50516033e+00 -8.95874691e+00 -1.09402790e+01 -1.15148344e+01</_>
    <_>
      -2.79874897e+00 -6.50516033e+00 -8.95874691e+00 -1.09402790e+01</_>
    <_>
      1.71853399e+00 -2.79874897e+00 -6.50516033e+00 -8.95874691e+00</_>
    <_>
      5.02256060e+00 1.71853399e+00 -2.79874897e+00 -6.50516033e+00</_>
    <_>
      8.53161335e+00 5.02256060e+00 1.71853399e+00 -2.79874897e+00</_>
    <_>
      1.04909487e+01 8.53161335e+00 5.02256060e+00 1.71853399e+00</_>
    <_>
      1.19383259e+01 1.04909487e+01 8.53161335e+00 5.02256060e+00</_>
    <_>
      1.08853607e+01 1.19383259e+01 1.04909487e+01 8.53161335e+00</_>
    <_>
      8.23942184e+00 1.08853607e+01 1.19383259e+01 1.04909487e+01</_>
    <_>
      5.25138044e+00 8.23942184e+00 1.08853607e+01 1.19383259e+01</_>
    <_>
      1.43203962e+00 5.25138044e+00 8.23942184e+00 1.08853607e+01</_>
    <_>
      -3.43836117e+00 1.43203962e+00 5.25138044e+00 8.23942184e+00</_>
    <_>
      -7.27594280e+00 -3.43836117e+00 1.43203962e+00 5.25138044e+00</_>
    <_>
      -1.20312691e+01 -7.27594280e+00 -3.43836117e+00 1.43203962e+00</_>
    <_>
      -1.56869984e+01 -1.20312691e+01 -7.27594280e+00 -3.43836117e+00</_>
    <_>
      -1.56869984e+01 -1.20312691e+01 -7.27594280e+00 -3.43836117e+00</_>
    <_>
      -1.58900766e+01 -1.56869984e+01 -1.20312691e+01 -7.27594280e+00</_>
    <_>
      -1.58900766e+01 -1.56869984e+01 -1.20312691e+01 -7.27594280e+00</_>
    <_>
      -1.48703070e+01 -1.58900766e+01 -1.56869984e+01 -1.20312691e+01</_>
    <_>
      -1.19088602e+01 -1.48703070e+01 -1.58900766e+01 -1.56869984e+01</_>
    <_>
      -1.26889267e+01 -1.19088602e+01 -1.48703070e+01 -1.58900766e+01</_>
    <_>
      -3.92967463e+00 -1.26889267e+01 -1.19088602e+01 -1.48703070e+01</_>
    <_>
      4.27412891e+00 -3.92967463e+00 -1.26889267e+01 -1.19088602e+01</_>
    <_>
      1.17731419e+01 4.27412891e+00 -3.92967463e+00 -1.26889267e+01</_>
    <_>
      1.17731419e+01 4.27412891e+00 -3.92967463e+00 -1.26889267e+01</_>
    <_>
      1.17731419e+01 4.27412891e+00 -3.92967463e+00 -1.26889267e+01</_>
    <_>
      1.57724638e+01 1.17731419e+01 4.27412891e+00 -3.92967463e+00</_>
    <_>
      1.27206726e+01 1.57724638e+01 1.17731419e+01 4.27412891e+00</_>
    <_>
      8.85390854e+00 1.27206726e+01 1.57724638e+01 1.17731419e+01</_>
    <_>
      3.23875523e+00 8.85390854e+00 1.27206726e+01 1.57724638e+01</_>
    <_>
      -5.92290068e+00 3.23875523e+00 8.85390854e+00 1.27206726e+01</_>
    <_>
      -7.83218288e+00 -5.92290068e+00 3.23875523e+00 8.85390854e+00</_>
    <_>
      -1.01928501e+01 -7.83218288e+00 -5.92290068e+00 3.23875523e+00</_>
    <_>
      -8.79577065e+00 -1.01928501e+01 -7.83218288e+00 -5.92290068e+00</_>
    <_>
      -5.21513653e+00 -8.79577065e+00 -1.01928501e+01 -7.83218288e+00</_>
    <_>
      -1.28754497e+00 -5.21513653e+00 -8.79577065e+00 -1.01928501e+01</_>
    <_>
      5.05268431e+00 -1.28754497e+00 -5.21513653e+00 -8.79577065e+00</_>
    <_>
      8.82398129e+00 5.05268431e+00 -1.28754497e+00 -5.21513653e+00</_>
    <_>
      1.24368505e+01 8.82398129e+00 5.05268431e+00 -1.28754497e+00</_>
    <_>
      1.41870480e+01 1.24368505e+01 8.82398129e+00 5.05268431e+00</_>
    <_>
      1.21337099e+01 1.41870480e+01 1.24368505e+01 8.82398129e+00</_>
    <_>
      7.48674297e+00 1.21337099e+01 1.41870480e+01 1.24368505e+01</_>
    <_>
      3.98248053e+00 7.48674297e+00 1.21337099e+01 1.41870480e+01</_>
    <_>
      -3.44250965e+00 3.98248053e+00 7.48674297e+00 1.21337099e+01</_>
    <_>
      -9.31555653e+00 -3.44250965e+00 3.98248053e+00 7.48674297e+00</_>
    <_>
      -1.43777084e+01 -9.31555653e+00 -3.44250965e+00 3.98248053e+00</_>
    <_>
      -1.43777084e+01 -9.31555653e+00 -3.44250965e+00 3.98248053e+00</_>
    <_>
      -1.59852791e+01 -1.43777084e+01 -9.31555653e+00 -3.44250965e+00</_>
    <_>
      -1.50955629e+01 -1.59852791e+01 -1.43777084e+01 -9.31555653e+00</_>
    <_>
      -1.42843533e+01 -1.50955629e+01 -1.59852791e+01 -1.43777084e+01</_>
    <_>
      -1.19442873e+01 -1.42843533e+01 -1.50955629e+01 -1.59852791e+01</_>
    <_>
      -2.34899139e+00 -1.19442873e+01 -1.42843533e+01 -1.50955629e+01</_>
    <_>
      1.74218285e+00 -2.34899139e+00 -1.19442873e+01 -1.42843533e+01</_>
    <_>
      1.74218285e+00 -2.34899139e+00 -1.19442873e+01 -1.42843533e+01</_>
    <_>
      1.18749704e+01 1.74218285e+00 -2.34899139e+00 -1.19442873e+01</_>
    <_>
      1.34219398e+01 1.18749704e+01 1.74218285e+00 -2.34899139e+00</_>
    <_>
      1.58152027e+01 1.34219398e+01 1.18749704e+01 1.74218285e+00</_>
    <_>
      1.31952734e+01 1.58152027e+01 1.34219398e+01 1.18749704e+01</_>
    <_>
      1.05271873e+01 1.31952734e+01 1.58152027e+01 1.34219398e+01</_>
    <_>
      4.76217842e+00 1.05271873e+01 1.31952734e+01 1.58152027e+01</_>
    <_>
      -2.34566140e+00 4.76217842e+00 1.05271873e+01 1.31952734e+01</_>
    <_>
      -6.08591843e+00 -2.34566140e+00 4.76217842e+00 1.05271873e+01</_>
    <_>
      -1.16787863e+01 -6.08591843e+00 -2.34566140e+00 4.76217842e+00</_>
    <_>
      -1.39862404e+01 -1.16787863e+01 -6.08591843e+00 -2.34566140e+00</_>
    <_>
      -1.55852089e+01 -1.39862404e+01 -1.16787863e+01 -6.08591843e+00</_>
    <_>
      -1.52009020e+01 -1.55852089e+01 -1.39862404e+01 -1.16787863e+01</_>
    <_>
      -1.22330408e+01 -1.52009020e+01 -1.55852089e+01 -1.39862404e+01</_>
    <_>
      -8.31510353e+00 -1.22330408e+01 -1.52009020e+01 -1.55852089e+01</_>
    <_>
      -4.50807095e+00 -8.31510353e+00 -1.22330408e+01 -1.52009020e+01</_>
    <_>
      4.60023552e-01 -4.50807095e+00 -8.31510353e+00 -1.22330408e+01</_>
    <_>
      3.36325312e+00 4.60023552e-01 -4.50807095e+00 -8.31510353e+00</_>
    <_>
      5.47360897e+00 3.36325312e+00 4.60023552e-01 -4.50807095e+00</_>
    <_>
      8.23801804e+00 5.47360897e+00 3.36325312e+00 4.60023552e-01</_>
    <_>
      1.04254179e+01 8.23801804e+00 5.47360897e+00 3.36325312e+00</_>
    <_>
      1.15450602e+01 1.04254179e+01 8.23801804e+00 5.47360897e+00</_>
    <_>
      1.13477373e+01 1.15450602e+01 1.04254179e+01 8.23801804e+00</_>
    <_>
      9.25203896e+00 1.13477373e+01 1.15450602e+01 1.04254179e+01</_>
    <_>
      4.34001493e+00 9.25203896e+00 1.13477373e+01 1.15450602e+01</_>
    <_>
      1.68772864e+00 4.34001493e+00 9.25203896e+00 1.13477373e+01</_>
    <_>
      -3.57086229e+00 1.68772864e+00 4.34001493e+00 9.25203896e+00</_>
    <_>
      -7.95870543e+00 -3.57086229e+00 1.68772864e+00 4.34001493e+00</_>
    <_>
      -1.07074718e+01 -7.95870543e+00 -3.57086229e+00 1.68772864e+00</_>
    <_>
      -1.32053976e+01 -1.07074718e+01 -7.95870543e+00 -3.57086229e+00</_>
    <_>
      -1.30196648e+01 -1.32053976e+01 -1.07074718e+01 -7.95870543e+00</_>
    <_>
      -1.11717453e+01 -1.30196648e+01 -1.32053976e+01 -1.07074718e+01</_>
    <_>
      -7.73532248e+00 -1.11717453e+01 -1.30196648e+01 -1.32053976e+01</_>
    <_>
      -5.44369793e+00 -7.73532248e+00 -1.11717453e+01 -1.30196648e+01</_>
    <_>
      -1.31684256e+00 -5.44369793e+00 -7.73532248e+00 -1.11717453e+01</_>
    <_>
      2.75169373e+00 -1.31684256e+00 -5.44369793e+00 -7.73532248e+00</_>
    <_>
      5.76457167e+00 2.75169373e+00 -1.31684256e+00 -5.44369793e+00</_>
    <_>
      8.36927223e+00 5.76457167e+00 2.75169373e+00 -1.31684256e+00</_>
    <_>
      1.08239450e+01 8.36927223e+00 5.76457167e+00 2.75169373e+00</_>
    <_>
      1.14209032e+01 1.08239450e+01 8.36927223e+00 5.76457167e+00</_>
    <_>
      1.12594709e+01 1.14209032e+01 1.08239450e+01 8.36927223e+00</_>
    <_>
      9.35510063e+00 1.12594709e+01 1.14209032e+01 1.08239450e+01</_>
    <_>
      6.29418516e+00 9.35510063e+00 1.12594709e+01 1.14209032e+01</_>
    <_>
      4.51171303e+00 6.29418516e+00 9.35510063e+00 1.12594709e+01</_>
    <_>
      3.98803502e-01 4.51171303e+00 6.29418516e+00 9.35510063e+00</_>
    <_>
      -3.14691877e+00 3.98803502e-01 4.51171303e+00 6.29418516e+00</_>
    <_>
      -6.60530996e+00 -3.14691877e+00 3.98803502e-01 4.51171303e+00</_>
    <_>
      -8.92935562e+00 -6.60530996e+00 -3.14691877e+00 3.98803502e-01</_>
    <_>
      -1.06170044e+01 -8.92935562e+00 -6.60530996e+00 -3.14691877e+00</_>
    <_>
      -1.10060930e+01 -1.06170044e+01 -8.92935562e+00 -6.60530996e+00</_>
    <_>
      -1.01563177e+01 -1.10060930e+01 -1.06170044e+01 -8.92935562e+00</_>
    <_>
      -8.25534821e+00 -1.01563177e+01 -1.10060930e+01 -1.06170044e+01</_>
    <_>
      -6.12240601e+00 -8.25534821e+00 -1.01563177e+01 -1.10060930e+01</_>
    <_>
      -3.21669507e+00 -6.12240601e+00 -8.25534821e+00 -1.01563177e+01</_>
    <_>
      -2.24905461e-01 -3.21669507e+00 -6.12240601e+00 -8.25534821e+00</_>
    <_>
      2.81867743e+00 -2.24905461e-01 -3.21669507e+00 -6.12240601e+00</_>
    <_>
      5.18283939e+00 2.81867743e+00 -2.24905461e-01 -3.21669507e+00</_>
    <_>
      6.90409851e+00 5.18283939e+00 2.81867743e+00 -2.24905461e-01</_>
    <_>
      8.53306484e+00 6.90409851e+00 5.18283939e+00 2.81867743e+00</_>
    <_>
      9.77278519e+00 8.53306484e+00 6.90409851e+00 5.18283939e+00</_>
    <_>
      -2.41485275e-02 9.77278519e+00 8.53306484e+00 6.90409851e+00</_>
    <_>
      -2.19434593e-02 -2.41485275e-02 9.77278519e+00 8.53306484e+00</_>
    <_>
      -5.63919358e-02 -2.19434593e-02 -2.41485275e-02 9.77278519e+00</_>
    <_>
      -2.15390790e-02 -5.64073101e-02 -5.63919358e-02 -2.19434593e-02</_>
    <_>
      -6.36841476e-01 -1.20894186e-01 8.11044872e-03 4.29317504e-02</_>
    <_>
      -1.31388962e+00 -6.36841476e-01 -1.20894186e-01 8.11044872e-03</_>
    <_>
      -2.79886222e+00 -1.31388962e+00 -6.36841476e-01 -1.20894186e-01</_>
    <_>
      -4.11957359e+00 -2.79886222e+00 -1.31388962e+00 -6.36841476e-01</_>
    <_>
      -5.98999023e+00 -4.11957359e+00 -2.79886222e+00 -1.31388962e+00</_>
    <_>
      -7.11924076e+00 -5.98999023e+00 -4.11957359e+00 -2.79886222e+00</_>
    <_>
      -8.15101051e+00 -7.11924076e+00 -5.98999023e+00 -4.11957359e+00</_>
    <_>
      -8.86187363e+00 -8.15101051e+00 -7.11924076e+00 -5.98999023e+00</_>
    <_>
      -8.60359097e+00 -8.86187363e+00 -8.15101051e+00 -7.11924076e+00</_>
    <_>
      -8.31592751e+00 -8.60359097e+00 -8.86187363e+00 -8.15101051e+00</_>
    <_>
      -7.50558662e+00 -8.31592751e+00 -8.60359097e+00 -8.86187363e+00</_>
    <_>
      -5.82673550e+00 -7.50558662e+00 -8.31592751e+00 -8.60359097e+00</_>
    <_>
      -3.40863228e+00 -5.82673550e+00 -7.50558662e+00 -8.31592751e+00</_>
    <_>
      -2.80885220e-01 -3.40863228e+00 -5.82673550e+00 -7.50558662e+00</_>
    <_>
      2.36575317e+00 -2.80885220e-01 -3.40863228e+00 -5.82673550e+00</_>
    <_>
      4.72798204e+00 2.36575317e+00 -2.80885220e-01 -3.40863228e+00</_>
    <_>
      7.64900255e+00 4.72798204e+00 2.36575317e+00 -2.80885220e-01</_>
    <_>
      1.01954241e+01 7.64900255e+00 4.72798204e+00 2.36575317e+00</_>
    <_>
      1.15376234e+01 1.01954241e+01 7.64900255e+00 4.72798204e+00</_>
    <_>
      1.19713516e+01 1.15376234e+01 1.01954241e+01 7.64900255e+00</_>
    <_>
      1.16095667e+01 1.19713516e+01 1.15376234e+01 1.01954241e+01</_>
    <_>
      1.02980337e+01 1.16095667e+01 1.19713516e+01 1.15376234e+01</_>
    <_>
      9.51280022e+00 1.02980337e+01 1.16095667e+01 1.19713516e+01</_>
    <_>
      7.91452885e+00 9.51280022e+00 1.02980337e+01 1.16095667e+01</_>
    <_>
      6.31914234e+00 7.91452885e+00 9.51280022e+00 1.02980337e+01</_>
    <_>
      5.15065527e+00 6.31914234e+00 7.91452885e+00 9.51280022e+00</_>
    <_>
      5.15065527e+00 6.31914234e+00 7.91452885e+00 9.51280022e+00</_>
    <_>
      5.15065527e+00 6.31914234e+00 7.91452885e+00 9.51280022e+00</_>
    <_>
      -1.60585415e+00 5.15065527e+00 6.31914234e+00 7.91452885e+00</_>
    <_>
      -2.73046827e+00 -1.60585415e+00 5.15065527e+00 6.31914234e+00</_>
    <_>
      -5.02087307e+00 -2.73046827e+00 -1.60585415e+00 5.15065527e+00</_>
    <_>
      -7.82746315e+00 -5.02087307e+00 -2.73046827e+00 -1.60585415e+00</_>
    <_>
      -9.50741577e+00 -7.82746315e+00 -5.02087307e+00 -2.73046827e+00</_>
    <_>
      -1.12229443e+01 -9.50741577e+00 -7.82746315e+00 -5.02087307e+00</_>
    <_>
      -1.17107038e+01 -1.12229443e+01 -9.50741577e+00 -7.82746315e+00</_>
    <_>
      -1.15162468e+01 -1.17107038e+01 -1.12229443e+01 -9.50741577e+00</_>
    <_>
      -1.11900120e+01 -1.15162468e+01 -1.17107038e+01 -1.12229443e+01</_>
    <_>
      -9.50859070e+00 -1.11900120e+01 -1.15162468e+01 -1.17107038e+01</_>
    <_>
      -7.92873907e+00 -9.50859070e+00 -1.11900120e+01 -1.15162468e+01</_>
    <_>
      -6.08950663e+00 -7.92873907e+00 -9.50859070e+00 -1.11900120e+01</_>
    <_>
      -5.18701982e+00 -6.08950663e+00 -7.92873907e+00 -9.50859070e+00</_>
    <_>
      -3.96774173e+00 -5.18701982e+00 -6.08950663e+00 -7.92873907e+00</_>
    <_>
      -2.19133306e+00 -3.96774173e+00 -5.18701982e+00 -6.08950663e+00</_>
    <_>
      -1.09746397e+00 -2.19133306e+00 -3.96774173e+00 -5.18701982e+00</_>
    <_>
      -7.11366773e-01 -1.09746397e+00 -2.19133306e+00 -3.96774173e+00</_>
    <_>
      4.82223690e-01 -7.11366773e-01 -1.09746397e+00 -2.19133306e+00</_>
    <_>
      1.80873871e+00 4.82223690e-01 -7.11366773e-01 -1.09746397e+00</_>
    <_>
      4.14484119e+00 1.80873871e+00 4.82223690e-01 -7.11366773e-01</_>
    <_>
      6.90258741e+00 4.14484119e+00 1.80873871e+00 4.82223690e-01</_>
    <_>
      9.57476807e+00 6.90258741e+00 4.14484119e+00 1.80873871e+00</_>
    <_>
      1.05890512e+01 9.57476807e+00 6.90258741e+00 4.14484119e+00</_>
    <_>
      1.16716661e+01 1.05890512e+01 9.57476807e+00 6.90258741e+00</_>
    <_>
      1.15703278e+01 1.16716661e+01 1.05890512e+01 9.57476807e+00</_>
    <_>
      1.11109619e+01 1.15703278e+01 1.16716661e+01 1.05890512e+01</_>
    <_>
      9.80360126e+00 1.11109619e+01 1.15703278e+01 1.16716661e+01</_>
    <_>
      7.91117954e+00 9.80360126e+00 1.11109619e+01 1.15703278e+01</_>
    <_>
      6.15342188e+00 7.91117954e+00 9.80360126e+00 1.11109619e+01</_>
    <_>
      5.11559772e+00 6.15342188e+00 7.91117954e+00 9.80360126e+00</_>
    <_>
      3.33518529e+00 5.11559772e+00 6.15342188e+00 7.91117954e+00</_>
    <_>
      1.36196947e+00 3.33518529e+00 5.11559772e+00 6.15342188e+00</_>
    <_>
      -1.12174916e+00 1.36196947e+00 3.33518529e+00 5.11559772e+00</_>
    <_>
      -3.51045322e+00 -1.12174916e+00 1.36196947e+00 3.33518529e+00</_>
    <_>
      -4.82887459e+00 -3.51045322e+00 -1.12174916e+00 1.36196947e+00</_>
    <_>
      -7.34578466e+00 -4.82887459e+00 -3.51045322e+00 -1.12174916e+00</_>
    <_>
      -9.48020363e+00 -7.34578466e+00 -4.82887459e+00 -3.51045322e+00</_>
    <_>
      -1.06125116e+01 -9.48020363e+00 -7.34578466e+00 -4.82887459e+00</_>
    <_>
      -1.17451487e+01 -1.06125116e+01 -9.48020363e+00 -7.34578466e+00</_>
    <_>
      -1.16850405e+01 -1.17451487e+01 -1.06125116e+01 -9.48020363e+00</_>
    <_>
      -1.14525652e+01 -1.16850405e+01 -1.17451487e+01 -1.06125116e+01</_>
    <_>
      -1.02863522e+01 -1.14525652e+01 -1.16850405e+01 -1.17451487e+01</_>
    <_>
      -8.51182461e+00 -1.02863522e+01 -1.14525652e+01 -1.16850405e+01</_>
    <_>
      -6.90002728e+00 -8.51182461e+00 -1.02863522e+01 -1.14525652e+01</_>
    <_>
      -4.73866796e+00 -6.90002728e+00 -8.51182461e+00 -1.02863522e+01</_>
    <_>
      -4.00675344e+00 -4.73866796e+00 -6.90002728e+00 -8.51182461e+00</_>
    <_>
      -2.38232541e+00 -4.00675344e+00 -4.73866796e+00 -6.90002728e+00</_>
    <_>
      -1.51725531e+00 -2.38232541e+00 -4.00675344e+00 -4.73866796e+00</_>
    <_>
      -1.55292630e+00 -1.51725531e+00 -2.38232541e+00 -4.00675344e+00</_>
    <_>
      1.00220449e-01 -1.55292630e+00 -1.51725531e+00 -2.38232541e+00</_>
    <_>
      1.81504703e+00 1.00220449e-01 -1.55292630e+00 -1.51725531e+00</_>
    <_>
      4.33843231e+00 1.81504703e+00 1.00220449e-01 -1.55292630e+00</_>
    <_>
      7.06489038e+00 4.33843231e+00 1.81504703e+00 1.00220449e-01</_>
    <_>
      9.08512402e+00 7.06489038e+00 4.33843231e+00 1.81504703e+00</_>
    <_>
      1.04587879e+01 9.08512402e+00 7.06489038e+00 4.33843231e+00</_>
    <_>
      1.12759628e+01 1.04587879e+01 9.08512402e+00 7.06489038e+00</_>
    <_>
      1.09805880e+01 1.12759628e+01 1.04587879e+01 9.08512402e+00</_>
    <_>
      1.05574722e+01 1.09805880e+01 1.12759628e+01 1.04587879e+01</_>
    <_>
      9.21927071e+00 1.05574722e+01 1.09805880e+01 1.12759628e+01</_>
    <_>
      8.07821465e+00 9.21927071e+00 1.05574722e+01 1.09805880e+01</_>
    <_>
      6.54914618e+00 8.07821465e+00 9.21927071e+00 1.05574722e+01</_>
    <_>
      4.89493895e+00 6.54914618e+00 8.07821465e+00 9.21927071e+00</_>
    <_>
      4.08207941e+00 4.89493895e+00 6.54914618e+00 8.07821465e+00</_>
    <_>
      2.23582578e+00 4.08207941e+00 4.89493895e+00 6.54914618e+00</_>
    <_>
      -1.20715588e-01 2.23582578e+00 4.08207941e+00 4.89493895e+00</_>
    <_>
      -2.76780772e+00 -1.20715588e-01 2.23582578e+00 4.08207941e+00</_>
    <_>
      -5.18676472e+00 -2.76780772e+00 -1.20715588e-01 2.23582578e+00</_>
    <_>
      -7.41369724e+00 -5.18676472e+00 -2.76780772e+00 -1.20715588e-01</_>
    <_>
      -9.99612808e+00 -7.41369724e+00 -5.18676472e+00 -2.76780772e+00</_>
    <_>
      -1.19750681e+01 -9.99612808e+00 -7.41369724e+00 -5.18676472e+00</_>
    <_>
      -1.30143042e+01 -1.19750681e+01 -9.99612808e+00 -7.41369724e+00</_>
    <_>
      -1.32094240e+01 -1.30143042e+01 -1.19750681e+01 -9.99612808e+00</_>
    <_>
      -1.28431940e+01 -1.32094240e+01 -1.30143042e+01 -1.19750681e+01</_>
    <_>
      -1.11925611e+01 -1.28431940e+01 -1.32094240e+01 -1.30143042e+01</_>
    <_>
      -8.89870644e+00 -1.11925611e+01 -1.28431940e+01 -1.32094240e+01</_>
    <_>
      -7.05611658e+00 -8.89870644e+00 -1.11925611e+01 -1.28431940e+01</_>
    <_>
      -4.73235703e+00 -7.05611658e+00 -8.89870644e+00 -1.11925611e+01</_>
    <_>
      -3.31426930e+00 -4.73235703e+00 -7.05611658e+00 -8.89870644e+00</_>
    <_>
      -1.80373108e+00 -3.31426930e+00 -4.73235703e+00 -7.05611658e+00</_>
    <_>
      -2.02400565e+00 -1.80373108e+00 -3.31426930e+00 -4.73235703e+00</_>
    <_>
      -8.86078849e-02 -2.02400565e+00 -1.80373108e+00 -3.31426930e+00</_>
    <_>
      1.88057601e+00 -8.86078849e-02 -2.02400565e+00 -1.80373108e+00</_>
    <_>
      4.04701042e+00 1.88057601e+00 -8.86078849e-02 -2.02400565e+00</_>
    <_>
      6.25390387e+00 4.04701042e+00 1.88057601e+00 -8.86078849e-02</_>
    <_>
      9.37984371e+00 6.25390387e+00 4.04701042e+00 1.88057601e+00</_>
    <_>
      1.16391363e+01 9.37984371e+00 6.25390387e+00 4.04701042e+00</_>
    <_>
      1.30556173e+01 1.16391363e+01 9.37984371e+00 6.25390387e+00</_>
    <_>
      1.29299335e+01 1.30556173e+01 1.16391363e+01 9.37984371e+00</_>
    <_>
      1.17755480e+01 1.29299335e+01 1.30556173e+01 1.16391363e+01</_>
    <_>
      1.08924551e+01 1.17755480e+01 1.29299335e+01 1.30556173e+01</_>
    <_>
      8.50537491e+00 1.08924551e+01 1.17755480e+01 1.29299335e+01</_>
    <_>
      6.09788799e+00 8.50537491e+00 1.08924551e+01 1.17755480e+01</_>
    <_>
      3.50079441e+00 6.09788799e+00 8.50537491e+00 1.08924551e+01</_>
    <_>
      3.66697013e-01 3.50079441e+00 6.09788799e+00 8.50537491e+00</_>
    <_>
      -1.08620703e+00 3.66697013e-01 3.50079441e+00 6.09788799e+00</_>
    <_>
      -4.05127811e+00 -1.08620703e+00 3.66697013e-01 3.50079441e+00</_>
    <_>
      -7.11686563e+00 -4.05127811e+00 -1.08620703e+00 3.66697013e-01</_>
    <_>
      -9.37819290e+00 -7.11686563e+00 -4.05127811e+00 -1.08620703e+00</_>
    <_>
      -1.21331282e+01 -9.37819290e+00 -7.11686563e+00 -4.05127811e+00</_>
    <_>
      -1.34348183e+01 -1.21331282e+01 -9.37819290e+00 -7.11686563e+00</_>
    <_>
      -1.39577303e+01 -1.34348183e+01 -1.21331282e+01 -9.37819290e+00</_>
    <_>
      -1.39861975e+01 -1.39577303e+01 -1.34348183e+01 -1.21331282e+01</_>
    <_>
      -1.24931307e+01 -1.39861975e+01 -1.39577303e+01 -1.34348183e+01</_>
    <_>
      -1.01563864e+01 -1.24931307e+01 -1.39861975e+01 -1.39577303e+01</_>
    <_>
      -7.89352417e+00 -1.01563864e+01 -1.24931307e+01 -1.39861975e+01</_>
    <_>
      -4.76373482e+00 -7.89352417e+00 -1.01563864e+01 -1.24931307e+01</_>
    <_>
      -1.89290714e+00 -4.76373482e+00 -7.89352417e+00 -1.01563864e+01</_>
    <_>
      -6.14545465e-01 -1.89290714e+00 -4.76373482e+00 -7.89352417e+00</_>
    <_>
      -2.86906511e-01 -6.14545465e-01 -1.89290714e+00 -4.76373482e+00</_>
    <_>
      2.59110403e+00 -2.86906511e-01 -6.14545465e-01 -1.89290714e+00</_>
    <_>
      5.27922678e+00 2.59110403e+00 -2.86906511e-01 -6.14545465e-01</_>
    <_>
      9.34852982e+00 5.27922678e+00 2.59110403e+00 -2.86906511e-01</_>
    <_>
      1.26964388e+01 9.34852982e+00 5.27922678e+00 2.59110403e+00</_>
    <_>
      1.45533400e+01 1.26964388e+01 9.34852982e+00 5.27922678e+00</_>
    <_>
      1.52822104e+01 1.45533400e+01 1.26964388e+01 9.34852982e+00</_>
    <_>
      1.39164867e+01 1.52822104e+01 1.45533400e+01 1.26964388e+01</_>
    <_>
      1.21986933e+01 1.39164867e+01 1.52822104e+01 1.45533400e+01</_>
    <_>
      8.69666576e+00 1.21986933e+01 1.39164867e+01 1.52822104e+01</_>
    <_>
      5.18205023e+00 8.69666576e+00 1.21986933e+01 1.39164867e+01</_>
    <_>
      3.69213128e+00 5.18205023e+00 8.69666576e+00 1.21986933e+01</_>
    <_>
      8.48103594e-03 3.69213128e+00 5.18205023e+00 8.69666576e+00</_>
    <_>
      -3.08922148e+00 8.48103594e-03 3.69213128e+00 5.18205023e+00</_>
    <_>
      -5.70113993e+00 -3.08922148e+00 8.48103594e-03 3.69213128e+00</_>
    <_>
      -9.41599846e+00 -5.70113993e+00 -3.08922148e+00 8.48103594e-03</_>
    <_>
      -1.19413233e+01 -9.41599846e+00 -5.70113993e+00 -3.08922148e+00</_>
    <_>
      -1.35014181e+01 -1.19413233e+01 -9.41599846e+00 -5.70113993e+00</_>
    <_>
      -1.38634291e+01 -1.35014181e+01 -1.19413233e+01 -9.41599846e+00</_>
    <_>
      -1.32093458e+01 -1.38634291e+01 -1.35014181e+01 -1.19413233e+01</_>
    <_>
      -1.18108168e+01 -1.32093458e+01 -1.38634291e+01 -1.35014181e+01</_>
    <_>
      -8.92628670e+00 -1.18108168e+01 -1.32093458e+01 -1.38634291e+01</_>
    <_>
      -6.53680182e+00 -8.92628670e+00 -1.18108168e+01 -1.32093458e+01</_>
    <_>
      -2.66792679e+00 -6.53680182e+00 -8.92628670e+00 -1.18108168e+01</_>
    <_>
      4.27751631e-01 -2.66792679e+00 -6.53680182e+00 -8.92628670e+00</_>
    <_>
      4.40328360e+00 4.27751631e-01 -2.66792679e+00 -6.53680182e+00</_>
    <_>
      8.40009785e+00 4.40328360e+00 4.27751631e-01 -2.66792679e+00</_>
    <_>
      1.18348351e+01 8.40009785e+00 4.40328360e+00 4.27751631e-01</_>
    <_>
      1.43765526e+01 1.18348351e+01 8.40009785e+00 4.40328360e+00</_>
    <_>
      1.48395901e+01 1.43765526e+01 1.18348351e+01 8.40009785e+00</_>
    <_>
      1.40417213e+01 1.48395901e+01 1.43765526e+01 1.18348351e+01</_>
    <_>
      1.17026691e+01 1.40417213e+01 1.48395901e+01 1.43765526e+01</_>
    <_>
      9.21327591e+00 1.17026691e+01 1.40417213e+01 1.48395901e+01</_>
    <_>
      5.86129332e+00 9.21327591e+00 1.17026691e+01 1.40417213e+01</_>
    <_>
      2.23510695e+00 5.86129332e+00 9.21327591e+00 1.17026691e+01</_>
    <_>
      -8.30567122e-01 2.23510695e+00 5.86129332e+00 9.21327591e+00</_>
    <_>
      -5.02319288e+00 -8.30567122e-01 2.23510695e+00 5.86129332e+00</_>
    <_>
      -8.31521511e+00 -5.02319288e+00 -8.30567122e-01 2.23510695e+00</_>
    <_>
      -9.93403244e+00 -8.31521511e+00 -5.02319288e+00 -8.30567122e-01</_>
    <_>
      -1.27223530e+01 -9.93403244e+00 -8.31521511e+00 -5.02319288e+00</_>
    <_>
      -1.36028423e+01 -1.27223530e+01 -9.93403244e+00 -8.31521511e+00</_>
    <_>
      -1.40559626e+01 -1.36028423e+01 -1.27223530e+01 -9.93403244e+00</_>
    <_>
      -1.35313368e+01 -1.40559626e+01 -1.36028423e+01 -1.27223530e+01</_>
    <_>
      -1.12597237e+01 -1.35313368e+01 -1.40559626e+01 -1.36028423e+01</_>
    <_>
      -9.25260448e+00 -1.12597237e+01 -1.35313368e+01 -1.40559626e+01</_>
    <_>
      -5.82748175e+00 -9.25260448e+00 -1.12597237e+01 -1.35313368e+01</_>
    <_>
      -1.28172112e+00 -5.82748175e+00 -9.25260448e+00 -1.12597237e+01</_>
    <_>
      3.01151538e+00 -1.28172112e+00 -5.82748175e+00 -9.25260448e+00</_>
    <_>
      4.69420481e+00 3.01151538e+00 -1.28172112e+00 -5.82748175e+00</_>
    <_>
      6.35133886e+00 4.69420481e+00 3.01151538e+00 -1.28172112e+00</_>
    <_>
      1.02965364e+01 6.35133886e+00 4.69420481e+00 3.01151538e+00</_>
    <_>
      1.24966402e+01 1.02965364e+01 6.35133886e+00 4.69420481e+00</_>
    <_>
      1.46787901e+01 1.24966402e+01 1.02965364e+01 6.35133886e+00</_>
    <_>
      1.44761381e+01 1.46787901e+01 1.24966402e+01 1.02965364e+01</_>
    <_>
      1.29873266e+01 1.44761381e+01 1.46787901e+01 1.24966402e+01</_>
    <_>
      1.04234133e+01 1.29873266e+01 1.44761381e+01 1.46787901e+01</_>
    <_>
      6.47871256e+00 1.04234133e+01 1.29873266e+01 1.44761381e+01</_>
    <_>
      4.85630369e+00 6.47871256e+00 1.04234133e+01 1.29873266e+01</_>
    <_>
      1.23462176e+00 4.85630369e+00 6.47871256e+00 1.04234133e+01</_>
    <_>
      -3.06009579e+00 1.23462176e+00 4.85630369e+00 6.47871256e+00</_>
    <_>
      -5.99447012e+00 -3.06009579e+00 1.23462176e+00 4.85630369e+00</_>
    <_>
      -9.41710663e+00 -5.99447012e+00 -3.06009579e+00 1.23462176e+00</_>
    <_>
      -1.28861628e+01 -9.41710663e+00 -5.99447012e+00 -3.06009579e+00</_>
    <_>
      -1.51643829e+01 -1.28861628e+01 -9.41710663e+00 -5.99447012e+00</_>
    <_>
      -1.57611275e+01 -1.51643829e+01 -1.28861628e+01 -9.41710663e+00</_>
    <_>
      -1.53553801e+01 -1.57611275e+01 -1.51643829e+01 -1.28861628e+01</_>
    <_>
      -1.33696823e+01 -1.53553801e+01 -1.57611275e+01 -1.51643829e+01</_>
    <_>
      -9.86338425e+00 -1.33696823e+01 -1.53553801e+01 -1.57611275e+01</_>
    <_>
      -5.63658094e+00 -9.86338425e+00 -1.33696823e+01 -1.53553801e+01</_>
    <_>
      -3.54033446e+00 -5.63658094e+00 -9.86338425e+00 -1.33696823e+01</_>
    <_>
      8.45487237e-01 -3.54033446e+00 -5.63658094e+00 -9.86338425e+00</_>
    <_>
      4.14389181e+00 8.45487237e-01 -3.54033446e+00 -5.63658094e+00</_>
    <_>
      6.51287079e+00 4.14389181e+00 8.45487237e-01 -3.54033446e+00</_>
    <_>
      9.67327213e+00 6.51287079e+00 4.14389181e+00 8.45487237e-01</_>
    <_>
      1.26208611e+01 9.67327213e+00 6.51287079e+00 4.14389181e+00</_>
    <_>
      1.49721556e+01 1.26208611e+01 9.67327213e+00 6.51287079e+00</_>
    <_>
      1.53742056e+01 1.49721556e+01 1.26208611e+01 9.67327213e+00</_>
    <_>
      1.39453974e+01 1.53742056e+01 1.49721556e+01 1.26208611e+01</_>
    <_>
      1.08197241e+01 1.39453974e+01 1.53742056e+01 1.49721556e+01</_>
    <_>
      8.69039536e+00 1.08197241e+01 1.39453974e+01 1.53742056e+01</_>
    <_>
      4.43395758e+00 8.69039536e+00 1.08197241e+01 1.39453974e+01</_>
    <_>
      7.55811948e-03 4.43395758e+00 8.69039536e+00 1.08197241e+01</_>
    <_>
      -5.53955412e+00 7.55811948e-03 4.43395758e+00 8.69039536e+00</_>
    <_>
      -9.09123516e+00 -5.53955412e+00 7.55811948e-03 4.43395758e+00</_>
    <_>
      -1.22328911e+01 -9.09123516e+00 -5.53955412e+00 7.55811948e-03</_>
    <_>
      -1.56875496e+01 -1.22328911e+01 -9.09123516e+00 -5.53955412e+00</_>
    <_>
      -1.56875496e+01 -1.22328911e+01 -9.09123516e+00 -5.53955412e+00</_>
    <_>
      -1.56875496e+01 -1.22328911e+01 -9.09123516e+00 -5.53955412e+00</_>
    <_>
      -1.45793648e+01 -1.56875496e+01 -1.22328911e+01 -9.09123516e+00</_>
    <_>
      -1.11314516e+01 -1.45793648e+01 -1.56875496e+01 -1.22328911e+01</_>
    <_>
      -1.11314516e+01 -1.45793648e+01 -1.56875496e+01 -1.22328911e+01</_>
    <_>
      3.01312447e+00 -1.11314516e+01 -1.45793648e+01 -1.56875496e+01</_>
    <_>
      8.10644531e+00 3.01312447e+00 -1.11314516e+01 -1.45793648e+01</_>
    <_>
      1.23942270e+01 8.10644531e+00 3.01312447e+00 -1.11314516e+01</_>
    <_>
      1.51362009e+01 1.23942270e+01 8.10644531e+00 3.01312447e+00</_>
    <_>
      1.44782133e+01 1.51362009e+01 1.23942270e+01 8.10644531e+00</_>
    <_>
      1.10497370e+01 1.44782133e+01 1.51362009e+01 1.23942270e+01</_>
    <_>
      7.58433533e+00 1.10497370e+01 1.44782133e+01 1.51362009e+01</_>
    <_>
      1.75112343e+00 7.58433533e+00 1.10497370e+01 1.44782133e+01</_>
    <_>
      -3.92411065e+00 1.75112343e+00 7.58433533e+00 1.10497370e+01</_>
    <_>
      -8.28473854e+00 -3.92411065e+00 1.75112343e+00 7.58433533e+00</_>
    <_>
      -1.31777525e+01 -8.28473854e+00 -3.92411065e+00 1.75112343e+00</_>
    <_>
      -1.57909451e+01 -1.31777525e+01 -8.28473854e+00 -3.92411065e+00</_>
    <_>
      -1.57909451e+01 -1.31777525e+01 -8.28473854e+00 -3.92411065e+00</_>
    <_>
      -1.57909451e+01 -1.31777525e+01 -8.28473854e+00 -3.92411065e+00</_>
    <_>
      -1.48450794e+01 -1.57909451e+01 -1.31777525e+01 -8.28473854e+00</_>
    <_>
      -1.57666292e+01 -1.48450794e+01 -1.57909451e+01 -1.31777525e+01</_>
    <_>
      -1.36681557e+01 -1.57666292e+01 -1.48450794e+01 -1.57909451e+01</_>
    <_>
      -6.50636005e+00 -1.36681557e+01 -1.57666292e+01 -1.48450794e+01</_>
    <_>
      -1.82874605e-01 -6.50636005e+00 -1.36681557e+01 -1.57666292e+01</_>
    <_>
      8.27249146e+00 -1.82874605e-01 -6.50636005e+00 -1.36681557e+01</_>
    <_>
      1.03594141e+01 8.27249146e+00 -1.82874605e-01 -6.50636005e+00</_>
    <_>
      1.38764191e+01 1.03594141e+01 8.27249146e+00 -1.82874605e-01</_>
    <_>
      1.56074514e+01 1.38764191e+01 1.03594141e+01 8.27249146e+00</_>
    <_>
      1.41102724e+01 1.56074514e+01 1.38764191e+01 1.03594141e+01</_>
    <_>
      1.36837788e+01 1.41102724e+01 1.56074514e+01 1.38764191e+01</_>
    <_>
      9.70607662e+00 1.36837788e+01 1.41102724e+01 1.56074514e+01</_>
    <_>
      7.51916504e+00 9.70607662e+00 1.36837788e+01 1.41102724e+01</_>
    <_>
      5.08381176e+00 7.51916504e+00 9.70607662e+00 1.36837788e+01</_>
    <_>
      2.13921142e+00 5.08381176e+00 7.51916504e+00 9.70607662e+00</_>
    <_>
      -6.08019114e-01 2.13921142e+00 5.08381176e+00 7.51916504e+00</_>
    <_>
      -4.28128195e+00 -6.08019114e-01 2.13921142e+00 5.08381176e+00</_>
    <_>
      -7.05853558e+00 -4.28128195e+00 -6.08019114e-01 2.13921142e+00</_>
    <_>
      -1.01637173e+01 -7.05853558e+00 -4.28128195e+00 -6.08019114e-01</_>
    <_>
      -1.23034277e+01 -1.01637173e+01 -7.05853558e+00 -4.28128195e+00</_>
    <_>
      -1.35744352e+01 -1.23034277e+01 -1.01637173e+01 -7.05853558e+00</_>
    <_>
      -1.39699850e+01 -1.35744352e+01 -1.23034277e+01 -1.01637173e+01</_>
    <_>
      -1.36046124e+01 -1.39699850e+01 -1.35744352e+01 -1.23034277e+01</_>
    <_>
      -1.24941664e+01 -1.36046124e+01 -1.39699850e+01 -1.35744352e+01</_>
    <_>
      -1.00941982e+01 -1.24941664e+01 -1.36046124e+01 -1.39699850e+01</_>
    <_>
      -7.11680079e+00 -1.00941982e+01 -1.24941664e+01 -1.36046124e+01</_>
    <_>
      -4.43999672e+00 -7.11680079e+00 -1.00941982e+01 -1.24941664e+01</_>
    <_>
      -7.32021391e-01 -4.43999672e+00 -7.11680079e+00 -1.00941982e+01</_>
    <_>
      1.84897661e+00 -7.32021391e-01 -4.43999672e+00 -7.11680079e+00</_>
    <_>
      3.59466720e+00 1.84897661e+00 -7.32021391e-01 -4.43999672e+00</_>
    <_>
      7.35901213e+00 3.59466720e+00 1.84897661e+00 -7.32021391e-01</_>
    <_>
      9.70653439e+00 7.35901213e+00 3.59466720e+00 1.84897661e+00</_>
    <_>
      1.26580696e+01 9.70653439e+00 7.35901213e+00 3.59466720e+00</_>
    <_>
      1.38790245e+01 1.26580696e+01 9.70653439e+00 7.35901213e+00</_>
    <_>
      1.33478060e+01 1.38790245e+01 1.26580696e+01 9.70653439e+00</_>
    <_>
      1.28863344e+01 1.33478060e+01 1.38790245e+01 1.26580696e+01</_>
    <_>
      1.01588125e+01 1.28863344e+01 1.33478060e+01 1.38790245e+01</_>
    <_>
      7.06194878e+00 1.01588125e+01 1.28863344e+01 1.33478060e+01</_>
    <_>
      4.82404995e+00 7.06194878e+00 1.01588125e+01 1.28863344e+01</_>
    <_>
      2.10623693e+00 4.82404995e+00 7.06194878e+00 1.01588125e+01</_>
    <_>
      -1.12278962e+00 2.10623693e+00 4.82404995e+00 7.06194878e+00</_>
    <_>
      -5.02405405e+00 -1.12278962e+00 2.10623693e+00 4.82404995e+00</_>
    <_>
      -7.99409437e+00 -5.02405405e+00 -1.12278962e+00 2.10623693e+00</_>
    <_>
      -1.16181870e+01 -7.99409437e+00 -5.02405405e+00 -1.12278962e+00</_>
    <_>
      -1.39915447e+01 -1.16181870e+01 -7.99409437e+00 -5.02405405e+00</_>
    <_>
      -1.54319334e+01 -1.39915447e+01 -1.16181870e+01 -7.99409437e+00</_>
    <_>
      -1.54984198e+01 -1.54319334e+01 -1.39915447e+01 -1.16181870e+01</_>
    <_>
      -1.38335085e+01 -1.54984198e+01 -1.54319334e+01 -1.39915447e+01</_>
    <_>
      -1.22739325e+01 -1.38335085e+01 -1.54984198e+01 -1.54319334e+01</_>
    <_>
      -8.57772541e+00 -1.22739325e+01 -1.38335085e+01 -1.54984198e+01</_>
    <_>
      -4.67779827e+00 -8.57772541e+00 -1.22739325e+01 -1.38335085e+01</_>
    <_>
      -1.77368343e+00 -4.67779827e+00 -8.57772541e+00 -1.22739325e+01</_>
    <_>
      3.17388475e-01 -1.77368343e+00 -4.67779827e+00 -8.57772541e+00</_>
    <_>
      1.22656143e+00 3.17388475e-01 -1.77368343e+00 -4.67779827e+00</_>
    <_>
      4.59707451e+00 1.22656143e+00 3.17388475e-01 -1.77368343e+00</_>
    <_>
      6.80421543e+00 4.59707451e+00 1.22656143e+00 3.17388475e-01</_>
    <_>
      9.73849106e+00 6.80421543e+00 4.59707451e+00 1.22656143e+00</_>
    <_>
      1.24601822e+01 9.73849106e+00 6.80421543e+00 4.59707451e+00</_>
    <_>
      1.39110432e+01 1.24601822e+01 9.73849106e+00 6.80421543e+00</_>
    <_>
      1.39439878e+01 1.39110432e+01 1.24601822e+01 9.73849106e+00</_>
    <_>
      1.26905451e+01 1.39439878e+01 1.39110432e+01 1.24601822e+01</_>
    <_>
      9.99436092e+00 1.26905451e+01 1.39439878e+01 1.39110432e+01</_>
    <_>
      7.42094755e+00 9.99436092e+00 1.26905451e+01 1.39439878e+01</_>
    <_>
      3.91583657e+00 7.42094755e+00 9.99436092e+00 1.26905451e+01</_>
    <_>
      7.46808290e-01 3.91583657e+00 7.42094755e+00 9.99436092e+00</_>
    <_>
      -1.99148762e+00 7.46808290e-01 3.91583657e+00 7.42094755e+00</_>
    <_>
      -5.44559336e+00 -1.99148762e+00 7.46808290e-01 3.91583657e+00</_>
    <_>
      -7.73766327e+00 -5.44559336e+00 -1.99148762e+00 7.46808290e-01</_>
    <_>
      -1.10360041e+01 -7.73766327e+00 -5.44559336e+00 -1.99148762e+00</_>
    <_>
      -1.28189344e+01 -1.10360041e+01 -7.73766327e+00 -5.44559336e+00</_>
    <_>
      -1.41921177e+01 -1.28189344e+01 -1.10360041e+01 -7.73766327e+00</_>
    <_>
      -1.44223232e+01 -1.41921177e+01 -1.28189344e+01 -1.10360041e+01</_>
    <_>
      -1.39653015e+01 -1.44223232e+01 -1.41921177e+01 -1.28189344e+01</_>
    <_>
      -1.20135212e+01 -1.39653015e+01 -1.44223232e+01 -1.41921177e+01</_>
    <_>
      -8.99869156e+00 -1.20135212e+01 -1.39653015e+01 -1.44223232e+01</_>
    <_>
      -5.48004293e+00 -8.99869156e+00 -1.20135212e+01 -1.39653015e+01</_>
    <_>
      -2.03185773e+00 -5.48004293e+00 -8.99869156e+00 -1.20135212e+01</_>
    <_>
      -3.51989679e-02 -2.03185773e+00 -5.48004293e+00 -8.99869156e+00</_>
    <_>
      3.84334922e-01 -3.51989679e-02 -2.03185773e+00 -5.48004293e+00</_>
    <_>
      3.41034508e+00 3.84334922e-01 -3.51989679e-02 -2.03185773e+00</_>
    <_>
      5.47263145e+00 3.41034508e+00 3.84334922e-01 -3.51989679e-02</_>
    <_>
      9.24702644e+00 5.47263145e+00 3.41034508e+00 3.84334922e-01</_>
    <_>
      1.22628202e+01 9.24702644e+00 5.47263145e+00 3.41034508e+00</_>
    <_>
      1.37803221e+01 1.22628202e+01 9.24702644e+00 5.47263145e+00</_>
    <_>
      1.44440470e+01 1.37803221e+01 1.22628202e+01 9.24702644e+00</_>
    <_>
      1.30852299e+01 1.44440470e+01 1.37803221e+01 1.22628202e+01</_>
    <_>
      1.09158440e+01 1.30852299e+01 1.44440470e+01 1.37803221e+01</_>
    <_>
      8.49724102e+00 1.09158440e+01 1.30852299e+01 1.44440470e+01</_>
    <_>
      6.11934805e+00 8.49724102e+00 1.09158440e+01 1.30852299e+01</_>
    <_>
      3.52953410e+00 6.11934805e+00 8.49724102e+00 1.09158440e+01</_>
    <_>
      1.00722551e+00 3.52953410e+00 6.11934805e+00 8.49724102e+00</_>
    <_>
      -1.09715831e+00 1.00722551e+00 3.52953410e+00 6.11934805e+00</_>
    <_>
      -2.89698768e+00 -1.09715831e+00 1.00722551e+00 3.52953410e+00</_>
    <_>
      -6.61038208e+00 -2.89698768e+00 -1.09715831e+00 1.00722551e+00</_>
    <_>
      -9.60947323e+00 -6.61038208e+00 -2.89698768e+00 -1.09715831e+00</_>
    <_>
      -1.31398230e+01 -9.60947323e+00 -6.61038208e+00 -2.89698768e+00</_>
    <_>
      -1.49119844e+01 -1.31398230e+01 -9.60947323e+00 -6.61038208e+00</_>
    <_>
      -1.50427971e+01 -1.49119844e+01 -1.31398230e+01 -9.60947323e+00</_>
    <_>
      -1.44207220e+01 -1.50427971e+01 -1.49119844e+01 -1.31398230e+01</_>
    <_>
      -1.21684265e+01 -1.44207220e+01 -1.50427971e+01 -1.49119844e+01</_>
    <_>
      -8.58082962e+00 -1.21684265e+01 -1.44207220e+01 -1.50427971e+01</_>
    <_>
      -5.44100380e+00 -8.58082962e+00 -1.21684265e+01 -1.44207220e+01</_>
    <_>
      -2.35706419e-02 -5.44100380e+00 -8.58082962e+00 -1.21684265e+01</_>
    <_>
      4.37684345e+00 -2.35706419e-02 -5.44100380e+00 -8.58082962e+00</_>
    <_>
      6.12271166e+00 4.37684345e+00 -2.35706419e-02 -5.44100380e+00</_>
    <_>
      6.12271166e+00 4.37684345e+00 -2.35706419e-02 -5.44100380e+00</_>
    <_>
      1.46734495e+01 6.12271166e+00 4.37684345e+00 -2.35706419e-02</_>
    <_>
      1.63675117e+01 1.46734495e+01 6.12271166e+00 4.37684345e+00</_>
    <_>
      1.54031715e+01 1.63675117e+01 1.46734495e+01 6.12271166e+00</_>
    <_>
      1.22275076e+01 1.54031715e+01 1.63675117e+01 1.46734495e+01</_>
    <_>
      9.73780441e+00 1.22275076e+01 1.54031715e+01 1.63675117e+01</_>
    <_>
      4.85709095e+00 9.73780441e+00 1.22275076e+01 1.54031715e+01</_>
    <_>
      2.07464361e+00 4.85709095e+00 9.73780441e+00 1.22275076e+01</_>
    <_>
      -1.66998386e+00 2.07464361e+00 4.85709095e+00 9.73780441e+00</_>
    <_>
      -5.63474464e+00 -1.66998386e+00 2.07464361e+00 4.85709095e+00</_>
    <_>
      -7.73239326e+00 -5.63474464e+00 -1.66998386e+00 2.07464361e+00</_>
    <_>
      -1.13566895e+01 -7.73239326e+00 -5.63474464e+00 -1.66998386e+00</_>
    <_>
      -1.38571844e+01 -1.13566895e+01 -7.73239326e+00 -5.63474464e+00</_>
    <_>
      -1.53373194e+01 -1.38571844e+01 -1.13566895e+01 -7.73239326e+00</_>
    <_>
      -1.56317148e+01 -1.53373194e+01 -1.38571844e+01 -1.13566895e+01</_>
    <_>
      -1.47180214e+01 -1.56317148e+01 -1.53373194e+01 -1.38571844e+01</_>
    <_>
      -1.22763672e+01 -1.47180214e+01 -1.56317148e+01 -1.53373194e+01</_>
    <_>
      -1.04904613e+01 -1.22763672e+01 -1.47180214e+01 -1.56317148e+01</_>
    <_>
      -6.24969673e+00 -1.04904613e+01 -1.22763672e+01 -1.47180214e+01</_>
    <_>
      -1.95928741e+00 -6.24969673e+00 -1.04904613e+01 -1.22763672e+01</_>
    <_>
      1.99943376e+00 -1.95928741e+00 -6.24969673e+00 -1.04904613e+01</_>
    <_>
      3.30192208e+00 1.99943376e+00 -1.95928741e+00 -6.24969673e+00</_>
    <_>
      5.21731901e+00 3.30192208e+00 1.99943376e+00 -1.95928741e+00</_>
    <_>
      9.44388199e+00 5.21731901e+00 3.30192208e+00 1.99943376e+00</_>
    <_>
      1.24922867e+01 9.44388199e+00 5.21731901e+00 3.30192208e+00</_>
    <_>
      1.44858274e+01 1.24922867e+01 9.44388199e+00 5.21731901e+00</_>
    <_>
      1.42426500e+01 1.44858274e+01 1.24922867e+01 9.44388199e+00</_>
    <_>
      1.28522577e+01 1.42426500e+01 1.44858274e+01 1.24922867e+01</_>
    <_>
      9.76465988e+00 1.28522577e+01 1.42426500e+01 1.44858274e+01</_>
    <_>
      7.87366867e+00 9.76465988e+00 1.28522577e+01 1.42426500e+01</_>
    <_>
      4.52993345e+00 7.87366867e+00 9.76465988e+00 1.28522577e+01</_>
    <_>
      1.38899052e+00 4.52993345e+00 7.87366867e+00 9.76465988e+00</_>
    <_>
      -1.99418688e+00 1.38899052e+00 4.52993345e+00 7.87366867e+00</_>
    <_>
      -4.44759226e+00 -1.99418688e+00 1.38899052e+00 4.52993345e+00</_>
    <_>
      -6.41590214e+00 -4.44759226e+00 -1.99418688e+00 1.38899052e+00</_>
    <_>
      -9.28843880e+00 -6.41590214e+00 -4.44759226e+00 -1.99418688e+00</_>
    <_>
      -1.09996538e+01 -9.28843880e+00 -6.41590214e+00 -4.44759226e+00</_>
    <_>
      -1.27264290e+01 -1.09996538e+01 -9.28843880e+00 -6.41590214e+00</_>
    <_>
      -1.35747843e+01 -1.27264290e+01 -1.09996538e+01 -9.28843880e+00</_>
    <_>
      -1.37320404e+01 -1.35747843e+01 -1.27264290e+01 -1.09996538e+01</_>
    <_>
      -1.28924885e+01 -1.37320404e+01 -1.35747843e+01 -1.27264290e+01</_>
    <_>
      -1.05552835e+01 -1.28924885e+01 -1.37320404e+01 -1.35747843e+01</_>
    <_>
      -7.22189188e+00 -1.05552835e+01 -1.28924885e+01 -1.37320404e+01</_>
    <_>
      -3.16084456e+00 -7.22189188e+00 -1.05552835e+01 -1.28924885e+01</_>
    <_>
      -1.12028849e+00 -3.16084456e+00 -7.22189188e+00 -1.05552835e+01</_>
    <_>
      1.57651985e+00 -1.12028849e+00 -3.16084456e+00 -7.22189188e+00</_>
    <_>
      3.82247734e+00 1.57651985e+00 -1.12028849e+00 -3.16084456e+00</_>
    <_>
      8.07389164e+00 3.82247734e+00 1.57651985e+00 -1.12028849e+00</_>
    <_>
      1.16411610e+01 8.07389164e+00 3.82247734e+00 1.57651985e+00</_>
    <_>
      1.41094074e+01 1.16411610e+01 8.07389164e+00 3.82247734e+00</_>
    <_>
      1.51345005e+01 1.41094074e+01 1.16411610e+01 8.07389164e+00</_>
    <_>
      1.41775990e+01 1.51345005e+01 1.41094074e+01 1.16411610e+01</_>
    <_>
      1.31465187e+01 1.41775990e+01 1.51345005e+01 1.41094074e+01</_>
    <_>
      9.73469067e+00 1.31465187e+01 1.41775990e+01 1.51345005e+01</_>
    <_>
      5.98713303e+00 9.73469067e+00 1.31465187e+01 1.41775990e+01</_>
    <_>
      2.19937396e+00 5.98713303e+00 9.73469067e+00 1.31465187e+01</_>
    <_>
      -8.00558925e-01 2.19937396e+00 5.98713303e+00 9.73469067e+00</_>
    <_>
      -4.31667471e+00 -8.00558925e-01 2.19937396e+00 5.98713303e+00</_>
    <_>
      -6.60774374e+00 -4.31667471e+00 -8.00558925e-01 2.19937396e+00</_>
    <_>
      -8.90016556e+00 -6.60774374e+00 -4.31667471e+00 -8.00558925e-01</_>
    <_>
      -1.15250721e+01 -8.90016556e+00 -6.60774374e+00 -4.31667471e+00</_>
    <_>
      -1.29286757e+01 -1.15250721e+01 -8.90016556e+00 -6.60774374e+00</_>
    <_>
      -1.34799204e+01 -1.29286757e+01 -1.15250721e+01 -8.90016556e+00</_>
    <_>
      -1.32813358e+01 -1.34799204e+01 -1.29286757e+01 -1.15250721e+01</_>
    <_>
      -1.18872919e+01 -1.32813358e+01 -1.34799204e+01 -1.29286757e+01</_>
    <_>
      -9.58788586e+00 -1.18872919e+01 -1.32813358e+01 -1.34799204e+01</_>
    <_>
      -7.45203257e+00 -9.58788586e+00 -1.18872919e+01 -1.32813358e+01</_>
    <_>
      -5.00277328e+00 -7.45203257e+00 -9.58788586e+00 -1.18872919e+01</_>
    <_>
      -1.71310425e+00 -5.00277328e+00 -7.45203257e+00 -9.58788586e+00</_>
    <_>
      9.34999645e-01 -1.71310425e+00 -5.00277328e+00 -7.45203257e+00</_>
    <_>
      2.61192608e+00 9.34999645e-01 -1.71310425e+00 -5.00277328e+00</_>
    <_>
      6.22119331e+00 2.61192608e+00 9.34999645e-01 -1.71310425e+00</_>
    <_>
      9.60802841e+00 6.22119331e+00 2.61192608e+00 9.34999645e-01</_>
    <_>
      1.20332441e+01 9.60802841e+00 6.22119331e+00 2.61192608e+00</_>
    <_>
      -3.78388129e-02 1.20332441e+01 9.60802841e+00 6.22119331e+00</_>
    <_>
      -3.78388129e-02 -3.78388129e-02 1.20332441e+01 9.60802841e+00</_>
    <_>
      -3.78379412e-02 -3.78388129e-02 -3.78388129e-02 1.20332441e+01</_>
    <_>
      -7.83532500e-01 -4.27523166e-01 -2.01283991e-01 -9.93332043e-02</_>
    <_>
      -9.46865082e-01 -7.83532500e-01 -4.27523166e-01 -2.01283991e-01</_>
    <_>
      -9.40245211e-01 -9.46865082e-01 -7.83532500e-01 -4.27523166e-01</_>
    <_>
      -7.67004013e-01 -9.40245211e-01 -9.46865082e-01 -7.83532500e-01</_>
    <_>
      2.80257076e-01 -1.13811217e-01 -4.76574689e-01 -7.67004013e-01</_>
    <_>
      5.72936177e-01 2.80257076e-01 -1.13811217e-01 -4.76574689e-01</_>
    <_>
      7.26249754e-01 6.36389554e-01 5.72936177e-01 2.80257076e-01</_>
    <_>
      6.79120004e-01 7.26249754e-01 6.36389554e-01 5.72936177e-01</_>
    <_>
      2.28716969e-01 2.64512837e-01 3.62921447e-01 6.79120004e-01</_>
    <_>
      -2.82035232e-01 -1.99545342e-02 2.28716969e-01 2.64512837e-01</_>
    <_>
      -6.36838496e-01 -2.82035232e-01 -1.99545342e-02 2.28716969e-01</_>
    <_>
      -9.69878852e-01 -8.99158955e-01 -7.68862963e-01 -6.36838496e-01</_>
    <_>
      -9.15457070e-01 -9.69878852e-01 -8.99158955e-01 -7.68862963e-01</_>
    <_>
      -1.02016807e+00 -9.15457070e-01 -9.69878852e-01 -8.99158955e-01</_>
    <_>
      -1.01558447e+00 -1.02016807e+00 -9.15457070e-01 -9.69878852e-01</_>
    <_>
      -1.13654816e+00 -1.01558447e+00 -1.02016807e+00 -9.15457070e-01</_>
    <_>
      -1.38940859e+00 -1.13654816e+00 -1.01558447e+00 -1.02016807e+00</_>
    <_>
      -1.88305557e+00 -1.38940859e+00 -1.13654816e+00 -1.01558447e+00</_>
    <_>
      -2.32973576e+00 -1.88305557e+00 -1.38940859e+00 -1.13654816e+00</_>
    <_>
      -3.07846475e+00 -2.32973576e+00 -1.88305557e+00 -1.38940859e+00</_>
    <_>
      -3.85138011e+00 -3.07846475e+00 -2.32973576e+00 -1.88305557e+00</_>
    <_>
      -4.04750538e+00 -3.85138011e+00 -3.07846475e+00 -2.32973576e+00</_>
    <_>
      -4.27755117e+00 -4.04750538e+00 -3.85138011e+00 -3.07846475e+00</_>
    <_>
      -3.76250410e+00 -4.27755117e+00 -4.04750538e+00 -3.85138011e+00</_>
    <_>
      -2.95953822e+00 -3.76250410e+00 -4.27755117e+00 -4.04750538e+00</_>
    <_>
      -1.72844875e+00 -2.95953822e+00 -3.76250410e+00 -4.27755117e+00</_>
    <_>
      -3.76120359e-01 -1.72844875e+00 -2.95953822e+00 -3.76250410e+00</_>
    <_>
      5.16345680e-01 -3.76120359e-01 -1.72844875e+00 -2.95953822e+00</_>
    <_>
      1.99778140e+00 5.16345680e-01 -3.76120359e-01 -1.72844875e+00</_>
    <_>
      2.98386312e+00 1.99778140e+00 5.16345680e-01 -3.76120359e-01</_>
    <_>
      3.81246305e+00 2.98386312e+00 1.99778140e+00 5.16345680e-01</_>
    <_>
      4.54309416e+00 3.81246305e+00 2.98386312e+00 1.99778140e+00</_>
    <_>
      5.00045490e+00 4.54309416e+00 3.81246305e+00 2.98386312e+00</_>
    <_>
      5.79998827e+00 5.00045490e+00 4.54309416e+00 3.81246305e+00</_>
    <_>
      5.92464256e+00 5.79998827e+00 5.00045490e+00 4.54309416e+00</_>
    <_>
      6.15198708e+00 5.92464256e+00 5.79998827e+00 5.00045490e+00</_>
    <_>
      6.21894503e+00 6.15198708e+00 5.92464256e+00 5.79998827e+00</_>
    <_>
      5.83226109e+00 6.21894503e+00 6.15198708e+00 5.92464256e+00</_>
    <_>
      5.77003956e+00 5.83226109e+00 6.21894503e+00 6.15198708e+00</_>
    <_>
      5.09923458e+00 5.77003956e+00 5.83226109e+00 6.21894503e+00</_>
    <_>
      4.51917839e+00 5.09923458e+00 5.77003956e+00 5.83226109e+00</_>
    <_>
      3.67455983e+00 4.51917839e+00 5.09923458e+00 5.77003956e+00</_>
    <_>
      3.02754664e+00 3.67455983e+00 4.51917839e+00 5.09923458e+00</_>
    <_>
      2.18486571e+00 3.02754664e+00 3.67455983e+00 4.51917839e+00</_>
    <_>
      1.99547434e+00 2.18486571e+00 3.02754664e+00 3.67455983e+00</_>
    <_>
      1.67526066e+00 1.99547434e+00 2.18486571e+00 3.02754664e+00</_>
    <_>
      1.06334376e+00 1.67526066e+00 1.99547434e+00 2.18486571e+00</_>
    <_>
      -1.62825584e-02 1.06334376e+00 1.67526066e+00 1.99547434e+00</_>
    <_>
      -1.54666042e+00 -1.62825584e-02 1.06334376e+00 1.67526066e+00</_>
    <_>
      -2.94587564e+00 -1.54666042e+00 -1.62825584e-02 1.06334376e+00</_>
    <_>
      -4.95779610e+00 -2.94587564e+00 -1.54666042e+00 -1.62825584e-02</_>
    <_>
      -4.95779610e+00 -2.94587564e+00 -1.54666042e+00 -1.62825584e-02</_>
    <_>
      -7.87315464e+00 -4.95779610e+00 -2.94587564e+00 -1.54666042e+00</_>
    <_>
      -7.87315464e+00 -4.95779610e+00 -2.94587564e+00 -1.54666042e+00</_>
    <_>
      -7.87315464e+00 -4.95779610e+00 -2.94587564e+00 -1.54666042e+00</_>
    <_>
      -7.87315464e+00 -4.95779610e+00 -2.94587564e+00 -1.54666042e+00</_>
    <_>
      -7.87315464e+00 -4.95779610e+00 -2.94587564e+00 -1.54666042e+00</_>
    <_>
      -9.08125496e+00 -7.87315464e+00 -4.95779610e+00 -2.94587564e+00</_>
    <_>
      -9.08125496e+00 -7.87315464e+00 -4.95779610e+00 -2.94587564e+00</_>
    <_>
      -9.37994576e+00 -9.08125496e+00 -7.87315464e+00 -4.95779610e+00</_>
    <_>
      -8.06025887e+00 -9.37994576e+00 -9.08125496e+00 -7.87315464e+00</_>
    <_>
      -8.97916603e+00 -8.06025887e+00 -9.37994576e+00 -9.08125496e+00</_>
    <_>
      -6.28851271e+00 -8.97916603e+00 -8.06025887e+00 -9.37994576e+00</_>
    <_>
      -2.56834984e+00 -6.28851271e+00 -8.97916603e+00 -8.06025887e+00</_>
    <_>
      -2.43640356e-02 -2.56834984e+00 -6.28851271e+00 -8.97916603e+00</_>
    <_>
      3.77927899e+00 -2.43640356e-02 -2.56834984e+00 -6.28851271e+00</_>
    <_>
      5.44176102e+00 3.77927899e+00 -2.43640356e-02 -2.56834984e+00</_>
    <_>
      7.19121313e+00 5.44176102e+00 3.77927899e+00 -2.43640356e-02</_>
    <_>
      7.82440853e+00 7.19121313e+00 5.44176102e+00 3.77927899e+00</_>
    <_>
      7.97790575e+00 7.82440853e+00 7.19121313e+00 5.44176102e+00</_>
    <_>
      7.58942175e+00 7.97790575e+00 7.82440853e+00 7.19121313e+00</_>
    <_>
      7.38921213e+00 7.58942175e+00 7.97790575e+00 7.82440853e+00</_>
    <_>
      1.04892483e+01 7.38921213e+00 7.58942175e+00 7.97790575e+00</_>
    <_>
      9.43907166e+00 1.04892483e+01 7.38921213e+00 7.58942175e+00</_>
    <_>
      8.45927143e+00 9.43907166e+00 1.04892483e+01 7.38921213e+00</_>
    <_>
      8.26856613e+00 8.45927143e+00 9.43907166e+00 1.04892483e+01</_>
    <_>
      5.02770185e+00 8.26856613e+00 8.45927143e+00 9.43907166e+00</_>
    <_>
      3.97105885e+00 5.02770185e+00 8.26856613e+00 8.45927143e+00</_>
    <_>
      2.29225206e+00 3.97105885e+00 5.02770185e+00 8.26856613e+00</_>
    <_>
      -1.78957552e-01 2.29225206e+00 3.97105885e+00 5.02770185e+00</_>
    <_>
      -1.12852216e-01 -1.78957552e-01 2.29225206e+00 3.97105885e+00</_>
    <_>
      -1.23102927e+00 -1.12852216e-01 -1.78957552e-01 2.29225206e+00</_>
    <_>
      -2.55414271e+00 -1.23102927e+00 -1.12852216e-01 -1.78957552e-01</_>
    <_>
      -3.60794020e+00 -2.55414271e+00 -1.23102927e+00 -1.12852216e-01</_>
    <_>
      -5.23933125e+00 -3.60794020e+00 -2.55414271e+00 -1.23102927e+00</_>
    <_>
      -6.16617250e+00 -5.23933125e+00 -3.60794020e+00 -2.55414271e+00</_>
    <_>
      -6.46129942e+00 -6.16617250e+00 -5.23933125e+00 -3.60794020e+00</_>
    <_>
      -5.96819782e+00 -6.46129942e+00 -6.16617250e+00 -5.23933125e+00</_>
    <_>
      -5.48052883e+00 -5.96819782e+00 -6.46129942e+00 -6.16617250e+00</_>
    <_>
      -4.61770630e+00 -5.48052883e+00 -5.96819782e+00 -6.46129942e+00</_>
    <_>
      -3.57309532e+00 -4.61770630e+00 -5.48052883e+00 -5.96819782e+00</_>
    <_>
      -3.57309532e+00 -4.61770630e+00 -5.48052883e+00 -5.96819782e+00</_>
    <_>
      -3.57309532e+00 -4.61770630e+00 -5.48052883e+00 -5.96819782e+00</_>
    <_>
      -1.87938869e+00 -3.57309532e+00 -4.61770630e+00 -5.48052883e+00</_>
    <_>
      -1.87938869e+00 -3.57309532e+00 -4.61770630e+00 -5.48052883e+00</_>
    <_>
      -4.06678438e+00 -1.87938869e+00 -3.57309532e+00 -4.61770630e+00</_>
    <_>
      -5.36798668e+00 -4.06678438e+00 -1.87938869e+00 -3.57309532e+00</_>
    <_>
      -6.30096817e+00 -5.36798668e+00 -4.06678438e+00 -1.87938869e+00</_>
    <_>
      -6.22058821e+00 -6.30096817e+00 -5.36798668e+00 -4.06678438e+00</_>
    <_>
      -4.71387720e+00 -6.22058821e+00 -6.30096817e+00 -5.36798668e+00</_>
    <_>
      -3.44533801e+00 -4.71387720e+00 -6.22058821e+00 -6.30096817e+00</_>
    <_>
      -1.31074810e+00 -3.44533801e+00 -4.71387720e+00 -6.22058821e+00</_>
    <_>
      6.12775147e-01 -1.31074810e+00 -3.44533801e+00 -4.71387720e+00</_>
    <_>
      2.44152761e+00 6.12775147e-01 -1.31074810e+00 -3.44533801e+00</_>
    <_>
      3.61738992e+00 2.44152761e+00 6.12775147e-01 -1.31074810e+00</_>
    <_>
      4.28313065e+00 3.61738992e+00 2.44152761e+00 6.12775147e-01</_>
    <_>
      4.28313065e+00 3.61738992e+00 2.44152761e+00 6.12775147e-01</_>
    <_>
      4.07378578e+00 4.28313065e+00 3.61738992e+00 2.44152761e+00</_>
    <_>
      3.55746913e+00 4.07378578e+00 4.28313065e+00 3.61738992e+00</_>
    <_>
      3.56072831e+00 3.55746913e+00 4.07378578e+00 4.28313065e+00</_>
    <_>
      3.94939733e+00 3.56072831e+00 3.55746913e+00 4.07378578e+00</_>
    <_>
      5.47278547e+00 3.94939733e+00 3.56072831e+00 3.55746913e+00</_>
    <_>
      7.71416521e+00 5.47278547e+00 3.94939733e+00 3.56072831e+00</_>
    <_>
      9.44232845e+00 7.71416521e+00 5.47278547e+00 3.94939733e+00</_>
    <_>
      1.01628666e+01 9.44232845e+00 7.71416521e+00 5.47278547e+00</_>
    <_>
      9.67306709e+00 1.01628666e+01 9.44232845e+00 7.71416521e+00</_>
    <_>
      7.58965588e+00 9.67306709e+00 1.01628666e+01 9.44232845e+00</_>
    <_>
      4.30810785e+00 7.58965588e+00 9.67306709e+00 1.01628666e+01</_>
    <_>
      -4.08604920e-01 4.30810785e+00 7.58965588e+00 9.67306709e+00</_>
    <_>
      -2.93291688e+00 -4.08604920e-01 4.30810785e+00 7.58965588e+00</_>
    <_>
      -5.74209356e+00 -2.93291688e+00 -4.08604920e-01 4.30810785e+00</_>
    <_>
      -8.64829826e+00 -5.74209356e+00 -2.93291688e+00 -4.08604920e-01</_>
    <_>
      -9.71651936e+00 -8.64829826e+00 -5.74209356e+00 -2.93291688e+00</_>
    <_>
      -1.12431707e+01 -9.71651936e+00 -8.64829826e+00 -5.74209356e+00</_>
    <_>
      -1.10753136e+01 -1.12431707e+01 -9.71651936e+00 -8.64829826e+00</_>
    <_>
      -1.05217838e+01 -1.10753136e+01 -1.12431707e+01 -9.71651936e+00</_>
    <_>
      -9.35338211e+00 -1.05217838e+01 -1.10753136e+01 -1.12431707e+01</_>
    <_>
      -6.64527655e+00 -9.35338211e+00 -1.05217838e+01 -1.10753136e+01</_>
    <_>
      -5.13057232e+00 -6.64527655e+00 -9.35338211e+00 -1.05217838e+01</_>
    <_>
      -2.16079903e+00 -5.13057232e+00 -6.64527655e+00 -9.35338211e+00</_>
    <_>
      -2.16079903e+00 -5.13057232e+00 -6.64527655e+00 -9.35338211e+00</_>
    <_>
      -2.16079903e+00 -5.13057232e+00 -6.64527655e+00 -9.35338211e+00</_>
    <_>
      4.04059649e+00 -2.16079903e+00 -5.13057232e+00 -6.64527655e+00</_>
    <_>
      5.13334465e+00 4.04059649e+00 -2.16079903e+00 -5.13057232e+00</_>
    <_>
      6.60056734e+00 5.13334465e+00 4.04059649e+00 -2.16079903e+00</_>
    <_>
      6.85007334e+00 6.60056734e+00 5.13334465e+00 4.04059649e+00</_>
    <_>
      6.51878452e+00 6.85007334e+00 6.60056734e+00 5.13334465e+00</_>
    <_>
      5.71217918e+00 6.51878452e+00 6.85007334e+00 6.60056734e+00</_>
    <_>
      3.86213994e+00 5.71217918e+00 6.51878452e+00 6.85007334e+00</_>
    <_>
      2.94249320e+00 3.86213994e+00 5.71217918e+00 6.51878452e+00</_>
    <_>
      1.08183789e+00 2.94249320e+00 3.86213994e+00 5.71217918e+00</_>
    <_>
      4.72029299e-01 1.08183789e+00 2.94249320e+00 3.86213994e+00</_>
    <_>
      3.79697412e-01 4.72029299e-01 1.08183789e+00 2.94249320e+00</_>
    <_>
      -5.42357862e-01 3.79697412e-01 4.72029299e-01 1.08183789e+00</_>
    <_>
      -4.49694037e-01 -5.42357862e-01 3.79697412e-01 4.72029299e-01</_>
    <_>
      -8.65685701e-01 -4.49694037e-01 -5.42357862e-01 3.79697412e-01</_>
    <_>
      -8.70423853e-01 -8.65685701e-01 -4.49694037e-01 -5.42357862e-01</_>
    <_>
      -9.66731966e-01 -8.70423853e-01 -8.65685701e-01 -4.49694037e-01</_>
    <_>
      -8.04578960e-01 -9.66731966e-01 -8.70423853e-01 -8.65685701e-01</_>
    <_>
      -7.43500590e-01 -8.04578960e-01 -9.66731966e-01 -8.70423853e-01</_>
    <_>
      -2.53673643e-01 -7.43500590e-01 -8.04578960e-01 -9.66731966e-01</_>
    <_>
      -9.26424414e-02 -2.53673643e-01 -7.43500590e-01 -8.04578960e-01</_>
    <_>
      2.57653266e-01 3.57776843e-02 -9.26424414e-02 -2.53673643e-01</_>
    <_>
      1.06847012e+00 2.57653266e-01 3.57776843e-02 -9.26424414e-02</_>
    <_>
      2.16917920e+00 1.06847012e+00 2.57653266e-01 3.57776843e-02</_>
    <_>
      3.85493708e+00 2.16917920e+00 1.06847012e+00 2.57653266e-01</_>
    <_>
      5.04559946e+00 3.85493708e+00 2.16917920e+00 1.06847012e+00</_>
    <_>
      6.50394440e+00 5.04559946e+00 3.85493708e+00 2.16917920e+00</_>
    <_>
      7.49169111e+00 6.50394440e+00 5.04559946e+00 3.85493708e+00</_>
    <_>
      7.92131615e+00 7.49169111e+00 6.50394440e+00 5.04559946e+00</_>
    <_>
      7.85483265e+00 7.92131615e+00 7.49169111e+00 6.50394440e+00</_>
    <_>
      7.04218102e+00 7.85483265e+00 7.92131615e+00 7.49169111e+00</_>
    <_>
      5.97573805e+00 7.04218102e+00 7.85483265e+00 7.92131615e+00</_>
    <_>
      3.71940517e+00 5.97573805e+00 7.04218102e+00 7.85483265e+00</_>
    <_>
      2.99457860e+00 3.71940517e+00 5.97573805e+00 7.04218102e+00</_>
    <_>
      2.16406798e+00 2.99457860e+00 3.71940517e+00 5.97573805e+00</_>
    <_>
      8.78230095e-01 2.16406798e+00 2.99457860e+00 3.71940517e+00</_>
    <_>
      -5.27463734e-01 8.78230095e-01 2.16406798e+00 2.99457860e+00</_>
    <_>
      -2.75253224e+00 -5.27463734e-01 8.78230095e-01 2.16406798e+00</_>
    <_>
      -5.36952972e+00 -2.75253224e+00 -5.27463734e-01 8.78230095e-01</_>
    <_>
      -8.20877934e+00 -5.36952972e+00 -2.75253224e+00 -5.27463734e-01</_>
    <_>
      -9.80137825e+00 -8.20877934e+00 -5.36952972e+00 -2.75253224e+00</_>
    <_>
      -9.80137825e+00 -8.20877934e+00 -5.36952972e+00 -2.75253224e+00</_>
    <_>
      -9.80137825e+00 -8.20877934e+00 -5.36952972e+00 -2.75253224e+00</_>
    <_>
      -1.04484692e+01 -9.80137825e+00 -8.20877934e+00 -5.36952972e+00</_>
    <_>
      -1.20690889e+01 -1.04484692e+01 -9.80137825e+00 -8.20877934e+00</_>
    <_>
      -1.46950512e+01 -1.20690889e+01 -1.04484692e+01 -9.80137825e+00</_>
    <_>
      -1.34561014e+01 -1.46950512e+01 -1.20690889e+01 -1.04484692e+01</_>
    <_>
      -1.01390896e+01 -1.34561014e+01 -1.46950512e+01 -1.20690889e+01</_>
    <_>
      -7.82291174e+00 -1.01390896e+01 -1.34561014e+01 -1.46950512e+01</_>
    <_>
      -2.96106124e+00 -7.82291174e+00 -1.01390896e+01 -1.34561014e+01</_>
    <_>
      -1.11880049e-01 -2.96106124e+00 -7.82291174e+00 -1.01390896e+01</_>
    <_>
      3.09902906e+00 -1.11880049e-01 -2.96106124e+00 -7.82291174e+00</_>
    <_>
      3.90897751e+00 3.09902906e+00 -1.11880049e-01 -2.96106124e+00</_>
    <_>
      5.38784790e+00 3.90897751e+00 3.09902906e+00 -1.11880049e-01</_>
    <_>
      6.11206341e+00 5.38784790e+00 3.90897751e+00 3.09902906e+00</_>
    <_>
      6.69450331e+00 6.11206341e+00 5.38784790e+00 3.90897751e+00</_>
    <_>
      7.34779263e+00 6.69450331e+00 6.11206341e+00 5.38784790e+00</_>
    <_>
      7.17943382e+00 7.34779263e+00 6.69450331e+00 6.11206341e+00</_>
    <_>
      7.78213406e+00 7.17943382e+00 7.34779263e+00 6.69450331e+00</_>
    <_>
      7.75206470e+00 7.78213406e+00 7.17943382e+00 7.34779263e+00</_>
    <_>
      7.25532579e+00 7.75206470e+00 7.78213406e+00 7.17943382e+00</_>
    <_>
      7.03391171e+00 7.25532579e+00 7.75206470e+00 7.78213406e+00</_>
    <_>
      5.55368662e+00 7.03391171e+00 7.25532579e+00 7.75206470e+00</_>
    <_>
      5.14475441e+00 5.55368662e+00 7.03391171e+00 7.25532579e+00</_>
    <_>
      3.92086935e+00 5.14475441e+00 5.55368662e+00 7.03391171e+00</_>
    <_>
      2.30352974e+00 3.92086935e+00 5.14475441e+00 5.55368662e+00</_>
    <_>
      4.46407259e-01 2.30352974e+00 3.92086935e+00 5.14475441e+00</_>
    <_>
      -1.57614958e+00 4.46407259e-01 2.30352974e+00 3.92086935e+00</_>
    <_>
      -3.50417256e+00 -1.57614958e+00 4.46407259e-01 2.30352974e+00</_>
    <_>
      -4.61864710e+00 -3.50417256e+00 -1.57614958e+00 4.46407259e-01</_>
    <_>
      -5.61223650e+00 -4.61864710e+00 -3.50417256e+00 -1.57614958e+00</_>
    <_>
      -5.46485376e+00 -5.61223650e+00 -4.61864710e+00 -3.50417256e+00</_>
    <_>
      -4.51875830e+00 -5.46485376e+00 -5.61223650e+00 -4.61864710e+00</_>
    <_>
      -3.56250811e+00 -4.51875830e+00 -5.46485376e+00 -5.61223650e+00</_>
    <_>
      -1.99591315e+00 -3.56250811e+00 -4.51875830e+00 -5.46485376e+00</_>
    <_>
      -8.55567873e-01 -1.99591315e+00 -3.56250811e+00 -4.51875830e+00</_>
    <_>
      -1.08894370e-01 -8.55567873e-01 -1.99591315e+00 -3.56250811e+00</_>
    <_>
      3.74324501e-01 -1.08894370e-01 -8.55567873e-01 -1.99591315e+00</_>
    <_>
      1.79761782e-01 3.74324501e-01 -1.08894370e-01 -8.55567873e-01</_>
    <_>
      -2.97793120e-01 1.79761782e-01 3.74324501e-01 -1.08894370e-01</_>
    <_>
      -8.18308949e-01 -2.97793120e-01 1.79761782e-01 3.74324501e-01</_>
    <_>
      -1.22683191e+00 -8.18308949e-01 -2.97793120e-01 1.79761782e-01</_>
    <_>
      -1.51942003e+00 -1.22683191e+00 -8.18308949e-01 -2.97793120e-01</_>
    <_>
      -1.49770880e+00 -1.51942003e+00 -1.22683191e+00 -8.18308949e-01</_>
    <_>
      -1.30119932e+00 -1.49770880e+00 -1.51942003e+00 -1.22683191e+00</_>
    <_>
      -5.35103559e-01 -1.30119932e+00 -1.49770880e+00 -1.51942003e+00</_>
    <_>
      1.90716162e-01 -5.35103559e-01 -1.30119932e+00 -1.49770880e+00</_>
    <_>
      -4.85922724e-01 1.33031771e-01 1.74594328e-01 1.90716162e-01</_>
    <_>
      -1.00464082e+00 -4.85922724e-01 1.33031771e-01 1.74594328e-01</_>
    <_>
      -1.84372139e+00 -1.00464082e+00 -4.85922724e-01 1.33031771e-01</_>
    <_>
      -3.35289431e+00 -1.84372139e+00 -1.00464082e+00 -4.85922724e-01</_>
    <_>
      -4.57691002e+00 -3.35289431e+00 -1.84372139e+00 -1.00464082e+00</_>
    <_>
      -6.26370287e+00 -4.57691002e+00 -3.35289431e+00 -1.84372139e+00</_>
    <_>
      -7.18038559e+00 -6.26370287e+00 -4.57691002e+00 -3.35289431e+00</_>
    <_>
      -7.50946522e+00 -7.18038559e+00 -6.26370287e+00 -4.57691002e+00</_>
    <_>
      -7.03057861e+00 -7.50946522e+00 -7.18038559e+00 -6.26370287e+00</_>
    <_>
      -5.57766962e+00 -7.03057861e+00 -7.50946522e+00 -7.18038559e+00</_>
    <_>
      -4.18916416e+00 -5.57766962e+00 -7.03057861e+00 -7.50946522e+00</_>
    <_>
      -5.37804556e+00 -4.18916416e+00 -5.57766962e+00 -7.03057861e+00</_>
    <_>
      -3.51190782e+00 -5.37804556e+00 -4.18916416e+00 -5.57766962e+00</_>
    <_>
      -1.59879649e+00 -3.51190782e+00 -5.37804556e+00 -4.18916416e+00</_>
    <_>
      -5.95739186e-02 -1.59879649e+00 -3.51190782e+00 -5.37804556e+00</_>
    <_>
      2.84799528e+00 -5.95739186e-02 -1.59879649e+00 -3.51190782e+00</_>
    <_>
      3.90199709e+00 2.84799528e+00 -5.95739186e-02 -1.59879649e+00</_>
    <_>
      6.53766537e+00 3.90199709e+00 2.84799528e+00 -5.95739186e-02</_>
    <_>
      8.12858200e+00 6.53766537e+00 3.90199709e+00 2.84799528e+00</_>
    <_>
      9.94600487e+00 8.12858200e+00 6.53766537e+00 3.90199709e+00</_>
    <_>
      1.08220968e+01 9.94600487e+00 8.12858200e+00 6.53766537e+00</_>
    <_>
      1.08861303e+01 1.08220968e+01 9.94600487e+00 8.12858200e+00</_>
    <_>
      1.13439083e+01 1.08861303e+01 1.08220968e+01 9.94600487e+00</_>
    <_>
      1.03699884e+01 1.13439083e+01 1.08861303e+01 1.08220968e+01</_>
    <_>
      9.43198109e+00 1.03699884e+01 1.13439083e+01 1.08861303e+01</_>
    <_>
      7.76698112e+00 9.43198109e+00 1.03699884e+01 1.13439083e+01</_>
    <_>
      5.38627005e+00 7.76698112e+00 9.43198109e+00 1.03699884e+01</_>
    <_>
      3.76496625e+00 5.38627005e+00 7.76698112e+00 9.43198109e+00</_>
    <_>
      1.46091074e-01 3.76496625e+00 5.38627005e+00 7.76698112e+00</_>
    <_>
      -1.76329911e+00 1.46091074e-01 3.76496625e+00 5.38627005e+00</_>
    <_>
      -4.24769735e+00 -1.76329911e+00 1.46091074e-01 3.76496625e+00</_>
    <_>
      -8.63675022e+00 -4.24769735e+00 -1.76329911e+00 1.46091074e-01</_>
    <_>
      -1.16154509e+01 -8.63675022e+00 -4.24769735e+00 -1.76329911e+00</_>
    <_>
      -1.50375032e+01 -1.16154509e+01 -8.63675022e+00 -4.24769735e+00</_>
    <_>
      -1.59266109e+01 -1.50375032e+01 -1.16154509e+01 -8.63675022e+00</_>
    <_>
      -1.57281942e+01 -1.59266109e+01 -1.50375032e+01 -1.16154509e+01</_>
    <_>
      -1.45503635e+01 -1.57281942e+01 -1.59266109e+01 -1.50375032e+01</_>
    <_>
      -1.08161020e+01 -1.45503635e+01 -1.57281942e+01 -1.59266109e+01</_>
    <_>
      -8.32609749e+00 -1.08161020e+01 -1.45503635e+01 -1.57281942e+01</_>
    <_>
      -3.87002754e+00 -8.32609749e+00 -1.08161020e+01 -1.45503635e+01</_>
    <_>
      -5.94150782e-01 -3.87002754e+00 -8.32609749e+00 -1.08161020e+01</_>
    <_>
      -8.68886232e-01 -5.94150782e-01 -3.87002754e+00 -8.32609749e+00</_>
    <_>
      -8.68886232e-01 -5.94150782e-01 -3.87002754e+00 -8.32609749e+00</_>
    <_>
      1.95881844e+00 -8.68886232e-01 -5.94150782e-01 -3.87002754e+00</_>
    <_>
      1.95881844e+00 -8.68886232e-01 -5.94150782e-01 -3.87002754e+00</_>
    <_>
      1.95881844e+00 -8.68886232e-01 -5.94150782e-01 -3.87002754e+00</_>
    <_>
      8.00161076e+00 1.95881844e+00 -8.68886232e-01 -5.94150782e-01</_>
    <_>
      9.83835793e+00 8.00161076e+00 1.95881844e+00 -8.68886232e-01</_>
    <_>
      1.14728203e+01 9.83835793e+00 8.00161076e+00 1.95881844e+00</_>
    <_>
      9.83926201e+00 1.14728203e+01 9.83835793e+00 8.00161076e+00</_>
    <_>
      7.01063919e+00 9.83926201e+00 1.14728203e+01 9.83835793e+00</_>
    <_>
      5.54935026e+00 7.01063919e+00 9.83926201e+00 1.14728203e+01</_>
    <_>
      1.84388208e+00 5.54935026e+00 7.01063919e+00 9.83926201e+00</_>
    <_>
      -2.47589871e-01 1.84388208e+00 5.54935026e+00 7.01063919e+00</_>
    <_>
      -2.31104779e+00 -2.47589871e-01 1.84388208e+00 5.54935026e+00</_>
    <_>
      -2.89781237e+00 -2.31104779e+00 -2.47589871e-01 1.84388208e+00</_>
    <_>
      -3.10963225e+00 -2.89781237e+00 -2.31104779e+00 -2.47589871e-01</_>
    <_>
      -2.38402629e+00 -3.10963225e+00 -2.89781237e+00 -2.31104779e+00</_>
    <_>
      -1.41188169e+00 -2.38402629e+00 -3.10963225e+00 -2.89781237e+00</_>
    <_>
      5.89726940e-02 -6.13466263e-01 -1.41188169e+00 -2.38402629e+00</_>
    <_>
      5.78184068e-01 5.89726940e-02 -6.13466263e-01 -1.41188169e+00</_>
    <_>
      8.82203519e-01 5.78184068e-01 5.89726940e-02 -6.13466263e-01</_>
    <_>
      9.60440695e-01 8.82203519e-01 5.78184068e-01 5.89726940e-02</_>
    <_>
      9.27742362e-01 9.60440695e-01 8.82203519e-01 5.78184068e-01</_>
    <_>
      6.46762311e-01 9.27742362e-01 9.60440695e-01 8.82203519e-01</_>
    <_>
      -2.80042626e-02 6.46762311e-01 9.27742362e-01 9.60440695e-01</_>
    <_>
      -8.58518720e-01 -2.80042626e-02 6.46762311e-01 9.27742362e-01</_>
    <_>
      -2.13238072e+00 -8.58518720e-01 -2.80042626e-02 6.46762311e-01</_>
    <_>
      -2.90184093e+00 -2.13238072e+00 -8.58518720e-01 -2.80042626e-02</_>
    <_>
      -4.04184103e+00 -2.90184093e+00 -2.13238072e+00 -8.58518720e-01</_>
    <_>
      -4.79996395e+00 -4.04184103e+00 -2.90184093e+00 -2.13238072e+00</_>
    <_>
      -4.88034582e+00 -4.79996395e+00 -4.04184103e+00 -2.90184093e+00</_>
    <_>
      -4.47374249e+00 -4.88034582e+00 -4.79996395e+00 -4.04184103e+00</_>
    <_>
      -3.49378920e+00 -4.47374249e+00 -4.88034582e+00 -4.79996395e+00</_>
    <_>
      -1.99064136e+00 -3.49378920e+00 -4.47374249e+00 -4.88034582e+00</_>
    <_>
      -4.73545820e-01 -1.99064136e+00 -3.49378920e+00 -4.47374249e+00</_>
    <_>
      1.97713959e+00 -4.73545820e-01 -1.99064136e+00 -3.49378920e+00</_>
    <_>
      2.91443324e+00 1.97713959e+00 -4.73545820e-01 -1.99064136e+00</_>
    <_>
      4.37374258e+00 2.91443324e+00 1.97713959e+00 -4.73545820e-01</_>
    <_>
      4.82448339e+00 4.37374258e+00 2.91443324e+00 1.97713959e+00</_>
    <_>
      6.09592152e+00 4.82448339e+00 4.37374258e+00 2.91443324e+00</_>
    <_>
      6.38267231e+00 6.09592152e+00 4.82448339e+00 4.37374258e+00</_>
    <_>
      7.15367985e+00 6.38267231e+00 6.09592152e+00 4.82448339e+00</_>
    <_>
      7.25348663e+00 7.15367985e+00 6.38267231e+00 6.09592152e+00</_>
    <_>
      6.58666086e+00 7.25348663e+00 7.15367985e+00 6.38267231e+00</_>
    <_>
      5.02167654e+00 6.58666086e+00 7.25348663e+00 7.15367985e+00</_>
    <_>
      3.11894035e+00 5.02167654e+00 6.58666086e+00 7.25348663e+00</_>
    <_>
      1.99075127e+00 3.11894035e+00 5.02167654e+00 6.58666086e+00</_>
    <_>
      -3.08439676e-02 1.99075127e+00 3.11894035e+00 5.02167654e+00</_>
    <_>
      -1.38646972e+00 -3.08439676e-02 1.99075127e+00 3.11894035e+00</_>
    <_>
      -1.98474216e+00 -1.38646972e+00 -3.08439676e-02 1.99075127e+00</_>
    <_>
      -2.10998940e+00 -1.98474216e+00 -1.38646972e+00 -3.08439676e-02</_>
    <_>
      -1.93864763e+00 -2.10998940e+00 -1.98474216e+00 -1.38646972e+00</_>
    <_>
      -2.00005651e+00 -1.93864763e+00 -2.10998940e+00 -1.98474216e+00</_>
    <_>
      -1.78446817e+00 -2.00005651e+00 -1.93864763e+00 -2.10998940e+00</_>
    <_>
      -1.96038401e+00 -1.78446817e+00 -2.00005651e+00 -1.93864763e+00</_>
    <_>
      -2.03435230e+00 -1.96038401e+00 -1.78446817e+00 -2.00005651e+00</_>
    <_>
      -2.39369750e+00 -2.03435230e+00 -1.96038401e+00 -1.78446817e+00</_>
    <_>
      -2.54801154e+00 -2.39369750e+00 -2.03435230e+00 -1.96038401e+00</_>
    <_>
      -2.17164350e+00 -2.54801154e+00 -2.39369750e+00 -2.03435230e+00</_>
    <_>
      -1.27608395e+00 -2.17164350e+00 -2.54801154e+00 -2.39369750e+00</_>
    <_>
      -2.74594247e-01 -1.27608395e+00 -2.17164350e+00 -2.54801154e+00</_>
    <_>
      3.45178276e-01 -2.74594247e-01 -1.27608395e+00 -2.17164350e+00</_>
    <_>
      1.43314302e+00 3.45178276e-01 -2.74594247e-01 -1.27608395e+00</_>
    <_>
      1.56571352e+00 1.43314302e+00 3.45178276e-01 -2.74594247e-01</_>
    <_>
      1.94085550e+00 1.56571352e+00 1.43314302e+00 3.45178276e-01</_>
    <_>
      1.94085550e+00 1.56571352e+00 1.43314302e+00 3.45178276e-01</_>
    <_>
      4.57808793e-01 1.94085550e+00 1.56571352e+00 1.43314302e+00</_>
    <_>
      -4.33129787e-01 4.57808793e-01 1.94085550e+00 1.56571352e+00</_>
    <_>
      -1.07580137e+00 -4.33129787e-01 4.57808793e-01 1.94085550e+00</_>
    <_>
      -1.61851346e+00 -1.07580137e+00 -4.33129787e-01 4.57808793e-01</_>
    <_>
      -1.57876527e+00 -1.61851346e+00 -1.07580137e+00 -4.33129787e-01</_>
    <_>
      -1.57876527e+00 -1.61851346e+00 -1.07580137e+00 -4.33129787e-01</_>
    <_>
      -7.34877260e-03 -1.57876527e+00 -1.61851346e+00 -1.07580137e+00</_>
    <_>
      -9.36320797e-02 -7.34877260e-03 -1.57876527e+00 -1.61851346e+00</_>
    <_>
      -5.69480002e-01 -9.36320797e-02 -7.34877260e-03 -1.57876527e+00</_>
    <_>
      -5.69480002e-01 -9.36320797e-02 -7.34877260e-03 -1.57876527e+00</_>
    <_>
      -1.38058233e+00 -5.69480002e-01 -9.36320797e-02 -7.34877260e-03</_>
    <_>
      -1.39222693e+00 -1.38058233e+00 -5.69480002e-01 -9.36320797e-02</_>
    <_>
      -3.34536529e+00 -1.39222693e+00 -1.38058233e+00 -5.69480002e-01</_>
    <_>
      -4.47955704e+00 -3.34536529e+00 -1.39222693e+00 -1.38058233e+00</_>
    <_>
      -4.88368988e+00 -4.47955704e+00 -3.34536529e+00 -1.39222693e+00</_>
    <_>
      -4.13297319e+00 -4.88368988e+00 -4.47955704e+00 -3.34536529e+00</_>
    <_>
      -7.39573479e-01 -4.13297319e+00 -4.88368988e+00 -4.47955704e+00</_>
    <_>
      2.41976213e+00 -7.39573479e-01 -4.13297319e+00 -4.88368988e+00</_>
    <_>
      7.34356403e+00 2.41976213e+00 -7.39573479e-01 -4.13297319e+00</_>
    <_>
      1.14395781e+01 7.34356403e+00 2.41976213e+00 -7.39573479e-01</_>
    <_>
      1.14395781e+01 7.34356403e+00 2.41976213e+00 -7.39573479e-01</_>
    <_>
      1.33437166e+01 1.14395781e+01 7.34356403e+00 2.41976213e+00</_>
    <_>
      1.12138929e+01 1.33437166e+01 1.14395781e+01 7.34356403e+00</_>
    <_>
      1.38271208e+01 1.12138929e+01 1.33437166e+01 1.14395781e+01</_>
    <_>
      9.60209846e+00 1.38271208e+01 1.12138929e+01 1.33437166e+01</_>
    <_>
      6.76115656e+00 9.60209846e+00 1.38271208e+01 1.12138929e+01</_>
    <_>
      6.16726828e+00 6.76115656e+00 9.60209846e+00 1.38271208e+01</_>
    <_>
      1.46775866e+00 6.16726828e+00 6.76115656e+00 9.60209846e+00</_>
    <_>
      2.34479356e+00 1.46775866e+00 6.16726828e+00 6.76115656e+00</_>
    <_>
      -1.31595552e+00 2.34479356e+00 1.46775866e+00 6.16726828e+00</_>
    <_>
      -2.62490177e+00 -1.31595552e+00 2.34479356e+00 1.46775866e+00</_></support_vectors>
  <decision_functions>
    <_>
      <sv_count>51</sv_count>
      <rho>-2.8571996669933220e-01</rho>
      <alpha>
        9.9932388061638777e-01 7.4002488136379396e-01
        8.5574043727936444e-01 8.5151687030369794e-01
        7.4583974241168716e-01 7.8953534381936685e-01
        6.4869825663618030e-01 7.0892928362069574e-01
        5.9190400665194653e-01 7.1428003330054879e-01
        8.3516042823481218e-01 7.1540258663722112e-01
        9.9887744666347800e-01 2.8983207452285881e-01 1.
        6.7718256223255990e-01 7.1012296957875831e-01
        6.3956047025442153e-01 1. 9.7805565016079754e-01
        5.6868220268971570e-01 5.7425255335425451e-01 1. 1. 1.
        8.2949948025446640e-01 1. 8.0421782927963970e-01 -1. -1. -1. -1.
        -1. -1. -5.9266325121827046e-01 -1. -8.5281507812341251e-01 -1.
        -1. -8.3547626867938773e-01 -9.8568439184558176e-01 -1. -1. -1.
        -1. -1. -1. -1. -1. -1. -1.</alpha>
      <index>
        655 364 363 638 639 754 654 637 656 158 658 159 160 702 346 347
        1090 314 615 313 1092 1091 316 256 257 775 617 776 345 317 344
        161 65 727 728 753 64 98 777 258 755 593 348 640 1093 1015 236
        657 18 17 235</index></_>
    <_>
      <sv_count>66</sv_count>
      <rho>1.0486619756969422e-01</rho>
      <alpha>
        9.1447935274340009e-01 1. 1. 8.3508254246358449e-01 1. 1. 1.
        9.9900380895301433e-01 9.9355623410725102e-01
        1.1130852360257758e-01 3.2174856621026648e-01
        6.2867636457011877e-01 1. 1. 1. 9.9750936388436540e-01 1. 1.
        2.9880618636856829e-02 7.9795677767622986e-01
        9.0353425633877149e-01 9.7239996351942359e-01 1.
        4.5096945474538719e-01 9.2485371954986895e-01
        8.3630577009178819e-01 1. 7.0184632553184123e-01
        -5.3089577202618810e-02 -5.3636261751026326e-01
        -4.2817028683168551e-01 -5.6223762557491086e-01
        -4.7106076056227691e-01 -5.1104357508816001e-01
        -9.3418991171201449e-01 -2.5700540408850281e-01
        -3.7771168854765380e-01 -3.9734956791371422e-02
        -5.8191750701578981e-01 -8.6209702257017429e-01
        -6.0512452944777650e-01 -7.3668550115035525e-01
        -3.4424574851711043e-01 -9.3930136191818980e-01
        -3.4018029653079901e-01 -8.1959258367586496e-01
        -4.4003397926179555e-01 -1.1522546382806086e-01
        -7.2444300091120317e-01 -4.1489965046609706e-02
        -7.4462491295657252e-01 -5.9711671490655460e-01
        -8.6583664057135457e-01 -8.2920516296042135e-01
        -8.9513380243029617e-01 -1. -7.9116667208340485e-01
        -6.9191920377526628e-01 -8.1809168386017850e-01
        -9.8485129127155357e-01 -5.8198389285756469e-01
        -6.8273293388840706e-01 -8.9513380242768359e-01
        -8.9506537779126005e-01 -5.8832809889966498e-01
        -8.3697808816137498e-01</alpha>
      <index>
        655 364 363 638 654 637 158 658 159 160 703 702 346 347 1090 314
        615 313 315 1092 1091 316 256 616 257 775 617 776 571 774 515
        800 801 514 99 824 825 237 592 255 121 659 544 701 545 704 679
        678 543 677 122 729 142 752 653 569 570 618 63 381 382 66 16 362
        19 1016</index></_>
    <_>
      <sv_count>54</sv_count>
      <rho>-2.6209146135551965e-02</rho>
      <alpha>
        8.0634769369268022e-01 9.1927375330997285e-01 1.
        7.3700276038500645e-01 9.0907367302179753e-01 1.
        9.7379085386444808e-01 8.7383069694665172e-01
        9.7378945232908543e-01 2.9029768106447834e-01
        5.0799916671652046e-01 9.7338317274411656e-01
        9.2315837312308791e-01 1. 8.7233075288705775e-01
