<?xml version="1.0"?>
<opencv_storage>
<opencv_ml_svm>
  <format>3</format>
  <svmType>C_SVC</svmType>
  <kernel>
    <type>RBF</type>
    <gamma>1.</gamma></kernel>
  <C>1.</C>
  <term_criteria><iterations>1000</iterations></term_criteria>
  <var_count>4</var_count>
  <class_count>36</class_count>
  <class_labels type_id="opencv-matrix">
    <rows>36</rows>
    <cols>1</cols>
    <dt>i</dt>
    <data>
      -24 -23 -22 -21 -20 -19 -18 -17 -16 -15 -14 -13 -12 -11 -10 -9 -8
      -7 -6 -5 -4 -3 -2 -1 0 1 2 3 4 5 6 7 8 9 10 11</data></class_labels>
  <sv_total>2340</sv_total>
  <support_vectors>
    <_>
      0. 0. 0. 0.</_>
    <_>
      0. 0. 0. 0.</_>
    <_>
      0. 0. 0. 0.</_>
    <_>
      -5.51677847e+00 0. 0. 0.</_>
    <_>
      -5.65104008e+00 -5.51677847e+00 0. 0.</_>
    <_>
      -5.65104008e+00 -5.51677847e+00 0. 0.</_>
    <_>
      -5.65104008e+00 -5.51677847e+00 0. 0.</_>
    <_>
      -6.11904907e+00 -5.65104008e+00 -5.51677847e+00 0.</_>
    <_>
      -6.11851311e+00 -6.11904907e+00 -5.65104008e+00 -5.51677847e+00</_>
    <_>
      -6.11851311e+00 -6.11904907e+00 -5.65104008e+00 -5.51677847e+00</_>
    <_>
      -6.11851311e+00 -6.11904907e+00 -5.65104008e+00 -5.51677847e+00</_>
    <_>
      -6.11851311e+00 -6.11904907e+00 -5.65104008e+00 -5.51677847e+00</_>
    <_>
      -6.51872778e+00 -6.11851311e+00 -6.11904907e+00 -5.65104008e+00</_>
    <_>
      -6.51941442e+00 -6.51880741e+00 -6.51872778e+00 -6.11851311e+00</_>
    <_>
      -6.51941442e+00 -6.51880741e+00 -6.51872778e+00 -6.11851311e+00</_>
    <_>
      -7.72403622e+00 -6.51941442e+00 -6.51880741e+00 -6.51872778e+00</_>
    <_>
      -8.67395687e+00 -7.72403622e+00 -6.51941442e+00 -6.51880741e+00</_>
    <_>
      -9.68369865e+00 -8.67395687e+00 -7.72403622e+00 -6.51941442e+00</_>
    <_>
      -1.11321955e+01 -9.68369865e+00 -8.67395687e+00 -7.72403622e+00</_>
    <_>
      -1.28767357e+01 -1.11321955e+01 -9.68369865e+00 -8.67395687e+00</_>
    <_>
      -1.28767357e+01 -1.11321955e+01 -9.68369865e+00 -8.67395687e+00</_>
    <_>
      -1.60458012e+01 -1.28767357e+01 -1.11321955e+01 -9.68369865e+00</_>
    <_>
      -1.82543755e+01 -1.60458012e+01 -1.28767357e+01 -1.11321955e+01</_>
    <_>
      -2.01705189e+01 -1.82543755e+01 -1.60458012e+01 -1.28767357e+01</_>
    <_>
      -2.11420650e+01 -2.01705189e+01 -1.82543755e+01 -1.60458012e+01</_>
    <_>
      -2.11551609e+01 -2.11420650e+01 -2.01705189e+01 -1.82543755e+01</_>
    <_>
      -1.96488934e+01 -2.11551609e+01 -2.11420650e+01 -2.01705189e+01</_>
    <_>
      -1.85604115e+01 -1.96488934e+01 -2.11551609e+01 -2.11420650e+01</_>
    <_>
      -1.52498198e+01 -1.85604115e+01 -1.96488934e+01 -2.11551609e+01</_>
    <_>
      -1.11584511e+01 -1.52498198e+01 -1.85604115e+01 -1.96488934e+01</_>
    <_>
      -6.70382357e+00 -1.11584511e+01 -1.52498198e+01 -1.85604115e+01</_>
    <_>
      -2.07358170e+00 -6.70382357e+00 -1.11584511e+01 -1.52498198e+01</_>
    <_>
      1.83848524e+00 -2.07358170e+00 -6.70382357e+00 -1.11584511e+01</_>
    <_>
      5.15719366e+00 1.83848524e+00 -2.07358170e+00 -6.70382357e+00</_>
    <_>
      6.42650986e+00 5.15719366e+00 1.83848524e+00 -2.07358170e+00</_>
    <_>
      8.39797783e+00 6.42650986e+00 5.15719366e+00 1.83848524e+00</_>
    <_>
      9.25541973e+00 8.39797783e+00 6.42650986e+00 5.15719366e+00</_>
    <_>
      9.50078297e+00 9.25541973e+00 8.39797783e+00 6.42650986e+00</_>
    <_>
      9.35736561e+00 9.50078297e+00 9.25541973e+00 8.39797783e+00</_>
    <_>
      8.27389240e+00 9.35736561e+00 9.50078297e+00 9.25541973e+00</_>
    <_>
      6.79321289e+00 8.27389240e+00 9.35736561e+00 9.50078297e+00</_>
    <_>
      5.02146053e+00 6.79321289e+00 8.27389240e+00 9.35736561e+00</_>
    <_>
      3.12103963e+00 5.02146053e+00 6.79321289e+00 8.27389240e+00</_>
    <_>
      1.19026923e+00 3.12103963e+00 5.02146053e+00 6.79321289e+00</_>
    <_>
      1.19026923e+00 3.12103963e+00 5.02146053e+00 6.79321289e+00</_>
    <_>
      -1.93956518e+00 1.19026923e+00 3.12103963e+00 5.02146053e+00</_>
    <_>
      -3.95413351e+00 -1.93956518e+00 1.19026923e+00 3.12103963e+00</_>
    <_>
      -5.77433825e+00 -3.95413351e+00 -1.93956518e+00 1.19026923e+00</_>
    <_>
      -5.77433825e+00 -3.95413351e+00 -1.93956518e+00 1.19026923e+00</_>
    <_>
      -5.77433825e+00 -3.95413351e+00 -1.93956518e+00 1.19026923e+00</_>
    <_>
      -1.07142487e+01 -5.77433825e+00 -3.95413351e+00 -1.93956518e+00</_>
    <_>
      -1.24931831e+01 -1.07142487e+01 -5.77433825e+00 -3.95413351e+00</_>
    <_>
      -1.24931831e+01 -1.07142487e+01 -5.77433825e+00 -3.95413351e+00</_>
    <_>
      -1.54789314e+01 -1.24931831e+01 -1.07142487e+01 -5.77433825e+00</_>
    <_>
      -1.72194996e+01 -1.54789314e+01 -1.24931831e+01 -1.07142487e+01</_>
    <_>
      -1.99511909e+01 -1.72194996e+01 -1.54789314e+01 -1.24931831e+01</_>
    <_>
      -2.23169136e+01 -1.99511909e+01 -1.72194996e+01 -1.54789314e+01</_>
    <_>
      -2.29976139e+01 -2.23169136e+01 -1.99511909e+01 -1.72194996e+01</_>
    <_>
      -2.29976139e+01 -2.23169136e+01 -1.99511909e+01 -1.72194996e+01</_>
    <_>
      -2.26502876e+01 -2.29976139e+01 -2.23169136e+01 -1.99511909e+01</_>
    <_>
      -2.13199863e+01 -2.26502876e+01 -2.29976139e+01 -2.23169136e+01</_>
    <_>
      -1.75445805e+01 -2.13199863e+01 -2.26502876e+01 -2.29976139e+01</_>
    <_>
      -1.62345886e+01 -1.75445805e+01 -2.13199863e+01 -2.26502876e+01</_>
    <_>
      -1.32437296e+01 -1.62345886e+01 -1.75445805e+01 -2.13199863e+01</_>
    <_>
      -9.39422321e+00 -1.32437296e+01 -1.62345886e+01 -1.75445805e+01</_>
    <_>
      -5.70667791e+00 -9.39422321e+00 -1.32437296e+01 -1.62345886e+01</_>
    <_>
      -2.43118596e+00 -5.70667791e+00 -9.39422321e+00 -1.32437296e+01</_>
    <_>
      -9.47073102e-03 -2.43118596e+00 -5.70667791e+00 -9.39422321e+00</_>
    <_>
      1.27464449e+00 -9.47073102e-03 -2.43118596e+00 -5.70667791e+00</_>
    <_>
      1.40557122e+00 1.27464449e+00 -9.47073102e-03 -2.43118596e+00</_>
    <_>
      4.68066722e-01 1.40557122e+00 1.27464449e+00 -9.47073102e-03</_>
    <_>
      -3.38220924e-01 4.68066722e-01 1.40557122e+00 1.27464449e+00</_>
    <_>
      -2.08632064e+00 -3.38220924e-01 4.68066722e-01 1.40557122e+00</_>
    <_>
      -3.35989523e+00 -2.08632064e+00 -3.38220924e-01 4.68066722e-01</_>
    <_>
      -3.64082885e+00 -3.35989523e+00 -2.08632064e+00 -3.38220924e-01</_>
    <_>
      -3.14997363e+00 -3.64082885e+00 -3.35989523e+00 -2.08632064e+00</_>
    <_>
      -2.67685747e+00 -3.14997363e+00 -3.64082885e+00 -3.35989523e+00</_>
    <_>
      -1.35221970e+00 -2.67685747e+00 -3.14997363e+00 -3.64082885e+00</_>
    <_>
      3.63069028e-01 -1.35221970e+00 -2.67685747e+00 -3.14997363e+00</_>
    <_>
      2.10719538e+00 3.63069028e-01 -1.35221970e+00 -2.67685747e+00</_>
    <_>
      3.54831696e+00 2.10719538e+00 3.63069028e-01 -1.35221970e+00</_>
    <_>
      4.62604570e+00 3.54831696e+00 2.10719538e+00 3.63069028e-01</_>
    <_>
      5.09837627e+00 5.22885704e+00 4.62604570e+00 3.54831696e+00</_>
    <_>
      5.09837627e+00 5.22885704e+00 4.62604570e+00 3.54831696e+00</_>
    <_>
      5.09837627e+00 5.22885704e+00 4.62604570e+00 3.54831696e+00</_>
    <_>
      5.09837627e+00 5.22885704e+00 4.62604570e+00 3.54831696e+00</_>
    <_>
      5.09837627e+00 5.22885704e+00 4.62604570e+00 3.54831696e+00</_>
    <_>
      5.09837627e+00 5.22885704e+00 4.62604570e+00 3.54831696e+00</_>
    <_>
      5.09837627e+00 5.22885704e+00 4.62604570e+00 3.54831696e+00</_>
    <_>
      -4.31640005e+00 5.09837627e+00 5.22885704e+00 4.62604570e+00</_>
    <_>
      -4.31640005e+00 5.09837627e+00 5.22885704e+00 4.62604570e+00</_>
    <_>
      -8.02818108e+00 -4.31640005e+00 5.09837627e+00 5.22885704e+00</_>
    <_>
      -1.04200058e+01 -8.02818108e+00 -4.31640005e+00 5.09837627e+00</_>
    <_>
      -1.31742439e+01 -1.04200058e+01 -8.02818108e+00 -4.31640005e+00</_>
    <_>
      -1.61774483e+01 -1.31742439e+01 -1.04200058e+01 -8.02818108e+00</_>
    <_>
      -1.76343117e+01 -1.61774483e+01 -1.31742439e+01 -1.04200058e+01</_>
    <_>
      -2.02843304e+01 -1.76343117e+01 -1.61774483e+01 -1.31742439e+01</_>
    <_>
      -2.17311058e+01 -2.02843304e+01 -1.76343117e+01 -1.61774483e+01</_>
    <_>
      -2.23447971e+01 -2.17311058e+01 -2.02843304e+01 -1.76343117e+01</_>
    <_>
      -2.20178299e+01 -2.23447971e+01 -2.17311058e+01 -2.02843304e+01</_>
    <_>
      -2.00952644e+01 -2.20178299e+01 -2.23447971e+01 -2.17311058e+01</_>
    <_>
      -1.72605553e+01 -2.00952644e+01 -2.20178299e+01 -2.23447971e+01</_>
    <_>
      -1.36867590e+01 -1.72605553e+01 -2.00952644e+01 -2.20178299e+01</_>
    <_>
      -9.73350811e+00 -1.36867590e+01 -1.72605553e+01 -2.00952644e+01</_>
    <_>
      -6.15035486e+00 -9.73350811e+00 -1.36867590e+01 -1.72605553e+01</_>
    <_>
      -3.32831049e+00 -6.15035486e+00 -9.73350811e+00 -1.36867590e+01</_>
    <_>
      -1.53474116e+00 -3.32831049e+00 -6.15035486e+00 -9.73350811e+00</_>
    <_>
      -9.39898491e-01 -1.53474116e+00 -3.32831049e+00 -6.15035486e+00</_>
    <_>
      -9.37088430e-01 -9.39898491e-01 -1.53474116e+00 -3.32831049e+00</_>
    <_>
      -1.33648181e+00 -9.37088430e-01 -9.39898491e-01 -1.53474116e+00</_>
    <_>
      -2.10087442e+00 -1.33648181e+00 -9.37088430e-01 -9.39898491e-01</_>
    <_>
      -3.20246243e+00 -2.10087442e+00 -1.33648181e+00 -9.37088430e-01</_>
    <_>
      -4.20519352e+00 -3.20246243e+00 -2.10087442e+00 -1.33648181e+00</_>
    <_>
      -5.38281488e+00 -4.20519352e+00 -3.20246243e+00 -2.10087442e+00</_>
    <_>
      -6.02473354e+00 -5.38281488e+00 -4.20519352e+00 -3.20246243e+00</_>
    <_>
      -7.24552250e+00 -6.02473354e+00 -5.38281488e+00 -4.20519352e+00</_>
    <_>
      -8.39973927e+00 -7.24552250e+00 -6.02473354e+00 -5.38281488e+00</_>
    <_>
      -9.07932758e+00 -8.39973927e+00 -7.24552250e+00 -6.02473354e+00</_>
    <_>
      -9.22208500e+00 -9.07932758e+00 -8.39973927e+00 -7.24552250e+00</_>
    <_>
      -8.47822857e+00 -9.22208500e+00 -9.07932758e+00 -8.39973927e+00</_>
    <_>
      -7.81047916e+00 -8.47822857e+00 -9.22208500e+00 -9.07932758e+00</_>
    <_>
      -5.71824169e+00 -7.81047916e+00 -8.47822857e+00 -9.22208500e+00</_>
    <_>
      -4.97864866e+00 -5.71824169e+00 -7.81047916e+00 -8.47822857e+00</_>
    <_>
      -3.83160973e+00 -4.97864866e+00 -5.71824169e+00 -7.81047916e+00</_>
    <_>
      -3.37641811e+00 -3.83160973e+00 -4.97864866e+00 -5.71824169e+00</_>
    <_>
      -3.42361021e+00 -3.37641811e+00 -3.83160973e+00 -4.97864866e+00</_>
    <_>
      -4.29222679e+00 -3.42361021e+00 -3.37641811e+00 -3.83160973e+00</_>
    <_>
      -5.71020079e+00 -4.29222679e+00 -3.42361021e+00 -3.37641811e+00</_>
    <_>
      -7.82576704e+00 -5.71020079e+00 -4.29222679e+00 -3.42361021e+00</_>
    <_>
      -9.07341194e+00 -7.82576704e+00 -5.71020079e+00 -4.29222679e+00</_>
    <_>
      -1.16447783e+01 -9.07341194e+00 -7.82576704e+00 -5.71020079e+00</_>
    <_>
      -1.42899609e+01 -1.16447783e+01 -9.07341194e+00 -7.82576704e+00</_>
    <_>
      -1.65628986e+01 -1.42899609e+01 -1.16447783e+01 -9.07341194e+00</_>
    <_>
      -1.81658459e+01 -1.65628986e+01 -1.42899609e+01 -1.16447783e+01</_>
    <_>
      -1.85966187e+01 -1.81658459e+01 -1.65628986e+01 -1.42899609e+01</_>
    <_>
      -1.79603386e+01 -1.85966187e+01 -1.81658459e+01 -1.65628986e+01</_>
    <_>
      -1.63634148e+01 -1.79603386e+01 -1.85966187e+01 -1.81658459e+01</_>
    <_>
      -1.54609013e+01 -1.63634148e+01 -1.79603386e+01 -1.85966187e+01</_>
    <_>
      -1.47090921e+01 -1.54609013e+01 -1.63634148e+01 -1.79603386e+01</_>
    <_>
      -1.40266438e+01 -1.47090921e+01 -1.54609013e+01 -1.63634148e+01</_>
    <_>
      -1.30013876e+01 -1.40266438e+01 -1.47090921e+01 -1.54609013e+01</_>
    <_>
      -1.19159040e+01 -1.30013876e+01 -1.40266438e+01 -1.47090921e+01</_>
    <_>
      -1.07977533e+01 -1.19159040e+01 -1.30013876e+01 -1.40266438e+01</_>
    <_>
      -9.47505474e+00 -1.07977533e+01 -1.19159040e+01 -1.30013876e+01</_>
    <_>
      -8.12341309e+00 -9.47505474e+00 -1.07977533e+01 -1.19159040e+01</_>
    <_>
      -7.45125914e+00 -8.12341309e+00 -9.47505474e+00 -1.07977533e+01</_>
    <_>
      -6.24086285e+00 -7.45125914e+00 -8.12341309e+00 -9.47505474e+00</_>
    <_>
      -5.24044847e+00 -6.24086285e+00 -7.45125914e+00 -8.12341309e+00</_>
    <_>
      -4.59315205e+00 -5.24044847e+00 -6.24086285e+00 -7.45125914e+00</_>
    <_>
      -4.29200506e+00 -4.59315205e+00 -5.24044847e+00 -6.24086285e+00</_>
    <_>
      -4.42608738e+00 -4.29200506e+00 -4.59315205e+00 -5.24044847e+00</_>
    <_>
      -5.09850407e+00 -4.42608738e+00 -4.29200506e+00 -4.59315205e+00</_>
    <_>
      -5.67415047e+00 -5.09850407e+00 -4.42608738e+00 -4.29200506e+00</_>
    <_>
      -8.67849350e+00 -7.12457705e+00 -5.67415047e+00 -5.09850407e+00</_>
    <_>
      -9.97139359e+00 -8.67849350e+00 -7.12457705e+00 -5.67415047e+00</_>
    <_>
      -1.06550789e+01 -9.97139359e+00 -8.67849350e+00 -7.12457705e+00</_>
    <_>
      -1.00115376e+01 -1.06550789e+01 -9.97139359e+00 -8.67849350e+00</_>
    <_>
      -8.63215828e+00 -1.00115376e+01 -1.06550789e+01 -9.97139359e+00</_>
    <_>
      -7.96094847e+00 -8.63215828e+00 -1.00115376e+01 -1.06550789e+01</_>
    <_>
      -6.44000149e+00 -7.96094847e+00 -8.63215828e+00 -1.00115376e+01</_>
    <_>
      -3.28833556e+00 -6.44000149e+00 -7.96094847e+00 -8.63215828e+00</_>
    <_>
      -6.08944118e-01 -3.28833556e+00 -6.44000149e+00 -7.96094847e+00</_>
    <_>
      9.36216891e-01 -6.08944118e-01 -3.28833556e+00 -6.44000149e+00</_>
    <_>
      3.68397403e+00 9.36216891e-01 -6.08944118e-01 -3.28833556e+00</_>
    <_>
      6.09907436e+00 3.68397403e+00 9.36216891e-01 -6.08944118e-01</_>
    <_>
      7.77482319e+00 6.09907436e+00 3.68397403e+00 9.36216891e-01</_>
    <_>
      8.50565434e+00 7.77482319e+00 6.09907436e+00 3.68397403e+00</_>
    <_>
      8.02825737e+00 8.50565434e+00 7.77482319e+00 6.09907436e+00</_>
    <_>
      7.43064880e+00 8.02825737e+00 8.50565434e+00 7.77482319e+00</_>
    <_>
      5.46024513e+00 7.43064880e+00 8.02825737e+00 8.50565434e+00</_>
    <_>
      2.57866383e+00 5.46024513e+00 7.43064880e+00 8.02825737e+00</_>
    <_>
      -8.84261608e-01 2.57866383e+00 5.46024513e+00 7.43064880e+00</_>
    <_>
      -4.68877983e+00 -8.84261608e-01 2.57866383e+00 5.46024513e+00</_>
    <_>
      -8.55234718e+00 -4.68877983e+00 -8.84261608e-01 2.57866383e+00</_>
    <_>
      -1.23112726e+01 -8.55234718e+00 -4.68877983e+00 -8.84261608e-01</_>
    <_>
      -1.55691996e+01 -1.23112726e+01 -8.55234718e+00 -4.68877983e+00</_>
    <_>
      -1.82551498e+01 -1.55691996e+01 -1.23112726e+01 -8.55234718e+00</_>
    <_>
      -2.02462654e+01 -1.82551498e+01 -1.55691996e+01 -1.23112726e+01</_>
    <_>
      -2.11690388e+01 -2.02462654e+01 -1.82551498e+01 -1.55691996e+01</_>
    <_>
      -2.11366901e+01 -2.11690388e+01 -2.02462654e+01 -1.82551498e+01</_>
    <_>
      -1.99563046e+01 -2.11366901e+01 -2.11690388e+01 -2.02462654e+01</_>
    <_>
      -1.77711964e+01 -1.99563046e+01 -2.11366901e+01 -2.11690388e+01</_>
    <_>
      -1.47295046e+01 -1.77711964e+01 -1.99563046e+01 -2.11366901e+01</_>
    <_>
      -1.12015514e+01 -1.47295046e+01 -1.77711964e+01 -1.99563046e+01</_>
    <_>
      -7.47150373e+00 -1.12015514e+01 -1.47295046e+01 -1.77711964e+01</_>
    <_>
      -2.35573459e+00 -7.47150373e+00 -1.12015514e+01 -1.47295046e+01</_>
    <_>
      -8.48679125e-01 -2.35573459e+00 -7.47150373e+00 -1.12015514e+01</_>
    <_>
      1.60218441e+00 -8.48679125e-01 -2.35573459e+00 -7.47150373e+00</_>
    <_>
      3.34330201e+00 1.60218441e+00 -8.48679125e-01 -2.35573459e+00</_>
    <_>
      4.48061943e+00 3.34330201e+00 1.60218441e+00 -8.48679125e-01</_>
    <_>
      5.21240997e+00 4.48061943e+00 3.34330201e+00 1.60218441e+00</_>
    <_>
      5.07917500e+00 5.21240997e+00 4.48061943e+00 3.34330201e+00</_>
    <_>
      4.80680513e+00 5.07917500e+00 5.21240997e+00 4.48061943e+00</_>
    <_>
      4.00303125e+00 4.80680513e+00 5.07917500e+00 5.21240997e+00</_>
    <_>
      2.86727905e+00 4.00303125e+00 4.80680513e+00 5.07917500e+00</_>
    <_>
      -2.06912920e-01 1.39641643e+00 2.86727905e+00 4.00303125e+00</_>
    <_>
      -9.39216971e-01 -2.06912920e-01 1.39641643e+00 2.86727905e+00</_>
    <_>
      -2.40756965e+00 -9.39216971e-01 -2.06912920e-01 1.39641643e+00</_>
    <_>
      -3.71442199e+00 -2.40756965e+00 -9.39216971e-01 -2.06912920e-01</_>
    <_>
      -4.81857395e+00 -3.71442199e+00 -2.40756965e+00 -9.39216971e-01</_>
    <_>
      -6.22837162e+00 -4.81857395e+00 -3.71442199e+00 -2.40756965e+00</_>
    <_>
      -6.90352201e+00 -6.22837162e+00 -4.81857395e+00 -3.71442199e+00</_>
    <_>
      -8.04934120e+00 -6.90352201e+00 -6.22837162e+00 -4.81857395e+00</_>
    <_>
      -9.47641754e+00 -8.04934120e+00 -6.90352201e+00 -6.22837162e+00</_>
    <_>
      -1.27746620e+01 -1.09725237e+01 -9.47641754e+00 -8.04934120e+00</_>
    <_>
      -1.43647385e+01 -1.27746620e+01 -1.09725237e+01 -9.47641754e+00</_>
    <_>
      -1.58931684e+01 -1.43647385e+01 -1.27746620e+01 -1.09725237e+01</_>
    <_>
      -1.65193424e+01 -1.58931684e+01 -1.43647385e+01 -1.27746620e+01</_>
    <_>
      -1.74295635e+01 -1.65193424e+01 -1.58931684e+01 -1.43647385e+01</_>
    <_>
      -1.76245232e+01 -1.74295635e+01 -1.65193424e+01 -1.58931684e+01</_>
    <_>
      -1.68868694e+01 -1.76245232e+01 -1.74295635e+01 -1.65193424e+01</_>
    <_>
      -1.52713299e+01 -1.68868694e+01 -1.76245232e+01 -1.74295635e+01</_>
    <_>
      -1.29953423e+01 -1.52713299e+01 -1.68868694e+01 -1.76245232e+01</_>
    <_>
      -1.16974392e+01 -1.29953423e+01 -1.52713299e+01 -1.68868694e+01</_>
    <_>
      -8.71728420e+00 -1.16974392e+01 -1.29953423e+01 -1.52713299e+01</_>
    <_>
      -5.69483280e+00 -8.71728420e+00 -1.16974392e+01 -1.29953423e+01</_>
    <_>
      -2.81502843e+00 -5.69483280e+00 -8.71728420e+00 -1.16974392e+01</_>
    <_>
      -7.02238642e-03 -2.81502843e+00 -5.69483280e+00 -8.71728420e+00</_>
    <_>
      2.20057082e+00 -7.02238642e-03 -2.81502843e+00 -5.69483280e+00</_>
    <_>
      3.94687486e+00 2.20057082e+00 -7.02238642e-03 -2.81502843e+00</_>
    <_>
      5.42181492e+00 3.94687486e+00 2.20057082e+00 -7.02238642e-03</_>
    <_>
      5.79442024e+00 5.42181492e+00 3.94687486e+00 2.20057082e+00</_>
    <_>
      6.10012817e+00 5.79442024e+00 5.42181492e+00 3.94687486e+00</_>
    <_>
      6.16720724e+00 6.10012817e+00 5.79442024e+00 5.42181492e+00</_>
    <_>
      5.78615284e+00 6.16720724e+00 6.10012817e+00 5.79442024e+00</_>
    <_>
      5.02817106e+00 5.78615284e+00 6.16720724e+00 6.10012817e+00</_>
    <_>
      3.95349360e+00 5.02817106e+00 5.78615284e+00 6.16720724e+00</_>
    <_>
      2.66650939e+00 3.95349360e+00 5.02817106e+00 5.78615284e+00</_>
    <_>
      1.43040836e+00 2.66650939e+00 3.95349360e+00 5.02817106e+00</_>
    <_>
      -7.95584992e-02 1.43040836e+00 2.66650939e+00 3.95349360e+00</_>
    <_>
      -8.71820688e-01 -7.95584992e-02 1.43040836e+00 2.66650939e+00</_>
    <_>
      -2.34938240e+00 -8.71820688e-01 -7.95584992e-02 1.43040836e+00</_>
    <_>
      -4.02077103e+00 -2.34938240e+00 -8.71820688e-01 -7.95584992e-02</_>
    <_>
      -5.80508280e+00 -4.02077103e+00 -2.34938240e+00 -8.71820688e-01</_>
    <_>
      -7.44881916e+00 -5.80508280e+00 -4.02077103e+00 -2.34938240e+00</_>
    <_>
      -8.39985466e+00 -7.44881916e+00 -5.80508280e+00 -4.02077103e+00</_>
    <_>
      -1.00840282e+01 -8.39985466e+00 -7.44881916e+00 -5.80508280e+00</_>
    <_>
      -1.15303698e+01 -1.00840282e+01 -8.39985466e+00 -7.44881916e+00</_>
    <_>
      -1.26895790e+01 -1.15303698e+01 -1.00840282e+01 -8.39985466e+00</_>
    <_>
      -1.26895790e+01 -1.15303698e+01 -1.00840282e+01 -8.39985466e+00</_>
    <_>
      -1.23297615e+01 -1.26895790e+01 -1.15303698e+01 -1.00840282e+01</_>
    <_>
      -1.05295782e+01 -1.23297615e+01 -1.26895790e+01 -1.15303698e+01</_>
    <_>
      -1.05295782e+01 -1.23297615e+01 -1.26895790e+01 -1.15303698e+01</_>
    <_>
      -7.55224180e+00 -1.05295782e+01 -1.23297615e+01 -1.26895790e+01</_>
    <_>
      -5.94300890e+00 -7.55224180e+00 -1.05295782e+01 -1.23297615e+01</_>
    <_>
      -4.25930786e+00 -5.94300890e+00 -7.55224180e+00 -1.05295782e+01</_>
    <_>
      -3.40127206e+00 -4.25930786e+00 -5.94300890e+00 -7.55224180e+00</_>
    <_>
      -1.94393122e+00 -3.40127206e+00 -4.25930786e+00 -5.94300890e+00</_>
    <_>
      -1.54294348e+00 -1.94393122e+00 -3.40127206e+00 -4.25930786e+00</_>
    <_>
      -1.53878450e+00 -1.54294348e+00 -1.94393122e+00 -3.40127206e+00</_>
    <_>
      -1.94529426e+00 -1.53878450e+00 -1.54294348e+00 -1.94393122e+00</_>
    <_>
      -1.94529426e+00 -1.53878450e+00 -1.54294348e+00 -1.94393122e+00</_>
    <_>
      -1.94529426e+00 -1.53878450e+00 -1.54294348e+00 -1.94393122e+00</_>
    <_>
      -3.96276426e+00 -1.94529426e+00 -1.53878450e+00 -1.54294348e+00</_>
    <_>
      -4.23125553e+00 -3.96276426e+00 -1.94529426e+00 -1.53878450e+00</_>
    <_>
      -4.13226748e+00 -4.23125553e+00 -3.96276426e+00 -1.94529426e+00</_>
    <_>
      -4.13226748e+00 -4.23125553e+00 -3.96276426e+00 -1.94529426e+00</_>
    <_>
      -4.13226748e+00 -4.23125553e+00 -3.96276426e+00 -1.94529426e+00</_>
    <_>
      -4.13226748e+00 -4.23125553e+00 -3.96276426e+00 -1.94529426e+00</_>
    <_>
      -2.85083961e+00 -4.13226748e+00 -4.23125553e+00 -3.96276426e+00</_>
    <_>
      -5.33671761e+00 -2.85083961e+00 -4.13226748e+00 -4.23125553e+00</_>
    <_>
      -6.94671679e+00 -5.33671761e+00 -2.85083961e+00 -4.13226748e+00</_>
    <_>
      -1.07800140e+01 -6.94671679e+00 -5.33671761e+00 -2.85083961e+00</_>
    <_>
      -1.49628668e+01 -1.07800140e+01 -6.94671679e+00 -5.33671761e+00</_>
    <_>
      -2.03227711e+01 -1.49628668e+01 -1.07800140e+01 -6.94671679e+00</_>
    <_>
      -2.03227711e+01 -1.49628668e+01 -1.07800140e+01 -6.94671679e+00</_>
    <_>
      -2.03227711e+01 -1.49628668e+01 -1.07800140e+01 -6.94671679e+00</_>
    <_>
      -2.03227711e+01 -1.49628668e+01 -1.07800140e+01 -6.94671679e+00</_>
    <_>
      -2.27082310e+01 -2.03227711e+01 -1.49628668e+01 -1.07800140e+01</_>
    <_>
      -2.17438622e+01 -2.27082310e+01 -2.03227711e+01 -1.49628668e+01</_>
    <_>
      -2.05129490e+01 -2.17438622e+01 -2.27082310e+01 -2.03227711e+01</_>
    <_>
      -1.76806812e+01 -2.05129490e+01 -2.17438622e+01 -2.27082310e+01</_>
    <_>
      -1.76806812e+01 -2.05129490e+01 -2.17438622e+01 -2.27082310e+01</_>
    <_>
      -1.05999136e+01 -1.76806812e+01 -2.05129490e+01 -2.17438622e+01</_>
    <_>
      -1.05999136e+01 -1.76806812e+01 -2.05129490e+01 -2.17438622e+01</_>
    <_>
      -5.24954796e+00 -1.05999136e+01 -1.76806812e+01 -2.05129490e+01</_>
    <_>
      -4.10367537e+00 -5.24954796e+00 -1.05999136e+01 -1.76806812e+01</_>
    <_>
      -3.77264309e+00 -4.10367537e+00 -5.24954796e+00 -1.05999136e+01</_>
    <_>
      -4.42649746e+00 -3.77264309e+00 -4.10367537e+00 -5.24954796e+00</_>
    <_>
      -5.03175449e+00 -4.42649746e+00 -3.77264309e+00 -4.10367537e+00</_>
    <_>
      -6.62124729e+00 -5.03175449e+00 -4.42649746e+00 -3.77264309e+00</_>
    <_>
      -8.29441261e+00 -6.62124729e+00 -5.03175449e+00 -4.42649746e+00</_>
    <_>
      -1.00204258e+01 -8.29441261e+00 -6.62124729e+00 -5.03175449e+00</_>
    <_>
      -1.15083723e+01 -1.00204258e+01 -8.29441261e+00 -6.62124729e+00</_>
    <_>
      -1.25262213e+01 -1.15083723e+01 -1.00204258e+01 -8.29441261e+00</_>
    <_>
      -1.26328163e+01 -1.25262213e+01 -1.15083723e+01 -1.00204258e+01</_>
    <_>
      -1.23819475e+01 -1.26328163e+01 -1.25262213e+01 -1.15083723e+01</_>
    <_>
      -1.10330935e+01 -1.23819475e+01 -1.26328163e+01 -1.25262213e+01</_>
    <_>
      -9.21147346e+00 -1.10330935e+01 -1.23819475e+01 -1.26328163e+01</_>
    <_>
      -7.03109026e+00 -9.21147346e+00 -1.10330935e+01 -1.23819475e+01</_>
    <_>
      -5.97979879e+00 -7.03109026e+00 -9.21147346e+00 -1.10330935e+01</_>
    <_>
      -4.23051500e+00 -5.97979879e+00 -7.03109026e+00 -9.21147346e+00</_>
    <_>
      -2.95861864e+00 -4.23051500e+00 -5.97979879e+00 -7.03109026e+00</_>
    <_>
      -2.21922255e+00 -2.95861864e+00 -4.23051500e+00 -5.97979879e+00</_>
    <_>
      -2.05056214e+00 -2.21922255e+00 -2.95861864e+00 -4.23051500e+00</_>
    <_>
      -2.48826790e+00 -2.05056214e+00 -2.21922255e+00 -2.95861864e+00</_>
    <_>
      -2.89185762e+00 -2.48826790e+00 -2.05056214e+00 -2.21922255e+00</_>
    <_>
      -3.96463704e+00 -2.89185762e+00 -2.48826790e+00 -2.05056214e+00</_>
    <_>
      -4.90390682e+00 -3.96463704e+00 -2.89185762e+00 -2.48826790e+00</_>
    <_>
      -5.47098923e+00 -4.90390682e+00 -3.96463704e+00 -2.89185762e+00</_>
    <_>
      -5.63344669e+00 -5.47098923e+00 -4.90390682e+00 -3.96463704e+00</_>
    <_>
      -5.63365078e+00 -5.63344669e+00 -5.47098923e+00 -4.90390682e+00</_>
    <_>
      -5.50023413e+00 -5.63365078e+00 -5.63344669e+00 -5.47098923e+00</_>
    <_>
      -5.16112852e+00 -5.50023413e+00 -5.63365078e+00 -5.63344669e+00</_>
    <_>
      -4.89408112e+00 -5.16112852e+00 -5.50023413e+00 -5.63365078e+00</_>
    <_>
      -4.62367153e+00 -4.89408112e+00 -5.16112852e+00 -5.50023413e+00</_>
    <_>
      -4.38904190e+00 -4.62367153e+00 -4.89408112e+00 -5.16112852e+00</_>
    <_>
      -4.49125099e+00 -4.38904190e+00 -4.62367153e+00 -4.89408112e+00</_>
    <_>
      -4.76003695e+00 -4.49125099e+00 -4.38904190e+00 -4.62367153e+00</_>
    <_>
      -5.63608503e+00 -4.76003695e+00 -4.49125099e+00 -4.38904190e+00</_>
    <_>
      -7.05169582e+00 -5.63608503e+00 -4.76003695e+00 -4.49125099e+00</_>
    <_>
      -8.03045273e+00 -7.05169582e+00 -5.63608503e+00 -4.76003695e+00</_>
    <_>
      -1.01598282e+01 -8.03045273e+00 -7.05169582e+00 -5.63608503e+00</_>
    <_>
      -1.27504854e+01 -1.01598282e+01 -8.03045273e+00 -7.05169582e+00</_>
    <_>
      -1.53620653e+01 -1.27504854e+01 -1.01598282e+01 -8.03045273e+00</_>
    <_>
      -1.74838428e+01 -1.53620653e+01 -1.27504854e+01 -1.01598282e+01</_>
    <_>
      -1.87769260e+01 -1.74838428e+01 -1.53620653e+01 -1.27504854e+01</_>
    <_>
      -1.89599400e+01 -1.87769260e+01 -1.74838428e+01 -1.53620653e+01</_>
    <_>
      -1.85003910e+01 -1.89599400e+01 -1.87769260e+01 -1.74838428e+01</_>
    <_>
      -1.70066605e+01 -1.85003910e+01 -1.89599400e+01 -1.87769260e+01</_>
    <_>
      -1.46911850e+01 -1.70066605e+01 -1.85003910e+01 -1.89599400e+01</_>
    <_>
      -1.21088152e+01 -1.46911850e+01 -1.70066605e+01 -1.85003910e+01</_>
    <_>
      -1.04689426e+01 -1.21088152e+01 -1.46911850e+01 -1.70066605e+01</_>
    <_>
      -9.52953243e+00 -1.04689426e+01 -1.21088152e+01 -1.46911850e+01</_>
    <_>
      -8.98496914e+00 -9.52953243e+00 -1.04689426e+01 -1.21088152e+01</_>
    <_>
      -7.62933159e+00 -8.98496914e+00 -9.52953243e+00 -1.04689426e+01</_>
    <_>
      -6.47719240e+00 -7.62933159e+00 -8.98496914e+00 -9.52953243e+00</_>
    <_>
      -5.19275475e+00 -6.47719240e+00 -7.62933159e+00 -8.98496914e+00</_>
    <_>
      -3.80757809e+00 -5.19275475e+00 -6.47719240e+00 -7.62933159e+00</_>
    <_>
      -3.13258624e+00 -3.80757809e+00 -5.19275475e+00 -6.47719240e+00</_>
    <_>
      -1.88626575e+00 -3.13258624e+00 -3.80757809e+00 -5.19275475e+00</_>
    <_>
      -1.07948577e+00 -1.88626575e+00 -3.13258624e+00 -3.80757809e+00</_>
    <_>
      -6.83686793e-01 -1.07948577e+00 -1.88626575e+00 -3.13258624e+00</_>
    <_>
      -9.49432254e-01 -6.83686793e-01 -1.07948577e+00 -1.88626575e+00</_>
    <_>
      -1.37915182e+00 -9.49432254e-01 -6.83686793e-01 -1.07948577e+00</_>
    <_>
      -2.55318117e+00 -1.37915182e+00 -9.49432254e-01 -6.83686793e-01</_>
    <_>
      -4.15639019e+00 -2.55318117e+00 -1.37915182e+00 -9.49432254e-01</_>
    <_>
      -5.82633686e+00 -4.15639019e+00 -2.55318117e+00 -1.37915182e+00</_>
    <_>
      -8.02856064e+00 -7.19803143e+00 -5.82633686e+00 -4.15639019e+00</_>
    <_>
      -8.28396893e+00 -8.02856064e+00 -7.19803143e+00 -5.82633686e+00</_>
    <_>
      -8.30145168e+00 -8.28396893e+00 -8.02856064e+00 -7.19803143e+00</_>
    <_>
      -8.10306740e+00 -8.30145168e+00 -8.28396893e+00 -8.02856064e+00</_>
    <_>
      -7.84464216e+00 -8.10306740e+00 -8.30145168e+00 -8.28396893e+00</_>
    <_>
      -7.34471941e+00 -7.84464216e+00 -8.10306740e+00 -8.30145168e+00</_>
    <_>
      -6.93773603e+00 -7.34471941e+00 -7.84464216e+00 -8.10306740e+00</_>
    <_>
      -5.83701754e+00 -6.93773603e+00 -7.34471941e+00 -7.84464216e+00</_>
    <_>
      -4.22952795e+00 -5.83701754e+00 -6.93773603e+00 -7.34471941e+00</_>
    <_>
      -3.36086273e+00 -4.22952795e+00 -5.83701754e+00 -6.93773603e+00</_>
    <_>
      -1.28388846e+00 -3.36086273e+00 -4.22952795e+00 -5.83701754e+00</_>
    <_>
      7.14470327e-01 -1.28388846e+00 -3.36086273e+00 -4.22952795e+00</_>
    <_>
      2.79862070e+00 7.14470327e-01 -1.28388846e+00 -3.36086273e+00</_>
    <_>
      4.81718779e+00 2.79862070e+00 7.14470327e-01 -1.28388846e+00</_>
    <_>
      6.36440229e+00 4.81718779e+00 2.79862070e+00 7.14470327e-01</_>
    <_>
      6.96862507e+00 6.36440229e+00 4.81718779e+00 2.79862070e+00</_>
    <_>
      7.57475758e+00 6.96862507e+00 6.36440229e+00 4.81718779e+00</_>
    <_>
      7.16963148e+00 7.57475758e+00 6.96862507e+00 6.36440229e+00</_>
    <_>
      6.03144455e+00 7.16963148e+00 7.57475758e+00 6.96862507e+00</_>
    <_>
      5.29368067e+00 6.03144455e+00 7.16963148e+00 7.57475758e+00</_>
    <_>
      3.27801728e+00 5.29368067e+00 6.03144455e+00 7.16963148e+00</_>
    <_>
      1.09799838e+00 3.27801728e+00 5.29368067e+00 6.03144455e+00</_>
    <_>
      -1.44810545e+00 1.09799838e+00 3.27801728e+00 5.29368067e+00</_>
    <_>
      -4.03333712e+00 -1.44810545e+00 1.09799838e+00 3.27801728e+00</_>
    <_>
      -6.72454643e+00 -4.03333712e+00 -1.44810545e+00 1.09799838e+00</_>
    <_>
      -9.15721130e+00 -6.72454643e+00 -4.03333712e+00 -1.44810545e+00</_>
    <_>
      -1.13984203e+01 -9.15721130e+00 -6.72454643e+00 -4.03333712e+00</_>
    <_>
      -1.31811285e+01 -1.13984203e+01 -9.15721130e+00 -6.72454643e+00</_>
    <_>
      -1.38331356e+01 -1.31811285e+01 -1.13984203e+01 -9.15721130e+00</_>
    <_>
      -1.47904911e+01 -1.38331356e+01 -1.31811285e+01 -1.13984203e+01</_>
    <_>
      -1.50485048e+01 -1.47904911e+01 -1.38331356e+01 -1.31811285e+01</_>
    <_>
      -1.45232258e+01 -1.50485048e+01 -1.47904911e+01 -1.38331356e+01</_>
    <_>
      -1.34710798e+01 -1.45232258e+01 -1.50485048e+01 -1.47904911e+01</_>
    <_>
      -1.18935528e+01 -1.34710798e+01 -1.45232258e+01 -1.50485048e+01</_>
    <_>
      -1.08404827e+01 -1.18935528e+01 -1.34710798e+01 -1.45232258e+01</_>
    <_>
      -8.67012691e+00 -1.08404827e+01 -1.18935528e+01 -1.34710798e+01</_>
    <_>
      -6.42871904e+00 -8.67012691e+00 -1.08404827e+01 -1.18935528e+01</_>
    <_>
      -4.55450392e+00 -6.42871904e+00 -8.67012691e+00 -1.08404827e+01</_>
    <_>
      -2.88301587e+00 -4.55450392e+00 -6.42871904e+00 -8.67012691e+00</_>
    <_>
      -1.94631231e+00 -2.88301587e+00 -4.55450392e+00 -6.42871904e+00</_>
    <_>
      -1.74354935e+00 -1.94631231e+00 -2.88301587e+00 -4.55450392e+00</_>
    <_>
      -1.74432480e+00 -1.74354935e+00 -1.94631231e+00 -2.88301587e+00</_>
    <_>
      -2.31311083e+00 -1.74432480e+00 -1.74354935e+00 -1.94631231e+00</_>
    <_>
      -3.42158914e+00 -2.31311083e+00 -1.74432480e+00 -1.74354935e+00</_>
    <_>
      -4.76710558e+00 -3.42158914e+00 -2.31311083e+00 -1.74432480e+00</_>
    <_>
      -6.24576807e+00 -4.76710558e+00 -3.42158914e+00 -2.31311083e+00</_>
    <_>
      -7.66659784e+00 -6.24576807e+00 -4.76710558e+00 -3.42158914e+00</_>
    <_>
      -8.88147640e+00 -7.66659784e+00 -6.24576807e+00 -4.76710558e+00</_>
    <_>
      -9.75839329e+00 -8.88147640e+00 -7.66659784e+00 -6.24576807e+00</_>
    <_>
      -1.03003912e+01 -9.75839329e+00 -8.88147640e+00 -7.66659784e+00</_>
    <_>
      -1.00919285e+01 -1.03003912e+01 -9.75839329e+00 -8.88147640e+00</_>
    <_>
      -9.17945576e+00 -1.00919285e+01 -1.03003912e+01 -9.75839329e+00</_>
    <_>
      -7.93362093e+00 -9.17945576e+00 -1.00919285e+01 -1.03003912e+01</_>
    <_>
      -7.06005430e+00 -7.93362093e+00 -9.17945576e+00 -1.00919285e+01</_>
    <_>
      -5.17404509e+00 -7.06005430e+00 -7.93362093e+00 -9.17945576e+00</_>
    <_>
      -2.89126873e+00 -5.17404509e+00 -7.06005430e+00 -7.93362093e+00</_>
    <_>
      -4.70042527e-01 -2.89126873e+00 -5.17404509e+00 -7.06005430e+00</_>
    <_>
      1.87760794e+00 -4.70042527e-01 -2.89126873e+00 -5.17404509e+00</_>
    <_>
      3.69123411e+00 1.87760794e+00 -4.70042527e-01 -2.89126873e+00</_>
    <_>
      4.96520805e+00 3.69123411e+00 1.87760794e+00 -4.70042527e-01</_>
    <_>
      5.58660078e+00 4.96520805e+00 3.69123411e+00 1.87760794e+00</_>
    <_>
      5.18618393e+00 5.58660078e+00 4.96520805e+00 3.69123411e+00</_>
    <_>
      4.70644236e+00 5.18618393e+00 5.58660078e+00 4.96520805e+00</_>
    <_>
      3.04011059e+00 4.70644236e+00 5.18618393e+00 5.58660078e+00</_>
    <_>
      9.55455959e-01 3.04011059e+00 4.70644236e+00 5.18618393e+00</_>
    <_>
      -2.81235576e+00 9.55455959e-01 3.04011059e+00 4.70644236e+00</_>
    <_>
      -5.34830141e+00 -2.81235576e+00 9.55455959e-01 3.04011059e+00</_>
    <_>
      -6.69434786e+00 -5.34830141e+00 -2.81235576e+00 9.55455959e-01</_>
    <_>
      -9.06388092e+00 -6.69434786e+00 -5.34830141e+00 -2.81235576e+00</_>
    <_>
      -1.09876595e+01 -9.06388092e+00 -6.69434786e+00 -5.34830141e+00</_>
    <_>
      -1.25935144e+01 -1.09876595e+01 -9.06388092e+00 -6.69434786e+00</_>
    <_>
      -1.36580944e+01 -1.25935144e+01 -1.09876595e+01 -9.06388092e+00</_>
    <_>
      -1.40631905e+01 -1.36580944e+01 -1.25935144e+01 -1.09876595e+01</_>
    <_>
      -1.44031191e+01 -1.40631905e+01 -1.36580944e+01 -1.25935144e+01</_>
    <_>
      -1.41979246e+01 -1.44031191e+01 -1.40631905e+01 -1.36580944e+01</_>
    <_>
      -1.34908791e+01 -1.41979246e+01 -1.44031191e+01 -1.40631905e+01</_>
    <_>
      -1.20917530e+01 -1.34908791e+01 -1.41979246e+01 -1.44031191e+01</_>
    <_>
      -1.12353249e+01 -1.20917530e+01 -1.34908791e+01 -1.41979246e+01</_>
    <_>
      -9.27849483e+00 -1.12353249e+01 -1.20917530e+01 -1.34908791e+01</_>
    <_>
      -7.20147896e+00 -9.27849483e+00 -1.12353249e+01 -1.20917530e+01</_>
    <_>
      -5.20026541e+00 -7.20147896e+00 -9.27849483e+00 -1.12353249e+01</_>
    <_>
      -3.57920241e+00 -5.20026541e+00 -7.20147896e+00 -9.27849483e+00</_>
    <_>
      -2.47591066e+00 -3.57920241e+00 -5.20026541e+00 -7.20147896e+00</_>
    <_>
      -1.86897182e+00 -2.47591066e+00 -3.57920241e+00 -5.20026541e+00</_>
    <_>
      -1.80655563e+00 -1.86897182e+00 -2.47591066e+00 -3.57920241e+00</_>
    <_>
      -2.01912761e+00 -1.80655563e+00 -1.86897182e+00 -2.47591066e+00</_>
    <_>
      -2.33805537e+00 -2.01912761e+00 -1.80655563e+00 -1.86897182e+00</_>
    <_>
      -2.95676970e+00 -2.33805537e+00 -2.01912761e+00 -1.80655563e+00</_>
    <_>
      -3.66768813e+00 -2.95676970e+00 -2.33805537e+00 -2.01912761e+00</_>
    <_>
      -4.30039406e+00 -3.66768813e+00 -2.95676970e+00 -2.33805537e+00</_>
    <_>
      -5.04701662e+00 -4.30039406e+00 -3.66768813e+00 -2.95676970e+00</_>
    <_>
      -5.83829546e+00 -5.04701662e+00 -4.30039406e+00 -3.66768813e+00</_>
    <_>
      -6.96037579e+00 -5.83829546e+00 -5.04701662e+00 -4.30039406e+00</_>
    <_>
      -8.52849483e+00 -6.96037579e+00 -5.83829546e+00 -5.04701662e+00</_>
    <_>
      -1.05278578e+01 -8.52849483e+00 -6.96037579e+00 -5.83829546e+00</_>
    <_>
      -1.29210625e+01 -1.05278578e+01 -8.52849483e+00 -6.96037579e+00</_>
    <_>
      -1.54890213e+01 -1.29210625e+01 -1.05278578e+01 -8.52849483e+00</_>
    <_>
      -1.81273212e+01 -1.54890213e+01 -1.29210625e+01 -1.05278578e+01</_>
    <_>
      -2.04405270e+01 -1.81273212e+01 -1.54890213e+01 -1.29210625e+01</_>
    <_>
      -2.20973396e+01 -2.04405270e+01 -1.81273212e+01 -1.54890213e+01</_>
    <_>
      -2.24132290e+01 -2.20973396e+01 -2.04405270e+01 -1.81273212e+01</_>
    <_>
      -2.23784428e+01 -2.24132290e+01 -2.20973396e+01 -2.04405270e+01</_>
    <_>
      -2.12390881e+01 -2.23784428e+01 -2.24132290e+01 -2.20973396e+01</_>
    <_>
      -1.91359520e+01 -2.12390881e+01 -2.23784428e+01 -2.24132290e+01</_>
    <_>
      -1.63160057e+01 -1.91359520e+01 -2.12390881e+01 -2.23784428e+01</_>
    <_>
      -1.29000826e+01 -1.63160057e+01 -1.91359520e+01 -2.12390881e+01</_>
    <_>
      -9.31327629e+00 -1.29000826e+01 -1.63160057e+01 -1.91359520e+01</_>
    <_>
      -5.75199366e+00 -9.31327629e+00 -1.29000826e+01 -1.63160057e+01</_>
    <_>
      -2.74316406e+00 -5.75199366e+00 -9.31327629e+00 -1.29000826e+01</_>
    <_>
      -1.40874982e-01 -2.74316406e+00 -5.75199366e+00 -9.31327629e+00</_>
    <_>
      1.66410744e+00 -1.40874982e-01 -2.74316406e+00 -5.75199366e+00</_>
    <_>
      2.26191139e+00 1.66410744e+00 -1.40874982e-01 -2.74316406e+00</_>
    <_>
      2.86364388e+00 2.26191139e+00 1.66410744e+00 -1.40874982e-01</_>
    <_>
      2.79580379e+00 2.86364388e+00 2.26191139e+00 1.66410744e+00</_>
    <_>
      1.86515367e+00 2.79580379e+00 2.86364388e+00 2.26191139e+00</_>
    <_>
      3.94830883e-01 1.86515367e+00 2.79580379e+00 2.86364388e+00</_>
    <_>
      -1.54651058e+00 3.94830883e-01 1.86515367e+00 2.79580379e+00</_>
    <_>
      -3.96196270e+00 -1.54651058e+00 3.94830883e-01 1.86515367e+00</_>
    <_>
      -5.24064255e+00 -3.96196270e+00 -1.54651058e+00 3.94830883e-01</_>
    <_>
      -7.59659004e+00 -5.24064255e+00 -3.96196270e+00 -1.54651058e+00</_>
    <_>
      -9.35381126e+00 -7.59659004e+00 -5.24064255e+00 -3.96196270e+00</_>
    <_>
      -1.04996223e+01 -9.35381126e+00 -7.59659004e+00 -5.24064255e+00</_>
    <_>
      -1.06176519e+01 -1.04996223e+01 -9.35381126e+00 -7.59659004e+00</_>
    <_>
      -1.04280329e+01 -1.06176519e+01 -1.04996223e+01 -9.35381126e+00</_>
    <_>
      -9.54529095e+00 -1.04280329e+01 -1.06176519e+01 -1.04996223e+01</_>
    <_>
      -8.26387882e+00 -9.54529095e+00 -1.04280329e+01 -1.06176519e+01</_>
    <_>
      -6.91533947e+00 -8.26387882e+00 -9.54529095e+00 -1.04280329e+01</_>
    <_>
      -5.53602028e+00 -6.91533947e+00 -8.26387882e+00 -9.54529095e+00</_>
    <_>
      -4.09074831e+00 -5.53602028e+00 -6.91533947e+00 -8.26387882e+00</_>
    <_>
      -3.42088389e+00 -4.09074831e+00 -5.53602028e+00 -6.91533947e+00</_>
    <_>
      -2.21508694e+00 -3.42088389e+00 -4.09074831e+00 -5.53602028e+00</_>
    <_>
      -1.34363043e+00 -2.21508694e+00 -3.42088389e+00 -4.09074831e+00</_>
    <_>
      -8.75988126e-01 -1.34363043e+00 -2.21508694e+00 -3.42088389e+00</_>
    <_>
      -7.42352605e-01 -8.75988126e-01 -1.34363043e+00 -2.21508694e+00</_>
    <_>
      -1.47776580e+00 -7.42352605e-01 -8.75988126e-01 -1.34363043e+00</_>
    <_>
      -2.14689851e+00 -1.47776580e+00 -7.42352605e-01 -8.75988126e-01</_>
    <_>
      -3.88829684e+00 -2.14689851e+00 -1.47776580e+00 -7.42352605e-01</_>
    <_>
      -6.51125193e+00 -3.88829684e+00 -2.14689851e+00 -1.47776580e+00</_>
    <_>
      -9.95968342e+00 -6.51125193e+00 -3.88829684e+00 -2.14689851e+00</_>
    <_>
      -1.37707024e+01 -9.95968342e+00 -6.51125193e+00 -3.88829684e+00</_>
    <_>
      -1.75077648e+01 -1.37707024e+01 -9.95968342e+00 -6.51125193e+00</_>
    <_>
      -1.91101990e+01 -1.75077648e+01 -1.37707024e+01 -9.95968342e+00</_>
    <_>
      -2.14975662e+01 -1.91101990e+01 -1.75077648e+01 -1.37707024e+01</_>
    <_>
      -2.22932110e+01 -2.14975662e+01 -1.91101990e+01 -1.75077648e+01</_>
    <_>
      -2.15328331e+01 -2.22932110e+01 -2.14975662e+01 -1.91101990e+01</_>
    <_>
      -1.93318787e+01 -2.15328331e+01 -2.22932110e+01 -2.14975662e+01</_>
    <_>
      -1.78898258e+01 -1.93318787e+01 -2.15328331e+01 -2.22932110e+01</_>
    <_>
      -1.43296261e+01 -1.78898258e+01 -1.93318787e+01 -2.15328331e+01</_>
    <_>
      -1.11042471e+01 -1.43296261e+01 -1.78898258e+01 -1.93318787e+01</_>
    <_>
      -9.36223030e+00 -1.11042471e+01 -1.43296261e+01 -1.78898258e+01</_>
    <_>
      -7.76247072e+00 -9.36223030e+00 -1.11042471e+01 -1.43296261e+01</_>
    <_>
      -6.08652735e+00 -7.76247072e+00 -9.36223030e+00 -1.11042471e+01</_>
    <_>
      -4.66261721e+00 -6.08652735e+00 -7.76247072e+00 -9.36223030e+00</_>
    <_>
      -3.44971967e+00 -4.66261721e+00 -6.08652735e+00 -7.76247072e+00</_>
    <_>
      -2.93841505e+00 -3.44971967e+00 -4.66261721e+00 -6.08652735e+00</_>
    <_>
      -2.23169398e+00 -2.93841505e+00 -3.44971967e+00 -4.66261721e+00</_>
    <_>
      -1.96014261e+00 -2.23169398e+00 -2.93841505e+00 -3.44971967e+00</_>
    <_>
      -2.97193289e+00 -2.26169133e+00 -1.96014261e+00 -2.23169398e+00</_>
    <_>
      -3.50066924e+00 -2.97193289e+00 -2.26169133e+00 -1.96014261e+00</_>
    <_>
      -4.71199322e+00 -3.50066924e+00 -2.97193289e+00 -2.26169133e+00</_>
    <_>
      -5.91889811e+00 -4.71199322e+00 -3.50066924e+00 -2.97193289e+00</_>
    <_>
      -7.39599943e+00 -5.91889811e+00 -4.71199322e+00 -3.50066924e+00</_>
    <_>
      -7.97963762e+00 -7.39599943e+00 -5.91889811e+00 -4.71199322e+00</_>
    <_>
      -8.23675346e+00 -7.97963762e+00 -7.39599943e+00 -5.91889811e+00</_>
    <_>
      -8.25982857e+00 -8.23675346e+00 -7.97963762e+00 -7.39599943e+00</_>
    <_>
      -7.92027044e+00 -8.25982857e+00 -8.23675346e+00 -7.97963762e+00</_>
    <_>
      -7.58526993e+00 -7.92027044e+00 -8.25982857e+00 -8.23675346e+00</_>
    <_>
      -6.58108902e+00 -7.58526993e+00 -7.92027044e+00 -8.25982857e+00</_>
    <_>
      -5.11123800e+00 -6.58108902e+00 -7.58526993e+00 -7.92027044e+00</_>
    <_>
      -3.23079777e+00 -5.11123800e+00 -6.58108902e+00 -7.58526993e+00</_>
    <_>
      -1.22005475e+00 -3.23079777e+00 -5.11123800e+00 -6.58108902e+00</_>
    <_>
      8.60614479e-01 -1.22005475e+00 -3.23079777e+00 -5.11123800e+00</_>
    <_>
      2.94918895e+00 8.60614479e-01 -1.22005475e+00 -3.23079777e+00</_>
    <_>
      3.89073348e+00 2.94918895e+00 8.60614479e-01 -1.22005475e+00</_>
    <_>
      5.50894260e+00 3.89073348e+00 2.94918895e+00 8.60614479e-01</_>
    <_>
      6.59042740e+00 5.50894260e+00 3.89073348e+00 2.94918895e+00</_>
    <_>
      7.20762634e+00 6.59042740e+00 5.50894260e+00 3.89073348e+00</_>
    <_>
      7.13213110e+00 7.20762634e+00 6.59042740e+00 5.50894260e+00</_>
    <_>
      6.18768930e+00 7.13213110e+00 7.20762634e+00 6.59042740e+00</_>
    <_>
      4.77978420e+00 6.18768930e+00 7.13213110e+00 7.20762634e+00</_>
    <_>
      2.77994847e+00 4.77978420e+00 6.18768930e+00 7.13213110e+00</_>
    <_>
      3.53059679e-01 2.77994847e+00 4.77978420e+00 6.18768930e+00</_>
    <_>
      -8.45268130e-01 3.53059679e-01 2.77994847e+00 4.77978420e+00</_>
    <_>
      -3.37615085e+00 -8.45268130e-01 3.53059679e-01 2.77994847e+00</_>
    <_>
      -6.14042377e+00 -3.37615085e+00 -8.45268130e-01 3.53059679e-01</_>
    <_>
      -8.98453903e+00 -6.14042377e+00 -3.37615085e+00 -8.45268130e-01</_>
    <_>
      -1.15710955e+01 -8.98453903e+00 -6.14042377e+00 -3.37615085e+00</_>
    <_>
      -1.38294096e+01 -1.15710955e+01 -8.98453903e+00 -6.14042377e+00</_>
    <_>
      -1.47360783e+01 -1.38294096e+01 -1.15710955e+01 -8.98453903e+00</_>
    <_>
      -1.61033745e+01 -1.47360783e+01 -1.38294096e+01 -1.15710955e+01</_>
    <_>
      -1.67353306e+01 -1.61033745e+01 -1.47360783e+01 -1.38294096e+01</_>
    <_>
      -1.63502350e+01 -1.67353306e+01 -1.61033745e+01 -1.47360783e+01</_>
    <_>
      -1.52233868e+01 -1.63502350e+01 -1.67353306e+01 -1.61033745e+01</_>
    <_>
      -1.44228630e+01 -1.52233868e+01 -1.63502350e+01 -1.67353306e+01</_>
    <_>
      -1.23327332e+01 -1.44228630e+01 -1.52233868e+01 -1.63502350e+01</_>
    <_>
      -1.02987528e+01 -1.23327332e+01 -1.44228630e+01 -1.52233868e+01</_>
    <_>
      -8.14309883e+00 -1.02987528e+01 -1.23327332e+01 -1.44228630e+01</_>
    <_>
      -6.06814194e+00 -8.14309883e+00 -1.02987528e+01 -1.23327332e+01</_>
    <_>
      -5.20161915e+00 -6.06814194e+00 -8.14309883e+00 -1.02987528e+01</_>
    <_>
      -2.67238235e+00 -5.20161915e+00 -6.06814194e+00 -8.14309883e+00</_>
    <_>
      -1.94031668e+00 -2.67238235e+00 -5.20161915e+00 -6.06814194e+00</_>
    <_>
      -2.07604289e-01 -1.94031668e+00 -2.67238235e+00 -5.20161915e+00</_>
    <_>
      1.39661860e+00 -2.07604289e-01 -1.94031668e+00 -2.67238235e+00</_>
    <_>
      2.81677556e+00 1.39661860e+00 -2.07604289e-01 -1.94031668e+00</_>
    <_>
      4.03229475e+00 2.81677556e+00 1.39661860e+00 -2.07604289e-01</_>
    <_>
      4.59447241e+00 4.03229475e+00 2.81677556e+00 1.39661860e+00</_>
    <_>
      4.53640795e+00 4.59447241e+00 4.03229475e+00 2.81677556e+00</_>
    <_>
      4.40518808e+00 4.53640795e+00 4.59447241e+00 4.03229475e+00</_>
    <_>
      3.45254660e+00 4.40518808e+00 4.53640795e+00 4.59447241e+00</_>
    <_>
      3.42921168e-01 2.04336119e+00 3.45254660e+00 4.40518808e+00</_>
    <_>
      -1.76648867e+00 3.42921168e-01 2.04336119e+00 3.45254660e+00</_>
    <_>
      -3.89951587e+00 -1.76648867e+00 3.42921168e-01 2.04336119e+00</_>
    <_>
      -6.18005610e+00 -3.89951587e+00 -1.76648867e+00 3.42921168e-01</_>
    <_>
      -8.28327370e+00 -6.18005610e+00 -3.89951587e+00 -1.76648867e+00</_>
    <_>
      -9.31094170e+00 -8.28327370e+00 -6.18005610e+00 -3.89951587e+00</_>
    <_>
      -1.10535259e+01 -9.31094170e+00 -8.28327370e+00 -6.18005610e+00</_>
    <_>
      -1.23994904e+01 -1.10535259e+01 -9.31094170e+00 -8.28327370e+00</_>
    <_>
      -1.32157507e+01 -1.23994904e+01 -1.10535259e+01 -9.31094170e+00</_>
    <_>
      -1.33979816e+01 -1.32157507e+01 -1.23994904e+01 -1.10535259e+01</_>
    <_>
      -1.27887754e+01 -1.33979816e+01 -1.32157507e+01 -1.23994904e+01</_>
    <_>
      -1.22361174e+01 -1.27887754e+01 -1.33979816e+01 -1.32157507e+01</_>
    <_>
      -9.98630333e+00 -1.22361174e+01 -1.27887754e+01 -1.33979816e+01</_>
    <_>
      -9.11282158e+00 -9.98630333e+00 -1.22361174e+01 -1.27887754e+01</_>
    <_>
      -7.37565756e+00 -9.11282158e+00 -9.98630333e+00 -1.22361174e+01</_>
    <_>
      -5.78025055e+00 -7.37565756e+00 -9.11282158e+00 -9.98630333e+00</_>
    <_>
      -4.71823072e+00 -5.78025055e+00 -7.37565756e+00 -9.11282158e+00</_>
    <_>
      -4.30145168e+00 -4.71823072e+00 -5.78025055e+00 -7.37565756e+00</_>
    <_>
      -4.37120581e+00 -4.30145168e+00 -4.71823072e+00 -5.78025055e+00</_>
    <_>
      -5.20588923e+00 -4.37120581e+00 -4.30145168e+00 -4.71823072e+00</_>
    <_>
      -6.93542862e+00 -5.20588923e+00 -4.37120581e+00 -4.30145168e+00</_>
    <_>
      -9.28813648e+00 -6.93542862e+00 -5.20588923e+00 -4.37120581e+00</_>
    <_>
      -1.22109661e+01 -9.28813648e+00 -6.93542862e+00 -5.20588923e+00</_>
    <_>
      -1.54166365e+01 -1.22109661e+01 -9.28813648e+00 -6.93542862e+00</_>
    <_>
      -1.68986282e+01 -1.54166365e+01 -1.22109661e+01 -9.28813648e+00</_>
    <_>
      -1.94113293e+01 -1.68986282e+01 -1.54166365e+01 -1.22109661e+01</_>
    <_>
      -2.06900654e+01 -1.94113293e+01 -1.68986282e+01 -1.54166365e+01</_>
    <_>
      -2.08031540e+01 -2.06900654e+01 -1.94113293e+01 -1.68986282e+01</_>
    <_>
      -1.96999912e+01 -2.08031540e+01 -2.06900654e+01 -1.94113293e+01</_>
    <_>
      -1.77044163e+01 -1.96999912e+01 -2.08031540e+01 -2.06900654e+01</_>
    <_>
      -1.49432364e+01 -1.77044163e+01 -1.96999912e+01 -2.08031540e+01</_>
    <_>
      -1.17714100e+01 -1.49432364e+01 -1.77044163e+01 -1.96999912e+01</_>
    <_>
      -8.61939812e+00 -1.17714100e+01 -1.49432364e+01 -1.77044163e+01</_>
    <_>
      -5.84216452e+00 -8.61939812e+00 -1.17714100e+01 -1.49432364e+01</_>
    <_>
      -3.34930921e+00 -5.84216452e+00 -8.61939812e+00 -1.17714100e+01</_>
    <_>
      -1.20848942e+00 -3.34930921e+00 -5.84216452e+00 -8.61939812e+00</_>
    <_>
      5.88321537e-02 -1.20848942e+00 -3.34930921e+00 -5.84216452e+00</_>
    <_>
      6.57508552e-01 5.88321537e-02 -1.20848942e+00 -3.34930921e+00</_>
    <_>
      6.57045424e-01 6.57508552e-01 5.88321537e-02 -1.20848942e+00</_>
    <_>
      3.20323199e-01 6.57045424e-01 6.57508552e-01 5.88321537e-02</_>
    <_>
      -8.11870515e-01 3.20323199e-01 6.57045424e-01 6.57508552e-01</_>
    <_>
      -3.61450076e+00 -8.11870515e-01 3.20323199e-01 6.57045424e-01</_>
    <_>
      -4.59099197e+00 -3.61450076e+00 -8.11870515e-01 3.20323199e-01</_>
    <_>
      -7.04770327e+00 -4.59099197e+00 -3.61450076e+00 -8.11870515e-01</_>
    <_>
      -9.82790375e+00 -7.04770327e+00 -4.59099197e+00 -3.61450076e+00</_>
    <_>
      -1.24864960e+01 -9.82790375e+00 -7.04770327e+00 -4.59099197e+00</_>
    <_>
      -1.49390564e+01 -1.24864960e+01 -9.82790375e+00 -7.04770327e+00</_>
    <_>
      -1.70051823e+01 -1.49390564e+01 -1.24864960e+01 -9.82790375e+00</_>
    <_>
      -1.79532948e+01 -1.70051823e+01 -1.49390564e+01 -1.24864960e+01</_>
    <_>
      -1.77606869e+01 -1.79532948e+01 -1.70051823e+01 -1.49390564e+01</_>
    <_>
      -1.64678364e+01 -1.77606869e+01 -1.79532948e+01 -1.70051823e+01</_>
    <_>
      -1.54899864e+01 -1.64678364e+01 -1.77606869e+01 -1.79532948e+01</_>
    <_>
      -1.30711365e+01 -1.54899864e+01 -1.64678364e+01 -1.77606869e+01</_>
    <_>
      -1.18181143e+01 -1.30711365e+01 -1.54899864e+01 -1.64678364e+01</_>
    <_>
      -1.09312668e+01 -1.18181143e+01 -1.30711365e+01 -1.54899864e+01</_>
    <_>
      -9.90195751e+00 -1.09312668e+01 -1.18181143e+01 -1.30711365e+01</_>
    <_>
      -9.09395504e+00 -9.90195751e+00 -1.09312668e+01 -1.18181143e+01</_>
    <_>
      -8.68090153e+00 -9.09395504e+00 -9.90195751e+00 -1.09312668e+01</_>
    <_>
      -8.47442913e+00 -8.68090153e+00 -9.09395504e+00 -9.90195751e+00</_>
    <_>
      -8.23650742e+00 -8.47442913e+00 -8.68090153e+00 -9.09395504e+00</_>
    <_>
      -8.34856033e+00 -8.23650742e+00 -8.47442913e+00 -8.68090153e+00</_>
    <_>
      -8.76311684e+00 -8.34856033e+00 -8.23650742e+00 -8.47442913e+00</_>
    <_>
      -9.43603802e+00 -8.76311684e+00 -8.34856033e+00 -8.23650742e+00</_>
    <_>
      -1.02472496e+01 -9.43603802e+00 -8.76311684e+00 -8.34856033e+00</_>
    <_>
      -1.08660688e+01 -1.02472496e+01 -9.43603802e+00 -8.76311684e+00</_>
    <_>
      -1.12728910e+01 -1.08660688e+01 -1.02472496e+01 -9.43603802e+00</_>
    <_>
      -1.11966085e+01 -1.12728910e+01 -1.08660688e+01 -1.02472496e+01</_>
    <_>
      -1.06484861e+01 -1.11966085e+01 -1.12728910e+01 -1.08660688e+01</_>
    <_>
      -1.02217083e+01 -1.06484861e+01 -1.11966085e+01 -1.12728910e+01</_>
    <_>
      -9.18139267e+00 -1.02217083e+01 -1.06484861e+01 -1.11966085e+01</_>
    <_>
      -7.76563740e+00 -9.18139267e+00 -1.02217083e+01 -1.06484861e+01</_>
    <_>
      -4.92214203e+00 -7.76563740e+00 -9.18139267e+00 -1.02217083e+01</_>
    <_>
      -2.72201610e+00 -4.92214203e+00 -7.76563740e+00 -9.18139267e+00</_>
    <_>
      -3.78868043e-01 -2.72201610e+00 -4.92214203e+00 -7.76563740e+00</_>
    <_>
      2.17916727e+00 -3.78868043e-01 -2.72201610e+00 -4.92214203e+00</_>
    <_>
      3.38314652e+00 2.17916727e+00 -3.78868043e-01 -2.72201610e+00</_>
    <_>
      5.61234999e+00 3.38314652e+00 2.17916727e+00 -3.78868043e-01</_>
    <_>
      7.13176155e+00 5.61234999e+00 3.38314652e+00 2.17916727e+00</_>
    <_>
      7.95101786e+00 7.13176155e+00 5.61234999e+00 3.38314652e+00</_>
    <_>
      7.98936176e+00 7.95101786e+00 7.13176155e+00 5.61234999e+00</_>
    <_>
      7.25045681e+00 7.98936176e+00 7.95101786e+00 7.13176155e+00</_>
    <_>
      5.63856649e+00 7.25045681e+00 7.98936176e+00 7.95101786e+00</_>
    <_>
      3.29007745e+00 5.63856649e+00 7.25045681e+00 7.98936176e+00</_>
    <_>
      2.01236248e+00 3.29007745e+00 5.63856649e+00 7.25045681e+00</_>
    <_>
      -8.12008202e-01 2.01236248e+00 3.29007745e+00 5.63856649e+00</_>
    <_>
      -3.63993502e+00 -8.12008202e-01 2.01236248e+00 3.29007745e+00</_>
    <_>
      -6.54005527e+00 -3.63993502e+00 -8.12008202e-01 2.01236248e+00</_>
    <_>
      -9.31794930e+00 -6.54005527e+00 -3.63993502e+00 -8.12008202e-01</_>
    <_>
      -1.18517447e+01 -9.31794930e+00 -6.54005527e+00 -3.63993502e+00</_>
    <_>
      -1.36013298e+01 -1.18517447e+01 -9.31794930e+00 -6.54005527e+00</_>
    <_>
      -1.46250124e+01 -1.36013298e+01 -1.18517447e+01 -9.31794930e+00</_>
    <_>
      -1.48119364e+01 -1.46250124e+01 -1.36013298e+01 -1.18517447e+01</_>
    <_>
      -1.44070816e+01 -1.48119364e+01 -1.46250124e+01 -1.36013298e+01</_>
    <_>
      -1.32469711e+01 -1.44070816e+01 -1.48119364e+01 -1.46250124e+01</_>
    <_>
      -1.15543461e+01 -1.32469711e+01 -1.44070816e+01 -1.48119364e+01</_>
    <_>
      -9.71872616e+00 -1.15543461e+01 -1.32469711e+01 -1.44070816e+01</_>
    <_>
      -7.82393312e+00 -9.71872616e+00 -1.15543461e+01 -1.32469711e+01</_>
    <_>
      -6.07150030e+00 -7.82393312e+00 -9.71872616e+00 -1.15543461e+01</_>
    <_>
      -4.73313665e+00 -6.07150030e+00 -7.82393312e+00 -9.71872616e+00</_>
    <_>
      -4.06506586e+00 -4.73313665e+00 -6.07150030e+00 -7.82393312e+00</_>
    <_>
      -3.86617613e+00 -4.06506586e+00 -4.73313665e+00 -6.07150030e+00</_>
    <_>
      -4.32853270e+00 -3.86617613e+00 -4.06506586e+00 -4.73313665e+00</_>
    <_>
      -4.73155785e+00 -4.32853270e+00 -3.86617613e+00 -4.06506586e+00</_>
    <_>
      -5.46543264e+00 -4.73155785e+00 -4.32853270e+00 -3.86617613e+00</_>
    <_>
      -5.60583925e+00 -5.46543264e+00 -4.73155785e+00 -4.32853270e+00</_>
    <_>
      -4.87538958e+00 -5.60583925e+00 -5.46543264e+00 -4.73155785e+00</_>
    <_>
      -3.57170701e+00 -4.87538958e+00 -5.60583925e+00 -5.46543264e+00</_>
    <_>
      -1.74430323e+00 -3.57170701e+00 -4.87538958e+00 -5.60583925e+00</_>
    <_>
      2.65288204e-01 -1.74430323e+00 -3.57170701e+00 -4.87538958e+00</_>
    <_>
      2.09936237e+00 2.65288204e-01 -1.74430323e+00 -3.57170701e+00</_>
    <_>
      4.31823921e+00 3.54653621e+00 2.09936237e+00 2.65288204e-01</_>
    <_>
      4.32970238e+00 4.31823921e+00 3.54653621e+00 2.09936237e+00</_>
    <_>
      3.74627471e+00 4.32970238e+00 4.31823921e+00 3.54653621e+00</_>
    <_>
      2.53031182e+00 3.74627471e+00 4.32970238e+00 4.31823921e+00</_>
    <_>
      5.79878867e-01 2.53031182e+00 3.74627471e+00 4.32970238e+00</_>
    <_>
      -5.16479135e-01 5.79878867e-01 2.53031182e+00 3.74627471e+00</_>
    <_>
      -2.85658693e+00 -5.16479135e-01 5.79878867e-01 2.53031182e+00</_>
    <_>
      -5.22414064e+00 -2.85658693e+00 -5.16479135e-01 5.79878867e-01</_>
    <_>
      -7.60604572e+00 -5.22414064e+00 -2.85658693e+00 -5.16479135e-01</_>
    <_>
      -9.72319603e+00 -7.60604572e+00 -5.22414064e+00 -2.85658693e+00</_>
    <_>
      -1.16309729e+01 -9.72319603e+00 -7.60604572e+00 -5.22414064e+00</_>
    <_>
      -1.21618414e+01 -1.16309729e+01 -9.72319603e+00 -7.60604572e+00</_>
    <_>
      -1.27967262e+01 -1.21618414e+01 -1.16309729e+01 -9.72319603e+00</_>
    <_>
      -1.25091095e+01 -1.27967262e+01 -1.21618414e+01 -1.16309729e+01</_>
    <_>
      -1.22614756e+01 -1.25091095e+01 -1.27967262e+01 -1.21618414e+01</_>
    <_>
      -1.09362535e+01 -1.22614756e+01 -1.25091095e+01 -1.27967262e+01</_>
    <_>
      -9.22361755e+00 -1.09362535e+01 -1.22614756e+01 -1.25091095e+01</_>
    <_>
      -7.20426846e+00 -9.22361755e+00 -1.09362535e+01 -1.22614756e+01</_>
    <_>
      -5.66261196e+00 -7.20426846e+00 -9.22361755e+00 -1.09362535e+01</_>
    <_>
      -4.92729568e+00 -5.66261196e+00 -7.20426846e+00 -9.22361755e+00</_>
    <_>
      -3.34881186e+00 -4.92729568e+00 -5.66261196e+00 -7.20426846e+00</_>
    <_>
      -1.98449743e+00 -3.34881186e+00 -4.92729568e+00 -5.66261196e+00</_>
    <_>
      -9.36381042e-01 -1.98449743e+00 -3.34881186e+00 -4.92729568e+00</_>
    <_>
      -1.98517486e-01 -9.36381042e-01 -1.98449743e+00 -3.34881186e+00</_>
    <_>
      -7.95134380e-02 -1.98517486e-01 -9.36381042e-01 -1.98449743e+00</_>
    <_>
      -5.29734194e-01 -7.95134380e-02 -1.98517486e-01 -9.36381042e-01</_>
    <_>
      -1.62677598e+00 -5.29734194e-01 -7.95134380e-02 -1.98517486e-01</_>
    <_>
      -2.48627305e+00 -1.62677598e+00 -5.29734194e-01 -7.95134380e-02</_>
    <_>
      -3.54726195e+00 -2.48627305e+00 -1.62677598e+00 -5.29734194e-01</_>
    <_>
      -3.54726195e+00 -2.48627305e+00 -1.62677598e+00 -5.29734194e-01</_>
    <_>
      -3.54726195e+00 -2.48627305e+00 -1.62677598e+00 -5.29734194e-01</_>
    <_>
      -3.54726195e+00 -2.48627305e+00 -1.62677598e+00 -5.29734194e-01</_>
    <_>
      -7.91749382e+00 -3.54726195e+00 -2.48627305e+00 -1.62677598e+00</_>
    <_>
      -9.33883953e+00 -7.91749382e+00 -3.54726195e+00 -2.48627305e+00</_>
    <_>
      -9.33883953e+00 -7.91749382e+00 -3.54726195e+00 -2.48627305e+00</_>
    <_>
      -9.33883953e+00 -7.91749382e+00 -3.54726195e+00 -2.48627305e+00</_>
    <_>
      -2.29920521e+01 -9.33883953e+00 -7.91749382e+00 -3.54726195e+00</_>
    <_>
      -2.27059803e+01 -2.29920521e+01 -9.33883953e+00 -7.91749382e+00</_>
    <_>
      -2.24454613e+01 -2.27059803e+01 -2.29920521e+01 -9.33883953e+00</_>
    <_>
      -2.06901093e+01 -2.24454613e+01 -2.27059803e+01 -2.29920521e+01</_>
    <_>
      -1.78109665e+01 -2.06901093e+01 -2.24454613e+01 -2.27059803e+01</_>
    <_>
      -1.46307192e+01 -1.78109665e+01 -2.06901093e+01 -2.24454613e+01</_>
    <_>
      -1.12121744e+01 -1.46307192e+01 -1.78109665e+01 -2.06901093e+01</_>
    <_>
      -8.14970779e+00 -1.12121744e+01 -1.46307192e+01 -1.78109665e+01</_>
    <_>
      -6.38932943e+00 -8.14970779e+00 -1.12121744e+01 -1.46307192e+01</_>
    <_>
      -5.57378340e+00 -6.38932943e+00 -8.14970779e+00 -1.12121744e+01</_>
    <_>
      -3.81148791e+00 -5.57378340e+00 -6.38932943e+00 -8.14970779e+00</_>
    <_>
      -2.16018844e+00 -3.81148791e+00 -5.57378340e+00 -6.38932943e+00</_>
    <_>
      -1.81451893e+00 -2.16018844e+00 -3.81148791e+00 -5.57378340e+00</_>
    <_>
      -1.25448382e+00 -1.81451893e+00 -2.16018844e+00 -3.81148791e+00</_>
    <_>
      -1.21337402e+00 -1.25448382e+00 -1.81451893e+00 -2.16018844e+00</_>
    <_>
      -1.69176328e+00 -1.21337402e+00 -1.25448382e+00 -1.81451893e+00</_>
    <_>
      -2.69309449e+00 -1.69176328e+00 -1.21337402e+00 -1.25448382e+00</_>
    <_>
      -4.28981256e+00 -2.69309449e+00 -1.69176328e+00 -1.21337402e+00</_>
    <_>
      -6.00003672e+00 -4.28981256e+00 -2.69309449e+00 -1.69176328e+00</_>
    <_>
      -7.98453569e+00 -6.00003672e+00 -4.28981256e+00 -2.69309449e+00</_>
    <_>
      -1.01394234e+01 -7.98453569e+00 -6.00003672e+00 -4.28981256e+00</_>
    <_>
      -1.21010323e+01 -1.01394234e+01 -7.98453569e+00 -6.00003672e+00</_>
    <_>
      -1.36382399e+01 -1.21010323e+01 -1.01394234e+01 -7.98453569e+00</_>
    <_>
      -1.48094654e+01 -1.36382399e+01 -1.21010323e+01 -1.01394234e+01</_>
    <_>
      -1.52944536e+01 -1.48094654e+01 -1.36382399e+01 -1.21010323e+01</_>
    <_>
      -1.53721294e+01 -1.52944536e+01 -1.48094654e+01 -1.36382399e+01</_>
    <_>
      -1.47087269e+01 -1.53721294e+01 -1.52944536e+01 -1.48094654e+01</_>
    <_>
      -1.34019775e+01 -1.47087269e+01 -1.53721294e+01 -1.52944536e+01</_>
    <_>
      -1.16803837e+01 -1.34019775e+01 -1.47087269e+01 -1.53721294e+01</_>
    <_>
      -9.62063980e+00 -1.16803837e+01 -1.34019775e+01 -1.47087269e+01</_>
    <_>
      -7.39453793e+00 -9.62063980e+00 -1.16803837e+01 -1.34019775e+01</_>
    <_>
      -5.44296598e+00 -7.39453793e+00 -9.62063980e+00 -1.16803837e+01</_>
    <_>
      -3.69991136e+00 -5.44296598e+00 -7.39453793e+00 -9.62063980e+00</_>
    <_>
      -2.96370006e+00 -3.69991136e+00 -5.44296598e+00 -7.39453793e+00</_>
    <_>
      -1.47105336e+00 -2.96370006e+00 -3.69991136e+00 -5.44296598e+00</_>
    <_>
      -5.66491067e-01 -1.47105336e+00 -2.96370006e+00 -3.69991136e+00</_>
    <_>
      -1.26765389e-02 -5.66491067e-01 -1.47105336e+00 -2.96370006e+00</_>
    <_>
      1.90716267e-01 -1.26765389e-02 -5.66491067e-01 -1.47105336e+00</_>
    <_>
      1.22840337e-01 1.90716267e-01 -1.26765389e-02 -5.66491067e-01</_>
    <_>
      -1.11990541e-01 1.22840337e-01 1.90716267e-01 -1.26765389e-02</_>
    <_>
      -9.74138439e-01 -1.11990541e-01 1.22840337e-01 1.90716267e-01</_>
    <_>
      -2.18121171e+00 -9.74138439e-01 -1.11990541e-01 1.22840337e-01</_>
    <_>
      -3.76990294e+00 -2.18121171e+00 -9.74138439e-01 -1.11990541e-01</_>
    <_>
      -5.49279690e+00 -3.76990294e+00 -2.18121171e+00 -9.74138439e-01</_>
    <_>
      -7.85189056e+00 -5.49279690e+00 -3.76990294e+00 -2.18121171e+00</_>
    <_>
      -1.00296087e+01 -7.85189056e+00 -5.49279690e+00 -3.76990294e+00</_>
    <_>
      -1.25200720e+01 -1.00296087e+01 -7.85189056e+00 -5.49279690e+00</_>
    <_>
      -1.37109432e+01 -1.25200720e+01 -1.00296087e+01 -7.85189056e+00</_>
    <_>
      -1.60192528e+01 -1.37109432e+01 -1.25200720e+01 -1.00296087e+01</_>
    <_>
      -1.78941765e+01 -1.60192528e+01 -1.37109432e+01 -1.25200720e+01</_>
    <_>
      -1.88772182e+01 -1.78941765e+01 -1.60192528e+01 -1.37109432e+01</_>
    <_>
      -1.85170650e+01 -1.88772182e+01 -1.78941765e+01 -1.60192528e+01</_>
    <_>
      -1.77784443e+01 -1.85170650e+01 -1.88772182e+01 -1.78941765e+01</_>
    <_>
      -1.55106735e+01 -1.77784443e+01 -1.85170650e+01 -1.88772182e+01</_>
    <_>
      -1.24519577e+01 -1.55106735e+01 -1.77784443e+01 -1.85170650e+01</_>
    <_>
      -9.12739754e+00 -1.24519577e+01 -1.55106735e+01 -1.77784443e+01</_>
    <_>
      -6.30560637e+00 -9.12739754e+00 -1.24519577e+01 -1.55106735e+01</_>
    <_>
      -5.05568361e+00 -6.30560637e+00 -9.12739754e+00 -1.24519577e+01</_>
    <_>
      -4.58097267e+00 -5.05568361e+00 -6.30560637e+00 -9.12739754e+00</_>
    <_>
      -3.56347084e+00 -4.58097267e+00 -5.05568361e+00 -6.30560637e+00</_>
    <_>
      -3.16010213e+00 -3.56347084e+00 -4.58097267e+00 -5.05568361e+00</_>
    <_>
      -3.09072328e+00 -3.16010213e+00 -3.56347084e+00 -4.58097267e+00</_>
    <_>
      -3.09059596e+00 -3.09072328e+00 -3.16010213e+00 -3.56347084e+00</_>
    <_>
      -3.39340091e+00 -3.09059596e+00 -3.09072328e+00 -3.16010213e+00</_>
    <_>
      -3.96068549e+00 -3.39340091e+00 -3.09059596e+00 -3.09072328e+00</_>
    <_>
      -4.37165403e+00 -3.96068549e+00 -3.39340091e+00 -3.09059596e+00</_>
    <_>
      -5.23696375e+00 -4.37165403e+00 -3.96068549e+00 -3.39340091e+00</_>
    <_>
      -6.10703945e+00 -5.23696375e+00 -4.37165403e+00 -3.96068549e+00</_>
    <_>
      -6.83982658e+00 -6.10703945e+00 -5.23696375e+00 -4.37165403e+00</_>
    <_>
      -7.43999529e+00 -6.83982658e+00 -6.10703945e+00 -5.23696375e+00</_>
    <_>
      -7.54599619e+00 -7.43999529e+00 -6.83982658e+00 -6.10703945e+00</_>
    <_>
      -7.50996304e+00 -7.54599619e+00 -7.43999529e+00 -6.83982658e+00</_>
    <_>
      -7.04654884e+00 -7.50996304e+00 -7.54599619e+00 -7.43999529e+00</_>
    <_>
      -6.03927088e+00 -7.04654884e+00 -7.50996304e+00 -7.54599619e+00</_>
    <_>
      -4.77102137e+00 -6.03927088e+00 -7.04654884e+00 -7.50996304e+00</_>
    <_>
      -2.36227894e+00 -4.77102137e+00 -6.03927088e+00 -7.04654884e+00</_>
    <_>
      -1.49780464e+00 -2.36227894e+00 -4.77102137e+00 -6.03927088e+00</_>
    <_>
      1.83416590e-01 -1.49780464e+00 -2.36227894e+00 -4.77102137e+00</_>
    <_>
      1.91832972e+00 1.83416590e-01 -1.49780464e+00 -2.36227894e+00</_>
    <_>
      3.40099454e+00 1.91832972e+00 1.83416590e-01 -1.49780464e+00</_>
    <_>
      4.54250288e+00 3.40099454e+00 1.91832972e+00 1.83416590e-01</_>
    <_>
      5.28891516e+00 5.21755171e+00 4.54250288e+00 3.40099454e+00</_>
    <_>
      4.55751371e+00 5.28891516e+00 5.21755171e+00 4.54250288e+00</_>
    <_>
      3.14941335e+00 4.55751371e+00 5.28891516e+00 5.21755171e+00</_>
    <_>
      1.07080078e+00 3.14941335e+00 4.55751371e+00 5.28891516e+00</_>
    <_>
      -1.27681136e+00 1.07080078e+00 3.14941335e+00 4.55751371e+00</_>
    <_>
      -6.51487780e+00 -3.89029956e+00 -1.27681136e+00 1.07080078e+00</_>
    <_>
      -7.65491056e+00 -6.51487780e+00 -3.89029956e+00 -1.27681136e+00</_>
    <_>
      -9.67631531e+00 -7.65491056e+00 -6.51487780e+00 -3.89029956e+00</_>
    <_>
      -1.12367334e+01 -9.67631531e+00 -7.65491056e+00 -6.51487780e+00</_>
    <_>
      -1.23798676e+01 -1.12367334e+01 -9.67631531e+00 -7.65491056e+00</_>
    <_>
      -1.29888153e+01 -1.23798676e+01 -1.12367334e+01 -9.67631531e+00</_>
    <_>
      -1.29786491e+01 -1.29888153e+01 -1.23798676e+01 -1.12367334e+01</_>
    <_>
      -1.25640221e+01 -1.29786491e+01 -1.29888153e+01 -1.23798676e+01</_>
    <_>
      -1.16788454e+01 -1.25640221e+01 -1.29786491e+01 -1.29888153e+01</_>
    <_>
      -1.03939066e+01 -1.16788454e+01 -1.25640221e+01 -1.29786491e+01</_>
    <_>
      -8.84775734e+00 -1.03939066e+01 -1.16788454e+01 -1.25640221e+01</_>
    <_>
      -8.04139805e+00 -8.84775734e+00 -1.03939066e+01 -1.16788454e+01</_>
    <_>
      -6.56556940e+00 -8.04139805e+00 -8.84775734e+00 -1.03939066e+01</_>
    <_>
      -5.19889879e+00 -6.56556940e+00 -8.04139805e+00 -8.84775734e+00</_>
    <_>
      -4.22562504e+00 -5.19889879e+00 -6.56556940e+00 -8.04139805e+00</_>
    <_>
      -3.55243039e+00 -4.22562504e+00 -5.19889879e+00 -6.56556940e+00</_>
    <_>
      -3.36712289e+00 -3.55243039e+00 -4.22562504e+00 -5.19889879e+00</_>
    <_>
      -3.82772970e+00 -3.36712289e+00 -3.55243039e+00 -4.22562504e+00</_>
    <_>
      -4.63794231e+00 -3.82772970e+00 -3.36712289e+00 -3.55243039e+00</_>
    <_>
      -5.65269756e+00 -4.63794231e+00 -3.82772970e+00 -3.36712289e+00</_>
    <_>
      -6.73291016e+00 -5.65269756e+00 -4.63794231e+00 -3.82772970e+00</_>
    <_>
      -6.93360949e+00 -6.73291016e+00 -5.65269756e+00 -4.63794231e+00</_>
    <_>
      -6.20773458e+00 -6.93360949e+00 -6.73291016e+00 -5.65269756e+00</_>
    <_>
      -5.61311865e+00 -6.20773458e+00 -6.93360949e+00 -6.73291016e+00</_>
    <_>
      -4.27833509e+00 -5.61311865e+00 -6.20773458e+00 -6.93360949e+00</_>
    <_>
      -2.62854290e+00 -4.27833509e+00 -5.61311865e+00 -6.20773458e+00</_>
    <_>
      -1.34165549e+00 -2.62854290e+00 -4.27833509e+00 -5.61311865e+00</_>
    <_>
      -1.82994813e-01 -1.34165549e+00 -2.62854290e+00 -4.27833509e+00</_>
    <_>
      4.20047015e-01 -1.82994813e-01 -1.34165549e+00 -2.62854290e+00</_>
    <_>
      7.49473348e-02 5.26845396e-01 4.20047015e-01 -1.82994813e-01</_>
    <_>
      -7.52531290e+00 7.49473348e-02 5.26845396e-01 4.20047015e-01</_>
    <_>
      -8.80947876e+00 -7.52531290e+00 7.49473348e-02 5.26845396e-01</_>
    <_>
      -1.03065805e+01 -8.80947876e+00 -7.52531290e+00 7.49473348e-02</_>
    <_>
      -1.18406019e+01 -1.03065805e+01 -8.80947876e+00 -7.52531290e+00</_>
    <_>
      -1.34106865e+01 -1.18406019e+01 -1.03065805e+01 -8.80947876e+00</_>
    <_>
      -1.49146948e+01 -1.34106865e+01 -1.18406019e+01 -1.03065805e+01</_>
    <_>
      -1.61214714e+01 -1.49146948e+01 -1.34106865e+01 -1.18406019e+01</_>
    <_>
      -1.72294273e+01 -1.61214714e+01 -1.49146948e+01 -1.34106865e+01</_>
    <_>
      -1.75799828e+01 -1.72294273e+01 -1.61214714e+01 -1.49146948e+01</_>
    <_>
      -1.79154243e+01 -1.75799828e+01 -1.72294273e+01 -1.61214714e+01</_>
    <_>
      -1.77011757e+01 -1.79154243e+01 -1.75799828e+01 -1.72294273e+01</_>
    <_>
      -1.70309296e+01 -1.77011757e+01 -1.79154243e+01 -1.75799828e+01</_>
    <_>
      -1.55242767e+01 -1.70309296e+01 -1.77011757e+01 -1.79154243e+01</_>
    <_>
      -1.39153595e+01 -1.55242767e+01 -1.70309296e+01 -1.77011757e+01</_>
    <_>
      -1.08483582e+01 -1.39153595e+01 -1.55242767e+01 -1.70309296e+01</_>
    <_>
      -9.80743027e+00 -1.08483582e+01 -1.39153595e+01 -1.55242767e+01</_>
    <_>
      -6.02986479e+00 -9.80743027e+00 -1.08483582e+01 -1.39153595e+01</_>
    <_>
      -3.69124341e+00 -6.02986479e+00 -9.80743027e+00 -1.08483582e+01</_>
    <_>
      -1.62314308e+00 -3.69124341e+00 -6.02986479e+00 -9.80743027e+00</_>
    <_>
      -7.31220603e-01 -1.62314308e+00 -3.69124341e+00 -6.02986479e+00</_>
    <_>
      7.22852707e-01 -7.31220603e-01 -1.62314308e+00 -3.69124341e+00</_>
    <_>
      1.66257823e+00 7.22852707e-01 -7.31220603e-01 -1.62314308e+00</_>
    <_>
      2.68382382e+00 1.66257823e+00 7.22852707e-01 -7.31220603e-01</_>
    <_>
      2.93876410e+00 2.68382382e+00 1.66257823e+00 7.22852707e-01</_>
    <_>
      3.13139224e+00 2.93876410e+00 2.68382382e+00 1.66257823e+00</_>
    <_>
      3.06659842e+00 3.13139224e+00 2.93876410e+00 2.68382382e+00</_>
    <_>
      2.54167414e+00 2.81517363e+00 3.06659842e+00 3.13139224e+00</_>
    <_>
      2.47710657e+00 2.54167414e+00 2.81517363e+00 3.06659842e+00</_>
    <_>
      2.21044064e+00 2.47710657e+00 2.54167414e+00 2.81517363e+00</_>
    <_>
      1.80918562e+00 2.21044064e+00 2.47710657e+00 2.54167414e+00</_>
    <_>
      1.54032183e+00 1.80918562e+00 2.21044064e+00 2.47710657e+00</_>
    <_>
      9.35004354e-01 1.54032183e+00 1.80918562e+00 2.21044064e+00</_>
    <_>
      5.58573008e-01 9.35004354e-01 1.54032183e+00 1.80918562e+00</_>
    <_>
      -3.41877609e-01 5.58573008e-01 9.35004354e-01 1.54032183e+00</_>
    <_>
      -3.41877609e-01 5.58573008e-01 9.35004354e-01 1.54032183e+00</_>
    <_>
      -3.41877609e-01 5.58573008e-01 9.35004354e-01 1.54032183e+00</_>
    <_>
      -5.32803011e+00 -3.41877609e-01 5.58573008e-01 9.35004354e-01</_>
    <_>
      -6.33905458e+00 -5.32803011e+00 -3.41877609e-01 5.58573008e-01</_>
    <_>
      -7.45681047e+00 -6.33905458e+00 -5.32803011e+00 -3.41877609e-01</_>
    <_>
      -9.05954647e+00 -7.45681047e+00 -6.33905458e+00 -5.32803011e+00</_>
    <_>
      -1.00109987e+01 -9.05954647e+00 -7.45681047e+00 -6.33905458e+00</_>
    <_>
      -1.19402132e+01 -1.00109987e+01 -9.05954647e+00 -7.45681047e+00</_>
    <_>
      -1.37038078e+01 -1.19402132e+01 -1.00109987e+01 -9.05954647e+00</_>
    <_>
      -1.52020168e+01 -1.37038078e+01 -1.19402132e+01 -1.00109987e+01</_>
    <_>
      -1.63035564e+01 -1.52020168e+01 -1.37038078e+01 -1.19402132e+01</_>
    <_>
      -1.70818119e+01 -1.69136581e+01 -1.63035564e+01 -1.52020168e+01</_>
    <_>
      -1.66817455e+01 -1.70818119e+01 -1.69136581e+01 -1.63035564e+01</_>
    <_>
      -1.59882145e+01 -1.66817455e+01 -1.70818119e+01 -1.69136581e+01</_>
    <_>
      -1.48960094e+01 -1.59882145e+01 -1.66817455e+01 -1.70818119e+01</_>
    <_>
      -1.31333761e+01 -1.48960094e+01 -1.59882145e+01 -1.66817455e+01</_>
    <_>
      -1.10509396e+01 -1.31333761e+01 -1.48960094e+01 -1.59882145e+01</_>
    <_>
      -8.63408279e+00 -1.10509396e+01 -1.31333761e+01 -1.48960094e+01</_>
    <_>
      -6.30097818e+00 -8.63408279e+00 -1.10509396e+01 -1.31333761e+01</_>
    <_>
      -3.84665489e+00 -6.30097818e+00 -8.63408279e+00 -1.10509396e+01</_>
    <_>
      -1.49429929e+00 -3.84665489e+00 -6.30097818e+00 -8.63408279e+00</_>
    <_>
      4.97509271e-01 -1.49429929e+00 -3.84665489e+00 -6.30097818e+00</_>
    <_>
      2.33383679e+00 4.97509271e-01 -1.49429929e+00 -3.84665489e+00</_>
    <_>
      3.60223246e+00 2.33383679e+00 4.97509271e-01 -1.49429929e+00</_>
    <_>
      4.55916739e+00 3.60223246e+00 2.33383679e+00 4.97509271e-01</_>
    <_>
      5.25001574e+00 4.55916739e+00 3.60223246e+00 2.33383679e+00</_>
    <_>
      5.52473640e+00 5.25001574e+00 4.55916739e+00 3.60223246e+00</_>
    <_>
      5.46290350e+00 5.52473640e+00 5.25001574e+00 4.55916739e+00</_>
    <_>
      4.91629696e+00 5.46290350e+00 5.52473640e+00 5.25001574e+00</_>
    <_>
      4.13031816e+00 4.91629696e+00 5.46290350e+00 5.52473640e+00</_>
    <_>
      4.13031816e+00 4.91629696e+00 5.46290350e+00 5.52473640e+00</_>
    <_>
      4.13031816e+00 4.91629696e+00 5.46290350e+00 5.52473640e+00</_>
    <_>
      4.13031816e+00 4.91629696e+00 5.46290350e+00 5.52473640e+00</_>
    <_>
      4.13031816e+00 4.91629696e+00 5.46290350e+00 5.52473640e+00</_>
    <_>
      -1.40045862e+01 4.13031816e+00 4.91629696e+00 5.46290350e+00</_>
    <_>
      -1.58278570e+01 -1.40045862e+01 4.13031816e+00 4.91629696e+00</_>
    <_>
      -1.73805199e+01 -1.58278570e+01 -1.40045862e+01 4.13031816e+00</_>
    <_>
      -1.80052700e+01 -1.73805199e+01 -1.58278570e+01 -1.40045862e+01</_>
    <_>
      -1.89218731e+01 -1.80052700e+01 -1.73805199e+01 -1.58278570e+01</_>
    <_>
      -1.89204445e+01 -1.89218731e+01 -1.80052700e+01 -1.73805199e+01</_>
    <_>
      -1.84003773e+01 -1.89204445e+01 -1.89218731e+01 -1.80052700e+01</_>
    <_>
      -1.73671856e+01 -1.84003773e+01 -1.89204445e+01 -1.89218731e+01</_>
    <_>
      -1.57768440e+01 -1.73671856e+01 -1.84003773e+01 -1.89204445e+01</_>
    <_>
      -1.36795311e+01 -1.57768440e+01 -1.73671856e+01 -1.84003773e+01</_>
    <_>
      -1.14393549e+01 -1.36795311e+01 -1.57768440e+01 -1.73671856e+01</_>
    <_>
      -9.00741196e+00 -1.14393549e+01 -1.36795311e+01 -1.57768440e+01</_>
    <_>
      -7.86354494e+00 -9.00741196e+00 -1.14393549e+01 -1.36795311e+01</_>
    <_>
      -5.31430435e+00 -7.86354494e+00 -9.00741196e+00 -1.14393549e+01</_>
    <_>
      -3.00183558e+00 -5.31430435e+00 -7.86354494e+00 -9.00741196e+00</_>
    <_>
      -1.08784699e+00 -3.00183558e+00 -5.31430435e+00 -7.86354494e+00</_>
    <_>
      5.91221213e-01 -1.08784699e+00 -3.00183558e+00 -5.31430435e+00</_>
    <_>
      1.86316693e+00 5.91221213e-01 -1.08784699e+00 -3.00183558e+00</_>
    <_>
      2.72908020e+00 1.86316693e+00 5.91221213e-01 -1.08784699e+00</_>
    <_>
      2.96693683e+00 2.72908020e+00 1.86316693e+00 5.91221213e-01</_>
    <_>
      3.22244453e+00 2.96693683e+00 2.72908020e+00 1.86316693e+00</_>
    <_>
      2.88671517e+00 3.22244453e+00 2.96693683e+00 2.72908020e+00</_>
    <_>
      2.74289608e+00 2.88671517e+00 3.22244453e+00 2.96693683e+00</_>
    <_>
      2.20307851e+00 2.74289608e+00 2.88671517e+00 3.22244453e+00</_>
    <_>
      1.53463793e+00 2.20307851e+00 2.74289608e+00 2.88671517e+00</_>
    <_>
      7.93100953e-01 1.53463793e+00 2.20307851e+00 2.74289608e+00</_>
    <_>
      6.02029003e-02 7.93100953e-01 1.53463793e+00 2.20307851e+00</_>
    <_>
      -9.73297179e-01 6.02029003e-02 7.93100953e-01 1.53463793e+00</_>
    <_>
      -1.87807369e+00 -9.73297179e-01 6.02029003e-02 7.93100953e-01</_>
    <_>
      -2.34477067e+00 -1.87807369e+00 -9.73297179e-01 6.02029003e-02</_>
    <_>
      -3.41582465e+00 -2.34477067e+00 -1.87807369e+00 -9.73297179e-01</_>
    <_>
      -4.48490477e+00 -3.41582465e+00 -2.34477067e+00 -1.87807369e+00</_>
    <_>
      -5.66335869e+00 -4.48490477e+00 -3.41582465e+00 -2.34477067e+00</_>
    <_>
      -6.91077280e+00 -5.66335869e+00 -4.48490477e+00 -3.41582465e+00</_>
    <_>
      -8.39544296e+00 -6.91077280e+00 -5.66335869e+00 -4.48490477e+00</_>
    <_>
      -9.88580132e+00 -8.39544296e+00 -6.91077280e+00 -5.66335869e+00</_>
    <_>
      -1.22018719e+01 -1.13859978e+01 -9.88580132e+00 -8.39544296e+00</_>
    <_>
      -1.36723099e+01 -1.22018719e+01 -1.13859978e+01 -9.88580132e+00</_>
    <_>
      -1.50250092e+01 -1.36723099e+01 -1.22018719e+01 -1.13859978e+01</_>
    <_>
      -1.62701740e+01 -1.50250092e+01 -1.36723099e+01 -1.22018719e+01</_>
    <_>
      -1.71205235e+01 -1.62701740e+01 -1.50250092e+01 -1.36723099e+01</_>
    <_>
      -1.76257744e+01 -1.71205235e+01 -1.62701740e+01 -1.50250092e+01</_>
    <_>
      -1.76546688e+01 -1.76257744e+01 -1.71205235e+01 -1.62701740e+01</_>
    <_>
      -1.72005062e+01 -1.76546688e+01 -1.76257744e+01 -1.71205235e+01</_>
    <_>
      -1.63628807e+01 -1.72005062e+01 -1.76546688e+01 -1.76257744e+01</_>
    <_>
      -1.47863827e+01 -1.63628807e+01 -1.72005062e+01 -1.76546688e+01</_>
    <_>
      -1.29348125e+01 -1.47863827e+01 -1.63628807e+01 -1.72005062e+01</_>
    <_>
      -1.18740206e+01 -1.29348125e+01 -1.47863827e+01 -1.63628807e+01</_>
    <_>
      -9.48777866e+00 -1.18740206e+01 -1.29348125e+01 -1.47863827e+01</_>
    <_>
      -6.90843058e+00 -9.48777866e+00 -1.18740206e+01 -1.29348125e+01</_>
    <_>
      -4.22583675e+00 -6.90843058e+00 -9.48777866e+00 -1.18740206e+01</_>
    <_>
      -1.68373537e+00 -4.22583675e+00 -6.90843058e+00 -9.48777866e+00</_>
    <_>
      4.57326204e-01 -1.68373537e+00 -4.22583675e+00 -6.90843058e+00</_>
    <_>
      2.36202288e+00 4.57326204e-01 -1.68373537e+00 -4.22583675e+00</_>
    <_>
      3.73596072e+00 2.36202288e+00 4.57326204e-01 -1.68373537e+00</_>
    <_>
      4.48876238e+00 3.73596072e+00 2.36202288e+00 4.57326204e-01</_>
    <_>
      4.62507582e+00 4.48876238e+00 3.73596072e+00 2.36202288e+00</_>
    <_>
      4.47464657e+00 4.62507582e+00 4.48876238e+00 3.73596072e+00</_>
    <_>
      3.68857837e+00 4.47464657e+00 4.62507582e+00 4.48876238e+00</_>
    <_>
      9.32504594e-01 1.73618889e+00 3.68857837e+00 4.47464657e+00</_>
    <_>
      -8.10832679e-01 9.32504594e-01 1.73618889e+00 3.68857837e+00</_>
    <_>
      -2.75731063e+00 -8.10832679e-01 9.32504594e-01 1.73618889e+00</_>
    <_>
      -4.64669657e+00 -2.75731063e+00 -8.10832679e-01 9.32504594e-01</_>
    <_>
      -7.85915470e+00 -6.34580898e+00 -4.64669657e+00 -2.75731063e+00</_>
    <_>
      -9.07823563e+00 -7.85915470e+00 -6.34580898e+00 -4.64669657e+00</_>
    <_>
      -1.00501823e+01 -9.07823563e+00 -7.85915470e+00 -6.34580898e+00</_>
    <_>
      -1.08161058e+01 -1.00501823e+01 -9.07823563e+00 -7.85915470e+00</_>
    <_>
      -1.13783312e+01 -1.08161058e+01 -1.00501823e+01 -9.07823563e+00</_>
    <_>
      -1.15491276e+01 -1.13783312e+01 -1.08161058e+01 -1.00501823e+01</_>
    <_>
      -1.15491276e+01 -1.13783312e+01 -1.08161058e+01 -1.00501823e+01</_>
    <_>
      -1.15491276e+01 -1.13783312e+01 -1.08161058e+01 -1.00501823e+01</_>
    <_>
      -1.15491276e+01 -1.13783312e+01 -1.08161058e+01 -1.00501823e+01</_>
    <_>
      -1.24746666e+01 -1.15491276e+01 -1.13783312e+01 -1.08161058e+01</_>
    <_>
      -1.32200546e+01 -1.24746666e+01 -1.15491276e+01 -1.13783312e+01</_>
    <_>
      -1.45257807e+01 -1.32200546e+01 -1.24746666e+01 -1.15491276e+01</_>
    <_>
      -1.51709042e+01 -1.45257807e+01 -1.32200546e+01 -1.24746666e+01</_>
    <_>
      -1.59990740e+01 -1.51709042e+01 -1.45257807e+01 -1.32200546e+01</_>
    <_>
      -1.60406532e+01 -1.59990740e+01 -1.51709042e+01 -1.45257807e+01</_>
    <_>
      -1.51671095e+01 -1.60406532e+01 -1.59990740e+01 -1.51709042e+01</_>
    <_>
      -1.37705803e+01 -1.51671095e+01 -1.60406532e+01 -1.59990740e+01</_>
    <_>
      -1.15353088e+01 -1.37705803e+01 -1.51671095e+01 -1.60406532e+01</_>
    <_>
      -8.93062496e+00 -1.15353088e+01 -1.37705803e+01 -1.51671095e+01</_>
    <_>
      -6.08760166e+00 -8.93062496e+00 -1.15353088e+01 -1.37705803e+01</_>
    <_>
      -3.18208194e+00 -6.08760166e+00 -8.93062496e+00 -1.15353088e+01</_>
    <_>
      -3.45431298e-01 -3.18208194e+00 -6.08760166e+00 -8.93062496e+00</_>
    <_>
      1.97537482e+00 -3.45431298e-01 -3.18208194e+00 -6.08760166e+00</_>
    <_>
      3.64325452e+00 1.97537482e+00 -3.45431298e-01 -3.18208194e+00</_>
    <_>
      4.73960257e+00 3.64325452e+00 1.97537482e+00 -3.45431298e-01</_>
    <_>
      4.98128271e+00 4.73960257e+00 3.64325452e+00 1.97537482e+00</_>
    <_>
      5.16550541e+00 4.98128271e+00 4.73960257e+00 3.64325452e+00</_>
    <_>
      4.56443644e+00 5.16550541e+00 4.98128271e+00 4.73960257e+00</_>
    <_>
      3.51775670e+00 4.56443644e+00 5.16550541e+00 4.98128271e+00</_>
    <_>
      2.28211546e+00 3.51775670e+00 4.56443644e+00 5.16550541e+00</_>
    <_>
      -7.47339964e-01 9.05974627e-01 2.28211546e+00 3.51775670e+00</_>
    <_>
      -1.55542016e+00 -7.47339964e-01 9.05974627e-01 2.28211546e+00</_>
    <_>
      -3.11610651e+00 -1.55542016e+00 -7.47339964e-01 9.05974627e-01</_>
    <_>
      -3.11610651e+00 -1.55542016e+00 -7.47339964e-01 9.05974627e-01</_>
    <_>
      -3.11610651e+00 -1.55542016e+00 -7.47339964e-01 9.05974627e-01</_>
    <_>
      -3.11610651e+00 -1.55542016e+00 -7.47339964e-01 9.05974627e-01</_>
    <_>
      -5.97548151e+00 -3.11610651e+00 -1.55542016e+00 -7.47339964e-01</_>
    <_>
      -6.97186804e+00 -5.97548151e+00 -3.11610651e+00 -1.55542016e+00</_>
    <_>
      -8.36418247e+00 -6.97186804e+00 -5.97548151e+00 -3.11610651e+00</_>
    <_>
      -9.92913532e+00 -8.36418247e+00 -6.97186804e+00 -5.97548151e+00</_>
    <_>
      -1.16993923e+01 -9.92913532e+00 -8.36418247e+00 -6.97186804e+00</_>
    <_>
      -1.34439507e+01 -1.16993923e+01 -9.92913532e+00 -8.36418247e+00</_>
    <_>
      -1.64898796e+01 -1.50492105e+01 -1.34439507e+01 -1.16993923e+01</_>
    <_>
      -1.75786076e+01 -1.64898796e+01 -1.50492105e+01 -1.34439507e+01</_>
    <_>
      -1.81948109e+01 -1.75786076e+01 -1.64898796e+01 -1.50492105e+01</_>
    <_>
      -1.81725559e+01 -1.81948109e+01 -1.75786076e+01 -1.64898796e+01</_>
    <_>
      -1.74859657e+01 -1.81725559e+01 -1.81948109e+01 -1.75786076e+01</_>
    <_>
      -1.61264744e+01 -1.74859657e+01 -1.81725559e+01 -1.81948109e+01</_>
    <_>
      -1.45319395e+01 -1.61264744e+01 -1.74859657e+01 -1.81725559e+01</_>
    <_>
      -1.23568945e+01 -1.45319395e+01 -1.61264744e+01 -1.74859657e+01</_>
    <_>
      -9.98761272e+00 -1.23568945e+01 -1.45319395e+01 -1.61264744e+01</_>
    <_>
      -7.46883297e+00 -9.98761272e+00 -1.23568945e+01 -1.45319395e+01</_>
    <_>
      -6.16747189e+00 -7.46883297e+00 -9.98761272e+00 -1.23568945e+01</_>
    <_>
      -3.82236719e+00 -6.16747189e+00 -7.46883297e+00 -9.98761272e+00</_>
    <_>
      -1.61743939e+00 -3.82236719e+00 -6.16747189e+00 -7.46883297e+00</_>
    <_>
      5.42024150e-02 -1.61743939e+00 -3.82236719e+00 -6.16747189e+00</_>
    <_>
      1.73103380e+00 5.42024150e-02 -1.61743939e+00 -3.82236719e+00</_>
    <_>
      2.87136889e+00 1.73103380e+00 5.42024150e-02 -1.61743939e+00</_>
    <_>
      3.33987832e+00 2.87136889e+00 1.73103380e+00 5.42024150e-02</_>
    <_>
      4.01310921e+00 3.33987832e+00 2.87136889e+00 1.73103380e+00</_>
    <_>
      4.21894789e+00 4.01310921e+00 3.33987832e+00 2.87136889e+00</_>
    <_>
      4.17079735e+00 4.21894789e+00 4.01310921e+00 3.33987832e+00</_>
    <_>
      3.69793653e+00 4.17079735e+00 4.21894789e+00 4.01310921e+00</_>
    <_>
      2.95895791e+00 3.69793653e+00 4.17079735e+00 4.21894789e+00</_>
    <_>
      2.13465858e+00 2.95895791e+00 3.69793653e+00 4.17079735e+00</_>
    <_>
      9.26233709e-01 2.13465858e+00 2.95895791e+00 3.69793653e+00</_>
    <_>
      -1.75866142e-01 9.26233709e-01 2.13465858e+00 2.95895791e+00</_>
    <_>
      -1.68108463e+00 -1.75866142e-01 9.26233709e-01 2.13465858e+00</_>
    <_>
      -2.34788656e+00 -1.68108463e+00 -1.75866142e-01 9.26233709e-01</_>
    <_>
      -3.82348108e+00 -2.34788656e+00 -1.68108463e+00 -1.75866142e-01</_>
    <_>
      -5.16552544e+00 -3.82348108e+00 -2.34788656e+00 -1.68108463e+00</_>
    <_>
      -6.77243328e+00 -5.16552544e+00 -3.82348108e+00 -2.34788656e+00</_>
    <_>
      -8.32185650e+00 -6.77243328e+00 -5.16552544e+00 -3.82348108e+00</_>
    <_>
      -9.97723579e+00 -8.32185650e+00 -6.77243328e+00 -5.16552544e+00</_>
    <_>
      -1.15337334e+01 -9.97723579e+00 -8.32185650e+00 -6.77243328e+00</_>
    <_>
      -1.23148766e+01 -1.15337334e+01 -9.97723579e+00 -8.32185650e+00</_>
    <_>
      -1.38853979e+01 -1.23148766e+01 -1.15337334e+01 -9.97723579e+00</_>
    <_>
      -1.53290930e+01 -1.38853979e+01 -1.23148766e+01 -1.15337334e+01</_>
    <_>
      -1.67154922e+01 -1.53290930e+01 -1.38853979e+01 -1.23148766e+01</_>
    <_>
      -1.71997375e+01 -1.67154922e+01 -1.53290930e+01 -1.38853979e+01</_>
    <_>
      -1.79434071e+01 -1.71997375e+01 -1.67154922e+01 -1.53290930e+01</_>
    <_>
      -1.81850815e+01 -1.79434071e+01 -1.71997375e+01 -1.67154922e+01</_>
    <_>
      -1.79856529e+01 -1.81850815e+01 -1.79434071e+01 -1.71997375e+01</_>
    <_>
      -1.70776291e+01 -1.79856529e+01 -1.81850815e+01 -1.79434071e+01</_>
    <_>
      -1.58339720e+01 -1.70776291e+01 -1.79856529e+01 -1.81850815e+01</_>
    <_>
      -1.42038317e+01 -1.58339720e+01 -1.70776291e+01 -1.79856529e+01</_>
    <_>
      -1.32887325e+01 -1.42038317e+01 -1.58339720e+01 -1.70776291e+01</_>
    <_>
      -1.11086674e+01 -1.32887325e+01 -1.42038317e+01 -1.58339720e+01</_>
    <_>
      -8.74175930e+00 -1.11086674e+01 -1.32887325e+01 -1.42038317e+01</_>
    <_>
      -3.87499642e+00 -6.25743151e+00 -8.74175930e+00 -1.11086674e+01</_>
    <_>
      -1.58734691e+00 -3.87499642e+00 -6.25743151e+00 -8.74175930e+00</_>
    <_>
      2.54648298e-01 -1.58734691e+00 -3.87499642e+00 -6.25743151e+00</_>
    <_>
      1.81194007e+00 2.54648298e-01 -1.58734691e+00 -3.87499642e+00</_>
    <_>
      2.75002980e+00 1.81194007e+00 2.54648298e-01 -1.58734691e+00</_>
    <_>
      3.58519149e+00 2.75002980e+00 1.81194007e+00 2.54648298e-01</_>
    <_>
      3.88593149e+00 3.58519149e+00 2.75002980e+00 1.81194007e+00</_>
    <_>
      3.82475066e+00 3.88593149e+00 3.58519149e+00 2.75002980e+00</_>
    <_>
      3.52091503e+00 3.82475066e+00 3.88593149e+00 3.58519149e+00</_>
    <_>
      2.88952255e+00 3.52091503e+00 3.82475066e+00 3.88593149e+00</_>
    <_>
      2.07923937e+00 2.88952255e+00 3.52091503e+00 3.82475066e+00</_>
    <_>
      1.30694306e+00 2.07923937e+00 2.88952255e+00 3.52091503e+00</_>
    <_>
      3.56942683e-01 1.30694306e+00 2.07923937e+00 2.88952255e+00</_>
    <_>
      -5.49932539e-01 3.56942683e-01 1.30694306e+00 2.07923937e+00</_>
    <_>
      -1.54655898e+00 -5.49932539e-01 3.56942683e-01 1.30694306e+00</_>
    <_>
      -2.75247097e+00 -1.54655898e+00 -5.49932539e-01 3.56942683e-01</_>
    <_>
      -3.88612962e+00 -2.75247097e+00 -1.54655898e+00 -5.49932539e-01</_>
    <_>
      -4.49422073e+00 -3.88612962e+00 -2.75247097e+00 -1.54655898e+00</_>
    <_>
      -5.97401190e+00 -4.49422073e+00 -3.88612962e+00 -2.75247097e+00</_>
    <_>
      -7.45718670e+00 -5.97401190e+00 -4.49422073e+00 -3.88612962e+00</_>
    <_>
      -9.07912922e+00 -7.45718670e+00 -5.97401190e+00 -4.49422073e+00</_>
    <_>
      -1.07747335e+01 -9.07912922e+00 -7.45718670e+00 -5.97401190e+00</_>
    <_>
      -1.25391750e+01 -1.07747335e+01 -9.07912922e+00 -7.45718670e+00</_>
    <_>
      -1.43174982e+01 -1.25391750e+01 -1.07747335e+01 -9.07912922e+00</_>
    <_>
      -1.58358068e+01 -1.43174982e+01 -1.25391750e+01 -1.07747335e+01</_>
    <_>
      -1.71599941e+01 -1.58358068e+01 -1.43174982e+01 -1.25391750e+01</_>
    <_>
      -1.82215061e+01 -1.71599941e+01 -1.58358068e+01 -1.43174982e+01</_>
    <_>
      -1.88443527e+01 -1.82215061e+01 -1.71599941e+01 -1.58358068e+01</_>
    <_>
      -1.90649529e+01 -1.88443527e+01 -1.82215061e+01 -1.71599941e+01</_>
    <_>
      -1.87122517e+01 -1.90649529e+01 -1.88443527e+01 -1.82215061e+01</_>
    <_>
      -1.81867180e+01 -1.87122517e+01 -1.90649529e+01 -1.88443527e+01</_>
    <_>
      -1.78016796e+01 -1.81867180e+01 -1.87122517e+01 -1.90649529e+01</_>
    <_>
      -1.61267109e+01 -1.78016796e+01 -1.81867180e+01 -1.87122517e+01</_>
    <_>
      -1.54295216e+01 -1.61267109e+01 -1.78016796e+01 -1.81867180e+01</_>
    <_>
      -1.39109907e+01 -1.54295216e+01 -1.61267109e+01 -1.78016796e+01</_>
    <_>
      -1.23281364e+01 -1.39109907e+01 -1.54295216e+01 -1.61267109e+01</_>
    <_>
      -1.07258987e+01 -1.23281364e+01 -1.39109907e+01 -1.54295216e+01</_>
    <_>
      -9.13476467e+00 -1.07258987e+01 -1.23281364e+01 -1.39109907e+01</_>
    <_>
      -8.25569725e+00 -9.13476467e+00 -1.07258987e+01 -1.23281364e+01</_>
    <_>
      -6.96798801e+00 -8.25569725e+00 -9.13476467e+00 -1.07258987e+01</_>
    <_>
      -6.08007717e+00 -6.96798801e+00 -8.25569725e+00 -9.13476467e+00</_>
    <_>
      -5.12433767e+00 -6.08007717e+00 -6.96798801e+00 -8.25569725e+00</_>
    <_>
      -3.75275517e+00 -5.12433767e+00 -6.08007717e+00 -6.96798801e+00</_>
    <_>
      -2.21525407e+00 -3.75275517e+00 -5.12433767e+00 -6.08007717e+00</_>
    <_>
      -5.42050242e-01 -2.21525407e+00 -3.75275517e+00 -5.12433767e+00</_>
    <_>
      1.16737711e+00 -5.42050242e-01 -2.21525407e+00 -3.75275517e+00</_>
    <_>
      3.07871747e+00 1.16737711e+00 -5.42050242e-01 -2.21525407e+00</_>
    <_>
      4.61958694e+00 3.07871747e+00 1.16737711e+00 -5.42050242e-01</_>
    <_>
      5.83171034e+00 4.61958694e+00 3.07871747e+00 1.16737711e+00</_>
    <_>
      6.56708574e+00 5.83171034e+00 4.61958694e+00 3.07871747e+00</_>
    <_>
      6.63356161e+00 6.56708574e+00 5.83171034e+00 4.61958694e+00</_>
    <_>
      6.63356161e+00 6.63356161e+00 6.56708574e+00 5.83171034e+00</_>
    <_>
      6.09457064e+00 6.63356161e+00 6.63356161e+00 6.56708574e+00</_>
    <_>
      4.95432806e+00 4.47045708e+00 6.09457064e+00 6.63356161e+00</_>
    <_>
      3.40731907e+00 4.95432806e+00 4.47045708e+00 6.09457064e+00</_>
    <_>
      1.59384406e+00 3.40731907e+00 4.95432806e+00 4.47045708e+00</_>
    <_>
      -4.76190925e-01 1.59384406e+00 3.40731907e+00 4.95432806e+00</_>
    <_>
      -2.49043465e+00 -4.76190925e-01 1.59384406e+00 3.40731907e+00</_>
    <_>
      -4.49728012e+00 -2.49043465e+00 -4.76190925e-01 1.59384406e+00</_>
    <_>
      -6.57806158e+00 -4.49728012e+00 -2.49043465e+00 -4.76190925e-01</_>
    <_>
      -7.44576406e+00 -6.57806158e+00 -4.49728012e+00 -2.49043465e+00</_>
    <_>
      -9.32107735e+00 -7.44576406e+00 -6.57806158e+00 -4.49728012e+00</_>
    <_>
      -1.10967617e+01 -9.32107735e+00 -7.44576406e+00 -6.57806158e+00</_>
    <_>
      -1.28253336e+01 -1.10967617e+01 -9.32107735e+00 -7.44576406e+00</_>
    <_>
      -1.46478682e+01 -1.28253336e+01 -1.10967617e+01 -9.32107735e+00</_>
    <_>
      -1.63575268e+01 -1.46478682e+01 -1.28253336e+01 -1.10967617e+01</_>
    <_>
      -1.80517025e+01 -1.63575268e+01 -1.46478682e+01 -1.28253336e+01</_>
    <_>
      -1.94655151e+01 -1.80517025e+01 -1.63575268e+01 -1.46478682e+01</_>
    <_>
      -2.00028419e+01 -1.94655151e+01 -1.80517025e+01 -1.63575268e+01</_>
    <_>
      -2.07799110e+01 -2.00028419e+01 -1.94655151e+01 -1.80517025e+01</_>
    <_>
      -2.09739971e+01 -2.07799110e+01 -2.00028419e+01 -1.94655151e+01</_>
    <_>
      -2.09145393e+01 -2.09739971e+01 -2.07799110e+01 -2.00028419e+01</_>
    <_>
      -2.02283554e+01 -2.09145393e+01 -2.09739971e+01 -2.07799110e+01</_>
    <_>
      -1.89896641e+01 -2.02283554e+01 -2.09145393e+01 -2.09739971e+01</_>
    <_>
      -1.73733826e+01 -1.89896641e+01 -2.02283554e+01 -2.09145393e+01</_>
    <_>
      -1.56567421e+01 -1.73733826e+01 -1.89896641e+01 -2.02283554e+01</_>
    <_>
      -1.40273342e+01 -1.56567421e+01 -1.73733826e+01 -1.89896641e+01</_>
    <_>
      -1.37407722e+01 -1.40273342e+01 -1.56567421e+01 -1.73733826e+01</_>
    <_>
      -1.40826168e+01 -1.37407722e+01 -1.40273342e+01 -1.56567421e+01</_>
    <_>
      -1.45247660e+01 -1.40826168e+01 -1.37407722e+01 -1.40273342e+01</_>
    <_>
      -1.50670691e+01 -1.45247660e+01 -1.40826168e+01 -1.37407722e+01</_>
    <_>
      -1.53394251e+01 -1.50670691e+01 -1.45247660e+01 -1.40826168e+01</_>
    <_>
      -1.52816019e+01 -1.53394251e+01 -1.50670691e+01 -1.45247660e+01</_>
    <_>
      -1.49437132e+01 -1.52816019e+01 -1.53394251e+01 -1.50670691e+01</_>
    <_>
      -1.41740417e+01 -1.49437132e+01 -1.52816019e+01 -1.53394251e+01</_>
    <_>
      -1.18133898e+01 -1.31668634e+01 -1.41740417e+01 -1.49437132e+01</_>
    <_>
      -1.01824656e+01 -1.18133898e+01 -1.31668634e+01 -1.41740417e+01</_>
    <_>
      -8.15474033e+00 -1.01824656e+01 -1.18133898e+01 -1.31668634e+01</_>
    <_>
      -5.86387730e+00 -8.15474033e+00 -1.01824656e+01 -1.18133898e+01</_>
    <_>
      -3.30215836e+00 -5.86387730e+00 -8.15474033e+00 -1.01824656e+01</_>
    <_>
      -4.75619793e-01 -3.30215836e+00 -5.86387730e+00 -8.15474033e+00</_>
    <_>
      2.41270685e+00 -4.75619793e-01 -3.30215836e+00 -5.86387730e+00</_>
    <_>
      5.16683531e+00 2.41270685e+00 -4.75619793e-01 -3.30215836e+00</_>
    <_>
      7.38214111e+00 5.16683531e+00 2.41270685e+00 -4.75619793e-01</_>
    <_>
      8.71928120e+00 7.38214111e+00 5.16683531e+00 2.41270685e+00</_>
    <_>
      9.14479637e+00 8.71928120e+00 7.38214111e+00 5.16683531e+00</_>
    <_>
      8.56363106e+00 9.14479637e+00 8.71928120e+00 7.38214111e+00</_>
    <_>
      7.41842127e+00 8.56363106e+00 9.14479637e+00 8.71928120e+00</_>
    <_>
      6.54247856e+00 7.41842127e+00 8.56363106e+00 9.14479637e+00</_>
    <_>
      4.46350622e+00 6.54247856e+00 7.41842127e+00 8.56363106e+00</_>
    <_>
      2.55978584e-01 2.19083142e+00 4.46350622e+00 6.54247856e+00</_>
    <_>
      -1.74325812e+00 2.55978584e-01 2.19083142e+00 4.46350622e+00</_>
    <_>
      -3.44655156e+00 -1.74325812e+00 2.55978584e-01 2.19083142e+00</_>
    <_>
      -5.15495729e+00 -3.44655156e+00 -1.74325812e+00 2.55978584e-01</_>
    <_>
      -6.46468019e+00 -5.15495729e+00 -3.44655156e+00 -1.74325812e+00</_>
    <_>
      -7.71100950e+00 -6.46468019e+00 -5.15495729e+00 -3.44655156e+00</_>
    <_>
      -8.79638672e+00 -7.71100950e+00 -6.46468019e+00 -5.15495729e+00</_>
    <_>
      -9.92027950e+00 -8.79638672e+00 -7.71100950e+00 -6.46468019e+00</_>
    <_>
      -1.05996532e+01 -9.92027950e+00 -8.79638672e+00 -7.71100950e+00</_>
    <_>
      -1.19307318e+01 -1.05996532e+01 -9.92027950e+00 -8.79638672e+00</_>
    <_>
      -1.31255608e+01 -1.19307318e+01 -1.05996532e+01 -9.92027950e+00</_>
    <_>
      -1.46089582e+01 -1.31255608e+01 -1.19307318e+01 -1.05996532e+01</_>
    <_>
      -1.61312408e+01 -1.46089582e+01 -1.31255608e+01 -1.19307318e+01</_>
    <_>
      -1.74629078e+01 -1.61312408e+01 -1.46089582e+01 -1.31255608e+01</_>
    <_>
      -1.89402428e+01 -1.74629078e+01 -1.61312408e+01 -1.46089582e+01</_>
    <_>
      -2.01010571e+01 -1.89402428e+01 -1.74629078e+01 -1.61312408e+01</_>
    <_>
      -2.10036888e+01 -2.01010571e+01 -1.89402428e+01 -1.74629078e+01</_>
    <_>
      -2.16486187e+01 -2.10036888e+01 -2.01010571e+01 -1.89402428e+01</_>
    <_>
      -2.18583069e+01 -2.16486187e+01 -2.10036888e+01 -2.01010571e+01</_>
    <_>
      -2.12086525e+01 -2.18583069e+01 -2.16486187e+01 -2.10036888e+01</_>
    <_>
      -2.07056427e+01 -2.12086525e+01 -2.18583069e+01 -2.16486187e+01</_>
    <_>
      -1.86847630e+01 -2.07056427e+01 -2.12086525e+01 -2.18583069e+01</_>
    <_>
      -1.63391705e+01 -1.86847630e+01 -2.07056427e+01 -2.12086525e+01</_>
    <_>
      -1.41263218e+01 -1.63391705e+01 -1.86847630e+01 -2.07056427e+01</_>
    <_>
      -1.35670757e+01 -1.41263218e+01 -1.63391705e+01 -1.86847630e+01</_>
    <_>
      -1.36971121e+01 -1.35670757e+01 -1.41263218e+01 -1.63391705e+01</_>
    <_>
      -1.37659311e+01 -1.36971121e+01 -1.35670757e+01 -1.41263218e+01</_>
    <_>
      -1.36936188e+01 -1.37989540e+01 -1.37659311e+01 -1.36971121e+01</_>
    <_>
      -1.31069784e+01 -1.36936188e+01 -1.37989540e+01 -1.37659311e+01</_>
    <_>
      -1.22551403e+01 -1.31069784e+01 -1.36936188e+01 -1.37989540e+01</_>
    <_>
      -1.15767794e+01 -1.22551403e+01 -1.31069784e+01 -1.36936188e+01</_>
    <_>
      -9.88256454e+00 -1.15767794e+01 -1.22551403e+01 -1.31069784e+01</_>
    <_>
      -7.86586761e+00 -9.88256454e+00 -1.15767794e+01 -1.22551403e+01</_>
    <_>
      -5.62812519e+00 -7.86586761e+00 -9.88256454e+00 -1.15767794e+01</_>
    <_>
      -3.01555610e+00 -5.62812519e+00 -7.86586761e+00 -9.88256454e+00</_>
    <_>
      1.12711143e+00 -3.01555610e+00 -5.62812519e+00 -7.86586761e+00</_>
    <_>
      2.57929420e+00 1.12711143e+00 -3.01555610e+00 -5.62812519e+00</_>
    <_>
      5.24464846e+00 2.57929420e+00 1.12711143e+00 -3.01555610e+00</_>
    <_>
      8.07442379e+00 5.24464846e+00 2.57929420e+00 1.12711143e+00</_>
    <_>
      8.52598858e+00 8.07442379e+00 5.24464846e+00 2.57929420e+00</_>
    <_>
      8.74263573e+00 8.52598858e+00 8.07442379e+00 5.24464846e+00</_>
    <_>
      8.01136017e+00 8.74263573e+00 8.52598858e+00 8.07442379e+00</_>
    <_>
      6.82224989e+00 8.01136017e+00 8.74263573e+00 8.52598858e+00</_>
    <_>
      5.02836561e+00 6.82224989e+00 8.01136017e+00 8.74263573e+00</_>
    <_>
      3.20339823e+00 5.02836561e+00 6.82224989e+00 8.01136017e+00</_>
    <_>
      2.26062703e+00 3.20339823e+00 5.02836561e+00 6.82224989e+00</_>
    <_>
      7.56472290e-01 2.26062703e+00 3.20339823e+00 5.02836561e+00</_>
    <_>
      -1.80858135e+00 -5.99305391e-01 7.56472290e-01 2.26062703e+00</_>
    <_>
      -3.12286067e+00 -1.80858135e+00 -5.99305391e-01 7.56472290e-01</_>
    <_>
      -4.35037613e+00 -3.12286067e+00 -1.80858135e+00 -5.99305391e-01</_>
    <_>
      -4.93189764e+00 -4.35037613e+00 -3.12286067e+00 -1.80858135e+00</_>
    <_>
      -6.19236326e+00 -4.93189764e+00 -4.35037613e+00 -3.12286067e+00</_>
    <_>
      -7.42233753e+00 -6.19236326e+00 -4.93189764e+00 -4.35037613e+00</_>
    <_>
      -8.66808891e+00 -7.42233753e+00 -6.19236326e+00 -4.93189764e+00</_>
    <_>
      -1.02198858e+01 -8.66808891e+00 -7.42233753e+00 -6.19236326e+00</_>
    <_>
      -1.18530025e+01 -1.02198858e+01 -8.66808891e+00 -7.42233753e+00</_>
    <_>
      -1.35143442e+01 -1.18530025e+01 -1.02198858e+01 -8.66808891e+00</_>
    <_>
      -1.66334686e+01 -1.50863543e+01 -1.35143442e+01 -1.18530025e+01</_>
    <_>
      -1.78801155e+01 -1.66334686e+01 -1.50863543e+01 -1.35143442e+01</_>
    <_>
      -1.87561340e+01 -1.78801155e+01 -1.66334686e+01 -1.50863543e+01</_>
    <_>
      -1.94590321e+01 -1.87561340e+01 -1.78801155e+01 -1.66334686e+01</_>
    <_>
      -1.94913387e+01 -1.94590321e+01 -1.87561340e+01 -1.78801155e+01</_>
    <_>
      -1.93882542e+01 -1.94913387e+01 -1.94590321e+01 -1.87561340e+01</_>
    <_>
      -1.91085415e+01 -1.93882542e+01 -1.94913387e+01 -1.94590321e+01</_>
    <_>
      -1.85077133e+01 -1.91085415e+01 -1.93882542e+01 -1.94913387e+01</_>
    <_>
      -1.76014328e+01 -1.85077133e+01 -1.91085415e+01 -1.93882542e+01</_>
    <_>
      -1.64666462e+01 -1.76014328e+01 -1.85077133e+01 -1.91085415e+01</_>
    <_>
      -1.53671179e+01 -1.64666462e+01 -1.76014328e+01 -1.85077133e+01</_>
    <_>
      -1.42704868e+01 -1.53671179e+01 -1.64666462e+01 -1.76014328e+01</_>
    <_>
      -1.32472544e+01 -1.42704868e+01 -1.53671179e+01 -1.64666462e+01</_>
    <_>
      -1.36239872e+01 -1.32472544e+01 -1.42704868e+01 -1.53671179e+01</_>
    <_>
      -1.38949766e+01 -1.36239872e+01 -1.32472544e+01 -1.42704868e+01</_>
    <_>
      -1.47079983e+01 -1.38949766e+01 -1.36239872e+01 -1.32472544e+01</_>
    <_>
      -1.49823790e+01 -1.47079983e+01 -1.38949766e+01 -1.36239872e+01</_>
    <_>
      -1.50595274e+01 -1.49823790e+01 -1.47079983e+01 -1.38949766e+01</_>
    <_>
      -1.49223976e+01 -1.50595274e+01 -1.49823790e+01 -1.47079983e+01</_>
    <_>
      -1.44387856e+01 -1.49223976e+01 -1.50595274e+01 -1.49823790e+01</_>
    <_>
      -1.35226460e+01 -1.44387856e+01 -1.49223976e+01 -1.50595274e+01</_>
    <_>
      -1.23036776e+01 -1.35226460e+01 -1.44387856e+01 -1.49223976e+01</_>
    <_>
      -1.07489395e+01 -1.23036776e+01 -1.35226460e+01 -1.44387856e+01</_>
    <_>
      -8.79405689e+00 -1.07489395e+01 -1.23036776e+01 -1.35226460e+01</_>
    <_>
      -6.54834747e+00 -8.79405689e+00 -1.07489395e+01 -1.23036776e+01</_>
    <_>
      -3.89794374e+00 -6.54834747e+00 -8.79405689e+00 -1.07489395e+01</_>
    <_>
      -1.01580691e+00 -3.89794374e+00 -6.54834747e+00 -8.79405689e+00</_>
    <_>
      1.99879384e+00 -1.01580691e+00 -3.89794374e+00 -6.54834747e+00</_>
    <_>
      3.60923839e+00 1.99879384e+00 -1.01580691e+00 -3.89794374e+00</_>
    <_>
      6.36568451e+00 3.60923839e+00 1.99879384e+00 -1.01580691e+00</_>
    <_>
      8.39283276e+00 6.36568451e+00 3.60923839e+00 1.99879384e+00</_>
    <_>
      9.68069839e+00 8.39283276e+00 6.36568451e+00 3.60923839e+00</_>
    <_>
      9.69079781e+00 9.95457458e+00 9.68069839e+00 8.39283276e+00</_>
    <_>
      8.47896004e+00 9.69079781e+00 9.95457458e+00 9.68069839e+00</_>
    <_>
      6.59199381e+00 8.47896004e+00 9.69079781e+00 9.95457458e+00</_>
    <_>
      4.29827642e+00 6.59199381e+00 8.47896004e+00 9.69079781e+00</_>
    <_>
      3.15734172e+00 4.29827642e+00 6.59199381e+00 8.47896004e+00</_>
    <_>
      8.05836618e-01 3.15734172e+00 4.29827642e+00 6.59199381e+00</_>
    <_>
      -1.47682810e+00 8.05836618e-01 3.15734172e+00 4.29827642e+00</_>
    <_>
      -3.95461297e+00 -1.47682810e+00 8.05836618e-01 3.15734172e+00</_>
    <_>
      -6.13887596e+00 -3.95461297e+00 -1.47682810e+00 8.05836618e-01</_>
    <_>
      -8.25850868e+00 -6.13887596e+00 -3.95461297e+00 -1.47682810e+00</_>
