<?xml version="1.0"?>
<opencv_storage>
<opencv_ml_svm>
  <format>3</format>
  <svmType>C_SVC</svmType>
  <kernel>
    <type>RBF</type>
    <gamma>1.</gamma></kernel>
  <C>1.</C>
  <term_criteria><iterations>1000</iterations></term_criteria>
  <var_count>4</var_count>
  <class_count>43</class_count>
  <class_labels type_id="opencv-matrix">
    <rows>43</rows>
    <cols>1</cols>
    <dt>i</dt>
    <data>
      -20 -19 -18 -17 -16 -15 -14 -13 -12 -11 -10 -9 -8 -7 -6 -5 -4 -3
      -2 -1 0 1 2 3 4 5 6 7 8 9 10 11 12 13 14 15 16 17 18 19 20 21 22</data></class_labels>
  <sv_total>1178</sv_total>
  <support_vectors>
    <_>
      -1.29587829e-01 -1.29587829e-01 -1.33853292e+00 -1.32732832e+00</_>
    <_>
      -6.50250986e-02 -1.29587829e-01 -1.29587829e-01 -1.33853292e+00</_>
    <_>
      -6.50250986e-02 -6.50250986e-02 -1.29587829e-01 -1.29587829e-01</_>
    <_>
      6.11703992e-01 6.35671690e-02 -3.29928435e-02 -3.24268006e-02</_>
    <_>
      1.45058298e+00 6.11703992e-01 6.35671690e-02 -3.29928435e-02</_>
    <_>
      2.70968676e+00 1.45058298e+00 6.11703992e-01 6.35671690e-02</_>
    <_>
      4.87384176e+00 2.70968676e+00 1.45058298e+00 6.11703992e-01</_>
    <_>
      7.29829884e+00 4.87384176e+00 2.70968676e+00 1.45058298e+00</_>
    <_>
      8.82686996e+00 7.29829884e+00 4.87384176e+00 2.70968676e+00</_>
    <_>
      1.03203831e+01 8.82686996e+00 7.29829884e+00 4.87384176e+00</_>
    <_>
      1.04950781e+01 1.03203831e+01 8.82686996e+00 7.29829884e+00</_>
    <_>
      9.88772106e+00 1.04950781e+01 1.03203831e+01 8.82686996e+00</_>
    <_>
      7.85467339e+00 9.88772106e+00 1.04950781e+01 1.03203831e+01</_>
    <_>
      4.68202591e+00 7.85467339e+00 9.88772106e+00 1.04950781e+01</_>
    <_>
      1.08306360e+00 4.68202591e+00 7.85467339e+00 9.88772106e+00</_>
    <_>
      -1.77639854e+00 1.08306360e+00 4.68202591e+00 7.85467339e+00</_>
    <_>
      -4.36349440e+00 -1.77639854e+00 1.08306360e+00 4.68202591e+00</_>
    <_>
      -7.38066244e+00 -4.36349440e+00 -1.77639854e+00 1.08306360e+00</_>
    <_>
      -9.36562920e+00 -7.38066244e+00 -4.36349440e+00 -1.77639854e+00</_>
    <_>
      -1.08362503e+01 -9.36562920e+00 -7.38066244e+00 -4.36349440e+00</_>
    <_>
      -1.18845081e+01 -1.08362503e+01 -9.36562920e+00 -7.38066244e+00</_>
    <_>
      -1.21765594e+01 -1.18845081e+01 -1.08362503e+01 -9.36562920e+00</_>
    <_>
      -1.17534819e+01 -1.21765594e+01 -1.18845081e+01 -1.08362503e+01</_>
    <_>
      -1.10665894e+01 -1.17534819e+01 -1.21765594e+01 -1.18845081e+01</_>
    <_>
      -9.62755585e+00 -1.10665894e+01 -1.17534819e+01 -1.21765594e+01</_>
    <_>
      -8.87721157e+00 -9.62755585e+00 -1.10665894e+01 -1.17534819e+01</_>
    <_>
      -7.57512951e+00 -8.87721157e+00 -9.62755585e+00 -1.10665894e+01</_>
    <_>
      -6.28886652e+00 -7.57512951e+00 -8.87721157e+00 -9.62755585e+00</_>
    <_>
      -4.96282291e+00 -6.28886652e+00 -7.57512951e+00 -8.87721157e+00</_>
    <_>
      -3.67595243e+00 -4.96282291e+00 -6.28886652e+00 -7.57512951e+00</_>
    <_>
      -1.97189379e+00 -3.67595243e+00 -4.96282291e+00 -6.28886652e+00</_>
    <_>
      2.09793195e-01 -1.97189379e+00 -3.67595243e+00 -4.96282291e+00</_>
    <_>
      1.77444160e+00 2.09793195e-01 -1.97189379e+00 -3.67595243e+00</_>
    <_>
      4.06921577e+00 1.77444160e+00 2.09793195e-01 -1.97189379e+00</_>
    <_>
      6.20236301e+00 4.06921577e+00 1.77444160e+00 2.09793195e-01</_>
    <_>
      8.17431736e+00 6.20236301e+00 4.06921577e+00 1.77444160e+00</_>
    <_>
      1.03111715e+01 8.17431736e+00 6.20236301e+00 4.06921577e+00</_>
    <_>
      1.18863640e+01 1.03111715e+01 8.17431736e+00 6.20236301e+00</_>
    <_>
      1.26054878e+01 1.18863640e+01 1.03111715e+01 8.17431736e+00</_>
    <_>
      1.24863758e+01 1.26054878e+01 1.18863640e+01 1.03111715e+01</_>
    <_>
      1.14307852e+01 1.24863758e+01 1.26054878e+01 1.18863640e+01</_>
    <_>
      9.87419510e+00 1.14307852e+01 1.24863758e+01 1.26054878e+01</_>
    <_>
      8.22504616e+00 9.87419510e+00 1.14307852e+01 1.24863758e+01</_>
    <_>
      5.75003672e+00 8.22504616e+00 9.87419510e+00 1.14307852e+01</_>
    <_>
      3.37519813e+00 5.75003672e+00 8.22504616e+00 9.87419510e+00</_>
    <_>
      1.25324416e+00 3.37519813e+00 5.75003672e+00 8.22504616e+00</_>
    <_>
      -3.95963907e-01 1.25324416e+00 3.37519813e+00 5.75003672e+00</_>
    <_>
      -1.18177140e+00 -3.95963907e-01 1.25324416e+00 3.37519813e+00</_>
    <_>
      -2.03805184e+00 -1.18177140e+00 -3.95963907e-01 1.25324416e+00</_>
    <_>
      -2.52736640e+00 -2.03805184e+00 -1.18177140e+00 -3.95963907e-01</_>
    <_>
      -3.40777779e+00 -2.52736640e+00 -2.03805184e+00 -1.18177140e+00</_>
    <_>
      -4.15170717e+00 -3.40777779e+00 -2.52736640e+00 -2.03805184e+00</_>
    <_>
      -5.25855637e+00 -4.15170717e+00 -3.40777779e+00 -2.52736640e+00</_>
    <_>
      -5.67406321e+00 -5.25855637e+00 -4.15170717e+00 -3.40777779e+00</_>
    <_>
      -6.96195364e+00 -5.67406321e+00 -5.25855637e+00 -4.15170717e+00</_>
    <_>
      -8.27179623e+00 -6.96195364e+00 -5.67406321e+00 -5.25855637e+00</_>
    <_>
      -8.89895058e+00 -8.27179623e+00 -6.96195364e+00 -5.67406321e+00</_>
    <_>
      -9.50573444e+00 -8.89895058e+00 -8.27179623e+00 -6.96195364e+00</_>
    <_>
      -9.83207893e+00 -9.50573444e+00 -8.89895058e+00 -8.27179623e+00</_>
    <_>
      -9.35598373e+00 -9.83207893e+00 -9.50573444e+00 -8.89895058e+00</_>
    <_>
      -9.09600067e+00 -9.35598373e+00 -9.83207893e+00 -9.50573444e+00</_>
    <_>
      -7.74450064e+00 -9.09600067e+00 -9.35598373e+00 -9.83207893e+00</_>
    <_>
      -6.23552322e+00 -7.74450064e+00 -9.09600067e+00 -9.35598373e+00</_>
    <_>
      -4.33795738e+00 -6.23552322e+00 -7.74450064e+00 -9.09600067e+00</_>
    <_>
      -4.33795738e+00 -6.23552322e+00 -7.74450064e+00 -9.09600067e+00</_>
    <_>
      -4.33795738e+00 -6.23552322e+00 -7.74450064e+00 -9.09600067e+00</_>
    <_>
      -4.33795738e+00 -6.23552322e+00 -7.74450064e+00 -9.09600067e+00</_>
    <_>
      2.80861783e+00 -4.33795738e+00 -6.23552322e+00 -7.74450064e+00</_>
    <_>
      2.80861783e+00 -4.33795738e+00 -6.23552322e+00 -7.74450064e+00</_>
    <_>
      4.94603634e+00 2.80861783e+00 -4.33795738e+00 -6.23552322e+00</_>
    <_>
      5.74758434e+00 4.94603634e+00 2.80861783e+00 -4.33795738e+00</_>
    <_>
      7.12649155e+00 5.74758434e+00 4.94603634e+00 2.80861783e+00</_>
    <_>
      8.74175167e+00 7.12649155e+00 5.74758434e+00 4.94603634e+00</_>
    <_>
      9.33917522e+00 8.74175167e+00 7.12649155e+00 5.74758434e+00</_>
    <_>
      9.60105419e+00 9.33917522e+00 8.74175167e+00 7.12649155e+00</_>
    <_>
      9.25957966e+00 9.60105419e+00 9.33917522e+00 8.74175167e+00</_>
    <_>
      8.43371677e+00 9.25957966e+00 9.60105419e+00 9.33917522e+00</_>
    <_>
      7.44702101e+00 8.43371677e+00 9.25957966e+00 9.60105419e+00</_>
    <_>
      6.24814320e+00 7.44702101e+00 8.43371677e+00 9.25957966e+00</_>
    <_>
      5.33796024e+00 6.24814320e+00 7.44702101e+00 8.43371677e+00</_>
    <_>
      5.33796024e+00 6.24814320e+00 7.44702101e+00 8.43371677e+00</_>
    <_>
      3.17769194e+00 5.33796024e+00 6.24814320e+00 7.44702101e+00</_>
    <_>
      2.17088342e+00 3.17769194e+00 5.33796024e+00 6.24814320e+00</_>
    <_>
      2.07991529e+00 2.17088342e+00 3.17769194e+00 5.33796024e+00</_>
    <_>
      1.23139668e+00 2.07991529e+00 2.17088342e+00 3.17769194e+00</_>
    <_>
      -2.43935317e-01 1.23139668e+00 2.07991529e+00 2.17088342e+00</_>
    <_>
      -1.35421455e+00 -2.43935317e-01 1.23139668e+00 2.07991529e+00</_>
    <_>
      -3.76530910e+00 -1.35421455e+00 -2.43935317e-01 1.23139668e+00</_>
    <_>
      -6.33889675e+00 -3.76530910e+00 -1.35421455e+00 -2.43935317e-01</_>
    <_>
      -8.23023415e+00 -6.33889675e+00 -3.76530910e+00 -1.35421455e+00</_>
    <_>
      -1.05269289e+01 -8.23023415e+00 -6.33889675e+00 -3.76530910e+00</_>
    <_>
      -1.17887392e+01 -1.05269289e+01 -8.23023415e+00 -6.33889675e+00</_>
    <_>
      -1.31384544e+01 -1.17887392e+01 -1.05269289e+01 -8.23023415e+00</_>
    <_>
      -1.35439262e+01 -1.31384544e+01 -1.17887392e+01 -1.05269289e+01</_>
    <_>
      -1.31187687e+01 -1.35439262e+01 -1.31384544e+01 -1.17887392e+01</_>
    <_>
      -1.16331778e+01 -1.31187687e+01 -1.35439262e+01 -1.31384544e+01</_>
    <_>
      -9.46860123e+00 -1.16331778e+01 -1.31187687e+01 -1.35439262e+01</_>
    <_>
      -6.85841227e+00 -9.46860123e+00 -1.16331778e+01 -1.31187687e+01</_>
    <_>
      -3.95580149e+00 -6.85841227e+00 -9.46860123e+00 -1.16331778e+01</_>
    <_>
      -2.61200118e+00 -3.95580149e+00 -6.85841227e+00 -9.46860123e+00</_>
    <_>
      -5.47930360e-01 -2.61200118e+00 -3.95580149e+00 -6.85841227e+00</_>
    <_>
      1.57552779e+00 -5.47930360e-01 -2.61200118e+00 -3.95580149e+00</_>
    <_>
      1.57552779e+00 -5.47930360e-01 -2.61200118e+00 -3.95580149e+00</_>
    <_>
      1.57552779e+00 -5.47930360e-01 -2.61200118e+00 -3.95580149e+00</_>
    <_>
      8.99065685e+00 1.57552779e+00 -5.47930360e-01 -2.61200118e+00</_>
    <_>
      1.16058245e+01 8.99065685e+00 1.57552779e+00 -5.47930360e-01</_>
    <_>
      1.40418148e+01 1.16058245e+01 8.99065685e+00 1.57552779e+00</_>
    <_>
      1.56512194e+01 1.40418148e+01 1.16058245e+01 8.99065685e+00</_>
    <_>
      1.59866848e+01 1.56512194e+01 1.40418148e+01 1.16058245e+01</_>
    <_>
      1.57746391e+01 1.59866848e+01 1.56512194e+01 1.40418148e+01</_>
    <_>
      1.42546263e+01 1.57746391e+01 1.59866848e+01 1.56512194e+01</_>
    <_>
      1.20505533e+01 1.42546263e+01 1.57746391e+01 1.59866848e+01</_>
    <_>
      9.44803238e+00 1.20505533e+01 1.42546263e+01 1.57746391e+01</_>
    <_>
      6.36266756e+00 9.44803238e+00 1.20505533e+01 1.42546263e+01</_>
    <_>
      3.97921109e+00 6.36266756e+00 9.44803238e+00 1.20505533e+01</_>
    <_>
      3.97921109e+00 6.36266756e+00 9.44803238e+00 1.20505533e+01</_>
    <_>
      1.00249851e+00 3.97921109e+00 6.36266756e+00 9.44803238e+00</_>
    <_>
      -2.89619025e-02 1.00249851e+00 3.97921109e+00 6.36266756e+00</_>
    <_>
      -9.60679233e-01 -2.89619025e-02 1.00249851e+00 3.97921109e+00</_>
    <_>
      -1.24867320e+00 -9.60679233e-01 -2.89619025e-02 1.00249851e+00</_>
    <_>
      -1.37724555e+00 -1.24867320e+00 -9.60679233e-01 -2.89619025e-02</_>
    <_>
      -1.13306022e+00 -1.37724555e+00 -1.24867320e+00 -9.60679233e-01</_>
    <_>
      -9.38231051e-01 -1.13306022e+00 -1.37724555e+00 -1.24867320e+00</_>
    <_>
      -1.29106224e+00 -9.38231051e-01 -1.13306022e+00 -1.37724555e+00</_>
    <_>
      -1.41023993e+00 -1.29106224e+00 -9.38231051e-01 -1.13306022e+00</_>
    <_>
      -1.95766819e+00 -1.41023993e+00 -1.29106224e+00 -9.38231051e-01</_>
    <_>
      -2.78974009e+00 -1.95766819e+00 -1.41023993e+00 -1.29106224e+00</_>
    <_>
      -3.11145520e+00 -2.78974009e+00 -1.95766819e+00 -1.41023993e+00</_>
    <_>
      -3.68390703e+00 -3.11145520e+00 -2.78974009e+00 -1.95766819e+00</_>
    <_>
      -3.72470069e+00 -3.68390703e+00 -3.11145520e+00 -2.78974009e+00</_>
    <_>
      -3.29532647e+00 -3.72470069e+00 -3.68390703e+00 -3.11145520e+00</_>
    <_>
      -3.22002268e+00 -3.29532647e+00 -3.72470069e+00 -3.68390703e+00</_>
    <_>
      -2.59298182e+00 -3.22002268e+00 -3.29532647e+00 -3.72470069e+00</_>
    <_>
      -1.90456176e+00 -2.59298182e+00 -3.22002268e+00 -3.29532647e+00</_>
    <_>
      -1.24728870e+00 -1.90456176e+00 -2.59298182e+00 -3.22002268e+00</_>
    <_>
      -7.53099084e-01 -1.24728870e+00 -1.90456176e+00 -2.59298182e+00</_>
    <_>
      -5.52928686e-01 -7.53099084e-01 -1.24728870e+00 -1.90456176e+00</_>
    <_>
      -8.74604225e-01 -5.52928686e-01 -7.53099084e-01 -1.24728870e+00</_>
    <_>
      -1.77570307e+00 -8.74604225e-01 -5.52928686e-01 -7.53099084e-01</_>
    <_>
      -1.77570307e+00 -8.74604225e-01 -5.52928686e-01 -7.53099084e-01</_>
    <_>
      -1.77570307e+00 -8.74604225e-01 -5.52928686e-01 -7.53099084e-01</_>
    <_>
      -8.44116879e+00 -1.77570307e+00 -8.74604225e-01 -5.52928686e-01</_>
    <_>
      -1.12409267e+01 -8.44116879e+00 -1.77570307e+00 -8.74604225e-01</_>
    <_>
      -1.43797836e+01 -1.12409267e+01 -8.44116879e+00 -1.77570307e+00</_>
    <_>
      -1.62738628e+01 -1.43797836e+01 -1.12409267e+01 -8.44116879e+00</_>
    <_>
      -1.52075443e+01 -1.62738628e+01 -1.43797836e+01 -1.12409267e+01</_>
    <_>
      -1.31480331e+01 -1.52075443e+01 -1.62738628e+01 -1.43797836e+01</_>
    <_>
      -9.26408195e+00 -1.31480331e+01 -1.52075443e+01 -1.62738628e+01</_>
    <_>
      -5.24558449e+00 -9.26408195e+00 -1.31480331e+01 -1.52075443e+01</_>
    <_>
      -9.08441007e-01 -5.24558449e+00 -9.26408195e+00 -1.31480331e+01</_>
    <_>
      2.44433784e+00 -9.08441007e-01 -5.24558449e+00 -9.26408195e+00</_>
    <_>
      3.69174957e+00 2.44433784e+00 -9.08441007e-01 -5.24558449e+00</_>
    <_>
      5.76136541e+00 3.69174957e+00 2.44433784e+00 -9.08441007e-01</_>
    <_>
      6.47728395e+00 5.76136541e+00 3.69174957e+00 2.44433784e+00</_>
    <_>
      7.30415726e+00 6.47728395e+00 5.76136541e+00 3.69174957e+00</_>
    <_>
      8.13849449e+00 7.30415726e+00 6.47728395e+00 5.76136541e+00</_>
    <_>
      9.16893101e+00 8.13849449e+00 7.30415726e+00 6.47728395e+00</_>
    <_>
      9.85663700e+00 9.16893101e+00 8.13849449e+00 7.30415726e+00</_>
    <_>
      1.08959351e+01 9.85663700e+00 9.16893101e+00 8.13849449e+00</_>
    <_>
      1.15149975e+01 1.08959351e+01 9.85663700e+00 9.16893101e+00</_>
    <_>
      1.17251053e+01 1.15149975e+01 1.08959351e+01 9.85663700e+00</_>
    <_>
      1.15493460e+01 1.17251053e+01 1.15149975e+01 1.08959351e+01</_>
    <_>
      1.11289482e+01 1.15493460e+01 1.17251053e+01 1.15149975e+01</_>
    <_>
      9.91757298e+00 1.11289482e+01 1.15493460e+01 1.17251053e+01</_>
    <_>
      8.09933949e+00 9.91757298e+00 1.11289482e+01 1.15493460e+01</_>
    <_>
      5.46722889e+00 8.09933949e+00 9.91757298e+00 1.11289482e+01</_>
    <_>
      3.47011256e+00 5.46722889e+00 8.09933949e+00 9.91757298e+00</_>
    <_>
      3.61692905e-01 3.47011256e+00 5.46722889e+00 8.09933949e+00</_>
    <_>
      -2.90061569e+00 3.61692905e-01 3.47011256e+00 5.46722889e+00</_>
    <_>
      -5.73778963e+00 -2.90061569e+00 3.61692905e-01 3.47011256e+00</_>
    <_>
      -7.73104239e+00 -5.73778963e+00 -2.90061569e+00 3.61692905e-01</_>
    <_>
      -1.02082682e+01 -7.73104239e+00 -5.73778963e+00 -2.90061569e+00</_>
    <_>
      -1.12584753e+01 -1.02082682e+01 -7.73104239e+00 -5.73778963e+00</_>
    <_>
      -1.25492945e+01 -1.12584753e+01 -1.02082682e+01 -7.73104239e+00</_>
    <_>
      -1.27635555e+01 -1.25492945e+01 -1.12584753e+01 -1.02082682e+01</_>
    <_>
      -1.22325764e+01 -1.27635555e+01 -1.25492945e+01 -1.12584753e+01</_>
    <_>
      -1.15889597e+01 -1.22325764e+01 -1.27635555e+01 -1.25492945e+01</_>
    <_>
      -1.03340864e+01 -1.15889597e+01 -1.22325764e+01 -1.27635555e+01</_>
    <_>
      -8.71323013e+00 -1.03340864e+01 -1.15889597e+01 -1.22325764e+01</_>
    <_>
      -6.42805767e+00 -8.71323013e+00 -1.03340864e+01 -1.15889597e+01</_>
    <_>
      -4.04620600e+00 -6.42805767e+00 -8.71323013e+00 -1.03340864e+01</_>
    <_>
      -2.03870296e+00 -4.04620600e+00 -6.42805767e+00 -8.71323013e+00</_>
    <_>
      -2.03870296e+00 -4.04620600e+00 -6.42805767e+00 -8.71323013e+00</_>
    <_>
      -2.03870296e+00 -4.04620600e+00 -6.42805767e+00 -8.71323013e+00</_>
    <_>
      4.05963802e+00 -2.03870296e+00 -4.04620600e+00 -6.42805767e+00</_>
    <_>
      5.17275381e+00 4.05963802e+00 -2.03870296e+00 -4.04620600e+00</_>
    <_>
      6.41374540e+00 5.17275381e+00 4.05963802e+00 -2.03870296e+00</_>
    <_>
      7.37250042e+00 6.41374540e+00 5.17275381e+00 4.05963802e+00</_>
    <_>
      7.56366777e+00 7.37250042e+00 6.41374540e+00 5.17275381e+00</_>
    <_>
      7.87968683e+00 7.56366777e+00 7.37250042e+00 6.41374540e+00</_>
    <_>
      8.23793030e+00 7.87968683e+00 7.56366777e+00 7.37250042e+00</_>
    <_>
      8.19719219e+00 8.23793030e+00 7.87968683e+00 7.56366777e+00</_>
    <_>
      8.41229057e+00 8.19719219e+00 8.23793030e+00 7.87968683e+00</_>
    <_>
      9.00263882e+00 8.41229057e+00 8.19719219e+00 8.23793030e+00</_>
    <_>
      9.47382736e+00 9.00263882e+00 8.41229057e+00 8.19719219e+00</_>
    <_>
      9.61516953e+00 9.47382736e+00 9.00263882e+00 8.41229057e+00</_>
    <_>
      9.45894432e+00 9.61516953e+00 9.47382736e+00 9.00263882e+00</_>
    <_>
      9.27423859e+00 9.45894432e+00 9.61516953e+00 9.47382736e+00</_>
    <_>
      7.96752405e+00 9.27423859e+00 9.45894432e+00 9.61516953e+00</_>
    <_>
      6.59405994e+00 7.96752405e+00 9.27423859e+00 9.45894432e+00</_>
    <_>
      3.86002302e+00 6.59405994e+00 7.96752405e+00 9.27423859e+00</_>
    <_>
      8.62832367e-01 3.86002302e+00 6.59405994e+00 7.96752405e+00</_>
    <_>
      -2.01139212e+00 8.62832367e-01 3.86002302e+00 6.59405994e+00</_>
    <_>
      -4.51909781e+00 -2.01139212e+00 8.62832367e-01 3.86002302e+00</_>
    <_>
      -6.12297392e+00 -4.51909781e+00 -2.01139212e+00 8.62832367e-01</_>
    <_>
      -7.42385578e+00 -6.12297392e+00 -4.51909781e+00 -2.01139212e+00</_>
    <_>
      -8.09227848e+00 -7.42385578e+00 -6.12297392e+00 -4.51909781e+00</_>
    <_>
      -8.53748703e+00 -8.09227848e+00 -7.42385578e+00 -6.12297392e+00</_>
    <_>
      -8.76608372e+00 -8.53748703e+00 -8.09227848e+00 -7.42385578e+00</_>
    <_>
      -9.19659138e+00 -8.76608372e+00 -8.53748703e+00 -8.09227848e+00</_>
    <_>
      -9.56094360e+00 -9.19659138e+00 -8.76608372e+00 -8.53748703e+00</_>
    <_>
      -1.02063818e+01 -9.56094360e+00 -9.19659138e+00 -8.76608372e+00</_>
    <_>
      -1.08608055e+01 -1.02063818e+01 -9.56094360e+00 -9.19659138e+00</_>
    <_>
      -1.15092993e+01 -1.08608055e+01 -1.02063818e+01 -9.56094360e+00</_>
    <_>
      -1.16653719e+01 -1.15092993e+01 -1.08608055e+01 -1.02063818e+01</_>
    <_>
      -1.08536692e+01 -1.16653719e+01 -1.15092993e+01 -1.08608055e+01</_>
    <_>
      -9.24973106e+00 -1.08536692e+01 -1.16653719e+01 -1.15092993e+01</_>
    <_>
      -7.35488510e+00 -9.24973106e+00 -1.08536692e+01 -1.16653719e+01</_>
    <_>
      -5.08092165e+00 -7.35488510e+00 -9.24973106e+00 -1.08536692e+01</_>
    <_>
      -1.70747006e+00 -5.08092165e+00 -7.35488510e+00 -9.24973106e+00</_>
    <_>
      1.80888379e+00 -1.70747006e+00 -5.08092165e+00 -7.35488510e+00</_>
    <_>
      5.47357082e+00 1.80888379e+00 -1.70747006e+00 -5.08092165e+00</_>
    <_>
      8.73278999e+00 5.47357082e+00 1.80888379e+00 -1.70747006e+00</_>
    <_>
      1.12707939e+01 8.73278999e+00 5.47357082e+00 1.80888379e+00</_>
    <_>
      1.47170324e+01 1.12707939e+01 8.73278999e+00 5.47357082e+00</_>
    <_>
      1.59960966e+01 1.47170324e+01 1.12707939e+01 8.73278999e+00</_>
    <_>
      1.66572075e+01 1.59960966e+01 1.47170324e+01 1.12707939e+01</_>
    <_>
      1.60989246e+01 1.66572075e+01 1.59960966e+01 1.47170324e+01</_>
    <_>
      1.44565392e+01 1.60989246e+01 1.66572075e+01 1.59960966e+01</_>
    <_>
      1.24643345e+01 1.44565392e+01 1.60989246e+01 1.66572075e+01</_>
    <_>
      9.52433968e+00 1.24643345e+01 1.44565392e+01 1.60989246e+01</_>
    <_>
      7.39593983e+00 9.52433968e+00 1.24643345e+01 1.44565392e+01</_>
    <_>
      4.17687798e+00 7.39593983e+00 9.52433968e+00 1.24643345e+01</_>
    <_>
      1.48084879e+00 4.17687798e+00 7.39593983e+00 9.52433968e+00</_>
    <_>
      -2.74350137e-01 1.48084879e+00 4.17687798e+00 7.39593983e+00</_>
    <_>
      -2.36783314e+00 -2.74350137e-01 1.48084879e+00 4.17687798e+00</_>
    <_>
      -3.89678812e+00 -2.36783314e+00 -2.74350137e-01 1.48084879e+00</_>
    <_>
      -5.13769245e+00 -3.89678812e+00 -2.36783314e+00 -2.74350137e-01</_>
    <_>
      -5.13769245e+00 -3.89678812e+00 -2.36783314e+00 -2.74350137e-01</_>
    <_>
      -6.68271637e+00 -5.13769245e+00 -3.89678812e+00 -2.36783314e+00</_>
    <_>
      -7.29133272e+00 -6.68271637e+00 -5.13769245e+00 -3.89678812e+00</_>
    <_>
      -9.06281567e+00 -7.29133272e+00 -6.68271637e+00 -5.13769245e+00</_>
    <_>
      -9.94161034e+00 -9.06281567e+00 -7.29133272e+00 -6.68271637e+00</_>
    <_>
      -9.88782310e+00 -9.94161034e+00 -9.06281567e+00 -7.29133272e+00</_>
    <_>
      -1.03142633e+01 -9.88782310e+00 -9.94161034e+00 -9.06281567e+00</_>
    <_>
      -1.00390329e+01 -1.03142633e+01 -9.88782310e+00 -9.94161034e+00</_>
    <_>
      -9.22944927e+00 -1.00390329e+01 -1.03142633e+01 -9.88782310e+00</_>
    <_>
      -8.06346703e+00 -9.22944927e+00 -1.00390329e+01 -1.03142633e+01</_>
    <_>
      -6.56695414e+00 -8.06346703e+00 -9.22944927e+00 -1.00390329e+01</_>
    <_>
      -4.03266954e+00 -6.56695414e+00 -8.06346703e+00 -9.22944927e+00</_>
    <_>
      -2.01447344e+00 -4.03266954e+00 -6.56695414e+00 -8.06346703e+00</_>
    <_>
      -6.03938043e-01 -2.01447344e+00 -4.03266954e+00 -6.56695414e+00</_>
    <_>
      9.44310904e-01 -6.03938043e-01 -2.01447344e+00 -4.03266954e+00</_>
    <_>
      1.89147878e+00 9.44310904e-01 -6.03938043e-01 -2.01447344e+00</_>
    <_>
      2.49081898e+00 1.89147878e+00 9.44310904e-01 -6.03938043e-01</_>
    <_>
      2.78419304e+00 2.49081898e+00 1.89147878e+00 9.44310904e-01</_>
    <_>
      2.76449513e+00 2.78419304e+00 2.49081898e+00 1.89147878e+00</_>
    <_>
      2.51078010e+00 2.76449513e+00 2.78419304e+00 2.49081898e+00</_>
    <_>
      2.30659270e+00 2.51078010e+00 2.76449513e+00 2.78419304e+00</_>
    <_>
      2.04993606e+00 2.30659270e+00 2.51078010e+00 2.76449513e+00</_>
    <_>
      1.95776236e+00 2.04993606e+00 2.30659270e+00 2.51078010e+00</_>
    <_>
      1.95537329e+00 1.95776236e+00 2.04993606e+00 2.30659270e+00</_>
    <_>
      2.01711035e+00 1.95537329e+00 1.95776236e+00 2.04993606e+00</_>
    <_>
      1.84363008e+00 2.01711035e+00 1.95537329e+00 1.95776236e+00</_>
    <_>
      1.47637653e+00 1.61428308e+00 1.78255713e+00 1.84363008e+00</_>
    <_>
      1.36557448e+00 1.47637653e+00 1.61428308e+00 1.78255713e+00</_>
    <_>
      1.49005270e+00 1.36557448e+00 1.47637653e+00 1.61428308e+00</_>
    <_>
      2.29573941e+00 1.49005270e+00 1.36557448e+00 1.47637653e+00</_>
    <_>
      3.86932659e+00 2.29573941e+00 1.49005270e+00 1.36557448e+00</_>
    <_>
      5.19573593e+00 3.86932659e+00 2.29573941e+00 1.49005270e+00</_>
    <_>
      5.19573593e+00 3.86932659e+00 2.29573941e+00 1.49005270e+00</_>
    <_>
      9.27896690e+00 5.19573593e+00 3.86932659e+00 2.29573941e+00</_>
    <_>
      1.08147297e+01 9.27896690e+00 5.19573593e+00 3.86932659e+00</_>
    <_>
      1.08147297e+01 9.27896690e+00 5.19573593e+00 3.86932659e+00</_>
    <_>
      1.35105085e+01 1.08147297e+01 9.27896690e+00 5.19573593e+00</_>
    <_>
      1.33075218e+01 1.35105085e+01 1.08147297e+01 9.27896690e+00</_>
    <_>
      1.49827595e+01 1.33075218e+01 1.35105085e+01 1.08147297e+01</_>
    <_>
      1.27432575e+01 1.49827595e+01 1.33075218e+01 1.35105085e+01</_>
    <_>
      7.56026363e+00 1.27432575e+01 1.49827595e+01 1.33075218e+01</_>
    <_>
      5.08540630e+00 7.56026363e+00 1.27432575e+01 1.49827595e+01</_>
    <_>
      -8.28193903e-01 5.08540630e+00 7.56026363e+00 1.27432575e+01</_>
    <_>
      -6.85639668e+00 -8.28193903e-01 5.08540630e+00 7.56026363e+00</_>
    <_>
      -1.14615622e+01 -6.85639668e+00 -8.28193903e-01 5.08540630e+00</_>
    <_>
      -1.50832348e+01 -1.14615622e+01 -6.85639668e+00 -8.28193903e-01</_>
    <_>
      -1.60851517e+01 -1.50832348e+01 -1.14615622e+01 -6.85639668e+00</_>
    <_>
      -1.62832870e+01 -1.60851517e+01 -1.50832348e+01 -1.14615622e+01</_>
    <_>
      -1.48926449e+01 -1.62832870e+01 -1.60851517e+01 -1.50832348e+01</_>
    <_>
      -1.38680468e+01 -1.48926449e+01 -1.62832870e+01 -1.60851517e+01</_>
    <_>
      -1.12689953e+01 -1.38680468e+01 -1.48926449e+01 -1.62832870e+01</_>
    <_>
      -8.79256535e+00 -1.12689953e+01 -1.38680468e+01 -1.48926449e+01</_>
    <_>
      -6.63439465e+00 -8.79256535e+00 -1.12689953e+01 -1.38680468e+01</_>
    <_>
      -4.54150152e+00 -6.63439465e+00 -8.79256535e+00 -1.12689953e+01</_>
    <_>
      -3.31624126e+00 -4.54150152e+00 -6.63439465e+00 -8.79256535e+00</_>
    <_>
      -2.25110054e+00 -3.31624126e+00 -4.54150152e+00 -6.63439465e+00</_>
    <_>
      -8.58802915e-01 -2.25110054e+00 -3.31624126e+00 -4.54150152e+00</_>
    <_>
      5.86438835e-01 -8.58802915e-01 -2.25110054e+00 -3.31624126e+00</_>
    <_>
      2.35957885e+00 5.86438835e-01 -8.58802915e-01 -2.25110054e+00</_>
    <_>
      3.83220220e+00 2.35957885e+00 5.86438835e-01 -8.58802915e-01</_>
    <_>
      5.78433800e+00 3.83220220e+00 2.35957885e+00 5.86438835e-01</_>
    <_>
      7.73157263e+00 5.78433800e+00 3.83220220e+00 2.35957885e+00</_>
    <_>
      9.35481644e+00 7.73157263e+00 5.78433800e+00 3.83220220e+00</_>
    <_>
      1.09770365e+01 9.35481644e+00 7.73157263e+00 5.78433800e+00</_>
    <_>
      1.17167912e+01 1.09770365e+01 9.35481644e+00 7.73157263e+00</_>
    <_>
      1.19387817e+01 1.17167912e+01 1.09770365e+01 9.35481644e+00</_>
    <_>
      1.18408480e+01 1.19387817e+01 1.17167912e+01 1.09770365e+01</_>
    <_>
      1.09440384e+01 1.18408480e+01 1.19387817e+01 1.17167912e+01</_>
    <_>
      1.02467546e+01 1.09440384e+01 1.18408480e+01 1.19387817e+01</_>
    <_>
      8.92421436e+00 1.02467546e+01 1.09440384e+01 1.18408480e+01</_>
    <_>
      7.92994595e+00 8.92421436e+00 1.02467546e+01 1.09440384e+01</_>
    <_>
      5.41416216e+00 7.92994595e+00 8.92421436e+00 1.02467546e+01</_>
    <_>
      3.89106321e+00 5.41416216e+00 7.92994595e+00 8.92421436e+00</_>
    <_>
      7.89248645e-01 3.89106321e+00 5.41416216e+00 7.92994595e+00</_>
    <_>
      -1.20263565e+00 7.89248645e-01 3.89106321e+00 5.41416216e+00</_>
    <_>
      -4.11012459e+00 -1.20263565e+00 7.89248645e-01 3.89106321e+00</_>
    <_>
      -7.20847940e+00 -4.11012459e+00 -1.20263565e+00 7.89248645e-01</_>
    <_>
      -9.19831753e+00 -7.20847940e+00 -4.11012459e+00 -1.20263565e+00</_>
    <_>
      -1.13601227e+01 -9.19831753e+00 -7.20847940e+00 -4.11012459e+00</_>
    <_>
      -1.41079531e+01 -1.13601227e+01 -9.19831753e+00 -7.20847940e+00</_>
    <_>
      -1.58144083e+01 -1.41079531e+01 -1.13601227e+01 -9.19831753e+00</_>
    <_>
      -1.67742195e+01 -1.58144083e+01 -1.41079531e+01 -1.13601227e+01</_>
    <_>
      -1.63777237e+01 -1.67742195e+01 -1.58144083e+01 -1.41079531e+01</_>
    <_>
      -1.37763166e+01 -1.63777237e+01 -1.67742195e+01 -1.58144083e+01</_>
    <_>
      -1.20573778e+01 -1.37763166e+01 -1.63777237e+01 -1.67742195e+01</_>
    <_>
      -7.89399385e+00 -1.20573778e+01 -1.37763166e+01 -1.63777237e+01</_>
    <_>
      -2.97689390e+00 -7.89399385e+00 -1.20573778e+01 -1.37763166e+01</_>
    <_>
      1.70267475e+00 -2.97689390e+00 -7.89399385e+00 -1.20573778e+01</_>
    <_>
      6.61955309e+00 1.70267475e+00 -2.97689390e+00 -7.89399385e+00</_>
    <_>
      1.08999577e+01 6.61955309e+00 1.70267475e+00 -2.97689390e+00</_>
    <_>
      1.47158632e+01 1.08999577e+01 6.61955309e+00 1.70267475e+00</_>
    <_>
      1.74162369e+01 1.47158632e+01 1.08999577e+01 6.61955309e+00</_>
    <_>
      1.92025757e+01 1.74162369e+01 1.47158632e+01 1.08999577e+01</_>
    <_>
      1.95980320e+01 1.92025757e+01 1.74162369e+01 1.47158632e+01</_>
    <_>
      1.80607262e+01 1.95980320e+01 1.92025757e+01 1.74162369e+01</_>
    <_>
      1.50958366e+01 1.80607262e+01 1.95980320e+01 1.92025757e+01</_>
    <_>
      1.04041376e+01 1.50958366e+01 1.80607262e+01 1.95980320e+01</_>
    <_>
      1.04041376e+01 1.50958366e+01 1.80607262e+01 1.95980320e+01</_>
    <_>
      -1.81638256e-01 1.04041376e+01 1.50958366e+01 1.80607262e+01</_>
    <_>
      -6.76119328e+00 -1.81638256e-01 1.04041376e+01 1.50958366e+01</_>
    <_>
      -1.13969488e+01 -6.76119328e+00 -1.81638256e-01 1.04041376e+01</_>
    <_>
      -1.60124397e+01 -1.13969488e+01 -6.76119328e+00 -1.81638256e-01</_>
    <_>
      -2.00050220e+01 -1.60124397e+01 -1.13969488e+01 -6.76119328e+00</_>
    <_>
      -2.00050220e+01 -1.60124397e+01 -1.13969488e+01 -6.76119328e+00</_>
    <_>
      -2.00050220e+01 -1.60124397e+01 -1.13969488e+01 -6.76119328e+00</_>
    <_>
      -1.82193832e+01 -2.00050220e+01 -1.60124397e+01 -1.13969488e+01</_>
    <_>
      -1.65736141e+01 -1.82193832e+01 -2.00050220e+01 -1.60124397e+01</_>
    <_>
      -1.78068333e+01 -1.65736141e+01 -1.82193832e+01 -2.00050220e+01</_>
    <_>
      -1.78068333e+01 -1.65736141e+01 -1.82193832e+01 -2.00050220e+01</_>
    <_>
      -4.20746422e+00 -1.78068333e+01 -1.65736141e+01 -1.82193832e+01</_>
    <_>
      -6.11546755e-01 -4.20746422e+00 -1.78068333e+01 -1.65736141e+01</_>
    <_>
      6.81741428e+00 -6.11546755e-01 -4.20746422e+00 -1.78068333e+01</_>
    <_>
      1.09775877e+01 6.81741428e+00 -6.11546755e-01 -4.20746422e+00</_>
    <_>
      1.65492325e+01 1.09775877e+01 6.81741428e+00 -6.11546755e-01</_>
    <_>
      1.97140503e+01 1.65492325e+01 1.09775877e+01 6.81741428e+00</_>
    <_>
      2.04088135e+01 1.97140503e+01 1.65492325e+01 1.09775877e+01</_>
    <_>
      1.96959362e+01 2.04088135e+01 1.97140503e+01 1.65492325e+01</_>
    <_>
      1.58987799e+01 1.96959362e+01 2.04088135e+01 1.97140503e+01</_>
    <_>
      1.08814278e+01 1.58987799e+01 1.96959362e+01 2.04088135e+01</_>
    <_>
      1.08814278e+01 1.58987799e+01 1.96959362e+01 2.04088135e+01</_>
    <_>
      -9.81004164e-02 1.08814278e+01 1.58987799e+01 1.96959362e+01</_>
    <_>
      -4.69200802e+00 -9.81004164e-02 1.08814278e+01 1.58987799e+01</_>
    <_>
      -6.31348944e+00 -4.69200802e+00 -9.81004164e-02 1.08814278e+01</_>
    <_>
      -6.11227608e+00 -6.31348944e+00 -4.69200802e+00 -9.81004164e-02</_>
    <_>
      -6.31072044e+00 -6.11227608e+00 -6.31348944e+00 -4.69200802e+00</_>
    <_>
      -5.48006058e+00 -6.31072044e+00 -6.11227608e+00 -6.31348944e+00</_>
    <_>
      -3.47026205e+00 -5.48006058e+00 -6.31072044e+00 -6.11227608e+00</_>
    <_>
      -3.26263332e+00 -3.47026205e+00 -5.48006058e+00 -6.31072044e+00</_>
    <_>
      -2.08157110e+00 -3.26263332e+00 -3.47026205e+00 -5.48006058e+00</_>
    <_>
      -1.32732832e+00 -2.08157110e+00 -3.26263332e+00 -3.47026205e+00</_>
    <_>
      -1.33853292e+00 -1.32732832e+00 -2.08157110e+00 -3.26263332e+00</_>
    <_>
      9.69797447e-02 -1.33853292e+00 -1.32732832e+00 -2.08157110e+00</_>
    <_>
      9.68520790e-02 9.69797447e-02 -1.33853292e+00 -1.32732832e+00</_>
    <_>
      3.13256048e-02 9.68520790e-02 9.69797447e-02 -1.33853292e+00</_>
    <_>
      -6.52464107e-02 -3.23386826e-02 -3.18117402e-02 3.13256048e-02</_>
    <_>
      6.40323535e-02 -3.26775350e-02 -6.52464107e-02 -3.23386826e-02</_>
    <_>
      3.86179417e-01 6.40323535e-02 -3.26775350e-02 -6.52464107e-02</_>
    <_>
      1.25799561e+00 3.86179417e-01 6.40323535e-02 -3.26775350e-02</_>
    <_>
      2.84082413e+00 1.25799561e+00 3.86179417e-01 6.40323535e-02</_>
    <_>
      3.71561646e+00 2.84082413e+00 1.25799561e+00 3.86179417e-01</_>
    <_>
      5.87837315e+00 3.71561646e+00 2.84082413e+00 1.25799561e+00</_>
    <_>
      7.55576086e+00 5.87837315e+00 3.71561646e+00 2.84082413e+00</_>
    <_>
      8.59176540e+00 7.55576086e+00 5.87837315e+00 3.71561646e+00</_>
    <_>
      8.42117500e+00 8.59176540e+00 7.55576086e+00 5.87837315e+00</_>
    <_>
      7.55173206e+00 8.42117500e+00 8.59176540e+00 7.55576086e+00</_>
    <_>
      5.92995167e+00 7.55173206e+00 8.42117500e+00 8.59176540e+00</_>
    <_>
      4.30016041e+00 5.92995167e+00 7.55173206e+00 8.42117500e+00</_>
    <_>
      2.23599505e+00 4.30016041e+00 5.92995167e+00 7.55173206e+00</_>
    <_>
      1.17027104e+00 2.23599505e+00 4.30016041e+00 5.92995167e+00</_>
    <_>
      -7.06936717e-01 1.17027104e+00 2.23599505e+00 4.30016041e+00</_>
    <_>
      -2.28756547e+00 -7.06936717e-01 1.17027104e+00 2.23599505e+00</_>
    <_>
      -4.22869396e+00 -2.28756547e+00 -7.06936717e-01 1.17027104e+00</_>
    <_>
      -6.25877047e+00 -4.22869396e+00 -2.28756547e+00 -7.06936717e-01</_>
    <_>
      -7.37453890e+00 -6.25877047e+00 -4.22869396e+00 -2.28756547e+00</_>
    <_>
      -8.50722027e+00 -7.37453890e+00 -6.25877047e+00 -4.22869396e+00</_>
    <_>
      -9.59407997e+00 -8.50722027e+00 -7.37453890e+00 -6.25877047e+00</_>
    <_>
      -1.03529377e+01 -9.59407997e+00 -8.50722027e+00 -7.37453890e+00</_>
    <_>
      -1.05122480e+01 -1.03529377e+01 -9.59407997e+00 -8.50722027e+00</_>
    <_>
      -1.04194670e+01 -1.05122480e+01 -1.03529377e+01 -9.59407997e+00</_>
    <_>
      -1.00362034e+01 -1.04194670e+01 -1.05122480e+01 -1.03529377e+01</_>
    <_>
      -9.43888664e+00 -1.00362034e+01 -1.04194670e+01 -1.05122480e+01</_>
    <_>
      -9.04877758e+00 -9.43888664e+00 -1.00362034e+01 -1.04194670e+01</_>
    <_>
      -8.33281898e+00 -9.04877758e+00 -9.43888664e+00 -1.00362034e+01</_>
    <_>
      -7.93047905e+00 -8.33281898e+00 -9.04877758e+00 -9.43888664e+00</_>
    <_>
      -7.01635408e+00 -7.93047905e+00 -8.33281898e+00 -9.04877758e+00</_>
    <_>
      -5.21517324e+00 -7.01635408e+00 -7.93047905e+00 -8.33281898e+00</_>
    <_>
      -2.83511424e+00 -5.21517324e+00 -7.01635408e+00 -7.93047905e+00</_>
    <_>
      -7.07534611e-01 -2.83511424e+00 -5.21517324e+00 -7.01635408e+00</_>
    <_>
      2.35762835e+00 -7.07534611e-01 -2.83511424e+00 -5.21517324e+00</_>
    <_>
      2.35762835e+00 -7.07534611e-01 -2.83511424e+00 -5.21517324e+00</_>
    <_>
      8.99511242e+00 2.35762835e+00 -7.07534611e-01 -2.83511424e+00</_>
    <_>
      1.14645023e+01 8.99511242e+00 2.35762835e+00 -7.07534611e-01</_>
    <_>
      1.47571287e+01 1.14645023e+01 8.99511242e+00 2.35762835e+00</_>
    <_>
      1.76854210e+01 1.47571287e+01 1.14645023e+01 8.99511242e+00</_>
    <_>
      1.78561211e+01 1.76854210e+01 1.47571287e+01 1.14645023e+01</_>
    <_>
      1.72540150e+01 1.78561211e+01 1.76854210e+01 1.47571287e+01</_>
    <_>
      1.45906906e+01 1.72540150e+01 1.78561211e+01 1.76854210e+01</_>
    <_>
      1.20869160e+01 1.45906906e+01 1.72540150e+01 1.78561211e+01</_>
    <_>
      7.93544197e+00 1.20869160e+01 1.45906906e+01 1.72540150e+01</_>
    <_>
      4.02552557e+00 7.93544197e+00 1.20869160e+01 1.45906906e+01</_>
    <_>
      3.33408773e-01 4.02552557e+00 7.93544197e+00 1.20869160e+01</_>
    <_>
      -2.39001870e+00 3.33408773e-01 4.02552557e+00 7.93544197e+00</_>
    <_>
      -3.71870160e+00 -2.39001870e+00 3.33408773e-01 4.02552557e+00</_>
    <_>
      -4.66435766e+00 -3.71870160e+00 -2.39001870e+00 3.33408773e-01</_>
    <_>
      -4.43488312e+00 -4.66435766e+00 -3.71870160e+00 -2.39001870e+00</_>
    <_>
      -4.56686783e+00 -4.43488312e+00 -4.66435766e+00 -3.71870160e+00</_>
    <_>
      -4.87716532e+00 -4.56686783e+00 -4.43488312e+00 -4.66435766e+00</_>
    <_>
      -5.20908737e+00 -4.87716532e+00 -4.56686783e+00 -4.43488312e+00</_>
    <_>
      -5.80616665e+00 -5.20908737e+00 -4.87716532e+00 -4.56686783e+00</_>
    <_>
      -6.97965097e+00 -5.80616665e+00 -5.20908737e+00 -4.87716532e+00</_>
    <_>
      -7.54275799e+00 -6.97965097e+00 -5.80616665e+00 -5.20908737e+00</_>
    <_>
      -9.05345917e+00 -7.54275799e+00 -6.97965097e+00 -5.80616665e+00</_>
    <_>
      -9.98902321e+00 -9.05345917e+00 -7.54275799e+00 -6.97965097e+00</_>
    <_>
      -1.06741018e+01 -9.98902321e+00 -9.05345917e+00 -7.54275799e+00</_>
    <_>
      -1.09148912e+01 -1.06741018e+01 -9.98902321e+00 -9.05345917e+00</_>
    <_>
      -1.04714575e+01 -1.09148912e+01 -1.06741018e+01 -9.98902321e+00</_>
    <_>
      -9.66620541e+00 -1.04714575e+01 -1.09148912e+01 -1.06741018e+01</_>
    <_>
      -8.62282276e+00 -9.66620541e+00 -1.04714575e+01 -1.09148912e+01</_>
    <_>
      -7.55971575e+00 -8.62282276e+00 -9.66620541e+00 -1.04714575e+01</_>
    <_>
      -5.81756306e+00 -7.55971575e+00 -8.62282276e+00 -9.66620541e+00</_>
    <_>
      -4.15282154e+00 -5.81756306e+00 -7.55971575e+00 -8.62282276e+00</_>
    <_>
      -3.20352960e+00 -4.15282154e+00 -5.81756306e+00 -7.55971575e+00</_>
    <_>
      -3.20352960e+00 -4.15282154e+00 -5.81756306e+00 -7.55971575e+00</_>
    <_>
      -3.20352960e+00 -4.15282154e+00 -5.81756306e+00 -7.55971575e+00</_>
    <_>
      1.39728618e+00 -3.20352960e+00 -4.15282154e+00 -5.81756306e+00</_>
    <_>
      3.37609029e+00 1.39728618e+00 -3.20352960e+00 -4.15282154e+00</_>
    <_>
      4.44928646e+00 3.37609029e+00 1.39728618e+00 -3.20352960e+00</_>
    <_>
      6.15752220e+00 4.44928646e+00 3.37609029e+00 1.39728618e+00</_>
    <_>
      8.21567345e+00 6.15752220e+00 4.44928646e+00 3.37609029e+00</_>
    <_>
      9.56070042e+00 8.21567345e+00 6.15752220e+00 4.44928646e+00</_>
    <_>
      1.07161779e+01 9.56070042e+00 8.21567345e+00 6.15752220e+00</_>
    <_>
      1.08750763e+01 1.07161779e+01 9.56070042e+00 8.21567345e+00</_>
    <_>
      1.04216375e+01 1.08750763e+01 1.07161779e+01 9.56070042e+00</_>
    <_>
      1.01754665e+01 1.04216375e+01 1.08750763e+01 1.07161779e+01</_>
    <_>
      9.18654156e+00 1.01754665e+01 1.04216375e+01 1.08750763e+01</_>
    <_>
      8.05047894e+00 9.18654156e+00 1.01754665e+01 1.04216375e+01</_>
    <_>
      6.97074938e+00 8.05047894e+00 9.18654156e+00 1.01754665e+01</_>
    <_>
      6.30807686e+00 6.97074938e+00 8.05047894e+00 9.18654156e+00</_>
    <_>
      5.68609524e+00 6.30807686e+00 6.97074938e+00 8.05047894e+00</_>
    <_>
      5.13170815e+00 5.68609524e+00 6.30807686e+00 6.97074938e+00</_>
    <_>
      4.88965654e+00 5.13170815e+00 5.68609524e+00 6.30807686e+00</_>
    <_>
      4.56097221e+00 4.88965654e+00 5.13170815e+00 5.68609524e+00</_>
    <_>
      4.28810453e+00 4.56097221e+00 4.88965654e+00 5.13170815e+00</_>
    <_>
      3.54878092e+00 4.28810453e+00 4.56097221e+00 4.88965654e+00</_>
    <_>
      2.92625570e+00 3.54878092e+00 4.28810453e+00 4.56097221e+00</_>
    <_>
      1.52185798e+00 2.92625570e+00 3.54878092e+00 4.28810453e+00</_>
    <_>
      -5.31565428e-01 1.52185798e+00 2.92625570e+00 3.54878092e+00</_>
    <_>
      -2.63476777e+00 -5.31565428e-01 1.52185798e+00 2.92625570e+00</_>
    <_>
      -4.88829708e+00 -2.63476777e+00 -5.31565428e-01 1.52185798e+00</_>
    <_>
      -6.77062750e+00 -4.88829708e+00 -2.63476777e+00 -5.31565428e-01</_>
    <_>
      -8.52936840e+00 -6.77062750e+00 -4.88829708e+00 -2.63476777e+00</_>
    <_>
      -1.00482159e+01 -8.52936840e+00 -6.77062750e+00 -4.88829708e+00</_>
    <_>
      -1.08354502e+01 -1.00482159e+01 -8.52936840e+00 -6.77062750e+00</_>
    <_>
      -1.08549776e+01 -1.08354502e+01 -1.00482159e+01 -8.52936840e+00</_>
    <_>
      -1.03653250e+01 -1.08549776e+01 -1.08354502e+01 -1.00482159e+01</_>
    <_>
      -1.00140162e+01 -1.03653250e+01 -1.08549776e+01 -1.08354502e+01</_>
    <_>
      -9.37796497e+00 -1.00140162e+01 -1.03653250e+01 -1.08549776e+01</_>
    <_>
      -8.88361931e+00 -9.37796497e+00 -1.00140162e+01 -1.03653250e+01</_>
    <_>
      -8.72073555e+00 -8.88361931e+00 -9.37796497e+00 -1.00140162e+01</_>
    <_>
      -8.11045837e+00 -8.72073555e+00 -8.88361931e+00 -9.37796497e+00</_>
    <_>
      -7.65815306e+00 -8.11045837e+00 -8.72073555e+00 -8.88361931e+00</_>
    <_>
      -7.29359436e+00 -7.65815306e+00 -8.11045837e+00 -8.72073555e+00</_>
    <_>
      -6.51449776e+00 -7.29359436e+00 -7.65815306e+00 -8.11045837e+00</_>
    <_>
      -6.51449776e+00 -7.29359436e+00 -7.65815306e+00 -8.11045837e+00</_>
    <_>
      -5.09408855e+00 -6.51449776e+00 -7.29359436e+00 -7.65815306e+00</_>
    <_>
      -3.64692998e+00 -5.09408855e+00 -6.51449776e+00 -7.29359436e+00</_>
    <_>
      -1.68467927e+00 -3.64692998e+00 -5.09408855e+00 -6.51449776e+00</_>
    <_>
      6.81737363e-01 -1.68467927e+00 -3.64692998e+00 -5.09408855e+00</_>
    <_>
      3.19388556e+00 6.81737363e-01 -1.68467927e+00 -3.64692998e+00</_>
    <_>
      6.00503016e+00 3.19388556e+00 6.81737363e-01 -1.68467927e+00</_>
    <_>
      8.72834301e+00 6.00503016e+00 3.19388556e+00 6.81737363e-01</_>
    <_>
      1.01921043e+01 8.72834301e+00 6.00503016e+00 3.19388556e+00</_>
    <_>
      1.14370785e+01 1.01921043e+01 8.72834301e+00 6.00503016e+00</_>
    <_>
      1.22806540e+01 1.14370785e+01 1.01921043e+01 8.72834301e+00</_>
    <_>
      1.22576504e+01 1.22806540e+01 1.14370785e+01 1.01921043e+01</_>
    <_>
      1.14580021e+01 1.22576504e+01 1.22806540e+01 1.14370785e+01</_>
    <_>
      1.02844191e+01 1.14580021e+01 1.22576504e+01 1.22806540e+01</_>
    <_>
      9.35719776e+00 1.02844191e+01 1.14580021e+01 1.22576504e+01</_>
    <_>
      8.02083588e+00 9.35719776e+00 1.02844191e+01 1.14580021e+01</_>
    <_>
      6.60486984e+00 8.02083588e+00 9.35719776e+00 1.02844191e+01</_>
    <_>
      5.27880716e+00 6.60486984e+00 8.02083588e+00 9.35719776e+00</_>
    <_>
      4.56549644e+00 5.27880716e+00 6.60486984e+00 8.02083588e+00</_>
    <_>
      3.86069703e+00 4.56549644e+00 5.27880716e+00 6.60486984e+00</_>
    <_>
      3.40002990e+00 3.86069703e+00 4.56549644e+00 5.27880716e+00</_>
    <_>
      2.72771549e+00 3.40002990e+00 3.86069703e+00 4.56549644e+00</_>
    <_>
      2.08262467e+00 2.72771549e+00 3.40002990e+00 3.86069703e+00</_>
    <_>
      9.25836325e-01 2.08262467e+00 2.72771549e+00 3.40002990e+00</_>
    <_>
      -8.57099295e-01 9.25836325e-01 2.08262467e+00 2.72771549e+00</_>
    <_>
      -3.02409887e+00 -8.57099295e-01 9.25836325e-01 2.08262467e+00</_>
    <_>
      -4.50357723e+00 -3.02409887e+00 -8.57099295e-01 9.25836325e-01</_>
    <_>
      -6.73901415e+00 -4.50357723e+00 -3.02409887e+00 -8.57099295e-01</_>
    <_>
      -9.03742695e+00 -6.73901415e+00 -4.50357723e+00 -3.02409887e+00</_>
    <_>
      -1.14519873e+01 -9.03742695e+00 -6.73901415e+00 -4.50357723e+00</_>
    <_>
      -1.34165001e+01 -1.14519873e+01 -9.03742695e+00 -6.73901415e+00</_>
    <_>
      -1.44785528e+01 -1.34165001e+01 -1.14519873e+01 -9.03742695e+00</_>
    <_>
      -1.49396353e+01 -1.44785528e+01 -1.34165001e+01 -1.14519873e+01</_>
    <_>
      -1.48690948e+01 -1.49396353e+01 -1.44785528e+01 -1.34165001e+01</_>
    <_>
      -1.42589645e+01 -1.48690948e+01 -1.49396353e+01 -1.44785528e+01</_>
    <_>
      -1.32444277e+01 -1.42589645e+01 -1.48690948e+01 -1.49396353e+01</_>
    <_>
      -1.22595758e+01 -1.32444277e+01 -1.42589645e+01 -1.48690948e+01</_>
    <_>
      -1.01349106e+01 -1.22595758e+01 -1.32444277e+01 -1.42589645e+01</_>
    <_>
      -7.67756271e+00 -1.01349106e+01 -1.22595758e+01 -1.32444277e+01</_>
    <_>
      -4.46852875e+00 -7.67756271e+00 -1.01349106e+01 -1.22595758e+01</_>
    <_>
      -4.46852875e+00 -7.67756271e+00 -1.01349106e+01 -1.22595758e+01</_>
    <_>
      -4.46852875e+00 -7.67756271e+00 -1.01349106e+01 -1.22595758e+01</_>
    <_>
      5.26316214e+00 -4.46852875e+00 -7.67756271e+00 -1.01349106e+01</_>
    <_>
      8.92519474e+00 5.26316214e+00 -4.46852875e+00 -7.67756271e+00</_>
    <_>
      1.23326807e+01 8.92519474e+00 5.26316214e+00 -4.46852875e+00</_>
    <_>
      1.38450594e+01 1.23326807e+01 8.92519474e+00 5.26316214e+00</_>
    <_>
      1.60045547e+01 1.38450594e+01 1.23326807e+01 8.92519474e+00</_>
    <_>
      1.70122547e+01 1.60045547e+01 1.38450594e+01 1.23326807e+01</_>
    <_>
      1.67665939e+01 1.70122547e+01 1.60045547e+01 1.38450594e+01</_>
    <_>
      1.60898724e+01 1.67665939e+01 1.70122547e+01 1.60045547e+01</_>
    <_>
      1.41436930e+01 1.60898724e+01 1.67665939e+01 1.70122547e+01</_>
    <_>
      1.13303528e+01 1.41436930e+01 1.60898724e+01 1.67665939e+01</_>
    <_>
      8.47276878e+00 1.13303528e+01 1.41436930e+01 1.60898724e+01</_>
    <_>
      5.31934643e+00 8.47276878e+00 1.13303528e+01 1.41436930e+01</_>
    <_>
      3.43377995e+00 5.31934643e+00 8.47276878e+00 1.13303528e+01</_>
    <_>
      1.78213537e+00 3.43377995e+00 5.31934643e+00 8.47276878e+00</_>
    <_>
      5.59387021e-02 1.78213537e+00 3.43377995e+00 5.31934643e+00</_>
    <_>
      -1.74359775e+00 5.59387021e-02 1.78213537e+00 3.43377995e+00</_>
    <_>
      -3.51033258e+00 -1.74359775e+00 5.59387021e-02 1.78213537e+00</_>
    <_>
      -5.30410242e+00 -3.51033258e+00 -1.74359775e+00 5.59387021e-02</_>
    <_>
      -7.74836969e+00 -5.30410242e+00 -3.51033258e+00 -1.74359775e+00</_>
    <_>
      -1.03293543e+01 -7.74836969e+00 -5.30410242e+00 -3.51033258e+00</_>
    <_>
      -1.30093966e+01 -1.03293543e+01 -7.74836969e+00 -5.30410242e+00</_>
    <_>
      -1.48579884e+01 -1.30093966e+01 -1.03293543e+01 -7.74836969e+00</_>
    <_>
      -1.65829754e+01 -1.48579884e+01 -1.30093966e+01 -1.03293543e+01</_>
    <_>
      -1.69840431e+01 -1.65829754e+01 -1.48579884e+01 -1.30093966e+01</_>
    <_>
      -1.66979599e+01 -1.69840431e+01 -1.65829754e+01 -1.48579884e+01</_>
    <_>
      -1.58000917e+01 -1.66979599e+01 -1.69840431e+01 -1.65829754e+01</_>
    <_>
      -1.28148899e+01 -1.58000917e+01 -1.66979599e+01 -1.69840431e+01</_>
    <_>
      -1.01584682e+01 -1.28148899e+01 -1.58000917e+01 -1.66979599e+01</_>
    <_>
      -6.44879913e+00 -1.01584682e+01 -1.28148899e+01 -1.58000917e+01</_>
    <_>
      -2.56364059e+00 -6.44879913e+00 -1.01584682e+01 -1.28148899e+01</_>
    <_>
      5.42762399e-01 -2.56364059e+00 -6.44879913e+00 -1.01584682e+01</_>
    <_>
      4.41829014e+00 5.42762399e-01 -2.56364059e+00 -6.44879913e+00</_>
    <_>
      7.62709904e+00 4.41829014e+00 5.42762399e-01 -2.56364059e+00</_>
    <_>
      1.04240818e+01 7.62709904e+00 4.41829014e+00 5.42762399e-01</_>
    <_>
      1.28334379e+01 1.04240818e+01 7.62709904e+00 4.41829014e+00</_>
    <_>
      1.48886824e+01 1.28334379e+01 1.04240818e+01 7.62709904e+00</_>
    <_>
      1.70323601e+01 1.48886824e+01 1.28334379e+01 1.04240818e+01</_>
    <_>
      1.77937279e+01 1.70323601e+01 1.48886824e+01 1.28334379e+01</_>
    <_>
      1.80809250e+01 1.77937279e+01 1.70323601e+01 1.48886824e+01</_>
    <_>
      1.76882153e+01 1.80809250e+01 1.77937279e+01 1.70323601e+01</_>
    <_>
      1.57815943e+01 1.76882153e+01 1.80809250e+01 1.77937279e+01</_>
    <_>
      1.31340847e+01 1.57815943e+01 1.76882153e+01 1.80809250e+01</_>
    <_>
      9.44281292e+00 1.31340847e+01 1.57815943e+01 1.76882153e+01</_>
    <_>
      9.44281292e+00 1.31340847e+01 1.57815943e+01 1.76882153e+01</_>
    <_>
      1.29715905e-01 9.44281292e+00 1.31340847e+01 1.57815943e+01</_>
    <_>
      -2.15850306e+00 1.29715905e-01 9.44281292e+00 1.31340847e+01</_>
    <_>
      -5.68703651e+00 -2.15850306e+00 1.29715905e-01 9.44281292e+00</_>
    <_>
      -7.80565119e+00 -5.68703651e+00 -2.15850306e+00 1.29715905e-01</_>
    <_>
      -1.10165377e+01 -7.80565119e+00 -5.68703651e+00 -2.15850306e+00</_>
    <_>
      -1.40331850e+01 -1.10165377e+01 -7.80565119e+00 -5.68703651e+00</_>
    <_>
      -1.60208035e+01 -1.40331850e+01 -1.10165377e+01 -7.80565119e+00</_>
    <_>
      -1.79085979e+01 -1.60208035e+01 -1.40331850e+01 -1.10165377e+01</_>
    <_>
      -1.77512054e+01 -1.79085979e+01 -1.60208035e+01 -1.40331850e+01</_>
    <_>
      -1.51761694e+01 -1.77512054e+01 -1.79085979e+01 -1.60208035e+01</_>
    <_>
      -1.23109684e+01 -1.51761694e+01 -1.77512054e+01 -1.79085979e+01</_>
    <_>
      -1.23109684e+01 -1.51761694e+01 -1.77512054e+01 -1.79085979e+01</_>
    <_>
      -2.32968521e+00 -1.23109684e+01 -1.51761694e+01 -1.77512054e+01</_>
    <_>
      3.61176252e+00 -2.32968521e+00 -1.23109684e+01 -1.51761694e+01</_>
    <_>
      8.38311005e+00 3.61176252e+00 -2.32968521e+00 -1.23109684e+01</_>
    <_>
      1.45517559e+01 8.38311005e+00 3.61176252e+00 -2.32968521e+00</_>
    <_>
      1.94137592e+01 1.45517559e+01 8.38311005e+00 3.61176252e+00</_>
    <_>
      1.94137592e+01 1.45517559e+01 8.38311005e+00 3.61176252e+00</_>
    <_>
      1.94137592e+01 1.45517559e+01 8.38311005e+00 3.61176252e+00</_>
    <_>
      2.20374126e+01 1.94137592e+01 1.45517559e+01 8.38311005e+00</_>
    <_>
      2.14410915e+01 2.20374126e+01 1.94137592e+01 1.45517559e+01</_>
    <_>
      2.14410915e+01 2.20374126e+01 1.94137592e+01 1.45517559e+01</_>
    <_>
      2.14410915e+01 2.20374126e+01 1.94137592e+01 1.45517559e+01</_>
    <_>
      2.14410915e+01 2.20374126e+01 1.94137592e+01 1.45517559e+01</_>
    <_>
      8.62857819e+00 2.14410915e+01 2.20374126e+01 1.94137592e+01</_>
    <_>
      6.14672327e+00 8.62857819e+00 2.14410915e+01 2.20374126e+01</_>
    <_>
      4.51670313e+00 6.14672327e+00 8.62857819e+00 2.14410915e+01</_>
    <_>
      4.51670313e+00 6.14672327e+00 8.62857819e+00 2.14410915e+01</_>
    <_>
      -8.55262756e+00 4.51670313e+00 6.14672327e+00 8.62857819e+00</_>
    <_>
      -1.43290520e+01 -8.55262756e+00 4.51670313e+00 6.14672327e+00</_>
    <_>
      -1.92529068e+01 -1.43290520e+01 -8.55262756e+00 4.51670313e+00</_>
    <_>
      -1.92529068e+01 -1.43290520e+01 -8.55262756e+00 4.51670313e+00</_>
    <_>
      -1.90683575e+01 -1.92529068e+01 -1.43290520e+01 -8.55262756e+00</_>
    <_>
      -1.79096584e+01 -1.90683575e+01 -1.92529068e+01 -1.43290520e+01</_>
    <_>
      -1.95113258e+01 -1.79096584e+01 -1.90683575e+01 -1.92529068e+01</_>
    <_>
      -1.78888607e+01 -1.95113258e+01 -1.79096584e+01 -1.90683575e+01</_>
    <_>
      -1.35128317e+01 -1.78888607e+01 -1.95113258e+01 -1.79096584e+01</_>
    <_>
      -1.01232204e+01 -1.35128317e+01 -1.78888607e+01 -1.95113258e+01</_>
    <_>
      -4.07785797e+00 -1.01232204e+01 -1.35128317e+01 -1.78888607e+01</_>
    <_>
      2.25899959e+00 -4.07785797e+00 -1.01232204e+01 -1.35128317e+01</_>
    <_>
      7.63393927e+00 2.25899959e+00 -4.07785797e+00 -1.01232204e+01</_>
    <_>
      1.21277428e+01 7.63393927e+00 2.25899959e+00 -4.07785797e+00</_>
    <_>
      1.43538198e+01 1.21277428e+01 7.63393927e+00 2.25899959e+00</_>
    <_>
      1.57150030e+01 1.43538198e+01 1.21277428e+01 7.63393927e+00</_>
    <_>
      1.63108711e+01 1.57150030e+01 1.43538198e+01 1.21277428e+01</_>
    <_>
      1.57577686e+01 1.63108711e+01 1.57150030e+01 1.43538198e+01</_>
    <_>
      1.46902151e+01 1.57577686e+01 1.63108711e+01 1.57150030e+01</_>
    <_>
      1.26572781e+01 1.46902151e+01 1.57577686e+01 1.63108711e+01</_>
    <_>
      1.03656034e+01 1.26572781e+01 1.46902151e+01 1.57577686e+01</_>
    <_>
      8.36985493e+00 1.03656034e+01 1.26572781e+01 1.46902151e+01</_>
    <_>
      5.96376085e+00 8.36985493e+00 1.03656034e+01 1.26572781e+01</_>
    <_>
      4.07606363e+00 5.96376085e+00 8.36985493e+00 1.03656034e+01</_>
    <_>
      2.20098114e+00 4.07606363e+00 5.96376085e+00 8.36985493e+00</_>
    <_>
      6.25755966e-01 2.20098114e+00 4.07606363e+00 5.96376085e+00</_>
    <_>
      -4.40300912e-01 6.25755966e-01 2.20098114e+00 4.07606363e+00</_>
    <_>
      -2.81163669e+00 -4.40300912e-01 6.25755966e-01 2.20098114e+00</_>
    <_>
      -4.80211878e+00 -2.81163669e+00 -4.40300912e-01 6.25755966e-01</_>
    <_>
      -7.46942043e+00 -4.80211878e+00 -2.81163669e+00 -4.40300912e-01</_>
    <_>
      -8.80228806e+00 -7.46942043e+00 -4.80211878e+00 -2.81163669e+00</_>
    <_>
      -1.12775555e+01 -8.80228806e+00 -7.46942043e+00 -4.80211878e+00</_>
    <_>
      -1.32866650e+01 -1.12775555e+01 -8.80228806e+00 -7.46942043e+00</_>
    <_>
      -1.44296322e+01 -1.32866650e+01 -1.12775555e+01 -8.80228806e+00</_>
    <_>
      -1.48552809e+01 -1.44296322e+01 -1.32866650e+01 -1.12775555e+01</_>
    <_>
      -1.44014130e+01 -1.48552809e+01 -1.44296322e+01 -1.32866650e+01</_>
    <_>
      -1.35459414e+01 -1.44014130e+01 -1.48552809e+01 -1.44296322e+01</_>
    <_>
      -1.19179659e+01 -1.35459414e+01 -1.44014130e+01 -1.48552809e+01</_>
    <_>
      -9.37646198e+00 -1.19179659e+01 -1.35459414e+01 -1.44014130e+01</_>
    <_>
      -6.08770895e+00 -9.37646198e+00 -1.19179659e+01 -1.35459414e+01</_>
    <_>
      -1.62236536e+00 -6.08770895e+00 -9.37646198e+00 -1.19179659e+01</_>
    <_>
      2.52709221e-02 -1.62236536e+00 -6.08770895e+00 -9.37646198e+00</_>
    <_>
      3.09844089e+00 2.52709221e-02 -1.62236536e+00 -6.08770895e+00</_>
    <_>
      6.11906672e+00 3.09844089e+00 2.52709221e-02 -1.62236536e+00</_>
    <_>
      7.88166523e+00 6.11906672e+00 3.09844089e+00 2.52709221e-02</_>
    <_>
      1.08161545e+01 7.88166523e+00 6.11906672e+00 3.09844089e+00</_>
    <_>
      1.34504538e+01 1.08161545e+01 7.88166523e+00 6.11906672e+00</_>
    <_>
      1.50280399e+01 1.34504538e+01 1.08161545e+01 7.88166523e+00</_>
    <_>
      1.63266544e+01 1.50280399e+01 1.34504538e+01 1.08161545e+01</_>
    <_>
      1.60832195e+01 1.63266544e+01 1.50280399e+01 1.34504538e+01</_>
    <_>
      1.55487566e+01 1.60832195e+01 1.63266544e+01 1.50280399e+01</_>
    <_>
      1.34204073e+01 1.55487566e+01 1.60832195e+01 1.63266544e+01</_>
    <_>
      1.23422604e+01 1.34204073e+01 1.55487566e+01 1.60832195e+01</_>
    <_>
      9.97930717e+00 1.23422604e+01 1.34204073e+01 1.55487566e+01</_>
    <_>
      7.29940367e+00 9.97930717e+00 1.23422604e+01 1.34204073e+01</_>
    <_>
      4.93507195e+00 7.29940367e+00 9.97930717e+00 1.23422604e+01</_>
    <_>
      2.26269746e+00 4.93507195e+00 7.29940367e+00 9.97930717e+00</_>
    <_>
      2.68519893e-02 2.26269746e+00 4.93507195e+00 7.29940367e+00</_>
    <_>
      -1.24199414e+00 2.68519893e-02 2.26269746e+00 4.93507195e+00</_>
    <_>
      -3.44292545e+00 -1.24199414e+00 2.68519893e-02 2.26269746e+00</_>
    <_>
      -5.26876879e+00 -3.44292545e+00 -1.24199414e+00 2.68519893e-02</_>
    <_>
      -7.40603209e+00 -5.26876879e+00 -3.44292545e+00 -1.24199414e+00</_>
    <_>
      -1.00619278e+01 -7.40603209e+00 -5.26876879e+00 -3.44292545e+00</_>
    <_>
      -1.23543596e+01 -1.00619278e+01 -7.40603209e+00 -5.26876879e+00</_>
    <_>
      -1.39988146e+01 -1.23543596e+01 -1.00619278e+01 -7.40603209e+00</_>
    <_>
      -1.57221766e+01 -1.39988146e+01 -1.23543596e+01 -1.00619278e+01</_>
    <_>
      -1.62496357e+01 -1.57221766e+01 -1.39988146e+01 -1.23543596e+01</_>
    <_>
      -1.59565477e+01 -1.62496357e+01 -1.57221766e+01 -1.39988146e+01</_>
    <_>
      -1.49519043e+01 -1.59565477e+01 -1.62496357e+01 -1.57221766e+01</_>
    <_>
      -1.35639763e+01 -1.49519043e+01 -1.59565477e+01 -1.62496357e+01</_>
    <_>
      -1.06750631e+01 -1.35639763e+01 -1.49519043e+01 -1.59565477e+01</_>
    <_>
      -7.62330627e+00 -1.06750631e+01 -1.35639763e+01 -1.49519043e+01</_>
    <_>
      -4.79367876e+00 -7.62330627e+00 -1.06750631e+01 -1.35639763e+01</_>
    <_>
      -8.89750302e-01 -4.79367876e+00 -7.62330627e+00 -1.06750631e+01</_>
    <_>
      1.62017977e+00 -8.89750302e-01 -4.79367876e+00 -7.62330627e+00</_>
    <_>
      4.97516918e+00 1.62017977e+00 -8.89750302e-01 -4.79367876e+00</_>
    <_>
      8.10654736e+00 4.97516918e+00 1.62017977e+00 -8.89750302e-01</_>
    <_>
      1.05133896e+01 8.10654736e+00 4.97516918e+00 1.62017977e+00</_>
    <_>
      1.22371264e+01 1.05133896e+01 8.10654736e+00 4.97516918e+00</_>
    <_>
      1.46861258e+01 1.22371264e+01 1.05133896e+01 8.10654736e+00</_>
    <_>
      1.60004921e+01 1.46861258e+01 1.22371264e+01 1.05133896e+01</_>
    <_>
      1.62810917e+01 1.60004921e+01 1.46861258e+01 1.22371264e+01</_>
    <_>
      1.59846268e+01 1.62810917e+01 1.60004921e+01 1.46861258e+01</_>
    <_>
      1.51801891e+01 1.59846268e+01 1.62810917e+01 1.60004921e+01</_>
    <_>
      1.34083023e+01 1.51801891e+01 1.59846268e+01 1.62810917e+01</_>
    <_>
      1.12037449e+01 1.34083023e+01 1.51801891e+01 1.59846268e+01</_>
    <_>
      9.05903721e+00 1.12037449e+01 1.34083023e+01 1.51801891e+01</_>
    <_>
      9.05903721e+00 1.12037449e+01 1.34083023e+01 1.51801891e+01</_>
    <_>
      9.05903721e+00 1.12037449e+01 1.34083023e+01 1.51801891e+01</_>
    <_>
      9.05903721e+00 1.12037449e+01 1.34083023e+01 1.51801891e+01</_>
    <_>
      -3.58451605e-01 9.05903721e+00 1.12037449e+01 1.34083023e+01</_>
    <_>
      -1.59438181e+00 -3.58451605e-01 9.05903721e+00 1.12037449e+01</_>
    <_>
      -3.67056680e+00 -1.59438181e+00 -3.58451605e-01 9.05903721e+00</_>
    <_>
      -5.47109842e+00 -3.67056680e+00 -1.59438181e+00 -3.58451605e-01</_>
    <_>
      -1.08811398e+01 -7.89242268e+00 -5.47109842e+00 -3.67056680e+00</_>
    <_>
      -1.37154617e+01 -1.08811398e+01 -7.89242268e+00 -5.47109842e+00</_>
    <_>
      -1.58992720e+01 -1.37154617e+01 -1.08811398e+01 -7.89242268e+00</_>
    <_>
      -1.69188366e+01 -1.58992720e+01 -1.37154617e+01 -1.08811398e+01</_>
    <_>
      -1.73610363e+01 -1.69188366e+01 -1.58992720e+01 -1.37154617e+01</_>
    <_>
      -1.61637516e+01 -1.73610363e+01 -1.69188366e+01 -1.58992720e+01</_>
    <_>
      -1.44552555e+01 -1.61637516e+01 -1.73610363e+01 -1.69188366e+01</_>
    <_>
      -1.15282068e+01 -1.44552555e+01 -1.61637516e+01 -1.73610363e+01</_>
    <_>
      -7.65460730e+00 -1.15282068e+01 -1.44552555e+01 -1.61637516e+01</_>
    <_>
      -3.98257542e+00 -7.65460730e+00 -1.15282068e+01 -1.44552555e+01</_>
    <_>
      -3.62100571e-01 -3.98257542e+00 -7.65460730e+00 -1.15282068e+01</_>
    <_>
      2.06730747e+00 -3.62100571e-01 -3.98257542e+00 -7.65460730e+00</_>
    <_>
      5.12591887e+00 2.06730747e+00 -3.62100571e-01 -3.98257542e+00</_>
    <_>
      6.81107998e+00 5.12591887e+00 2.06730747e+00 -3.62100571e-01</_>
    <_>
      8.00741291e+00 6.81107998e+00 5.12591887e+00 2.06730747e+00</_>
    <_>
      9.55869579e+00 8.00741291e+00 6.81107998e+00 5.12591887e+00</_>
    <_>
      1.08757019e+01 9.55869579e+00 8.00741291e+00 6.81107998e+00</_>
    <_>
      1.21563158e+01 1.08757019e+01 9.55869579e+00 8.00741291e+00</_>
    <_>
      1.33791342e+01 1.21563158e+01 1.08757019e+01 9.55869579e+00</_>
    <_>
      1.42146931e+01 1.33791342e+01 1.21563158e+01 1.08757019e+01</_>
    <_>
      1.44229822e+01 1.42146931e+01 1.33791342e+01 1.21563158e+01</_>
    <_>
      1.39113798e+01 1.44229822e+01 1.42146931e+01 1.33791342e+01</_>
    <_>
      1.33847980e+01 1.39113798e+01 1.44229822e+01 1.42146931e+01</_>
    <_>
      1.18108883e+01 1.33847980e+01 1.39113798e+01 1.44229822e+01</_>
    <_>
      9.60001183e+00 1.18108883e+01 1.33847980e+01 1.39113798e+01</_>
    <_>
      7.40403700e+00 9.60001183e+00 1.18108883e+01 1.33847980e+01</_>
    <_>
      4.55961895e+00 7.40403700e+00 9.60001183e+00 1.18108883e+01</_>
    <_>
      1.51609671e+00 4.55961895e+00 7.40403700e+00 9.60001183e+00</_>
    <_>
      -7.39047885e-01 1.51609671e+00 4.55961895e+00 7.40403700e+00</_>
    <_>
      -2.73937178e+00 -7.39047885e-01 1.51609671e+00 4.55961895e+00</_>
    <_>
      -5.06809998e+00 -2.73937178e+00 -7.39047885e-01 1.51609671e+00</_>
    <_>
      -7.22051382e+00 -5.06809998e+00 -2.73937178e+00 -7.39047885e-01</_>
    <_>
      -8.92923260e+00 -7.22051382e+00 -5.06809998e+00 -2.73937178e+00</_>
    <_>
      -1.09772100e+01 -8.92923260e+00 -7.22051382e+00 -5.06809998e+00</_>
    <_>
      -1.19857931e+01 -1.09772100e+01 -8.92923260e+00 -7.22051382e+00</_>
    <_>
      -1.35041952e+01 -1.19857931e+01 -1.09772100e+01 -8.92923260e+00</_>
    <_>
      -1.43039150e+01 -1.35041952e+01 -1.19857931e+01 -1.09772100e+01</_>
    <_>
      -1.42302933e+01 -1.43039150e+01 -1.35041952e+01 -1.19857931e+01</_>
    <_>
      -1.40756512e+01 -1.42302933e+01 -1.43039150e+01 -1.35041952e+01</_>
    <_>
      -1.31386538e+01 -1.40756512e+01 -1.42302933e+01 -1.43039150e+01</_>
    <_>
      -1.14901762e+01 -1.31386538e+01 -1.40756512e+01 -1.42302933e+01</_>
    <_>
      -6.38041544e+00 -9.28739452e+00 -1.14901762e+01 -1.31386538e+01</_>
    <_>
      -7.88858116e-01 -6.38041544e+00 -9.28739452e+00 -1.14901762e+01</_>
    <_>
      3.05997944e+00 -7.88858116e-01 -6.38041544e+00 -9.28739452e+00</_>
    <_>
      6.33233261e+00 3.05997944e+00 -7.88858116e-01 -6.38041544e+00</_>
    <_>
      9.17949295e+00 6.33233261e+00 3.05997944e+00 -7.88858116e-01</_>
    <_>
      1.17007856e+01 9.17949295e+00 6.33233261e+00 3.05997944e+00</_>
    <_>
      1.37859125e+01 1.17007856e+01 9.17949295e+00 6.33233261e+00</_>
    <_>
      1.53477898e+01 1.37859125e+01 1.17007856e+01 9.17949295e+00</_>
    <_>
      1.64103394e+01 1.53477898e+01 1.37859125e+01 1.17007856e+01</_>
    <_>
      1.65358868e+01 1.64103394e+01 1.53477898e+01 1.37859125e+01</_>
    <_>
      1.62073269e+01 1.65358868e+01 1.64103394e+01 1.53477898e+01</_>
    <_>
      1.45940723e+01 1.62073269e+01 1.65358868e+01 1.64103394e+01</_>
    <_>
      1.37365208e+01 1.45940723e+01 1.62073269e+01 1.65358868e+01</_>
    <_>
      1.17361660e+01 1.37365208e+01 1.45940723e+01 1.62073269e+01</_>
    <_>
      8.64908695e+00 1.17361660e+01 1.37365208e+01 1.45940723e+01</_>
    <_>
      8.64908695e+00 1.17361660e+01 1.37365208e+01 1.45940723e+01</_>
    <_>
      3.18534017e+00 8.64908695e+00 1.17361660e+01 1.37365208e+01</_>
    <_>
      7.47941434e-01 3.18534017e+00 8.64908695e+00 1.17361660e+01</_>
    <_>
      -1.33153832e+00 7.47941434e-01 3.18534017e+00 8.64908695e+00</_>
    <_>
      -2.26720309e+00 -1.33153832e+00 7.47941434e-01 3.18534017e+00</_>
    <_>
      -4.74501801e+00 -2.26720309e+00 -1.33153832e+00 7.47941434e-01</_>
    <_>
      -6.72189140e+00 -4.74501801e+00 -2.26720309e+00 -1.33153832e+00</_>
    <_>
      -8.81450081e+00 -6.72189140e+00 -4.74501801e+00 -2.26720309e+00</_>
    <_>
      -1.12995043e+01 -8.81450081e+00 -6.72189140e+00 -4.74501801e+00</_>
    <_>
      -1.45772219e+01 -1.12995043e+01 -8.81450081e+00 -6.72189140e+00</_>
    <_>
      -1.75648499e+01 -1.45772219e+01 -1.12995043e+01 -8.81450081e+00</_>
    <_>
      -1.77567463e+01 -1.75648499e+01 -1.45772219e+01 -1.12995043e+01</_>
    <_>
      -1.76004124e+01 -1.77567463e+01 -1.75648499e+01 -1.45772219e+01</_>
    <_>
      -1.60496616e+01 -1.76004124e+01 -1.77567463e+01 -1.75648499e+01</_>
    <_>
      -1.22506227e+01 -1.60496616e+01 -1.76004124e+01 -1.77567463e+01</_>
    <_>
      -9.07768631e+00 -1.22506227e+01 -1.60496616e+01 -1.76004124e+01</_>
    <_>
      -1.34345576e-01 -9.07768631e+00 -1.22506227e+01 -1.60496616e+01</_>
    <_>
      -6.97850734e-02 -1.34345576e-01 -9.07768631e+00 -1.22506227e+01</_>
    <_>
      1.81006342e-02 -6.97850734e-02 -1.34345576e-01 -9.07768631e+00</_>
    <_>
      4.25365239e-01 1.88422099e-01 6.50317147e-02 1.81006342e-02</_>
    <_>
      5.36906004e-01 4.25365239e-01 1.88422099e-01 6.50317147e-02</_>
    <_>
      5.64802766e-01 5.65498114e-01 5.36906004e-01 4.25365239e-01</_>
    <_>
      5.35905778e-01 5.64802766e-01 5.65498114e-01 5.36906004e-01</_>
    <_>
      6.69199109e-01 5.35905778e-01 5.64802766e-01 5.65498114e-01</_>
    <_>
      1.32307196e+00 6.69199109e-01 5.35905778e-01 5.64802766e-01</_>
    <_>
      2.13084984e+00 1.32307196e+00 6.69199109e-01 5.35905778e-01</_>
    <_>
      3.35230494e+00 2.13084984e+00 1.32307196e+00 6.69199109e-01</_>
    <_>
      5.39269924e+00 3.35230494e+00 2.13084984e+00 1.32307196e+00</_>
    <_>
      7.43076754e+00 5.39269924e+00 3.35230494e+00 2.13084984e+00</_>
    <_>
      8.56238937e+00 7.43076754e+00 5.39269924e+00 3.35230494e+00</_>
    <_>
      9.28365803e+00 8.56238937e+00 7.43076754e+00 5.39269924e+00</_>
    <_>
      9.05064106e+00 9.28365803e+00 8.56238937e+00 7.43076754e+00</_>
    <_>
      7.38836765e+00 9.05064106e+00 9.28365803e+00 8.56238937e+00</_>
    <_>
      4.37627077e+00 7.38836765e+00 9.05064106e+00 9.28365803e+00</_>
    <_>
      1.88196525e-01 4.37627077e+00 7.38836765e+00 9.05064106e+00</_>
    <_>
      -3.96892571e+00 1.88196525e-01 4.37627077e+00 7.38836765e+00</_>
    <_>
      -9.16866112e+00 -3.96892571e+00 1.88196525e-01 4.37627077e+00</_>
    <_>
      -1.45252953e+01 -9.16866112e+00 -3.96892571e+00 1.88196525e-01</_>
    <_>
      -1.84286423e+01 -1.45252953e+01 -9.16866112e+00 -3.96892571e+00</_>
    <_>
      -2.01711273e+01 -1.84286423e+01 -1.45252953e+01 -9.16866112e+00</_>
    <_>
      -2.01711273e+01 -1.84286423e+01 -1.45252953e+01 -9.16866112e+00</_>
    <_>
      -1.88879566e+01 -2.01711273e+01 -1.84286423e+01 -1.45252953e+01</_>
    <_>
      -1.52882242e+01 -1.88879566e+01 -2.01711273e+01 -1.84286423e+01</_>
    <_>
      -9.92064857e+00 -1.52882242e+01 -1.88879566e+01 -2.01711273e+01</_>
    <_>
      -6.47276020e+00 -9.92064857e+00 -1.52882242e+01 -1.88879566e+01</_>
    <_>
      -6.47276020e+00 -9.92064857e+00 -1.52882242e+01 -1.88879566e+01</_>
    <_>
      1.20063152e+01 -6.47276020e+00 -9.92064857e+00 -1.52882242e+01</_>
    <_>
      1.70614223e+01 1.20063152e+01 -6.47276020e+00 -9.92064857e+00</_>
    <_>
      1.70614223e+01 1.20063152e+01 -6.47276020e+00 -9.92064857e+00</_>
    <_>
      1.70614223e+01 1.20063152e+01 -6.47276020e+00 -9.92064857e+00</_>
    <_>
      2.07893543e+01 1.70614223e+01 1.20063152e+01 -6.47276020e+00</_>
    <_>
      2.07893543e+01 1.70614223e+01 1.20063152e+01 -6.47276020e+00</_>
    <_>
      1.59978895e+01 2.07893543e+01 1.70614223e+01 1.20063152e+01</_>
    <_>
      1.59978895e+01 2.07893543e+01 1.70614223e+01 1.20063152e+01</_>
    <_>
      3.03576326e+00 1.59978895e+01 2.07893543e+01 1.70614223e+01</_>
    <_>
      -9.57958773e-02 3.03576326e+00 1.59978895e+01 2.07893543e+01</_>
    <_>
      -7.15698195e+00 -9.57958773e-02 3.03576326e+00 1.59978895e+01</_>
    <_>
      -1.03851862e+01 -7.15698195e+00 -9.57958773e-02 3.03576326e+00</_>
    <_>
      -1.36124659e+01 -1.03851862e+01 -7.15698195e+00 -9.57958773e-02</_>
    <_>
      -1.40474253e+01 -1.36124659e+01 -1.03851862e+01 -7.15698195e+00</_>
    <_>
      -1.07973337e+01 -1.40474253e+01 -1.36124659e+01 -1.03851862e+01</_>
    <_>
      -5.02843094e+00 -1.07973337e+01 -1.40474253e+01 -1.36124659e+01</_>
    <_>
      -1.00254703e+00 -5.02843094e+00 -1.07973337e+01 -1.40474253e+01</_>
    <_>
      7.01307583e+00 -1.00254703e+00 -5.02843094e+00 -1.07973337e+01</_>
    <_>
      1.36788311e+01 7.01307583e+00 -1.00254703e+00 -5.02843094e+00</_>
    <_>
      1.74526386e+01 1.36788311e+01 7.01307583e+00 -1.00254703e+00</_>
    <_>
      2.07139339e+01 1.74526386e+01 1.36788311e+01 7.01307583e+00</_>
    <_>
      2.07171326e+01 2.07139339e+01 1.74526386e+01 1.36788311e+01</_>
    <_>
      1.78930550e+01 2.07171326e+01 2.07139339e+01 1.74526386e+01</_>
    <_>
      1.78930550e+01 2.07171326e+01 2.07139339e+01 1.74526386e+01</_>
    <_>
      1.78930550e+01 2.07171326e+01 2.07139339e+01 1.74526386e+01</_>
    <_>
      1.78930550e+01 2.07171326e+01 2.07139339e+01 1.74526386e+01</_>
    <_>
      -6.80554485e+00 1.78930550e+01 2.07171326e+01 2.07139339e+01</_>
    <_>
      -9.21641159e+00 -6.80554485e+00 1.78930550e+01 2.07171326e+01</_>
    <_>
      -1.23010235e+01 -9.21641159e+00 -6.80554485e+00 1.78930550e+01</_>
    <_>
      -1.48583527e+01 -1.23010235e+01 -9.21641159e+00 -6.80554485e+00</_>
    <_>
      -1.53197794e+01 -1.48583527e+01 -1.23010235e+01 -9.21641159e+00</_>
    <_>
      -1.53927946e+01 -1.53197794e+01 -1.48583527e+01 -1.23010235e+01</_>
    <_>
      -1.37028589e+01 -1.53927946e+01 -1.53197794e+01 -1.48583527e+01</_>
    <_>
      -1.01540070e+01 -1.37028589e+01 -1.53927946e+01 -1.53197794e+01</_>
    <_>
      -6.21332264e+00 -1.01540070e+01 -1.37028589e+01 -1.53927946e+01</_>
    <_>
      -1.06740320e+00 -6.21332264e+00 -1.01540070e+01 -1.37028589e+01</_>
    <_>
      2.84093404e+00 -1.06740320e+00 -6.21332264e+00 -1.01540070e+01</_>
    <_>
      7.63513803e+00 2.84093404e+00 -1.06740320e+00 -6.21332264e+00</_>
    <_>
      1.13268719e+01 7.63513803e+00 2.84093404e+00 -1.06740320e+00</_>
    <_>
      1.48538208e+01 1.13268719e+01 7.63513803e+00 2.84093404e+00</_>
    <_>
      1.72215614e+01 1.48538208e+01 1.13268719e+01 7.63513803e+00</_>
    <_>
      1.82287483e+01 1.72215614e+01 1.48538208e+01 1.13268719e+01</_>
    <_>
      1.69257278e+01 1.82287483e+01 1.72215614e+01 1.48538208e+01</_>
    <_>
      1.34362869e+01 1.69257278e+01 1.82287483e+01 1.72215614e+01</_>
    <_>
      8.10749245e+00 1.34362869e+01 1.69257278e+01 1.82287483e+01</_>
    <_>
      8.10749245e+00 1.34362869e+01 1.69257278e+01 1.82287483e+01</_>
    <_>
      -3.74084425e+00 8.10749245e+00 1.34362869e+01 1.69257278e+01</_>
    <_>
      -9.79592037e+00 -3.74084425e+00 8.10749245e+00 1.34362869e+01</_>
    <_>
      -1.38344393e+01 -9.79592037e+00 -3.74084425e+00 8.10749245e+00</_>
    <_>
      -1.59499292e+01 -1.38344393e+01 -9.79592037e+00 -3.74084425e+00</_>
    <_>
      -1.58486137e+01 -1.59499292e+01 -1.38344393e+01 -9.79592037e+00</_>
    <_>
      -1.22820702e+01 -1.58486137e+01 -1.59499292e+01 -1.38344393e+01</_>
    <_>
      -5.69361353e+00 -1.22820702e+01 -1.58486137e+01 -1.59499292e+01</_>
    <_>
      3.22797716e-01 -5.69361353e+00 -1.22820702e+01 -1.58486137e+01</_>
    <_>
      7.52741814e+00 3.22797716e-01 -5.69361353e+00 -1.22820702e+01</_>
    <_>
      1.36834793e+01 7.52741814e+00 3.22797716e-01 -5.69361353e+00</_>
    <_>
      1.64472065e+01 1.36834793e+01 7.52741814e+00 3.22797716e-01</_>
    <_>
      1.61900558e+01 1.64472065e+01 1.36834793e+01 7.52741814e+00</_>
    <_>
      1.25865364e+01 1.61900558e+01 1.64472065e+01 1.36834793e+01</_>
    <_>
      7.01553392e+00 1.25865364e+01 1.61900558e+01 1.64472065e+01</_>
    <_>
      7.01553392e+00 1.25865364e+01 1.61900558e+01 1.64472065e+01</_>
    <_>
      7.01553392e+00 1.25865364e+01 1.61900558e+01 1.64472065e+01</_>
    <_>
      -1.08354769e+01 7.01553392e+00 1.25865364e+01 1.61900558e+01</_>
    <_>
      -1.41632423e+01 -1.08354769e+01 7.01553392e+00 1.25865364e+01</_>
    <_>
      -1.80946312e+01 -1.41632423e+01 -1.08354769e+01 7.01553392e+00</_>
    <_>
      -2.02629185e+01 -1.80946312e+01 -1.41632423e+01 -1.08354769e+01</_>
    <_>
      -1.99360065e+01 -2.02629185e+01 -1.80946312e+01 -1.41632423e+01</_>
    <_>
      -1.81865654e+01 -1.99360065e+01 -2.02629185e+01 -1.80946312e+01</_>
    <_>
      -1.31423330e+01 -1.81865654e+01 -1.99360065e+01 -2.02629185e+01</_>
    <_>
      -6.93008852e+00 -1.31423330e+01 -1.81865654e+01 -1.99360065e+01</_>
    <_>
      -6.93008852e+00 -1.31423330e+01 -1.81865654e+01 -1.99360065e+01</_>
    <_>
      -6.93008852e+00 -1.31423330e+01 -1.81865654e+01 -1.99360065e+01</_>
    <_>
      1.49562254e+01 -6.93008852e+00 -1.31423330e+01 -1.81865654e+01</_>
    <_>
      2.09756184e+01 1.49562254e+01 -6.93008852e+00 -1.31423330e+01</_>
    <_>
      2.09756184e+01 1.49562254e+01 -6.93008852e+00 -1.31423330e+01</_>
    <_>
      2.09756184e+01 1.49562254e+01 -6.93008852e+00 -1.31423330e+01</_>
    <_>
      2.18413715e+01 2.09756184e+01 1.49562254e+01 -6.93008852e+00</_>
    <_>
      2.03944016e+01 2.18413715e+01 2.09756184e+01 1.49562254e+01</_>
    <_>
      1.85482407e+01 2.03944016e+01 2.18413715e+01 2.09756184e+01</_>
    <_>
      1.85482407e+01 2.03944016e+01 2.18413715e+01 2.09756184e+01</_>
    <_>
      1.85482407e+01 2.03944016e+01 2.18413715e+01 2.09756184e+01</_>
    <_>
      1.85482407e+01 2.03944016e+01 2.18413715e+01 2.09756184e+01</_>
    <_>
      -1.41993780e+01 1.85482407e+01 2.03944016e+01 2.18413715e+01</_>
    <_>
      -1.72561646e+01 -1.41993780e+01 1.85482407e+01 2.03944016e+01</_>
    <_>
      -2.00440807e+01 -1.72561646e+01 -1.41993780e+01 1.85482407e+01</_>
    <_>
      -1.96785336e+01 -2.00440807e+01 -1.72561646e+01 -1.41993780e+01</_>
    <_>
      -1.57867308e+01 -1.96785336e+01 -2.00440807e+01 -1.72561646e+01</_>
    <_>
      -9.11088562e+00 -1.57867308e+01 -1.96785336e+01 -2.00440807e+01</_>
    <_>
      -9.11088562e+00 -1.57867308e+01 -1.96785336e+01 -2.00440807e+01</_>
    <_>
      -9.11088562e+00 -1.57867308e+01 -1.96785336e+01 -2.00440807e+01</_>
    <_>
      1.50843639e+01 -9.11088562e+00 -1.57867308e+01 -1.96785336e+01</_>
    <_>
      2.00754700e+01 1.50843639e+01 -9.11088562e+00 -1.57867308e+01</_>
    <_>
      2.00754700e+01 1.50843639e+01 -9.11088562e+00 -1.57867308e+01</_>
    <_>
      2.00754700e+01 1.50843639e+01 -9.11088562e+00 -1.57867308e+01</_>
    <_>
      2.11336727e+01 2.00754700e+01 1.50843639e+01 -9.11088562e+00</_>
    <_>
      1.84150829e+01 2.11336727e+01 2.00754700e+01 1.50843639e+01</_>
    <_>
      1.84853325e+01 1.84150829e+01 2.11336727e+01 2.00754700e+01</_>
    <_>
      1.84853325e+01 1.84150829e+01 2.11336727e+01 2.00754700e+01</_>
    <_>
      1.84853325e+01 1.84150829e+01 2.11336727e+01 2.00754700e+01</_>
    <_>
      1.84853325e+01 1.84150829e+01 2.11336727e+01 2.00754700e+01</_>
    <_>
      -1.14322548e+01 1.84853325e+01 1.84150829e+01 2.11336727e+01</_>
    <_>
      -1.42366610e+01 -1.14322548e+01 1.84853325e+01 1.84150829e+01</_>
    <_>
      -1.79881535e+01 -1.42366610e+01 -1.14322548e+01 1.84853325e+01</_>
    <_>
      -1.84279118e+01 -1.79881535e+01 -1.42366610e+01 -1.14322548e+01</_>
    <_>
      -1.64838104e+01 -1.84279118e+01 -1.79881535e+01 -1.42366610e+01</_>
    <_>
      -1.35369835e+01 -1.64838104e+01 -1.84279118e+01 -1.79881535e+01</_>
    <_>
      -6.93125296e+00 -1.35369835e+01 -1.64838104e+01 -1.84279118e+01</_>
    <_>
      9.66751933e-01 -6.93125296e+00 -1.35369835e+01 -1.64838104e+01</_>
    <_>
      9.66751933e-01 -6.93125296e+00 -1.35369835e+01 -1.64838104e+01</_>
    <_>
      1.53755703e+01 9.66751933e-01 -6.93125296e+00 -1.35369835e+01</_>
    <_>
      2.09451618e+01 1.53755703e+01 9.66751933e-01 -6.93125296e+00</_>
    <_>
      2.09451618e+01 1.53755703e+01 9.66751933e-01 -6.93125296e+00</_>
    <_>
      2.09451618e+01 1.53755703e+01 9.66751933e-01 -6.93125296e+00</_>
    <_>
      2.14727993e+01 2.09451618e+01 1.53755703e+01 9.66751933e-01</_>
    <_>
      1.82066078e+01 2.14727993e+01 2.09451618e+01 1.53755703e+01</_>
    <_>
      1.55517006e+01 1.82066078e+01 2.14727993e+01 2.09451618e+01</_>
    <_>
      1.55517006e+01 1.82066078e+01 2.14727993e+01 2.09451618e+01</_>
    <_>
      1.55517006e+01 1.82066078e+01 2.14727993e+01 2.09451618e+01</_>
    <_>
      -1.03479967e+01 1.55517006e+01 1.82066078e+01 2.14727993e+01</_>
    <_>
      -1.62397556e+01 -1.03479967e+01 1.55517006e+01 1.82066078e+01</_>
    <_>
      -2.02615833e+01 -1.62397556e+01 -1.03479967e+01 1.55517006e+01</_>
    <_>
      -2.02615833e+01 -1.62397556e+01 -1.03479967e+01 1.55517006e+01</_>
    <_>
      -1.91545715e+01 -2.02615833e+01 -1.62397556e+01 -1.03479967e+01</_>
    <_>
      -1.52954197e+01 -1.91545715e+01 -2.02615833e+01 -1.62397556e+01</_>
    <_>
      -1.04608803e+01 -1.52954197e+01 -1.91545715e+01 -2.02615833e+01</_>
    <_>
      -8.31043434e+00 -1.04608803e+01 -1.52954197e+01 -1.91545715e+01</_>
    <_>
      4.29802322e+00 -8.31043434e+00 -1.04608803e+01 -1.52954197e+01</_>
    <_>
      8.69533920e+00 4.29802322e+00 -8.31043434e+00 -1.04608803e+01</_>
    <_>
      1.70621071e+01 8.69533920e+00 4.29802322e+00 -8.31043434e+00</_>
    <_>
      1.70621071e+01 8.69533920e+00 4.29802322e+00 -8.31043434e+00</_>
    <_>
      1.70621071e+01 8.69533920e+00 4.29802322e+00 -8.31043434e+00</_>
    <_>
      1.91903362e+01 1.70621071e+01 8.69533920e+00 4.29802322e+00</_>
    <_>
      1.49666147e+01 1.91903362e+01 1.70621071e+01 8.69533920e+00</_>
    <_>
      1.02151699e+01 1.49666147e+01 1.91903362e+01 1.70621071e+01</_>
    <_>
      1.02151699e+01 1.49666147e+01 1.91903362e+01 1.70621071e+01</_>
    <_>
      -8.36093044e+00 1.02151699e+01 1.49666147e+01 1.91903362e+01</_>
    <_>
      -1.33427811e+01 -8.36093044e+00 1.02151699e+01 1.49666147e+01</_>
    <_>
      -1.83333454e+01 -1.33427811e+01 -8.36093044e+00 1.02151699e+01</_>
    <_>
      -1.96868553e+01 -1.83333454e+01 -1.33427811e+01 -8.36093044e+00</_>
    <_>
      -1.63025112e+01 -1.96868553e+01 -1.83333454e+01 -1.33427811e+01</_>
    <_>
      -1.19707651e+01 -1.63025112e+01 -1.96868553e+01 -1.83333454e+01</_>
    <_>
      -1.19707651e+01 -1.63025112e+01 -1.96868553e+01 -1.83333454e+01</_>
    <_>
      -1.19707651e+01 -1.63025112e+01 -1.96868553e+01 -1.83333454e+01</_>
    <_>
      1.16223621e+01 -1.19707651e+01 -1.63025112e+01 -1.96868553e+01</_>
    <_>
      1.80828476e+01 1.16223621e+01 -1.19707651e+01 -1.63025112e+01</_>
    <_>
      1.80828476e+01 1.16223621e+01 -1.19707651e+01 -1.63025112e+01</_>
    <_>
      1.80828476e+01 1.16223621e+01 -1.19707651e+01 -1.63025112e+01</_>
    <_>
      2.14695034e+01 1.80828476e+01 1.16223621e+01 -1.19707651e+01</_>
    <_>
      1.99661541e+01 2.14695034e+01 1.80828476e+01 1.16223621e+01</_>
    <_>
      2.15503635e+01 1.99661541e+01 2.14695034e+01 1.80828476e+01</_>
    <_>
      2.15503635e+01 1.99661541e+01 2.14695034e+01 1.80828476e+01</_>
    <_>
      2.15503635e+01 1.99661541e+01 2.14695034e+01 1.80828476e+01</_>
    <_>
      2.15503635e+01 1.99661541e+01 2.14695034e+01 1.80828476e+01</_>
    <_>
      -7.30594110e+00 2.15503635e+01 1.99661541e+01 2.14695034e+01</_>
    <_>
      -1.10439386e+01 -7.30594110e+00 2.15503635e+01 1.99661541e+01</_>
    <_>
      -1.39406595e+01 -1.10439386e+01 -7.30594110e+00 2.15503635e+01</_>
    <_>
      -1.59617748e+01 -1.39406595e+01 -1.10439386e+01 -7.30594110e+00</_>
    <_>
      -1.55220423e+01 -1.59617748e+01 -1.39406595e+01 -1.10439386e+01</_>
    <_>
      -1.35290947e+01 -1.55220423e+01 -1.59617748e+01 -1.39406595e+01</_>
    <_>
      -9.08247566e+00 -1.35290947e+01 -1.55220423e+01 -1.59617748e+01</_>
    <_>
      -4.91911983e+00 -9.08247566e+00 -1.35290947e+01 -1.55220423e+01</_>
    <_>
      1.55369413e+00 -4.91911983e+00 -9.08247566e+00 -1.35290947e+01</_>
    <_>
      6.59605789e+00 1.55369413e+00 -4.91911983e+00 -9.08247566e+00</_>
    <_>
      1.23754597e+01 6.59605789e+00 1.55369413e+00 -4.91911983e+00</_>
    <_>
      1.67599010e+01 1.23754597e+01 6.59605789e+00 1.55369413e+00</_>
    <_>
      1.88834324e+01 1.67599010e+01 1.23754597e+01 6.59605789e+00</_>
    <_>
      1.93709621e+01 1.88834324e+01 1.67599010e+01 1.23754597e+01</_>
    <_>
      1.73304672e+01 1.93709621e+01 1.88834324e+01 1.67599010e+01</_>
    <_>
      1.27170238e+01 1.73304672e+01 1.93709621e+01 1.88834324e+01</_>
    <_>
      8.02446270e+00 1.27170238e+01 1.73304672e+01 1.93709621e+01</_>
    <_>
      3.17312622e+00 8.02446270e+00 1.27170238e+01 1.73304672e+01</_>
    <_>
      -3.91803551e+00 3.17312622e+00 8.02446270e+00 1.27170238e+01</_>
    <_>
      -1.00291758e+01 -3.91803551e+00 3.17312622e+00 8.02446270e+00</_>
    <_>
      -1.44352598e+01 -1.00291758e+01 -3.91803551e+00 3.17312622e+00</_>
    <_>
      -1.75970421e+01 -1.44352598e+01 -1.00291758e+01 -3.91803551e+00</_>
    <_>
      -1.95092468e+01 -1.75970421e+01 -1.44352598e+01 -1.00291758e+01</_>
    <_>
      -1.88014622e+01 -1.95092468e+01 -1.75970421e+01 -1.44352598e+01</_>
    <_>
      -1.75206852e+01 -1.88014622e+01 -1.95092468e+01 -1.75970421e+01</_>
    <_>
      -1.35739708e+01 -1.75206852e+01 -1.88014622e+01 -1.95092468e+01</_>
    <_>
      -7.58081579e+00 -1.35739708e+01 -1.75206852e+01 -1.88014622e+01</_>
    <_>
      -5.49442232e-01 -7.58081579e+00 -1.35739708e+01 -1.75206852e+01</_>
    <_>
      7.01005173e+00 -5.49442232e-01 -7.58081579e+00 -1.35739708e+01</_>
    <_>
      1.03212719e+01 7.01005173e+00 -5.49442232e-01 -7.58081579e+00</_>
    <_>
      1.60327950e+01 1.03212719e+01 7.01005173e+00 -5.49442232e-01</_>
    <_>
      1.89930668e+01 1.60327950e+01 1.03212719e+01 7.01005173e+00</_>
    <_>
      1.97733555e+01 1.89930668e+01 1.60327950e+01 1.03212719e+01</_>
    <_>
      1.81621170e+01 1.97733555e+01 1.89930668e+01 1.60327950e+01</_>
    <_>
      1.50278234e+01 1.81621170e+01 1.97733555e+01 1.89930668e+01</_>
    <_>
      8.61946774e+00 1.50278234e+01 1.81621170e+01 1.97733555e+01</_>
    <_>
      3.18449521e+00 8.61946774e+00 1.50278234e+01 1.81621170e+01</_>
    <_>
      -1.72759581e+00 3.18449521e+00 8.61946774e+00 1.50278234e+01</_>
    <_>
      -1.16343517e+01 -1.72759581e+00 3.18449521e+00 8.61946774e+00</_>
    <_>
      -1.63276310e+01 -1.16343517e+01 -1.72759581e+00 3.18449521e+00</_>
    <_>
      -1.95279694e+01 -1.63276310e+01 -1.16343517e+01 -1.72759581e+00</_>
    <_>
      -1.95279694e+01 -1.63276310e+01 -1.16343517e+01 -1.72759581e+00</_>
    <_>
      -1.97869701e+01 -1.95279694e+01 -1.63276310e+01 -1.16343517e+01</_>
    <_>
      -1.74649448e+01 -1.97869701e+01 -1.95279694e+01 -1.63276310e+01</_>
    <_>
      -1.73167400e+01 -1.74649448e+01 -1.97869701e+01 -1.95279694e+01</_>
    <_>
      -1.56908197e+01 -1.73167400e+01 -1.74649448e+01 -1.97869701e+01</_>
    <_>
      -1.08739185e+01 -1.56908197e+01 -1.73167400e+01 -1.74649448e+01</_>
    <_>
      -7.96918392e+00 -1.08739185e+01 -1.56908197e+01 -1.73167400e+01</_>
    <_>
      -3.07193375e+00 -7.96918392e+00 -1.08739185e+01 -1.56908197e+01</_>
    <_>
      1.87170410e+00 -3.07193375e+00 -7.96918392e+00 -1.08739185e+01</_>
    <_>
      6.79733181e+00 1.87170410e+00 -3.07193375e+00 -7.96918392e+00</_>
    <_>
      1.16863136e+01 6.79733181e+00 1.87170410e+00 -3.07193375e+00</_>
    <_>
      1.43878546e+01 1.16863136e+01 6.79733181e+00 1.87170410e+00</_>
    <_>
      1.63186874e+01 1.43878546e+01 1.16863136e+01 6.79733181e+00</_>
    <_>
      1.72533016e+01 1.63186874e+01 1.43878546e+01 1.16863136e+01</_>
    <_>
      1.66965828e+01 1.72533016e+01 1.63186874e+01 1.43878546e+01</_>
    <_>
      1.57843828e+01 1.66965828e+01 1.72533016e+01 1.63186874e+01</_>
    <_>
      1.28578548e+01 1.57843828e+01 1.66965828e+01 1.72533016e+01</_>
    <_>
      8.61775970e+00 1.28578548e+01 1.57843828e+01 1.66965828e+01</_>
    <_>
      3.51428246e+00 8.61775970e+00 1.28578548e+01 1.57843828e+01</_>
    <_>
      -4.06019032e-01 3.51428246e+00 8.61775970e+00 1.28578548e+01</_>
    <_>
      -5.54213095e+00 -4.06019032e-01 3.51428246e+00 8.61775970e+00</_>
    <_>
      -9.34491825e+00 -5.54213095e+00 -4.06019032e-01 3.51428246e+00</_>
    <_>
      -1.24943361e+01 -9.34491825e+00 -5.54213095e+00 -4.06019032e-01</_>
    <_>
      -1.39777069e+01 -1.24943361e+01 -9.34491825e+00 -5.54213095e+00</_>
    <_>
      -1.39787846e+01 -1.39777069e+01 -1.24943361e+01 -9.34491825e+00</_>
    <_>
      -1.34453211e+01 -1.39787846e+01 -1.39777069e+01 -1.24943361e+01</_>
    <_>
      -1.16608152e+01 -1.34453211e+01 -1.39787846e+01 -1.39777069e+01</_>
    <_>
      -8.78940201e+00 -1.16608152e+01 -1.34453211e+01 -1.39787846e+01</_>
    <_>
      -6.11449718e+00 -8.78940201e+00 -1.16608152e+01 -1.34453211e+01</_>
    <_>
      -2.16458726e+00 -6.11449718e+00 -8.78940201e+00 -1.16608152e+01</_>
    <_>
      4.55246359e-01 -2.16458726e+00 -6.11449718e+00 -8.78940201e+00</_>
    <_>
      3.36583543e+00 4.55246359e-01 -2.16458726e+00 -6.11449718e+00</_>
    <_>
      6.48118162e+00 3.36583543e+00 4.55246359e-01 -2.16458726e+00</_>
    <_>
      8.19008541e+00 6.48118162e+00 3.36583543e+00 4.55246359e-01</_>
    <_>
      9.60491467e+00 8.19008541e+00 6.48118162e+00 3.36583543e+00</_>
    <_>
      1.08690882e+01 9.60491467e+00 8.19008541e+00 6.48118162e+00</_>
    <_>
      1.12333603e+01 1.08690882e+01 9.60491467e+00 8.19008541e+00</_>
    <_>
      1.12677164e+01 1.12333603e+01 1.08690882e+01 9.60491467e+00</_>
    <_>
      1.05476942e+01 1.12677164e+01 1.12333603e+01 1.08690882e+01</_>
    <_>
      9.49506187e+00 1.05476942e+01 1.12677164e+01 1.12333603e+01</_>
    <_>
      7.52723312e+00 9.49506187e+00 1.05476942e+01 1.12677164e+01</_>
    <_>
      7.05611038e+00 7.52723312e+00 9.49506187e+00 1.05476942e+01</_>
    <_>
      5.43520451e+00 7.05611038e+00 7.52723312e+00 9.49506187e+00</_>
    <_>
      4.65642929e+00 5.43520451e+00 7.05611038e+00 7.52723312e+00</_>
    <_>
      4.40696335e+00 4.65642929e+00 5.43520451e+00 7.05611038e+00</_>
    <_>
      4.43475437e+00 4.40696335e+00 4.65642929e+00 5.43520451e+00</_>
    <_>
      4.68618250e+00 4.43475437e+00 4.40696335e+00 4.65642929e+00</_>
    <_>
      5.10501671e+00 4.68618250e+00 4.43475437e+00 4.40696335e+00</_>
    <_>
      5.36565638e+00 5.10501671e+00 4.68618250e+00 4.43475437e+00</_>
    <_>
      4.89402914e+00 5.36565638e+00 5.10501671e+00 4.68618250e+00</_>
    <_>
      3.96194386e+00 4.89402914e+00 5.36565638e+00 5.10501671e+00</_>
    <_>
      1.20168400e+00 3.96194386e+00 4.89402914e+00 5.36565638e+00</_>
    <_>
      -3.09813356e+00 1.20168400e+00 3.96194386e+00 4.89402914e+00</_>
    <_>
      -7.99817705e+00 -3.09813356e+00 1.20168400e+00 3.96194386e+00</_>
    <_>
      -1.27474289e+01 -7.99817705e+00 -3.09813356e+00 1.20168400e+00</_>
    <_>
      -1.64007454e+01 -1.27474289e+01 -7.99817705e+00 -3.09813356e+00</_>
    <_>
      -1.78670139e+01 -1.64007454e+01 -1.27474289e+01 -7.99817705e+00</_>
    <_>
      -1.86051292e+01 -1.78670139e+01 -1.64007454e+01 -1.27474289e+01</_>
    <_>
      -1.77565880e+01 -1.86051292e+01 -1.78670139e+01 -1.64007454e+01</_>
    <_>
      -1.56958790e+01 -1.77565880e+01 -1.86051292e+01 -1.78670139e+01</_>
    <_>
      -1.34736195e+01 -1.56958790e+01 -1.77565880e+01 -1.86051292e+01</_>
    <_>
      -1.06938047e+01 -1.34736195e+01 -1.56958790e+01 -1.77565880e+01</_>
    <_>
      -6.73621798e+00 -1.06938047e+01 -1.34736195e+01 -1.56958790e+01</_>
    <_>
      -3.90914011e+00 -6.73621798e+00 -1.06938047e+01 -1.34736195e+01</_>
    <_>
      -2.40193224e+00 -3.90914011e+00 -6.73621798e+00 -1.06938047e+01</_>
    <_>
      -2.16377705e-01 -2.40193224e+00 -3.90914011e+00 -6.73621798e+00</_>
    <_>
      6.90705180e-01 -2.16377705e-01 -2.40193224e+00 -3.90914011e+00</_>
    <_>
      1.94165719e+00 6.90705180e-01 -2.16377705e-01 -2.40193224e+00</_>
    <_>
      3.87035966e+00 1.94165719e+00 6.90705180e-01 -2.16377705e-01</_>
    <_>
      5.37608624e+00 3.87035966e+00 1.94165719e+00 6.90705180e-01</_>
    <_>
      7.39830017e+00 5.37608624e+00 3.87035966e+00 1.94165719e+00</_>
    <_>
      1.02607946e+01 7.39830017e+00 5.37608624e+00 3.87035966e+00</_>
    <_>
      1.28584194e+01 1.02607946e+01 7.39830017e+00 5.37608624e+00</_>
    <_>
      1.51600761e+01 1.28584194e+01 1.02607946e+01 7.39830017e+00</_>
    <_>
      1.57669420e+01 1.51600761e+01 1.28584194e+01 1.02607946e+01</_>
    <_>
      1.59479713e+01 1.57669420e+01 1.51600761e+01 1.28584194e+01</_>
    <_>
      1.49503670e+01 1.59479713e+01 1.57669420e+01 1.51600761e+01</_>
    <_>
      1.28732758e+01 1.49503670e+01 1.59479713e+01 1.57669420e+01</_>
    <_>
      1.07002506e+01 1.28732758e+01 1.49503670e+01 1.59479713e+01</_>
    <_>
      7.00648594e+00 1.07002506e+01 1.28732758e+01 1.49503670e+01</_>
    <_>
      7.00648594e+00 1.07002506e+01 1.28732758e+01 1.49503670e+01</_>
    <_>
      7.00648594e+00 1.07002506e+01 1.28732758e+01 1.49503670e+01</_>
    <_>
      -1.54203920e+01 7.00648594e+00 1.07002506e+01 1.28732758e+01</_>
    <_>
      -1.90806313e+01 -1.54203920e+01 7.00648594e+00 1.07002506e+01</_>
    <_>
      -1.90806313e+01 -1.54203920e+01 7.00648594e+00 1.07002506e+01</_>
    <_>
      -1.94303894e+01 -1.90806313e+01 -1.54203920e+01 7.00648594e+00</_>
    <_>
      -1.48452473e+01 -1.94303894e+01 -1.90806313e+01 -1.54203920e+01</_>
    <_>
      -9.78550529e+00 -1.48452473e+01 -1.94303894e+01 -1.90806313e+01</_>
    <_>
      -9.78550529e+00 -1.48452473e+01 -1.94303894e+01 -1.90806313e+01</_>
    <_>
      -9.78550529e+00 -1.48452473e+01 -1.94303894e+01 -1.90806313e+01</_>
    <_>
      1.12740889e+01 -9.78550529e+00 -1.48452473e+01 -1.94303894e+01</_>
    <_>
      1.61924267e+01 1.12740889e+01 -9.78550529e+00 -1.48452473e+01</_>
    <_>
      1.80771999e+01 1.61924267e+01 1.12740889e+01 -9.78550529e+00</_>
    <_>
      1.80771999e+01 1.61924267e+01 1.12740889e+01 -9.78550529e+00</_>
    <_>
      1.31197977e+01 1.80771999e+01 1.61924267e+01 1.12740889e+01</_>
    <_>
      5.07542944e+00 1.31197977e+01 1.80771999e+01 1.61924267e+01</_>
    <_>
      -1.48194730e+00 5.07542944e+00 1.31197977e+01 1.80771999e+01</_>
    <_>
      -4.65968847e+00 -1.48194730e+00 5.07542944e+00 1.31197977e+01</_>
    <_>
      -7.28864002e+00 -4.65968847e+00 -1.48194730e+00 5.07542944e+00</_>
    <_>
      -1.18507509e+01 -7.28864002e+00 -4.65968847e+00 -1.48194730e+00</_>
    <_>
      -1.43929892e+01 -1.18507509e+01 -7.28864002e+00 -4.65968847e+00</_>
    <_>
      -1.47371712e+01 -1.43929892e+01 -1.18507509e+01 -7.28864002e+00</_>
    <_>
      -1.22649527e+01 -1.47371712e+01 -1.43929892e+01 -1.18507509e+01</_>
    <_>
      -9.88562298e+00 -1.22649527e+01 -1.47371712e+01 -1.43929892e+01</_>
    <_>
      -2.29892612e+00 -9.88562298e+00 -1.22649527e+01 -1.47371712e+01</_>
    <_>
      5.84798861e+00 -2.29892612e+00 -9.88562298e+00 -1.22649527e+01</_>
    <_>
      1.35459747e+01 5.84798861e+00 -2.29892612e+00 -9.88562298e+00</_>
    <_>
      1.82930336e+01 1.35459747e+01 5.84798861e+00 -2.29892612e+00</_>
    <_>
      2.05129452e+01 1.82930336e+01 1.35459747e+01 5.84798861e+00</_>
    <_>
      1.87372456e+01 2.05129452e+01 1.82930336e+01 1.35459747e+01</_>
    <_>
      1.43815985e+01 1.87372456e+01 2.05129452e+01 1.82930336e+01</_>
    <_>
      1.43815985e+01 1.87372456e+01 2.05129452e+01 1.82930336e+01</_>
    <_>
      1.43815985e+01 1.87372456e+01 2.05129452e+01 1.82930336e+01</_>
    <_>
      -1.60998783e+01 1.43815985e+01 1.87372456e+01 2.05129452e+01</_>
    <_>
      -1.60998783e+01 1.43815985e+01 1.87372456e+01 2.05129452e+01</_>
    <_>
      -1.60998783e+01 1.43815985e+01 1.87372456e+01 2.05129452e+01</_>
    <_>
      -1.95572987e+01 -1.60998783e+01 1.43815985e+01 1.87372456e+01</_>
    <_>
      -1.74621410e+01 -1.95572987e+01 -1.60998783e+01 1.43815985e+01</_>
    <_>
      -1.73619862e+01 -1.74621410e+01 -1.95572987e+01 -1.60998783e+01</_>
    <_>
      -1.49654570e+01 -1.73619862e+01 -1.74621410e+01 -1.95572987e+01</_>
    <_>
      -1.49654570e+01 -1.73619862e+01 -1.74621410e+01 -1.95572987e+01</_>
    <_>
      -1.49654570e+01 -1.73619862e+01 -1.74621410e+01 -1.95572987e+01</_>
    <_>
      2.03818951e+01 -1.49654570e+01 -1.73619862e+01 -1.74621410e+01</_>
    <_>
      2.03818951e+01 -1.49654570e+01 -1.73619862e+01 -1.74621410e+01</_>
    <_>
      2.05640450e+01 2.03818951e+01 -1.49654570e+01 -1.73619862e+01</_>
    <_>
      1.73886604e+01 2.05640450e+01 2.03818951e+01 -1.49654570e+01</_>
    <_>
      1.35122223e+01 1.73886604e+01 2.05640450e+01 2.03818951e+01</_>
    <_>
      1.35122223e+01 1.73886604e+01 2.05640450e+01 2.03818951e+01</_>
    <_>
      1.35122223e+01 1.73886604e+01 2.05640450e+01 2.03818951e+01</_>
    <_>
      -1.03854170e+01 1.35122223e+01 1.73886604e+01 2.05640450e+01</_>
    <_>
      -1.57547483e+01 -1.03854170e+01 1.35122223e+01 1.73886604e+01</_>
    <_>
      -1.77163982e+01 -1.57547483e+01 -1.03854170e+01 1.35122223e+01</_>
    <_>
      -1.78784142e+01 -1.77163982e+01 -1.57547483e+01 -1.03854170e+01</_>
    <_>
      -1.29179611e+01 -1.78784142e+01 -1.77163982e+01 -1.57547483e+01</_>
    <_>
      -9.37886620e+00 -1.29179611e+01 -1.78784142e+01 -1.77163982e+01</_>
    <_>
      -9.37886620e+00 -1.29179611e+01 -1.78784142e+01 -1.77163982e+01</_>
    <_>
      -9.37886620e+00 -1.29179611e+01 -1.78784142e+01 -1.77163982e+01</_>
    <_>
      1.53787069e+01 -9.37886620e+00 -1.29179611e+01 -1.78784142e+01</_>
    <_>
      2.02753544e+01 1.53787069e+01 -9.37886620e+00 -1.29179611e+01</_>
    <_>
      2.02753544e+01 1.53787069e+01 -9.37886620e+00 -1.29179611e+01</_>
    <_>
      2.02753544e+01 1.53787069e+01 -9.37886620e+00 -1.29179611e+01</_>
    <_>
      1.99485092e+01 2.02753544e+01 1.53787069e+01 -9.37886620e+00</_>
    <_>
      1.63213425e+01 1.99485092e+01 2.02753544e+01 1.53787069e+01</_>
    <_>
      1.68767300e+01 1.63213425e+01 1.99485092e+01 2.02753544e+01</_>
    <_>
      1.68767300e+01 1.63213425e+01 1.99485092e+01 2.02753544e+01</_>
    <_>
      1.68767300e+01 1.63213425e+01 1.99485092e+01 2.02753544e+01</_>
    <_>
      -8.38872492e-01 1.68767300e+01 1.63213425e+01 1.99485092e+01</_>
    <_>
      -6.27821875e+00 -8.38872492e-01 1.68767300e+01 1.63213425e+01</_>
    <_>
      -8.54893684e+00 -6.27821875e+00 -8.38872492e-01 1.68767300e+01</_>
    <_>
      -1.07467155e+01 -8.54893684e+00 -6.27821875e+00 -8.38872492e-01</_>
    <_>
      -1.17444506e+01 -1.07467155e+01 -8.54893684e+00 -6.27821875e+00</_>
    <_>
      -1.10702724e+01 -1.17444506e+01 -1.07467155e+01 -8.54893684e+00</_>
    <_>
      -9.17584038e+00 -1.10702724e+01 -1.17444506e+01 -1.07467155e+01</_>
    <_>
      -5.04826689e+00 -9.17584038e+00 -1.10702724e+01 -1.17444506e+01</_>
    <_>
      -1.13270473e+00 -5.04826689e+00 -9.17584038e+00 -1.10702724e+01</_>
    <_>
      4.77829981e+00 -1.13270473e+00 -5.04826689e+00 -9.17584038e+00</_>
    <_>
      1.04810314e+01 4.77829981e+00 -1.13270473e+00 -5.04826689e+00</_>
    <_>
      1.34651775e+01 1.04810314e+01 4.77829981e+00 -1.13270473e+00</_>
    <_>
      1.62714252e+01 1.34651775e+01 1.04810314e+01 4.77829981e+00</_>
    <_>
      1.62699776e+01 1.62714252e+01 1.34651775e+01 1.04810314e+01</_>
    <_>
      1.46581678e+01 1.62699776e+01 1.62714252e+01 1.34651775e+01</_>
    <_>
      1.05710802e+01 1.46581678e+01 1.62699776e+01 1.62714252e+01</_>
    <_>
      4.65490246e+00 1.05710802e+01 1.46581678e+01 1.62699776e+01</_>
    <_>
      -5.16954780e-01 4.65490246e+00 1.05710802e+01 1.46581678e+01</_>
    <_>
      -7.25530767e+00 -5.16954780e-01 4.65490246e+00 1.05710802e+01</_>
    <_>
      -1.14670086e+01 -7.25530767e+00 -5.16954780e-01 4.65490246e+00</_>
    <_>
      -1.55268850e+01 -1.14670086e+01 -7.25530767e+00 -5.16954780e-01</_>
    <_>
      -1.75285320e+01 -1.55268850e+01 -1.14670086e+01 -7.25530767e+00</_>
    <_>
      -1.75932064e+01 -1.75285320e+01 -1.55268850e+01 -1.14670086e+01</_>
    <_>
      -1.63547649e+01 -1.75932064e+01 -1.75285320e+01 -1.55268850e+01</_>
    <_>
      -1.33418179e+01 -1.63547649e+01 -1.75932064e+01 -1.75285320e+01</_>
    <_>
      -8.55828476e+00 -1.33418179e+01 -1.63547649e+01 -1.75932064e+01</_>
    <_>
      -2.42562246e+00 -8.55828476e+00 -1.33418179e+01 -1.63547649e+01</_>
    <_>
      3.68018222e+00 -2.42562246e+00 -8.55828476e+00 -1.33418179e+01</_>
    <_>
      1.00242901e+01 3.68018222e+00 -2.42562246e+00 -8.55828476e+00</_>
    <_>
      1.42020559e+01 1.00242901e+01 3.68018222e+00 -2.42562246e+00</_>
    <_>
      1.55114756e+01 1.42020559e+01 1.00242901e+01 3.68018222e+00</_>
    <_>
      1.68774223e+01 1.55114756e+01 1.42020559e+01 1.00242901e+01</_>
    <_>
      1.59094572e+01 1.68774223e+01 1.55114756e+01 1.42020559e+01</_>
    <_>
      1.33864622e+01 1.59094572e+01 1.68774223e+01 1.55114756e+01</_>
    <_>
      9.05103970e+00 1.33864622e+01 1.59094572e+01 1.68774223e+01</_>
    <_>
      6.91699982e+00 9.05103970e+00 1.33864622e+01 1.59094572e+01</_>
    <_>
      1.53923035e+00 6.91699982e+00 9.05103970e+00 1.33864622e+01</_>
    <_>
      -2.91655231e+00 1.53923035e+00 6.91699982e+00 9.05103970e+00</_>
    <_>
      -6.55506134e+00 -2.91655231e+00 1.53923035e+00 6.91699982e+00</_>
    <_>
      -7.97647667e+00 -6.55506134e+00 -2.91655231e+00 1.53923035e+00</_>
    <_>
      -9.44268227e+00 -7.97647667e+00 -6.55506134e+00 -2.91655231e+00</_>
    <_>
      -9.59853935e+00 -9.44268227e+00 -7.97647667e+00 -6.55506134e+00</_>
    <_>
      -8.94499207e+00 -9.59853935e+00 -9.44268227e+00 -7.97647667e+00</_>
    <_>
      -6.76600504e+00 -8.94499207e+00 -9.59853935e+00 -9.44268227e+00</_>
    <_>
      -4.78609180e+00 -6.76600504e+00 -8.94499207e+00 -9.59853935e+00</_>
    <_>
      -2.48763013e+00 -4.78609180e+00 -6.76600504e+00 -8.94499207e+00</_>
    <_>
      3.56519938e-01 -2.48763013e+00 -4.78609180e+00 -6.76600504e+00</_></support_vectors>
  <decision_functions>
    <_>
      <sv_count>22</sv_count>
      <rho>4.0650991660497038e-01</rho>
      <alpha>
        1. 1. 9.0650991090042354e-01 4.9999998899167070e-01 1. 1. 1. 1.
        1. -5.9349008339502962e-01 -5.9349277694157732e-01
        -6.4183733302264867e-01 -8.2976917496067870e-01
        -5.9349008339502962e-01 -5.9349008339502951e-01
        -5.9349008339502962e-01 -5.9349008339502951e-01
        -5.9348991001585039e-01 -5.9349008339502951e-01 -1.
        -5.9349008339502940e-01 -5.9349012118613242e-01</alpha>
      <index>
        784 783 341 340 874 339 910 911 855 1069 597 856 965 1067 596
        600 983 984 1100 912 875 928</index></_>
    <_>
      <sv_count>18</sv_count>
      <rho>-2.1912600408307834e-06</rho>
      <alpha>
        1. 9.9999778256847771e-01 1. 1. 9.9999780873982391e-01
        9.9999808266805323e-01 9.9999780873982391e-01
        9.9999781455578740e-01 9.9999780873995925e-01 -1. -1.
        -9.9998710601192531e-01 -1. -1. -1. -1. -1. -1.</alpha>
      <index>
        784 783 341 340 874 339 910 911 855 854 927 966 1041 893 782 342
        857 785</index></_>
    <_>
      <sv_count>33</sv_count>
      <rho>6.5531160777601527e-01</rho>
      <alpha>
        1. 1. 9.0571987410761423e-01 7.5003879799201933e-01 1. 1. 1. 1.
        1. -2.6239132807976423e-01 -3.4468937134383565e-01
        -3.3532981192575451e-01 -3.4381610518570266e-01
        -3.4468839222423564e-01 -3.4471750319330824e-01
        -3.4468833331835752e-01 -3.2547946870806849e-01
        -3.4218778906874436e-01 -3.4468839222398495e-01
        -2.3836862588737467e-01 -3.4468839227452286e-01
        -3.2604177879019319e-01 -8.9498398786913047e-01
        -3.3338716911417998e-01 -4.4359870868379259e-01
        -3.4468839222398484e-01 -3.4433604582493171e-01
        -3.4381608119073842e-01 -3.4315027375690565e-01
        -3.3529313466827770e-01 -3.4470733531969572e-01
        -3.5100140560244292e-01 -3.3502084562170609e-01</alpha>
      <index>
        784 783 341 340 874 339 910 911 855 692 892 344 345 1101 1040
        754 755 1042 1102 574 964 756 1151 1152 599 873 967 601 986 987
        1116 1115 573</index></_>
    <_>
      <sv_count>32</sv_count>
      <rho>6.1437557926436748e-01</rho>
      <alpha>
        1. 1. 9.9750169069293182e-01 6.1687742628390085e-01 1. 1. 1. 1.
        1. -3.1993964979556072e-01 -3.8562442073563219e-01
        -3.8562442073563197e-01 -3.8106167910941191e-01
        -3.8562442073563230e-01 -4.8645873588666344e-01
        -3.7472328254868448e-01 -3.8562429320056962e-01
        -6.5243600826476711e-01 -3.2950186243331708e-01
        -3.2810809892868859e-01 -2.9654875053123098e-01
        -3.6460842140783550e-01 -3.8562442073563230e-01
        -2.8458371998246523e-01 -3.5002027374304334e-01
        -2.8852338102021635e-01 -3.8497185912203657e-01
        -3.8562442073563191e-01 -3.8562442073563236e-01
        -3.5835371072666344e-01 -3.7341509359045078e-01
        -3.4175377227143416e-01</alpha>
      <index>
        784 783 341 340 874 339 910 911 855 546 338 1098 757 1097 929
        284 572 283 545 693 318 319 982 691 1153 660 343 1039 909 894
        143 544</index></_>
    <_>
      <sv_count>31</sv_count>
      <rho>5.6494999527664269e-01</rho>
      <alpha>
        1. 1. 9.7585700966369304e-01 5.8909296044812209e-01 1. 1. 1. 1.
        1. -4.3505000472335720e-01 -4.3521272297872476e-01
        -2.6476435522131070e-01 -3.8851043303028293e-01
        -4.3505000472335703e-01 -3.6686662942834325e-01
        -4.3590220258693274e-01 -4.3505000472335298e-01
        -3.1346941905525100e-01 -4.3504986623653541e-01
        -4.1517766964886732e-01 -3.1809000874678306e-01
        -4.1344638071479917e-01 -4.3463779564555760e-01
        -3.3860338919325966e-01 -3.8828644525708034e-01
        -4.3504923044080979e-01 -4.3281037384508192e-01
        -3.3052844181329843e-01 -2.6476435522132674e-01
        -4.3505000472335714e-01 -4.1358023215414541e-01</alpha>
      <index>
        784 783 341 340 874 339 910 911 855 1066 913 282 876 946 947 840
        839 317 988 821 820 547 1043 144 786 661 690 659 1150 1114 575</index></_>
    <_>
      <sv_count>40</sv_count>
      <rho>6.7527529562283606e-01</rho>
      <alpha>
        1. 1. 9.9256433989810389e-01 6.8271092906883113e-01 1. 1. 1. 1.
        1. -3.2465522511181411e-01 -2.1300519719304040e-01
        -3.2472461568499317e-01 -1.3072444014351969e-01
        -3.2413855094077781e-01 -3.2407796055849675e-01
        -3.2471545573419824e-01 -3.2472470437716355e-01
        -3.2472470434255690e-01 -3.2119685255446745e-01
        -2.9945486644554692e-01 -2.2345396699396480e-01
        -2.2226102561322464e-01 -3.2568568467018150e-01
        -3.1971125211170920e-01 -3.0780873283138166e-01
        -3.0644369773802843e-01 -2.2114817388379185e-01
        -3.2472470437716350e-01 -3.2472470434255613e-01
        -2.0999567697456503e-01 -1.8972840180666597e-01
        -6.8099621889405215e-02 -3.2472470437716333e-01
        -3.2472470437716361e-01 -1.5843368447997044e-01
        -2.9954651098173518e-01 -3.2219116963350453e-01
