<?xml version="1.0"?>
<opencv_storage>
<opencv_ml_svm>
  <format>3</format>
  <svmType>C_SVC</svmType>
  <kernel>
    <type>RBF</type>
    <gamma>1.</gamma></kernel>
  <C>1.</C>
  <term_criteria><iterations>1000</iterations></term_criteria>
  <var_count>4</var_count>
  <class_count>33</class_count>
  <class_labels type_id="opencv-matrix">
    <rows>33</rows>
    <cols>1</cols>
    <dt>i</dt>
    <data>
      -25 -24 -23 -22 -21 -20 -19 -18 -17 -16 -15 -14 -13 -12 -11 -10 -9
      -8 -7 -6 -5 -4 -3 -2 -1 0 1 2 3 4 5 6 7</data></class_labels>
  <sv_total>3261</sv_total>
  <support_vectors>
    <_>
      0. 0. 2.87223276e+20 2.52080468e-09</_>
    <_>
      0. 0. 4.14338841e-11 2.71481667e-06</_>
    <_>
      0. 0. 1.03831262e-05 2.65124611e-09</_>
    <_>
      0. 0. 1.03831262e-05 2.65124611e-09</_>
    <_>
      0. 0. 4.15306604e-05 2.56404831e-09</_>
    <_>
      8.64224932e-38 0. 4.56429142e-38 0.</_>
    <_>
      4.23319688e+04 4.55884429e-41 1.07068350e-37 0.</_>
    <_>
      0. 0. 2.87223276e+20 2.52080468e-09</_>
    <_>
      0. 0. 4.15381073e-05 1.05465441e-08</_>
    <_>
      0. 0. 6.33736008e-10 1.09207340e-05</_>
    <_>
      0. 0. 4.14338841e-11 2.74496847e-06</_>
    <_>
      0. 0. 4.09708933e-11 1.68052386e-04</_>
    <_>
      0. 0. 4.09708933e-11 4.41532720e-05</_>
    <_>
      0. 0. 4.15381073e-05 4.24852769e-05</_>
    <_>
      0. 0. 4.15381073e-05 4.39138967e-05</_>
    <_>
      0. 0. 4.14338841e-11 1.03723794e-08</_>
    <_>
      0. 0. 4.09708933e-11 4.29686079e-05</_>
    <_>
      0. 0. 2.87223276e+20 2.52080468e-09</_>
    <_>
      9.11536355e-38 0. 4.23314688e+04 4.55884429e-41</_>
    <_>
      0. 0. 4.14338841e-11 1.08012955e-05</_>
    <_>
      0. 0. 2.87223276e+20 2.52080468e-09</_>
    <_>
      4.23319688e+04 4.55884429e-41 8.47260476e-38 0.</_>
    <_>
      0. 0. 4.14338841e-11 4.28928502e-08</_>
    <_>
      0. 0. 4.02887723e-11 4.28855813e-08</_>
    <_>
      4.23319688e+04 4.55884429e-41 1.40148501e-37 0.</_>
    <_>
      0. 0. 2.57831623e-09 4.27246123e-05</_>
    <_>
      4.23320312e+04 4.55884429e-41 8.90546922e-38 0.</_>
    <_>
      0. 0. 1.71833482e-04 4.28855813e-08</_>
    <_>
      4.23319688e+04 4.55884429e-41 8.54144551e-38 0.</_>
    <_>
      0. 0. 4.05161460e-11 4.31256950e-08</_>
    <_>
      0. 0. 4.05243894e-11 2.65158628e-09</_>
    <_>
      0. 0. 4.05581879e-08 4.10274836e-08</_>
    <_>
      0. 0. 4.15353134e-05 1.02555084e-08</_>
    <_>
      0. 0. 1.81434439e+25 8.86491733e-04</_>
    <_>
      0. 0. 4.16530144e-11 4.19542765e-08</_>
    <_>
      0. 0. 1.62225462e-07 1.07412234e-05</_>
    <_>
      0. 0. 1.66126352e-04 2.56416111e-09</_>
    <_>
      0. 0. 1.01397770e-08 6.78718663e-07</_>
    <_>
      0. 0. 1.66148733e-04 4.27302148e-05</_>
    <_>
      0. 0. 4.05243894e-11 1.71870706e-04</_>
    <_>
      4.23319688e+04 4.55884429e-41 8.50607450e-38 0.</_>
    <_>
      0. 0. 4.09717815e-11 2.63692068e-09</_>
    <_>
      4.23319688e+04 4.55884429e-41 8.49009297e-38 0.</_>
    <_>
      0. 0. 4.18886315e-11 6.86169301e-07</_>
    <_>
      0. 0. 4.05627389e-08 6.62854216e-10</_>
    <_>
      4.23319688e+04 4.55884429e-41 1.27400765e-37 0.</_>
    <_>
      0. 0. 2.64090522e-06 4.22458907e-05</_>
    <_>
      0. 0. 2.53517096e-09 1.69002276e-04</_>
    <_>
      0. 0. 6.33707309e-10 4.19533599e-08</_>
    <_>
      0. 0. 2.59595618e-06 4.10293133e-08</_>
    <_>
      4.23319688e+04 4.55884429e-41 4.23319688e+04 4.55884429e-41</_>
    <_>
      0. 0. 4.02887723e-11 6.67630559e-07</_>
    <_>
      0. 0. 2.59606895e-06 1.05016370e-05</_>
    <_>
      4.23319688e+04 4.55884429e-41 1.25511501e-37 0.</_>
    <_>
      0. 0. 4.31967892e-05 1.73770648e-04</_>
    <_>
      0. 0. 4.15315153e-05 6.78747881e-07</_>
    <_>
      0. 0. 4.18886315e-11 4.28856026e-08</_>
    <_>
      0. 0. 4.14338841e-11 6.55592469e-10</_>
    <_>
      0. 0. 4.12065104e-11 1.05628797e-05</_>
    <_>
      0. 0. 1.10376213e-05 2.71481667e-06</_>
    <_>
      0. 0. 4.07517631e-11 6.55549837e-10</_>
    <_>
      0. 0. 4.05581204e-08 1.09784787e-05</_>
    <_>
      0. 0. 2.87223276e+20 1.00832187e-08</_>
    <_>
      0. 0. 2.59577791e-06 1.09789462e-05</_>
    <_>
      0. 0. 6.30200336e-10 1.05027993e-05</_>
    <_>
      4.23319688e+04 4.55884429e-41 1.08685695e-37 0.</_>
    <_>
      0. 0. 6.33735897e-10 6.56410862e-07</_>
    <_>
      0. 0. 1.62240056e-07 1.08001332e-05</_>
    <_>
      0. 0. 4.15381073e-05 6.55606569e-10</_>
    <_>
      0. 0. 4.03328215e-08 4.29620777e-05</_>
    <_>
      4.23319688e+04 4.55884429e-41 4.23319688e+04 4.55884429e-41</_>
    <_>
      0. 0. 1.03833636e-05 2.65164424e-09</_>
    <_>
      0. 0. 6.48916568e-07 4.27264858e-05</_>
    <_>
      0. 0. 1.62232780e-07 1.73748354e-04</_>
    <_>
      4.23319688e+04 4.55884429e-41 8.53918550e-38 0.</_>
    <_>
      4.23319688e+04 4.55884429e-41 1.07069965e-37 0.</_>
    <_>
      0. 0. 1.01400008e-08 1.68744748e-07</_>
    <_>
      2.36942783e-38 2.36942783e-38 2.36942783e-38 2.36942783e-38</_>
    <_>
      8.49066694e-38 0. 1.35066339e-37 0.</_>
    <_>
      1.02756207e-37 0. 9.18480518e-38 0.</_>
    <_>
      0. 0. 6.33707364e-10 6.89880153e-07</_>
    <_>
      1.26736572e-37 0. 8.50248717e-38 0.</_>
    <_>
      4.23319688e+04 4.55884429e-41 1.27400765e-37 0.</_>
    <_>
      4.23319688e+04 4.55884429e-41 1.25238685e-37 0.</_>
    <_>
      2.36942783e-38 2.36942783e-38 2.36942783e-38 2.36942783e-38</_>
    <_>
      5.28148270e-38 0. 2.36942783e-38 2.36942783e-38</_>
    <_>
      1.06930956e-37 0. 1.15911463e-37 0.</_>
    <_>
      9.76381722e-38 0. 1.36272397e-37 0.</_>
    <_>
      1.45121787e-37 0. 4.20389539e-45 1.40129846e-45</_>
    <_>
      5.28148270e-38 0. 2.36942783e-38 2.36942783e-38</_>
    <_>
      9.73020399e-38 0. 4.20389539e-45 1.40129846e-45</_>
    <_>
      1.27400406e-37 0. 4.40810522e-39 4.40817108e-39</_>
    <_>
      1.47907703e-37 0. 9.75899227e-38 0.</_>
    <_>
      9.76711756e-38 0. 1.47920438e-37 0.</_>
    <_>
      4.23319688e+04 4.55884429e-41 1.45120532e-37 0.</_>
    <_>
      9.76374547e-38 0. 1.44732753e-37 0.</_>
    <_>
      4.23319688e+04 4.55884429e-41 1.25237429e-37 0.</_>
    <_>
      2.36942783e-38 2.36942783e-38 2.36942783e-38 2.36942783e-38</_>
    <_>
      0. 0. 2.53517229e-09 4.21943724e-08</_>
    <_>
      0. 0. 6.48916512e-07 2.56404786e-09</_>
    <_>
      0. 0. 4.05572997e-08 1.73748369e-04</_>
    <_>
      0. 0. 4.15371032e-05 2.68513213e-06</_>
    <_>
      0. 0. 6.48974776e-07 4.34370595e-05</_>
    <_>
      4.23319688e+04 4.55884429e-41 1.07069965e-37 0.</_>
    <_>
      0. 0. 4.15371833e-05 4.14940473e-08</_>
    <_>
      0. 0. 6.48930893e-07 2.62541130e-06</_>
    <_>
      0. 0. 4.15353170e-05 2.65550261e-06</_>
    <_>
      0. 0. 2.59572494e-06 1.65954461e-07</_>
    <_>
      0. 0. 1.66133759e-04 2.71499243e-06</_>
    <_>
      0. 0. 4.05609164e-08 6.82487666e-07</_>
    <_>
      0. 0. 1.03842949e-05 1.68744748e-07</_>
    <_>
      0. 0. 6.48960111e-07 2.71534077e-06</_>
    <_>
      0. 0. 1.66141312e-04 1.06804519e-05</_>
    <_>
      4.23319688e+04 4.55884429e-41 8.50607450e-38 0.</_>
    <_>
      0. 0. 4.21160051e-11 2.67046289e-06</_>
    <_>
      0. 0. 1.66126381e-04 1.09188777e-05</_>
    <_>
      0. 0. 1.65056576e-07 6.62867872e-10</_>
    <_>
      0. 0. 1.62239999e-07 1.72798376e-04</_>
    <_>
      0. 0. 1.66144950e-04 6.44735154e-10</_>
    <_>
      4.23319688e+04 4.55884429e-41 4.23319688e+04 4.55884429e-41</_>
    <_>
      0. 0. 1.01411395e-08 4.27264931e-05</_>
    <_>
      0. 0. 1.66118858e-04 1.68991173e-04</_>
    <_>
      0. 0. 2.53517096e-09 1.05476872e-08</_>
    <_>
      0. 0. 1.03845268e-05 1.69683389e-07</_>
    <_>
      2.36942783e-38 2.36942783e-38 2.36942783e-38 2.36942783e-38</_>
    <_>
      0. 0. 1.03160360e-08 1.06054312e-08</_>
    <_>
      0. 0. 4.15306713e-05 4.27283303e-05</_>
    <_>
      0. 0. 1.70879895e-04 2.68063372e-09</_>
    <_>
      4.23320312e+04 4.55884429e-41 4.23320312e+04 4.55884429e-41</_>
    <_>
      0. 0. 1.72462720e-07 1.71859589e-04</_>
    <_>
      4.23319688e+04 4.55884429e-41 8.53997471e-38 0.</_>
    <_>
      0. 0. 1.01397726e-08 6.48358811e-10</_>
    <_>
      0. 0. 1.04878852e-08 4.17286969e-08</_>
    <_>
      0. 0. 2.59572334e-06 1.66900321e-07</_>
    <_>
      0. 0. 1.07789262e-08 1.06229463e-05</_>
    <_>
      0. 0. 1.08588038e-05 6.60208684e-07</_>
    <_>
      8.50250511e-38 0. 1.12097599e-37 0.</_>
    <_>
      0. 0. 1.05607805e-05 4.22449957e-05</_>
    <_>
      0. 0. 2.59566650e-06 6.63919650e-07</_>
    <_>
      0. 0. 4.00613986e-11 1.72798289e-04</_>
    <_>
      0. 0. 1.71531426e-07 2.71505019e-06</_>
    <_>
      0. 0. 4.05161460e-11 4.22468438e-05</_>
    <_>
      0. 0. 4.07435197e-11 1.08604372e-05</_>
    <_>
      0. 0. 4.11982670e-11 1.09789416e-05</_>
    <_>
      0. 0. 4.14256407e-11 6.70101530e-10</_>
    <_>
      0. 0. 1.00832054e-08 4.10238314e-08</_>
    <_>
      0. 0. 1.01406812e-08 1.03728350e-08</_>
    <_>
      0. 0. 1.01404556e-08 6.63846663e-07</_>
    <_>
      0. 0. 1.81434439e+25 8.86491733e-04</_>
    <_>
      0. 0. 4.02896605e-11 2.57865573e-09</_>
    <_>
      0. 0. 4.05170342e-11 1.65052143e-07</_>
    <_>
      8.57744431e-38 0. 9.14974805e-38 0.</_>
    <_>
      2.36942783e-38 2.36942783e-38 2.36942783e-38 2.36942783e-38</_>
    <_>
      9.37189310e-38 0. 4.20389539e-45 1.40129846e-45</_>
    <_>
      9.72891256e-38 0. 4.20389539e-45 1.40129846e-45</_>
    <_>
      0. 0. 4.18812762e-11 6.60179523e-07</_>
    <_>
      0. 0. 6.48989101e-07 2.67063660e-06</_>
    <_>
      4.23319688e+04 4.55884429e-41 1.46535731e-37 0.</_>
    <_>
      4.23319688e+04 4.55884429e-41 8.53997471e-38 0.</_>
    <_>
      0. 0. 4.09726697e-11 1.71844615e-04</_>
    <_>
      0. 0. 2.53500154e-09 1.07229861e-08</_>
    <_>
      0. 0. 6.48931064e-07 1.75689216e-04</_>
    <_>
      0. 0. 6.33778752e-10 4.39138967e-05</_>
    <_>
      0. 0. 4.18812762e-11 6.70200895e-10</_>
    <_>
      0. 0. 1.05636209e-05 2.71481576e-06</_>
    <_>
      0. 0. 6.33764374e-10 2.62587514e-06</_>
    <_>
      0. 0. 1.66148675e-04 6.78704453e-07</_>
    <_>
      0. 0. 1.05636209e-05 2.60792943e-09</_>
    <_>
      0. 0. 4.14256407e-11 6.55535570e-10</_>
    <_>
      4.23319688e+04 4.55884429e-41 1.25512756e-37 0.</_>
    <_>
      0. 0. 1.81434439e+25 8.86491733e-04</_>
    <_>
      4.23319688e+04 4.55884429e-41 1.46513490e-37 0.</_>
    <_>
      4.23319688e+04 4.55884429e-41 8.54144551e-38 0.</_>
    <_>
      0. 0. 4.15362483e-05 1.10392439e-05</_>
    <_>
      0. 0. 2.64019536e-06 2.67063683e-06</_>
    <_>
      4.23319688e+04 4.55884429e-41 9.11523800e-38 0.</_>
    <_>
      0. 0. 2.53522736e-09 6.41040165e-10</_>
    <_>
      0. 0. 2.75940420e-06 1.76624177e-04</_>
    <_>
      0. 0. 4.12065104e-11 6.82531436e-07</_>
    <_>
      0. 0. 4.19515302e-08 1.68998595e-04</_>
    <_>
      0. 0. 4.07517631e-11 1.07996666e-05</_>
    <_>
      0. 0. 2.87223276e+20 6.45325997e-07</_>
    <_>
      0. 0. 4.05618188e-08 6.63802950e-07</_>
    <_>
      0. 0. 2.59584044e-06 6.44607367e-10</_>
    <_>
      0. 0. 4.29667343e-05 4.88529639e-39</_>
    <_>
      0. 0. 1.81434439e+25 8.86491733e-04</_>
    <_>
      0. 0. 2.87223276e+20 1.65203455e-04</_>
    <_>
      0. 0. 2.87223276e+20 2.52080468e-09</_>
    <_>
      0. 0. 2.52080135e-09 2.63674904e-09</_>
    <_>
      0. 0. 4.07435197e-11 6.41011855e-10</_>
    <_>
      0. 0. 2.87223276e+20 2.52080468e-09</_>
    <_>
      0. 0. 2.52080135e-09 1.03719184e-08</_>
    <_>
      0. 0. 6.30200336e-10 4.39204086e-05</_>
    <_>
      0. 0. 4.16530144e-11 4.10229362e-08</_>
    <_>
      0. 0. 1.74694505e-04 6.86169699e-07</_>
    <_>
      0. 0. 4.15381000e-05 1.64102758e-07</_>
    <_>
      0. 0. 4.00696420e-11 2.65573635e-06</_>
    <_>
      1.25778039e-37 0. 4.20389539e-45 1.40129846e-45</_>
    <_>
      1.35334312e-37 0. 8.45064137e-38 0.</_>
    <_>
      4.23319688e+04 4.55884429e-41 1.44066935e-37 0.</_>
    <_>
      4.23319688e+04 4.55884429e-41 1.25512756e-37 0.</_>
    <_>
      4.23319688e+04 4.55884429e-41 8.49009297e-38 0.</_>
    <_>
      0. 0. 4.07517631e-11 1.69967127e-04</_>
    <_>
      0. 0. 2.64019491e-06 1.08602007e-05</_>
    <_>
      4.23319688e+04 4.55884429e-41 4.23319688e+04 4.55884429e-41</_>
    <_>
      0. 0. 6.49003766e-07 2.65164379e-09</_>
    <_>
      0. 0. 1.65012167e-07 6.73753831e-10</_>
    <_>
      9.37164199e-38 0. 1.25512756e-37 0.</_>
    <_>
      0. 0. 1.01404556e-08 4.24843311e-05</_>
    <_>
      4.23319688e+04 4.55884429e-41 8.53912272e-38 0.</_>
    <_>
      0. 0. 1.66137601e-04 2.56399169e-09</_>
    <_>
      0. 0. 1.03838256e-05 1.05614745e-05</_>
    <_>
      0. 0. 1.62247332e-07 6.71341127e-07</_>
    <_>
      0. 0. 4.02896605e-11 4.36820228e-05</_>
    <_>
      0. 0. 2.87223276e+20 1.00832187e-08</_>
    <_>
      0. 0. 6.48989271e-07 6.56367376e-07</_>
    <_>
      0. 0. 4.07435197e-11 1.69933570e-04</_>
    <_>
      4.23319688e+04 4.55884429e-41 8.48998535e-38 0.</_>
    <_>
      8.45064137e-38 0. 4.20389539e-45 1.40129846e-45</_>
    <_>
      0. 0. 2.87223276e+20 2.52080468e-09</_>
    <_>
      4.23319688e+04 4.55884429e-41 8.54144551e-38 0.</_>
    <_>
      0. 0. 1.08588038e-05 1.65030372e-07</_>
    <_>
      0. 0. 4.14338841e-11 1.04901590e-08</_>
    <_>
      0. 0. 4.19515231e-08 6.41068698e-10</_>
    <_>
      0. 0. 2.59577791e-06 4.22468620e-05</_>
    <_>
      0. 0. 1.81434439e+25 8.86491733e-04</_>
    <_>
      0. 0. 2.66562683e-09 1.68998493e-04</_>
    <_>
      0. 0. 2.75940511e-06 4.24217319e-08</_>
    <_>
      0. 0. 4.07517631e-11 1.04317257e-08</_>
    <_>
      0. 0. 1.66140962e-04 2.68074829e-09</_>
    <_>
      0. 0. 4.05243894e-11 1.07402921e-05</_>
    <_>
      0. 0. 1.62257948e-07 1.08606637e-05</_>
    <_>
      0. 0. 4.00696420e-11 1.04885691e-08</_>
    <_>
      0. 0. 2.59607464e-06 4.27218220e-05</_>
    <_>
      0. 0. 2.87223276e+20 2.52080468e-09</_>
    <_>
      0. 0. 6.30200336e-10 4.31238547e-08</_>
    <_>
      0. 0. 4.15297254e-05 6.60165426e-07</_>
    <_>
      0. 0. 4.14256407e-11 1.68752010e-07</_>
    <_>
      4.23319688e+04 4.55884429e-41 1.18008433e-37 0.</_>
    <_>
      0. 0. 6.48916455e-07 1.08608965e-05</_>
    <_>
      0. 0. 1.81434439e+25 8.86491733e-04</_>
    <_>
      0. 0. 4.05581844e-08 1.02564170e-08</_>
    <_>
      0. 0. 2.59607282e-06 6.70158373e-10</_>
    <_>
      0. 0. 6.48916341e-07 1.70614726e-07</_>
    <_>
      1.34876569e-37 0. 4.20389539e-45 1.40129846e-45</_>
    <_>
      1.30809440e-37 0. 7.34906383e-38 0.</_>
    <_>
      4.23319688e+04 4.55884429e-41 8.58954256e-38 0.</_>
    <_>
      4.23319688e+04 4.55884429e-41 7.42602987e-38 0.</_>
    <_>
      0. 0. 4.14265289e-11 1.05030340e-05</_>
    <_>
      0. 0. 2.87223276e+20 1.00832187e-08</_>
    <_>
      0. 0. 1.08588065e-05 1.06631903e-08</_>
    <_>
      0. 0. 2.62197064e-09 1.65023167e-07</_>
    <_>
      0. 0. 1.02550501e-08 1.10394840e-05</_>
    <_>
      0. 0. 4.00631750e-11 2.64077607e-06</_>
    <_>
      0. 0. 4.21086499e-11 1.74705725e-04</_>
    <_>
      4.23319688e+04 4.55884429e-41 1.44959999e-37 0.</_>
    <_>
      0. 0. 1.66145022e-04 2.69524336e-09</_>
    <_>
      0. 0. 6.33735897e-10 6.62839783e-10</_>
    <_>
      0. 0. 4.07444078e-11 1.73763139e-04</_>
    <_>
      0. 0. 4.05627532e-08 4.10265955e-08</_>
    <_>
      0. 0. 1.03835964e-05 6.71311682e-07</_>
    <_>
      0. 0. 1.03845296e-05 2.69501577e-09</_>
    <_>
      0. 0. 4.02887723e-11 1.10380824e-05</_>
    <_>
      0. 0. 6.33778474e-10 1.04308162e-08</_>
    <_>
      0. 0. 4.12641441e-08 1.66882018e-07</_>
    <_>
      0. 0. 1.62236347e-07 2.68035039e-09</_>
    <_>
      4.23320312e+04 4.55884429e-41 4.23320312e+04 4.55884429e-41</_>
    <_>
      0. 0. 4.16612578e-11 1.68770271e-07</_>
    <_>
      0. 0. 4.31156764e-08 6.75095180e-07</_>
    <_>
      4.23319688e+04 4.55884429e-41 1.15910387e-37 0.</_>
    <_>
      0. 0. 1.05607814e-05 6.48245235e-10</_>
    <_>
      0. 0. 4.07517631e-11 4.27255363e-05</_>
    <_>
      0. 0. 2.87223276e+20 4.03328748e-08</_>
    <_>
      0. 0. 2.87223276e+20 4.03328748e-08</_>
    <_>
      0. 0. 1.04878888e-08 4.39157739e-05</_>
    <_>
      0. 0. 1.03831262e-05 6.41054321e-10</_>
    <_>
      0. 0. 2.52080135e-09 2.65544395e-06</_>
    <_>
      0. 0. 4.15353134e-05 6.70158651e-10</_>
    <_>
      0. 0. 4.00613986e-11 4.19533634e-08</_>
    <_>
      0. 0. 4.05161460e-11 2.66613842e-09</_>
    <_>
      0. 0. 4.09708933e-11 2.60781685e-09</_>
    <_>
      0. 0. 4.11982670e-11 1.75674257e-04</_>
    <_>
      4.23319688e+04 4.55884429e-41 1.44958743e-37 0.</_>
    <_>
      0. 0. 4.21077617e-11 1.64109949e-07</_>
    <_>
      0. 0. 6.48916625e-07 1.69708841e-07</_>
    <_>
      2.36942783e-38 2.36942783e-38 2.36942783e-38 2.36942783e-38</_>
    <_>
      8.49009297e-38 0. 1.43618160e-37 0.</_>
    <_>
      4.23319688e+04 4.55884429e-41 1.44958743e-37 0.</_>
    <_>
      9.37192897e-38 0. 9.77054345e-38 0.</_>
    <_>
      0. 0. 1.74694505e-04 1.05030349e-05</_>
    <_>
      0. 0. 4.02970157e-11 6.56352597e-07</_>
    <_>
      0. 0. 4.02970157e-11 1.05016452e-05</_>
    <_>
      0. 0. 1.03842949e-05 2.57888377e-09</_>
    <_>
      0. 0. 1.66152400e-04 2.69512834e-09</_>
    <_>
      4.23319688e+04 4.55884429e-41 4.56426900e-38 0.</_>
    <_>
      0. 0. 6.44752252e-10 4.12584811e-08</_>
    <_>
      0. 0. 4.12641441e-08 1.09787052e-05</_>
    <_>
      0. 0. 1.81434439e+25 8.86491733e-04</_>
    <_>
      0. 0. 4.05618472e-08 1.70920801e-04</_>
    <_>
      0. 0. 2.87223276e+20 1.00832187e-08</_>
    <_>
      0. 0. 6.48390230e-10 1.06220086e-05</_>
    <_>
      0. 0. 2.53477395e-09 2.63692090e-09</_>
    <_>
      0. 0. 2.59560784e-06 4.31229843e-08</_>
    <_>
      0. 0. -2.52233724e-44 0.</_>
    <_>
      9.37164199e-38 0. 1.07958724e-37 0.</_>
    <_>
      4.23319688e+04 4.55884429e-41 7.42602987e-38 0.</_>
    <_>
      0. 0. 2.53528043e-09 6.62797317e-10</_>
    <_>
      0. 0. 2.53499977e-09 2.71516546e-06</_>
    <_>
      0. 0. 4.15324466e-05 4.31229523e-08</_>
    <_>
      0. 0. 2.87223276e+20 4.03328748e-08</_>
    <_>
      4.23319688e+04 4.55884429e-41 4.23319688e+04 4.55884429e-41</_>
    <_>
      0. 0. 1.03838320e-05 6.62925159e-10</_>
    <_>
      0. 0. 1.06820789e-05 5.25191390e-39</_>
    <_>
      0. 0. 6.48930836e-07 4.31247784e-08</_>
    <_>
      0. 0. 2.53482568e-09 4.29649081e-05</_>
    <_>
      0. 0. 2.60741961e-09 2.62575986e-06</_>
    <_>
      4.23320312e+04 4.55884429e-41 1.15909490e-37 0.</_>
    <_>
      0. 0. 6.30200336e-10 1.04310356e-08</_>
    <_>
      0. 0. 2.53499621e-09 1.69676071e-07</_>
    <_>
      0. 0. 2.87223276e+20 1.61331499e-07</_>
    <_>
      0. 0. 1.81434439e+25 8.86491733e-04</_>
    <_>
      0. 0. 1.01408943e-08 6.86184080e-07</_>
    <_>
      4.23319688e+04 4.55884429e-41 8.58960534e-38 0.</_>
    <_>
      0. 0. 4.02887723e-11 1.71874548e-04</_>
    <_>
      4.23319688e+04 4.55884429e-41 8.47260476e-38 0.</_>
    <_>
      0. 0. 6.67499307e-07 6.62797428e-10</_>
    <_>
      0. 0. 1.66118887e-04 4.12548786e-08</_>
    <_>
      0. 0. 4.00622868e-11 1.08611302e-05</_>
    <_>
      4.23319688e+04 4.55884429e-41 7.42602987e-38 0.</_>
    <_>
      1.45317655e-37 0. 4.23314688e+04 4.55884429e-41</_>
    <_>
      0. 0. 2.57900901e-09 1.73763110e-04</_>
    <_>
      0. 0. 1.81434439e+25 8.86491733e-04</_>
    <_>
      0. 0. 2.87223276e+20 1.00832187e-08</_>
    <_>
      0. 0. 1.03842976e-05 1.03728297e-08</_>
    <_>
      0. 0. 1.66141283e-04 4.32014604e-05</_>
    <_>
      0. 0. 4.16539025e-11 1.71571443e-07</_>
    <_>
      0. 0. 4.14265289e-11 1.09198090e-05</_>
    <_>
      0. 0. 1.81434439e+25 8.86491733e-04</_>
    <_>
      0. 0. 4.14338841e-11 1.03726068e-08</_>
    <_>
      0. 0. 2.87223276e+20 1.00832187e-08</_>
    <_>
      0. 0. 4.07517631e-11 6.66505962e-10</_>
    <_>
      0. 0. 2.87223276e+20 1.00832187e-08</_>
    <_>
      4.23319688e+04 4.55884429e-41 1.36010343e-37 0.</_>
    <_>
      0. 0. 1.66118974e-04 2.68548115e-06</_>
    <_>
      0. 0. 4.05581879e-08 1.06806910e-05</_>
    <_>
      0. 0. 1.81434439e+25 8.86491733e-04</_>
    <_>
      0. 0. 1.62240070e-07 1.66885769e-07</_>
    <_>
      0. 0. 6.48960111e-07 1.06806883e-05</_>
    <_>
      0. 0. 1.61331286e-07 2.63709010e-09</_>
    <_>
      0. 0. 1.81434439e+25 8.86491733e-04</_>
    <_>
      0. 0. 6.33821329e-10 1.66889379e-07</_>
    <_>
      0. 0. 4.05581950e-08 1.06634159e-08</_>
    <_>
      0. 0. 1.03835937e-05 1.09796429e-05</_>
    <_>
      4.23320312e+04 4.55884429e-41 1.02796744e-37 0.</_>
    <_>
      2.36942783e-38 2.36942783e-38 2.36942783e-38 2.36942783e-38</_>
    <_>
      4.23319688e+04 4.55884429e-41 9.76381722e-38 0.</_>
    <_>
      7.42557249e-38 0. 4.20389539e-45 1.40129846e-45</_>
    <_>
      1.48098190e-37 0. 1.15968860e-37 0.</_>
    <_>
      8.50245130e-38 0. 8.49460403e-38 0.</_>
    <_>
      1.25488004e-37 0. 5.88374957e-38 0.</_>
    <_>
      4.23319688e+04 4.55884429e-41 1.25488004e-37 0.</_>
    <_>
      0. 0. 2.53511456e-09 1.72491809e-07</_>
    <_>
      0. 0. 1.62239985e-07 6.67586789e-07</_>
    <_>
      0. 0. 2.53528465e-09 6.89952969e-07</_>
    <_>
      4.23319688e+04 4.55884429e-41 1.40191907e-37 0.</_>
    <_>
      2.36942783e-38 2.36942783e-38 2.36942783e-38 2.36942783e-38</_>
    <_>
      4.56429142e-38 0. 1.66125610e-04 6.41026066e-10</_>
    <_>
      9.37395581e-38 0. -1.40129846e-45 4.55884429e-41</_>
    <_>
      0. 0. 2.64090522e-06 1.70636412e-07</_>
    <_>
      0. 0. 1.01404556e-08 6.71370003e-07</_>
    <_>
      0. 0. 4.15371906e-05 1.03139479e-08</_>
    <_>
      0. 0. 1.62251013e-07 4.24899190e-05</_>
    <_>
      0. 0. 1.05636209e-05 4.31256737e-08</_>
    <_>
      0. 0. 1.81434439e+25 8.86491733e-04</_>
    <_>
      0. 0. 1.81434439e+25 8.86491733e-04</_>
    <_>
      0. 0. 4.00631750e-11 2.57848565e-09</_>
    <_>
      0. 0. 4.15343675e-05 1.10401752e-05</_>
    <_>
      0. 0. 1.03840603e-05 1.07405222e-05</_>
    <_>
      0. 0. 4.18812762e-11 2.70038277e-06</_>
    <_>
      0. 0. 6.30200336e-10 4.14904022e-08</_>
    <_>
      0. 0. 1.01404547e-08 1.65950780e-07</_>
    <_>
      0. 0. 1.03838329e-05 6.86155090e-07</_>
    <_>
      0. 0. 4.07444078e-11 6.89981903e-07</_>
    <_>
      0. 0. 1.61331286e-07 1.05474509e-08</_>
    <_>
      9.72803366e-38 0. 9.72891256e-38 0.</_>
    <_>
      0. 0. 4.14256407e-11 2.71534032e-06</_>
    <_>
      0. 0. 1.01397717e-08 1.72473747e-07</_>
    <_>
      0. 0. 4.03328215e-08 2.65124411e-09</_>
    <_>
      0. 0. 2.87223276e+20 4.13008638e-05</_>
    <_>
      0. 0. 2.59571971e-06 4.12557881e-08</_>
    <_>
      0. 0. 1.65983437e-07 4.97892415e-39</_>
    <_>
      0. 0. 1.62236375e-07 1.05633371e-05</_>
    <_>
      4.23319688e+04 4.55884429e-41 4.23319688e+04 4.55884429e-41</_>
    <_>
      9.77054345e-38 0. 4.20389539e-45 1.40129846e-45</_>
    <_>
      9.11523800e-38 0. 8.44495546e-38 0.</_>
    <_>
      0. 0. 1.03824323e-05 1.08597360e-05</_>
    <_>
      0. 0. 4.09673406e-11 6.63803007e-07</_>
    <_>
      0. 0. 6.33707808e-10 1.64113644e-07</_>
    <_>
      0. 0. 4.15316026e-05 6.55648869e-10</_>
    <_>
      0. 0. 1.03842958e-05 2.62248290e-09</_>
    <_>
      0. 0. 4.05645508e-08 4.17241708e-08</_>
    <_>
      0. 0. 2.69473088e-09 1.70913307e-04</_>
    <_>
      4.23319688e+04 4.55884429e-41 9.76711756e-38 0.</_>
    <_>
      9.37164199e-38 0. 8.63119139e-38 0.</_>
    <_>
      1.34876569e-37 0. 4.20389539e-45 1.40129846e-45</_>
    <_>
      4.23319688e+04 4.55884429e-41 1.27399510e-37 0.</_>
    <_>
      8.63119139e-38 0. 4.20389539e-45 1.40129846e-45</_>
    <_>
      0. 0. 4.21077617e-11 1.66900250e-07</_>
    <_>
      0. 0. 2.59595777e-06 1.10399487e-05</_>
    <_>
      4.23320312e+04 4.55884429e-41 1.02796744e-37 0.</_>
    <_>
      0. 0. 1.66141268e-04 1.65048633e-07</_>
    <_>
      0. 0. 1.65056576e-07 1.06227071e-05</_>
    <_>
      0. 0. 2.87223276e+20 1.00832187e-08</_>
    <_>
      8.64709221e-38 0. 1.46535731e-37 0.</_>
    <_>
      0. 0. 2.59560693e-06 6.75066303e-07</_>
    <_>
      0. 0. 6.33750330e-10 4.32042470e-05</_>
    <_>
      0. 0. 1.06203888e-05 2.62231148e-09</_>
    <_>
      0. 0. 4.02970157e-11 1.06640963e-08</_>
    <_>
      0. 0. 4.16539025e-11 1.07225340e-08</_>
    <_>
      0. 0. 4.14265289e-11 1.10399442e-05</_>
    <_>
      0. 0. 1.01399991e-08 1.66907583e-07</_>
    <_>
      0. 0. 2.87223276e+20 1.00832187e-08</_>
    <_>
      0. 0. 1.81434439e+25 8.86491733e-04</_>
    <_>
      0. 0. 2.87223276e+20 1.00832187e-08</_>
    <_>
      0. 0. 2.87223276e+20 1.00832187e-08</_>
    <_>
      0. 0. 4.09708933e-11 6.56425527e-07</_>
    <_>
      4.23319688e+04 4.55884429e-41 8.50607450e-38 0.</_>
    <_>
      0. 0. 2.59578223e-06 2.64048504e-06</_>
    <_>
      0. 0. 4.05599963e-08 1.71545992e-07</_>
    <_>
      0. 0. 2.53517052e-09 2.66585398e-09</_>
    <_>
      0. 0. 4.31157012e-08 1.08611284e-05</_>
    <_>
      0. 0. 2.59566150e-06 1.74702043e-04</_>
    <_>
      0. 0. 2.53482568e-09 4.10283931e-08</_>
    <_>
      4.23320312e+04 4.55884429e-41 8.36202550e-38 0.</_>
    <_>
      0. 0. 4.12065104e-11 6.60121486e-07</_>
    <_>
      4.23319688e+04 4.55884429e-41 1.27399510e-37 0.</_>
    <_>
      4.23319688e+04 4.55884429e-41 4.23319688e+04 4.55884429e-41</_>
    <_>
      0. 0. 4.05591010e-08 4.29639804e-05</_>
    <_>
      4.23319688e+04 4.55884429e-41 4.23319688e+04 4.55884429e-41</_>
    <_>
      4.23319688e+04 4.55884429e-41 1.25488004e-37 0.</_>
    <_>
      0. 0. 2.59566559e-06 2.65169997e-09</_>
    <_>
      0. 0. 1.01411404e-08 4.36801492e-05</_>
    <_>
      0. 0. 2.53488253e-09 4.10293097e-08</_>
    <_>
      0. 0. 1.01409166e-08 4.21880060e-08</_>
    <_>
      4.23319688e+04 4.55884429e-41 8.58960534e-38 0.</_>
    <_>
      8.53918550e-38 0. 4.20389539e-45 1.40129846e-45</_>
    <_>
      0. 0. 1.03842967e-05 6.70158318e-10</_>
    <_>
      2.36942783e-38 2.36942783e-38 2.36942783e-38 2.36942783e-38</_>
    <_>
      0. 0. 1.62254636e-07 2.68029154e-09</_>
    <_>
      0. 0. 2.53477261e-09 6.82560369e-07</_>
    <_>
      0. 0. 4.05618259e-08 1.10383180e-05</_>
    <_>
      0. 0. 2.87223276e+20 1.00832187e-08</_>
    <_>
      0. 0. 2.87223276e+20 1.00832187e-08</_>
    <_>
      4.23319688e+04 4.55884429e-41 1.44959999e-37 0.</_>
    <_>
      0. 0. 2.87223276e+20 1.00832187e-08</_>
    <_>
      4.23319688e+04 4.55884429e-41 8.50607450e-38 0.</_>
    <_>
      4.23319688e+04 4.55884429e-41 4.23319688e+04 4.55884429e-41</_>
    <_>
      4.23319688e+04 4.55884429e-41 4.23319688e+04 4.55884429e-41</_>
    <_>
      0. 0. 1.02550564e-08 6.73753608e-10</_>
    <_>
      4.23319688e+04 4.55884429e-41 9.11523800e-38 0.</_>
    <_>
      0. 0. 1.62254551e-07 2.64083519e-06</_>
    <_>
      0. 0. 4.16539025e-11 1.69952167e-04</_>
    <_>
      0. 0. 2.53494381e-09 6.48302023e-10</_>
    <_>
      0. 0. 1.01404591e-08 4.19569872e-08</_>
    <_>
      0. 0. 4.15381073e-05 2.68052092e-09</_>
    <_>
      4.23319688e+04 4.55884429e-41 1.25238685e-37 0.</_>
    <_>
      0. 0. 1.62247261e-07 4.29686334e-05</_>
    <_>
      0. 0. 1.62254580e-07 1.76631656e-04</_>
    <_>
      4.23319688e+04 4.55884429e-41 8.53997471e-38 0.</_>
    <_>
      0. 0. 4.41504562e-05 1.76613015e-04</_>
    <_>
      0. 0. 1.06054312e-08 4.79309796e-39</_>
    <_>
      0. 0. 4.02970157e-11 1.06636460e-08</_>
    <_>
      4.23320312e+04 4.55884429e-41 1.45312274e-37 0.</_>
    <_>
      0. 0. 2.59560761e-06 1.68059734e-04</_>
    <_>
      4.23319688e+04 4.55884429e-41 9.76711756e-38 0.</_>
    <_>
      0. 0. 1.62225518e-07 1.06208536e-05</_>
    <_>
      0. 0. 1.03833663e-05 6.44678311e-10</_>
    <_>
      0. 0. 4.21160051e-11 2.72989223e-06</_>
    <_>
      0. 0. 4.14220880e-11 4.24880491e-05</_>
    <_>
      0. 0. 2.59607282e-06 6.55620502e-10</_>
    <_>
      0. 0. 4.12641441e-08 4.17223234e-08</_>
    <_>
      0. 0. 1.01411404e-08 4.17232684e-08</_>
    <_>
      0. 0. 1.62240099e-07 2.71487579e-06</_>
    <_>
      4.23319688e+04 4.55884429e-41 1.44959999e-37 0.</_>
    <_>
      1.34843566e-37 0. 4.20389539e-45 1.40129846e-45</_>
    <_>
      2.36942783e-38 2.36942783e-38 2.36942783e-38 2.36942783e-38</_>
    <_>
      0. 0. 6.48975004e-07 4.19569979e-08</_>
    <_>
      0. 0. 6.33736175e-10 6.51883325e-10</_>
    <_>
      0. 0. 1.66152400e-04 1.71866996e-04</_>
    <_>
      0. 0. 6.60226306e-07 6.67659037e-07</_>
    <_>
      0. 0. 4.02896605e-11 1.74705638e-04</_>
    <_>
      0. 0. 2.59607259e-06 4.24899335e-05</_>
    <_>
      0. 0. 2.87223276e+20 1.00832187e-08</_>
    <_>
      0. 0. 2.59589865e-06 1.07402948e-05</_>
    <_>
      0. 0. 2.87223276e+20 1.00832187e-08</_>
    <_>
      0. 0. 2.87223276e+20 1.00832187e-08</_>
    <_>
      0. 0. 6.51854903e-10 1.07400574e-05</_>
    <_>
      0. 0. 2.87223276e+20 1.00832187e-08</_>
    <_>
      4.23319688e+04 4.55884429e-41 1.08684440e-37 0.</_>
    <_>
      0. 0. 2.87223276e+20 1.00832187e-08</_>
    <_>
      4.23319688e+04 4.55884429e-41 1.44959999e-37 0.</_>
    <_>
      0. 0. 1.00832054e-08 1.69705089e-07</_>
    <_>
      0. 0. 6.48931348e-07 6.62825461e-10</_>
    <_>
      0. 0. 4.03328215e-08 1.76620408e-04</_>
    <_>
      4.23319688e+04 4.55884429e-41 4.23319688e+04 4.55884429e-41</_>
    <_>
      0. 0. 2.53511456e-09 2.65118860e-09</_>
    <_>
      0. 0. 1.81434439e+25 8.86491733e-04</_>
    <_>
      0. 0. 2.66999632e-06 2.66608091e-09</_>
    <_>
      0. 0. 6.70044797e-10 4.34389403e-05</_>
    <_>
      2.36942783e-38 2.36942783e-38 2.36942783e-38 2.36942783e-38</_>
    <_>
      1.36647452e-37 0. 1.40129846e-43 0.</_>
    <_>
      9.76559295e-38 0. 1.07013464e-37 0.</_>
    <_>
      2.36942783e-38 2.36942783e-38 2.36942783e-38 2.36942783e-38</_>
    <_>
      8.62599874e-38 0. 1.25237788e-37 0.</_>
    <_>
      9.09795606e-38 0. 7.42602987e-38 0.</_>
    <_>
      2.36942783e-38 2.36942783e-38 2.36942783e-38 2.36942783e-38</_>
    <_>
      4.23319688e+04 4.55884429e-41 1.48098011e-37 0.</_>
    <_>
      0. 0. 2.87223276e+20 4.09791888e-11</_>
    <_>
      0. 0. 4.11947143e-11 4.24208260e-08</_>
    <_>
      8.90495803e-38 0. 4.20389539e-45 1.40129846e-45</_>
    <_>
      1.44849330e-37 0. 2.36942783e-38 2.36942783e-38</_>
    <_>
      7.00649232e-45 6.16571324e-44 1.27466312e-40 0.</_>
    <_>
      4.23319688e+04 4.55884429e-41 1.46589541e-37 0.</_>
    <_>
      7.34966471e-38 0. -1.40129846e-45 4.55884429e-41</_>
    <_>
      0. 0. 1.08604801e-37 0.</_>
    <_>
      0. 0. 4.77551587e-39 0.</_>
    <_>
      0. 0. 8.61972989e-38 0.</_>
    <_>
      0. 0. 1.81434439e+25 8.86491733e-04</_>
    <_>
      4.23319688e+04 4.55884429e-41 4.23319688e+04 4.55884429e-41</_>
    <_>
      0. 0. 2.53488608e-09 4.26518625e-08</_>
    <_>
      8.72936748e-38 0. 8.64967508e-38 0.</_>
    <_>
      0. 0. 4.15315772e-05 4.24871141e-05</_>
    <_>
      0. 0. 1.66148762e-04 4.19551753e-08</_>
    <_>
      0. 0. 4.21086499e-11 6.75051581e-07</_>
    <_>
      0. 0. 4.05572784e-08 1.71840962e-04</_>
    <_>
      0. 0. 4.18812762e-11 1.75659356e-04</_>
    <_>
      4.23319688e+04 4.55884429e-41 1.44066935e-37 0.</_>
    <_>
      0. 0. 1.03840575e-05 1.02564153e-08</_>
    <_>
      0. 0. 2.52080135e-09 6.56410407e-07</_>
    <_>
      4.23319688e+04 4.55884429e-41 8.48998535e-38 0.</_>
    <_>
      0. 0. 1.01404583e-08 1.06222442e-05</_>
    <_>
      0. 0. 1.01404556e-08 1.68994826e-04</_>
    <_>
      0. 0. 1.66118960e-04 1.71545963e-07</_>
    <_>
      0. 0. 4.03328215e-08 4.12575716e-08</_>
    <_>
      0. 0. 2.87223276e+20 2.52080468e-09</_>
    <_>
      4.23319688e+04 4.55884429e-41 1.45121787e-37 0.</_>
    <_>
      0. 0. 6.33749997e-10 1.06825510e-05</_>
    <_>
      0. 0. 2.87223276e+20 2.58130399e-06</_>
    <_>
      0. 0. 4.15315153e-05 1.73755790e-04</_>
    <_>
      0. 0. 1.70879881e-04 1.05624122e-05</_>
    <_>
      4.23319688e+04 4.55884429e-41 4.23319688e+04 4.55884429e-41</_>
    <_>
      1.48305896e-37 0. 9.37189310e-38 0.</_>
    <_>
      4.23320312e+04 4.55884429e-41 1.44658664e-37 0.</_>
    <_>
      2.36942783e-38 2.36942783e-38 2.36942783e-38 2.36942783e-38</_>
    <_>
      0. 0. 7.35016806e-38 0.</_>
    <_>
      0. 0. 6.33750163e-10 4.10220444e-08</_>
    <_>
      0. 0. 4.15334544e-05 2.67040537e-06</_>
    <_>
      0. 0. 1.81434439e+25 8.86491733e-04</_>
    <_>
      4.23319688e+04 4.55884429e-41 1.07069965e-37 0.</_>
    <_>
      0. 0. 2.53511478e-09 2.67028918e-06</_>
    <_>
      0. 0. 6.60226306e-07 1.05037307e-05</_>
    <_>
      0. 0. 2.53522736e-09 6.48330667e-10</_>
    <_>
      4.23319688e+04 4.55884429e-41 1.44958743e-37 0.</_>
    <_>
      4.23319688e+04 4.55884429e-41 9.76381722e-38 0.</_>
    <_>
      9.37164199e-38 0. 4.20389539e-45 1.40129846e-45</_>
    <_>
      4.23319688e+04 4.55884429e-41 1.46513490e-37 0.</_>
    <_>
      0. 0. 2.59613103e-06 2.60804400e-09</_>
    <_>
      0. 0. 1.62232723e-07 4.24262794e-08</_>
    <_>
      0. 0. 2.59572494e-06 6.59159394e-10</_>
    <_>
      0. 0. 2.59578269e-06 4.19560848e-08</_>
    <_>
      0. 0. 4.16539025e-11 1.69690665e-07</_>
    <_>
      0. 0. 2.57900901e-09 4.39204086e-05</_>
    <_>
      8.65215033e-38 0. 1.25714185e-37 0.</_>
    <_>
      0. 0. 4.14338841e-11 1.70632887e-07</_>
    <_>
      0. 0. 1.03838292e-05 4.27283230e-05</_>
    <_>
      0. 0. 4.21086499e-11 1.10397095e-05</_>
    <_>
      0. 0. 2.87223276e+20 1.00832187e-08</_>
    <_>
      0. 0. 2.59560784e-06 4.28883027e-08</_>
    <_>
      0. 0. 6.48989158e-07 6.62910893e-10</_>
    <_>
      0. 0. 6.33707753e-10 2.70044052e-06</_>
    <_>
      0. 0. 4.03328215e-08 1.05472235e-08</_>
    <_>
      0. 0. 6.33721575e-10 1.02561941e-08</_>
    <_>
      0. 0. 6.49004051e-07 1.66885812e-07</_>
    <_>
      0. 0. 6.33778641e-10 1.08005961e-05</_>
    <_>
      0. 0. 1.62240056e-07 1.10390165e-05</_>
    <_>
      0. 0. 1.03842949e-05 2.70020814e-06</_>
    <_>
      0. 0. 4.05608489e-08 6.73768152e-10</_>
    <_>
      4.23319688e+04 4.55884429e-41 1.25488004e-37 0.</_>
    <_>
      0. 0. 1.01390913e-08 6.70144051e-10</_>
    <_>
      8.53916756e-38 0. 1.03844804e-05 2.62219779e-09</_>
    <_>
      2.36942783e-38 2.36942783e-38 2.36942783e-38 2.36942783e-38</_>
    <_>
      0. 0. 1.44867637e-37 0.</_>
    <_>
      9.10826962e-38 0. 8.47290969e-38 0.</_>
    <_>
      0. 0. 6.66463440e-10 4.70305192e-39</_>
    <_>
      9.11536355e-38 0. 1.44958743e-37 0.</_>
    <_>
      8.49009297e-38 0. 9.76971837e-38 0.</_>
    <_>
      1.30809082e-37 0. 4.62428493e-44 0.</_>
    <_>
      7.00649232e-45 4.48415509e-44 1.30432861e-40 0.</_>
    <_>
      4.23319688e+04 4.55884429e-41 9.72961209e-38 0.</_>
    <_>
      4.23319688e+04 4.55884429e-41 8.49009297e-38 0.</_>
    <_>
      4.23319688e+04 4.55884429e-41 8.62598080e-38 0.</_>
    <_>
      4.23319688e+04 4.55884429e-41 1.25488004e-37 0.</_>
    <_>
      8.58960534e-38 0. 9.12745284e-38 0.</_>
    <_>
      4.23319688e+04 4.55884429e-41 1.07069965e-37 0.</_>
    <_>
      1.46514386e-37 0. 2.53481880e-09 2.63680677e-09</_>
    <_>
      4.23319688e+04 4.55884429e-41 1.07069965e-37 0.</_>
    <_>
      2.36942783e-38 2.36942783e-38 2.36942783e-38 2.36942783e-38</_>
    <_>
      9.72622206e-38 0. 4.20389539e-45 1.40129846e-45</_>
    <_>
      4.23319688e+04 4.55884429e-41 1.46513490e-37 0.</_>
    <_>
      2.36942783e-38 2.36942783e-38 2.36942783e-38 2.36942783e-38</_>
    <_>
      1.40188140e-37 0. 4.20389539e-45 1.40129846e-45</_>
    <_>
      4.23319688e+04 4.55884429e-41 1.45121787e-37 0.</_>
    <_>
      2.36942783e-38 2.36942783e-38 2.36942783e-38 2.36942783e-38</_>
    <_>
      1.26368871e-37 0. 5.28148270e-38 0.</_>
    <_>
      1.68155816e-44 1.40129846e-44 1.68155816e-44 1.12103877e-44</_>
    <_>
      1.05249039e-37 0. 1.15968860e-37 0.</_>
    <_>
      4.23319688e+04 4.55884429e-41 8.50607450e-38 0.</_>
    <_>
      0. 0. 1.68972460e-04 1.69676127e-07</_>
    <_>
      0. 0. 4.15381146e-05 4.39204414e-05</_>
    <_>
      2.36942783e-38 2.36942783e-38 2.36942783e-38 2.36942783e-38</_>
    <_>
      0. 0. 1.48212446e-37 0.</_>
    <_>
      0. 0. 4.24815480e-05 4.41579250e-05</_>
    <_>
      0. 0. 2.59286725e-09 1.10385472e-05</_>
    <_>
      0. 0. 2.59560898e-06 1.05612417e-05</_>
    <_>
      0. 0. 4.24815335e-05 1.07814211e-08</_>
    <_>
      0. 0. 4.39157520e-05 4.51938793e-39</_>
    <_>
      0. 0. 2.59601575e-06 4.39213545e-05</_>
    <_>
      0. 0. 2.62569984e-06 5.07147711e-39</_>
    <_>
      0. 0. 4.15334398e-05 6.73711198e-10</_>
    <_>
      0. 0. 2.65509698e-06 4.12621439e-08</_>
    <_>
      0. 0. 1.62232737e-07 4.24871396e-05</_>
    <_>
      0. 0. 2.59572334e-06 1.70905871e-04</_>
    <_>
      4.23319688e+04 4.55884429e-41 8.58960534e-38 0.</_>
    <_>
      0. 0. 4.09791368e-11 2.69997531e-06</_>
    <_>
      0. 0. 4.09791368e-11 4.24235722e-08</_>
    <_>
      4.23319688e+04 4.55884429e-41 1.12099572e-37 0.</_>
    <_>
      0. 0. 4.05243894e-11 4.24880491e-05</_>
    <_>
      4.23319688e+04 4.55884429e-41 4.23319688e+04 4.55884429e-41</_>
    <_>
      0. 0. 1.01411421e-08 1.72502851e-07</_>
    <_>
      0. 0. 4.09708933e-11 6.55648924e-10</_>
    <_>
      2.36942783e-38 2.36942783e-38 2.36942783e-38 2.36942783e-38</_>
    <_>
      0. 0. 1.01409103e-08 2.56416177e-09</_>
    <_>
      0. 0. 1.66130107e-04 2.71481804e-06</_>
    <_>
      0. 0. 1.01406892e-08 1.03728350e-08</_>
    <_>
      0. 0. 6.48974492e-07 4.26527542e-08</_>
    <_>
      0. 0. 6.48931007e-07 6.86227565e-07</_>
    <_>
      0. 0. 4.31156941e-08 2.71481758e-06</_>
    <_>
      0. 0. 4.00631750e-11 2.68057621e-09</_>
    <_>
      0. 0. 2.57900901e-09 2.65124411e-09</_>
    <_>
      8.48998535e-38 0. 1.48096396e-37 0.</_>
    <_>
      1.02754593e-37 0. 1.45121429e-37 0.</_>
    <_>
      0. 0. 6.48945672e-07 4.20093493e-05</_>
    <_>
      0. 0. 1.66122612e-04 2.65521203e-06</_>
    <_>
      0. 0. 1.66118960e-04 4.31220499e-08</_>
    <_>
      0. 0. 6.48989271e-07 2.70020723e-06</_>
    <_>
      0. 0. 2.59589910e-06 2.72977582e-06</_>
    <_>
      0. 0. 1.01404556e-08 6.48359089e-10</_>
    <_>
      0. 0. 1.03826687e-05 2.65147260e-09</_>
    <_>
      0. 0. 4.15352406e-05 6.59272970e-10</_>
    <_>
      4.23319688e+04 4.55884429e-41 8.53912272e-38 0.</_>
    <_>
      0. 0. 1.66133512e-04 2.62225641e-09</_>
    <_>
      0. 0. 1.76601825e-04 4.24235616e-08</_>
    <_>
      0. 0. 1.01399849e-08 1.70625540e-07</_>
    <_>
      0. 0. 4.09791368e-11 1.09193379e-05</_>
    <_>
      0. 0. 2.66562794e-09 6.86184080e-07</_>
    <_>
      0. 0. 4.05599394e-08 4.29648826e-05</_>
    <_>
      0. 0. 2.74450394e-06 6.48273712e-10</_>
    <_>
      0. 0. 1.70879764e-04 6.44720943e-10</_>
    <_>
      0. 0. 4.02970157e-11 4.10256824e-08</_>
    <_>
      0. 0. 1.62243396e-07 4.22449666e-05</_>
    <_>
      0. 0. 6.86212729e-07 5.16008401e-39</_>
    <_>
      0. 0. 2.53482946e-09 6.55535570e-10</_>
    <_>
      0. 0. 1.62232737e-07 2.68040679e-09</_>
    <_>
      0. 0. 6.48960395e-07 1.09796392e-05</_>
    <_>
      0. 0. 1.00832054e-08 4.28892051e-08</_>
    <_>
      0. 0. 1.66137543e-04 6.52011056e-10</_>
    <_>
      0. 0. 1.62258232e-07 2.63709121e-09</_>
    <_>
      0. 0. 1.62229099e-07 1.71549672e-07</_>
    <_>
      4.23319688e+04 4.55884429e-41 9.14968528e-38 0.</_>
    <_>
      0. 0. 1.03833609e-05 6.48245402e-10</_>
    <_>
      4.23320312e+04 4.55884429e-41 1.40191728e-37 0.</_>
    <_>
      2.36942783e-38 2.36942783e-38 2.36942783e-38 2.36942783e-38</_>
    <_>
      1.18008433e-37 0. 1.25778039e-37 0.</_>
    <_>
      0. 0. 2.87223276e+20 1.00832187e-08</_>
    <_>
      0. 0. 4.21086499e-11 1.68052298e-04</_>
    <_>
      0. 0. 1.03842922e-05 2.62587514e-06</_>
    <_>
      2.36942783e-38 2.36942783e-38 2.36942783e-38 2.36942783e-38</_>
    <_>
      0. 0. 1.81434439e+25 8.86491733e-04</_>
    <_>
      0. 0. 1.81434439e+25 8.86491733e-04</_>
    <_>
      0. 0. 4.15334434e-05 1.69013525e-04</_>
    <_>
      0. 0. 1.01402273e-08 1.04899298e-08</_>
    <_>
      0. 0. 4.15325085e-05 6.78791537e-07</_>
    <_>
      4.23320312e+04 4.55884429e-41 1.15967963e-37 0.</_>
    <_>
      0. 0. 6.49032984e-07 1.06806901e-05</_>
    <_>
      4.23320312e+04 4.55884429e-41 8.62635747e-38 0.</_>
    <_>
      0. 0. 1.01400053e-08 6.55564047e-10</_>
    <_>
      0. 0. 2.53528509e-09 6.70201117e-10</_>
    <_>
      0. 0. 4.15381255e-05 1.73759458e-04</_>
    <_>
      4.23319688e+04 4.55884429e-41 1.46535731e-37 0.</_>
    <_>
      0. 0. 1.01397717e-08 4.14940793e-08</_>
    <_>
      0. 0. 4.10202254e-08 1.09784805e-05</_>
    <_>
      0. 0. 4.18886315e-11 6.73796297e-10</_>
    <_>
      0. 0. 4.14338841e-11 4.19588062e-08</_>
    <_>
      0. 0. 6.33706421e-10 6.67586392e-07</_>
    <_>
      0. 0. 1.64080873e-07 2.62236988e-09</_>
    <_>
      9.72823097e-38 0. 9.75321668e-38 0.</_>
    <_>
      4.23319688e+04 4.55884429e-41 1.46589541e-37 0.</_>
    <_>
      0. 0. 6.40940967e-10 2.65521362e-06</_>
    <_>
      0. 0. 4.14858903e-08 2.63697708e-09</_>
    <_>
      0. 0. 1.66152400e-04 1.10383135e-05</_>
    <_>
      4.23319688e+04 4.55884429e-41 1.46589541e-37 0.</_>
    <_>
      0. 0. 6.48916512e-07 4.17250732e-08</_>
    <_>
      0. 0. 6.33693320e-10 1.05481357e-08</_>
    <_>
      4.23319688e+04 4.55884429e-41 9.76695613e-38 0.</_>
    <_>
      0. 0. 2.87223276e+20 2.52080468e-09</_>
    <_>
      1.06841452e-37 0. 1.30808005e-37 0.</_>
    <_>
      0. 0. 4.21077617e-11 6.44649945e-10</_>
    <_>
      0. 0. 1.81434439e+25 8.86491733e-04</_>
    <_>
      4.23319688e+04 4.55884429e-41 1.08684440e-37 0.</_>
    <_>
      4.23319688e+04 4.55884429e-41 1.27400765e-37 0.</_>
    <_>
      2.36942783e-38 2.36942783e-38 2.36942783e-38 2.36942783e-38</_>
    <_>
      0. 0. 6.48916341e-07 6.86154749e-07</_>
    <_>
      0. 0. 4.12065104e-11 4.21898143e-08</_>
    <_>
      0. 0. 1.81434439e+25 8.86491733e-04</_>
    <_>
      0. 0. 4.07452960e-11 1.76616770e-04</_>
    <_>
      0. 0. 2.87223276e+20 1.00832187e-08</_>
    <_>
      0. 0. 2.87223276e+20 1.00832187e-08</_>
    <_>
      4.23319688e+04 4.55884429e-41 1.25237429e-37 0.</_>
    <_>
      0. 0. 2.87223276e+20 1.00832187e-08</_>
    <_>
      0. 0. 1.66141239e-04 2.66591016e-09</_>
    <_>
      0. 0. 6.33693431e-10 6.82487666e-07</_>
    <_>
      0. 0. 6.33736119e-10 2.65544577e-06</_>
    <_>
      0. 0. 4.05609306e-08 1.67831644e-07</_>
    <_>
      0. 0. 4.15297109e-05 2.64054529e-06</_>
    <_>
      0. 0. 2.59613171e-06 4.41607226e-05</_>
    <_>
      0. 0. 4.24815225e-05 1.04903819e-08</_>
    <_>
      0. 0. 2.57900901e-09 6.48315956e-10</_>
    <_>
      0. 0. 4.21160051e-11 1.69948471e-04</_>
    <_>
      0. 0. 4.00578459e-11 1.70607436e-07</_>
    <_>
      0. 0. 4.02852196e-11 1.69940991e-04</_>
    <_>
      0. 0. 2.87223276e+20 4.02970678e-11</_>
    <_>
      0. 0. 1.71531468e-07 1.02573248e-08</_>
    <_>
      0. 0. 1.62250913e-07 1.07809655e-08</_>
    <_>
      0. 0. 2.53522781e-09 1.02570974e-08</_>
    <_>
      0. 0. 1.76601810e-04 4.41532648e-05</_>
    <_>
      0. 0. 6.66406652e-10 2.56427413e-09</_>
    <_>
      2.36942783e-38 2.36942783e-38 2.36942783e-38 2.36942783e-38</_>
    <_>
      2.36942783e-38 2.36942783e-38 2.36942783e-38 2.36942783e-38</_>
    <_>
      2.36942783e-38 2.36942783e-38 2.36942783e-38 2.36942783e-38</_>
    <_>
      0. 0. 4.03328215e-08 6.48358589e-10</_>
    <_>
      0. 0. 4.05161460e-11 1.10401779e-05</_>
    <_>
      0. 0. 2.58130058e-06 4.34389149e-05</_>
    <_>
      0. 0. 2.87223276e+20 2.52080468e-09</_>
    <_>
      0. 0. 4.16548497e-11 4.41532538e-05</_>
    <_>
      0. 0. 1.03824295e-05 2.71493445e-06</_>
    <_>
      4.23319688e+04 4.55884429e-41 9.76381722e-38 0.</_>
    <_>
      0. 0. 4.00614576e-11 1.07996620e-05</_>
    <_>
      1.06930956e-37 0. 4.20389539e-45 1.40129846e-45</_>
    <_>
      0. 0. 4.36773335e-05 5.06860024e-39</_>
    <_>
      0. 0. 2.60741873e-09 2.74485342e-06</_>
    <_>
      4.23319688e+04 4.55884429e-41 4.23319688e+04 4.55884429e-41</_>
    <_>
      0. 0. 2.59560738e-06 6.60194303e-07</_>
    <_>
      0. 0. 1.03828943e-05 2.62259747e-09</_>
    <_>
      0. 0. 6.60226306e-07 1.68983563e-04</_>
    <_>
      4.23319688e+04 4.55884429e-41 8.54144551e-38 0.</_>
    <_>
      0. 0. 1.01402309e-08 1.05479074e-08</_>
    <_>
      0. 0. 4.07444078e-11 1.70640121e-07</_>
    <_>
      0. 0. 1.69017934e-04 1.10380770e-05</_>
    <_>
      4.23319688e+04 4.55884429e-41 8.50242439e-38 0.</_>
    <_>
      0. 0. 4.09708933e-11 1.70902204e-04</_>
    <_>
      0. 0. 2.64090522e-06 6.56352199e-07</_>
    <_>
      4.23319688e+04 4.55884429e-41 1.25512756e-37 0.</_>
    <_>
      0. 0. 1.01395443e-08 2.57876986e-09</_>
    <_>
      0. 0. 4.15353315e-05 6.55549670e-10</_>
    <_>
      4.23320312e+04 4.55884429e-41 9.72998875e-38 0.</_>
    <_>
      0. 0. 1.62232482e-07 1.75663081e-04</_>
    <_>
      0. 0. 1.62240028e-07 2.57882626e-09</_>
    <_>
      0. 0. 4.14338841e-11 4.21880095e-08</_>
    <_>
      0. 0. 1.03132578e-08 1.06213129e-05</_>
    <_>
      0. 0. 1.70600174e-07 1.65019486e-07</_>
    <_>
      0. 0. 6.48915375e-07 4.20102879e-05</_>
    <_>
      0. 0. 1.81434439e+25 8.86491733e-04</_>
    <_>
      4.23319688e+04 4.55884429e-41 9.76711756e-38 0.</_>
    <_>
      0. 0. 1.81434439e+25 8.86491733e-04</_>
    <_>
      0. 0. 1.70600089e-07 1.69679737e-07</_>
    <_>
      0. 0. 4.34352041e-05 4.10238670e-08</_>
    <_>
      4.23319688e+04 4.55884429e-41 1.27400765e-37 0.</_>
    <_>
      0. 0. 2.59584044e-06 1.03732871e-08</_>
    <_>
      4.23319688e+04 4.55884429e-41 7.34874097e-38 0.</_>
    <_>
      2.36942783e-38 2.36942783e-38 2.36942783e-38 2.36942783e-38</_>
    <_>
      1.35066339e-37 0. 4.20389539e-45 1.40129846e-45</_>
    <_>
      0. 0. 1.66152502e-04 4.39167234e-05</_>
    <_>
      0. 0. 2.87223276e+20 2.52080468e-09</_>
    <_>
      0. 0. 2.53528554e-09 6.66449118e-10</_>
    <_>
      2.36942783e-38 2.36942783e-38 2.36942783e-38 2.36942783e-38</_>
    <_>
      1.15908414e-37 0. 8.47504414e-38 0.</_>
    <_>
      1.15908414e-37 0. 7.59744118e-38 0.</_>
    <_>
      0. 0. 4.07452960e-11 1.04317204e-08</_>
    <_>
      0. 0. 4.15315953e-05 4.19533421e-08</_>
    <_>
      2.36942783e-38 2.36942783e-38 2.36942783e-38 2.36942783e-38</_>
    <_>
      9.37192897e-38 0. 8.90546922e-38 0.</_>
    <_>
      1.35335567e-37 0. 1.36272397e-37 0.</_>
    <_>
      1.45121429e-37 0. 1.40129846e-45 1.87500000e+00</_>
    <_>
      4.23319688e+04 4.55884429e-41 1.46544699e-37 0.</_>
    <_>
      0. 6.72623263e-44 2.80259693e-45 6.72623263e-44</_>
    <_>
      1.05249039e-37 0. 1.45335412e-37 0.</_>
    <_>
      1.16313961e-37 0. 4.20389539e-45 1.40129846e-45</_>
    <_>
      4.23319688e+04 4.55884429e-41 9.72907399e-38 0.</_>
    <_>
      4.23320312e+04 4.55884429e-41 1.45312274e-37 0.</_>
    <_>
      4.23319688e+04 4.55884429e-41 9.11523800e-38 0.</_>
    <_>
      4.23319688e+04 4.55884429e-41 1.45121787e-37 0.</_>
    <_>
      7.42557249e-38 0. 4.20389539e-45 1.40129846e-45</_>
    <_>
      0. 0. 6.49004107e-07 4.26563993e-08</_>
    <_>
      0. 0. 6.33764652e-10 4.14904306e-08</_>
    <_>
      4.23320312e+04 4.55884429e-41 1.45316579e-37 0.</_>
    <_>
      0. 0. 4.15343748e-05 1.72480952e-07</_>
    <_>
      0. 0. 4.15343893e-05 6.60165313e-07</_>
    <_>
      0. 0. 1.62251013e-07 4.39139149e-05</_>
    <_>
      0. 0. 4.31157048e-08 6.56454517e-07</_>
    <_>
      0. 0. 1.08588001e-05 6.86242345e-07</_>
    <_>
      0. 0. 2.53505306e-09 1.73781824e-04</_>
    <_>
      0. 0. 1.66141268e-04 2.69507239e-09</_>
    <_>
      0. 0. 1.68018742e-04 1.68994811e-04</_>
    <_>
      0. 0. 4.03328215e-08 2.62575804e-06</_>
    <_>
      0. 0. 2.52080135e-09 1.68055965e-04</_>
    <_>
      0. 0. 6.30200336e-10 4.41578959e-05</_>
    <_>
      0. 0. 4.05243894e-11 1.08003587e-05</_>
    <_>
      0. 0. 4.12065104e-11 4.39213545e-05</_>
    <_>
      0. 0. 4.18886315e-11 2.62575850e-06</_>
    <_>
      0. 0. 1.62247318e-07 6.56454517e-07</_>
    <_>
      0. 0. 4.09717815e-11 4.24226414e-08</_>
    <_>
      4.23319688e+04 4.55884429e-41 1.07069965e-37 0.</_>
    <_>
      0. 0. 2.59566514e-06 1.71542325e-07</_>
    <_>
      0. 0. 2.87223276e+20 1.00832187e-08</_>
    <_>
      0. 0. 2.59560784e-06 6.73810785e-10</_>
    <_>
      0. 0. 4.15334507e-05 6.55535459e-10</_>
    <_>
      0. 0. 1.01402300e-08 6.60121373e-07</_>
    <_>
      0. 0. 4.02905487e-11 4.39185860e-05</_>
    <_>
      0. 0. 4.02905487e-11 4.29620886e-05</_>
    <_>
      0. 0. 2.87223276e+20 1.00832187e-08</_>
    <_>
      0. 0. 2.87223276e+20 1.00832187e-08</_>
    <_>
      1.12107285e-37 0. 1.48070388e-37 0.</_>
    <_>
      1.48070388e-37 0. 1.35034770e-37 0.</_>
    <_>
      4.23319688e+04 4.55884429e-41 1.27399510e-37 0.</_>
    <_>
      0. 0. 4.16530144e-11 2.74496824e-06</_>
    <_>
      0. 0. 1.81434439e+25 8.86491733e-04</_>
    <_>
      0. 0. 6.48974492e-07 1.66911207e-07</_>
    <_>
      8.58825112e-38 0. 4.23314688e+04 4.55884429e-41</_>
    <_>
      0. 0. 4.21160051e-11 6.56469183e-07</_>
    <_>
      4.23319688e+04 4.55884429e-41 1.25486390e-37 0.</_>
    <_>
      0. 0. 2.87223276e+20 4.02970678e-11</_>
    <_>
      0. 0. 4.21160051e-11 1.06641007e-08</_>
    <_>
      0. 0. 1.81434439e+25 8.86491733e-04</_>
    <_>
      0. 0. 2.66999632e-06 6.51982912e-10</_>
    <_>
      4.23319688e+04 4.55884429e-41 4.23319688e+04 4.55884429e-41</_>
    <_>
      0. 0. 2.68017919e-09 2.69524181e-09</_>
    <_>
      4.23320312e+04 4.55884429e-41 8.47504414e-38 0.</_>
    <_>
      4.23320312e+04 4.55884429e-41 1.45316579e-37 0.</_>
    <_>
      4.23319688e+04 4.55884429e-41 8.48998535e-38 0.</_>
    <_>
      9.76711756e-38 0. 8.47767186e-38 0.</_>
    <_>
      1.46446227e-37 0. 1.16313961e-37 0.</_>
    <_>
      7.42557249e-38 0. 4.20389539e-45 1.40129846e-45</_>
    <_>
      7.07557521e-38 0. 9.72597095e-38 0.</_>
    <_>
      0. 0. 4.15343093e-05 1.69701494e-07</_>
    <_>
      0. 0. 6.45325144e-07 6.59173049e-10</_>
    <_>
      4.23319688e+04 4.55884429e-41 1.45121787e-37 0.</_>
    <_>
      1.12097599e-37 0. 7.59744118e-38 0.</_>
    <_>
      0. 0. 2.87223276e+20 2.58130399e-06</_>
    <_>
      0. 0. 2.52080135e-09 4.31229452e-08</_>
    <_>
      4.23319688e+04 4.55884429e-41 1.07069965e-37 0.</_>
    <_>
      0. 0. 4.05243894e-11 4.32005072e-05</_>
    <_>
      0. 0. 4.07517631e-11 6.66463496e-10</_>
    <_>
      4.23319688e+04 4.55884429e-41 1.27399510e-37 0.</_>
    <_>
      0. 0. 4.18803880e-11 6.55563825e-10</_>
    <_>
      0. 0. 2.53511434e-09 2.69529887e-09</_>
    <_>
      0. 0. 4.11991552e-11 6.86285887e-07</_>
    <_>
      4.23319688e+04 4.55884429e-41 1.25511501e-37 0.</_>
    <_>
      0. 0. 1.81434439e+25 8.86491733e-04</_>
    <_>
      1.44959999e-37 0. 9.10628762e-38 0.</_>
    <_>
      0. 0. 6.48945388e-07 1.02557367e-08</_>
    <_>
      0. 0. 1.66874869e-07 4.32014531e-05</_>
    <_>
      4.23319688e+04 4.55884429e-41 1.25488004e-37 0.</_>
    <_>
      4.23319688e+04 4.55884429e-41 8.49009297e-38 0.</_>
    <_>
      0. 0. 2.87223276e+20 1.00832187e-08</_>
    <_>
      0. 0. 4.00631750e-11 1.05021027e-05</_>
    <_>
      0. 0. 1.66148646e-04 2.65130140e-09</_>
    <_>
      1.07013464e-37 0. 4.20389539e-45 1.40129846e-45</_>
    <_>
      2.36942783e-38 2.36942783e-38 2.36942783e-38 2.36942783e-38</_>
    <_>
      0. 0. 1.03842913e-05 2.68536382e-06</_>
    <_>
      0. 0. 4.18803880e-11 4.20130855e-05</_>
    <_>
      0. 0. 4.02970157e-11 1.07807425e-08</_>
    <_>
      0. 0. 1.03845241e-05 4.21925606e-08</_>
    <_>
      0. 0. 4.15316063e-05 6.86184023e-07</_>
    <_>
      0. 0. 2.87223276e+20 2.52080468e-09</_>
    <_>
      0. 0. 2.59601507e-06 4.39213654e-05</_>
    <_>
      0. 0. 4.15361719e-05 2.57877120e-09</_>
    <_>
      0. 0. 4.15352988e-05 1.08005925e-05</_>
    <_>
      0. 0. 6.48901960e-07 6.86183739e-07</_>
    <_>
      0. 0. 4.10202183e-08 2.63686473e-09</_>
    <_>
      0. 0. 2.62197153e-09 6.59216071e-10</_>
    <_>
      0. 0. 6.33749053e-10 4.19606359e-08</_>
    <_>
      0. 0. 2.59577791e-06 1.68759371e-07</_>
    <_>
      0. 0. 1.62236120e-07 2.63674949e-09</_>
    <_>
      0. 0. 2.57900901e-09 1.04892433e-08</_>
    <_>
      0. 0. 1.01397575e-08 6.44720721e-10</_>
    <_>
      0. 0. 1.81434439e+25 8.86491733e-04</_>
    <_>
      0. 0. 2.74450258e-06 2.65550375e-06</_>
    <_>
      0. 0. 2.68017919e-09 6.48245346e-10</_>
    <_>
      0. 0. 2.87223276e+20 4.03328748e-08</_>
    <_>
      0. 0. 2.60741895e-09 2.70014925e-06</_>
    <_>
      0. 0. 6.48988134e-07 2.64071855e-06</_>
    <_>
      0. 0. 1.81434439e+25 8.86491733e-04</_>
    <_>
      1.49265685e-37 0. 7.42602987e-38 0.</_>
    <_>
      7.42607471e-38 0. 9.72968495e-38 0.</_>
    <_>
      9.76381722e-38 0. 5.88382132e-38 0.</_>
    <_>
      8.48996741e-38 0. 1.36415890e-37 0.</_>
    <_>
      1.25512756e-37 0. 4.20389539e-45 1.40129846e-45</_>
    <_>
      4.23319688e+04 4.55884429e-41 4.23319688e+04 4.55884429e-41</_>
    <_>
      0. 0. 1.62247389e-07 6.71370401e-07</_>
    <_>
      0. 0. 4.09700641e-11 1.07811928e-08</_>
    <_>
      0. 0. 4.14256407e-11 1.76616828e-04</_>
    <_>
      0. 0. 2.87223276e+20 2.52080468e-09</_>
    <_>
      8.63036631e-38 0. 8.45182519e-38 0.</_>
    <_>
      1.35034770e-37 0. 7.35158393e-38 0.</_>
    <_>
      1.43667665e-37 0. 4.56426900e-38 0.</_>
    <_>
      0. 0. 4.18803880e-11 4.41551274e-05</_>
    <_>
      0. 0. 4.16612578e-11 6.71326347e-07</_>
    <_>
      0. 0. 1.66148675e-04 2.62254063e-09</_>
    <_>
      0. 0. 2.87223276e+20 1.00832187e-08</_>
    <_>
      0. 0. 4.07444078e-11 6.74979049e-07</_>
    <_>
      0. 0. 1.05636209e-05 1.75659283e-04</_>
    <_>
      0. 0. 4.22544836e-05 2.57859822e-09</_>
    <_>
      0. 0. 1.81434439e+25 8.86491733e-04</_>
    <_>
      0. 0. 2.87223276e+20 1.00832187e-08</_>
    <_>
      0. 0. 2.87223276e+20 1.00832187e-08</_>
    <_>
      4.23319688e+04 4.55884429e-41 8.53997471e-38 0.</_>
    <_>
      0. 0. 1.01397779e-08 6.41012132e-10</_>
    <_>
      0. 0. 1.01402291e-08 1.69701579e-07</_>
    <_>
      0. 0. 4.21843787e-08 1.68751995e-07</_>
    <_>
      0. 0. 1.06799907e-05 4.31220428e-08</_>
    <_>
      0. 0. 2.68489907e-06 1.72802014e-04</_>
    <_>
      4.23319688e+04 4.55884429e-41 1.44318765e-37 0.</_>
    <_>
      0. 0. 4.09717815e-11 2.62552771e-06</_>
    <_>
      4.23319688e+04 4.55884429e-41 8.54144551e-38 0.</_>
    <_>
      4.23319688e+04 4.55884429e-41 1.45121787e-37 0.</_>
    <_>
      0. 0. 4.00622868e-11 1.73755805e-04</_>
    <_>
      0. 0. 4.21077617e-11 1.68991071e-04</_>
    <_>
      0. 0. 4.16530144e-11 1.07807390e-08</_>
    <_>
      0. 0. 4.00696420e-11 2.68524809e-06</_>
    <_>
      0. 0. 1.81434439e+25 8.86491733e-04</_>
    <_>
      0. 0. 1.62229071e-07 2.71499198e-06</_>
    <_>
      0. 0. 2.87223276e+20 2.52080468e-09</_>
    <_>
      0. 0. 1.81434439e+25 8.86491733e-04</_>
    <_>
      4.23319688e+04 4.55884429e-41 8.49009297e-38 0.</_>
    <_>
      0. 0. 4.16612578e-11 4.36782793e-05</_>
    <_>
      0. 0. 4.00613986e-11 4.32051747e-05</_>
    <_>
      0. 0. 2.57831489e-09 2.57888422e-09</_>
    <_>
      0. 0. 1.81434439e+25 8.86491733e-04</_>
    <_>
      0. 0. 1.81434439e+25 8.86491733e-04</_>
    <_>
      1.44866190e-37 0. 9.75321668e-38 0.</_>
    <_>
      9.75321668e-38 0. 1.26933157e-37 0.</_>
    <_>
      8.64513711e-38 0. 1.45121787e-37 0.</_>
    <_>
      0. 0. 1.03252023e-05 1.08017539e-05</_>
    <_>
      0. 0. 2.58130058e-06 4.24880345e-05</_>
    <_>
      0. 0. 4.28828564e-08 2.65130295e-09</_>
    <_>
      4.23319688e+04 4.55884429e-41 1.08684440e-37 0.</_>
    <_>
      0. 0. 4.19515267e-08 2.62541130e-06</_>
    <_>
      1.47907703e-37 0. 4.20389539e-45 1.40129846e-45</_>
    <_>
      0. 0. 2.53477328e-09 4.17223625e-08</_>
    <_>
      0. 0. 4.15353279e-05 4.41551092e-05</_>
    <_>
      0. 0. 4.12641441e-08 2.65544395e-06</_>
    <_>
      9.37127428e-38 0. 8.57744431e-38 0.</_>
    <_>
      0. 0. 1.05636209e-05 1.05481330e-08</_>
    <_>
      2.36942783e-38 2.36942783e-38 2.36942783e-38 2.36942783e-38</_>
    <_>
      2.36942783e-38 2.36942783e-38 2.36942783e-38 2.36942783e-38</_>
    <_>
      0. 0. 1.66118858e-04 6.62868260e-10</_>
    <_>
      7.59744118e-38 0. 4.20389539e-45 1.40129846e-45</_>
    <_>
      2.36942783e-38 2.36942783e-38 2.36942783e-38 2.36942783e-38</_>
    <_>
      4.23319688e+04 4.55884429e-41 1.44959999e-37 0.</_>
    <_>
      0. 0. 4.18803880e-11 1.67831644e-07</_>
    <_>
      0. 0. 4.22544836e-05 4.32032903e-05</_>
    <_>
      8.68112694e-38 0. 9.16460854e-38 0.</_>
    <_>
      0. 0. 4.15381182e-05 6.78820811e-07</_>
    <_>
      0. 0. 4.15297109e-05 2.68040612e-09</_>
    <_>
      0. 0. 2.75940397e-06 1.06047553e-08</_>
    <_>
      1.08611976e-37 0. 8.47308905e-38 0.</_>
    <_>
      1.47698203e-37 0. 1.47919900e-37 0.</_>
    <_>
      0. 0. 2.52233724e-44 0.</_>
    <_>
      4.23319688e+04 4.55884429e-41 1.27399510e-37 0.</_>
    <_>
      4.23319688e+04 4.55884429e-41 1.25486390e-37 0.</_>
    <_>
      0. 0. 1.01400026e-08 1.05614745e-05</_>
    <_>
      0. 0. 4.21086499e-11 1.05028030e-05</_>
    <_>
      0. 0. 4.02905487e-11 1.06636451e-08</_>
    <_>
      4.23319688e+04 4.55884429e-41 8.53997471e-38 0.</_>
    <_>
      0. 0. 4.15334507e-05 4.32060951e-05</_>
    <_>
      0. 0. 4.15315990e-05 2.74467720e-06</_>
    <_>
      0. 0. 4.18886315e-11 1.69705160e-07</_>
    <_>
      0. 0. 4.07452960e-11 6.41083020e-10</_>
    <_>
      0. 0. 2.57900901e-09 4.31995650e-05</_>
    <_>
      0. 0. 4.00631750e-11 2.75981211e-06</_>
    <_>
      0. 0. 1.62232780e-07 1.73766923e-04</_>
    <_>
      0. 0. 4.16539025e-11 1.06229472e-05</_>
    <_>
      4.23319688e+04 4.55884429e-41 1.27399510e-37 0.</_>
    <_>
      0. 0. 2.87223276e+20 1.00832187e-08</_>
    <_>
      0. 0. 1.01404547e-08 1.06227108e-05</_>
    <_>
      0. 0. 4.05563583e-08 4.17287005e-08</_>
    <_>
      4.23319688e+04 4.55884429e-41 1.27399510e-37 0.</_>
    <_>
      0. 0. 4.15352406e-05 2.68034839e-09</_>
    <_>
      0. 0. 1.81434439e+25 8.86491733e-04</_>
    <_>
      0. 0. 2.87223276e+20 4.03328748e-08</_>
    <_>
      0. 0. 1.66130048e-04 1.07419201e-05</_>
    <_>
      4.23319688e+04 4.55884429e-41 8.50607450e-38 0.</_>
    <_>
      0. 0. 1.66122642e-04 1.73774373e-04</_>
    <_>
      0. 0. 1.68018873e-04 4.31247891e-08</_>
    <_>
      0. 0. 1.66130078e-04 6.86256953e-07</_>
    <_>
      0. 0. 4.41504526e-05 4.31247891e-08</_>
    <_>
      0. 0. 2.66999768e-06 1.02568745e-08</_>
    <_>
      0. 0. 1.64080916e-07 1.09200400e-05</_>
    <_>
      4.23320312e+04 4.55884429e-41 1.34825629e-37 0.</_>
    <_>
      1.12097599e-37 0. 9.77054345e-38 0.</_>
    <_>
      4.23319688e+04 4.55884429e-41 1.44958743e-37 0.</_>
    <_>
      9.72973764e-38 0. 4.20389539e-45 1.40129846e-45</_>
    <_>
      1.45121787e-37 0. 4.20389539e-45 1.40129846e-45</_>
    <_>
      0. 0. 2.59583612e-06 6.60078115e-07</_>
    <_>
      0. 0. 2.74450349e-06 2.65147282e-09</_>
    <_>
      0. 0. 4.20047108e-05 4.19551611e-08</_>
    <_>
      0. 0. 4.00696420e-11 1.65026677e-07</_>
    <_>
      0. 0. 1.62247275e-07 6.71282692e-07</_>
    <_>
      1.30808005e-37 0. 1.40129846e-45 1.87500000e+00</_>
    <_>
      9.72945066e-38 0. 1.40190113e-37 0.</_>
    <_>
      4.23320312e+04 4.55884429e-41 9.37194691e-38 0.</_>
    <_>
      0. 0. 2.74450349e-06 4.26600408e-08</_>
    <_>
      0. 0. 6.71224825e-07 2.63663757e-09</_>
    <_>
      0. 0. 4.21086499e-11 4.31184297e-08</_>
    <_>
      0. 0. 4.07452960e-11 2.62546746e-06</_>
    <_>
      0. 0. 1.03160360e-08 1.73774286e-04</_>
    <_>
      0. 0. 6.33778641e-10 4.36829541e-05</_>
    <_>
      0. 0. 1.05636209e-05 4.20074721e-05</_>
    <_>
      4.23319688e+04 4.55884429e-41 4.56426900e-38 0.</_>
    <_>
      0. 0. 1.01395461e-08 1.02555120e-08</_>
    <_>
      0. 0. 1.03835946e-05 6.75051979e-07</_>
    <_>
      4.23319688e+04 4.55884429e-41 9.76711756e-38 0.</_>
    <_>
      0. 0. 1.01406856e-08 1.06825501e-05</_>
    <_>
      0. 0. 2.53517052e-09 6.75080798e-07</_>
    <_>
      0. 0. 1.66152488e-04 6.82487723e-07</_>
    <_>
      0. 0. 4.16530144e-11 1.09198054e-05</_>
    <_>
      0. 0. 4.07435197e-11 1.06224788e-05</_>
    <_>
      0. 0. 6.49031790e-07 6.48302356e-10</_>
    <_>
      0. 0. 4.14338841e-11 1.66893045e-07</_>
    <_>
      4.23319688e+04 4.55884429e-41 4.23319688e+04 4.55884429e-41</_>
    <_>
      0. 0. 2.87223276e+20 1.61331499e-07</_>
    <_>
      0. 0. 1.75648209e-04 1.07414553e-05</_>
    <_>
      0. 0. 6.71224427e-07 1.67817078e-07</_>
    <_>
      0. 0. 4.26563744e-08 4.42610770e-39</_>
    <_>
      0. 0. 6.30200336e-10 6.67615382e-07</_>
    <_>
      8.64183678e-38 0. 4.23314688e+04 4.55884429e-41</_>
    <_>
      0. 0. 1.81434439e+25 8.86491733e-04</_>
    <_>
      0. 0. 1.03831117e-05 6.51954046e-10</_>
    <_>
      0. 0. 4.31968074e-05 1.06229418e-05</_>
    <_>
      4.23319688e+04 4.55884429e-41 1.44959999e-37 0.</_>
    <_>
      0. 0. 2.53522758e-09 4.12567012e-08</_>
    <_>
      4.23320312e+04 4.55884429e-41 1.44068190e-37 0.</_>
    <_>
      0. 0. 2.59590001e-06 2.69997486e-06</_>
    <_>
      0. 0. 4.15362410e-05 1.72828150e-04</_>
    <_>
      0. 0. 2.59589820e-06 2.70038231e-06</_>
    <_>
      0. 0. 2.59560738e-06 1.71556920e-07</_>
    <_>
      4.23320312e+04 4.55884429e-41 7.34869613e-38 0.</_>
    <_>
      0. 0. 2.59578155e-06 1.06047517e-08</_>
    <_>
      4.23319688e+04 4.55884429e-41 1.46535731e-37 0.</_>
    <_>
      0. 0. 4.14265289e-11 4.41588345e-05</_>
    <_>
      0. 0. 2.53500088e-09 6.71282805e-07</_>
    <_>
      8.50250511e-38 0. 1.30842085e-37 0.</_>
    <_>
      0. 0. 1.62229099e-07 1.03155333e-08</_>
    <_>
      0. 0. 4.16539025e-11 2.64066125e-06</_>
    <_>
      0. 0. 4.16539025e-11 1.68777447e-07</_>
    <_>
      0. 0. 4.07517631e-11 1.66885798e-07</_>
    <_>
      4.23319688e+04 4.55884429e-41 8.54144551e-38 0.</_>
    <_>
      0. 0. 6.48931234e-07 1.08613613e-05</_>
    <_>
      0. 0. 4.15343857e-05 2.70038140e-06</_>
    <_>
      9.14974805e-38 0. 8.57571343e-38 0.</_>
    <_>
      0. 0. 2.87223276e+20 1.00832187e-08</_>
    <_>
      0. 0. 1.03840594e-05 1.07227649e-08</_>
    <_>
      0. 0. 1.01406830e-08 2.74461945e-06</_>
    <_>
      4.23319688e+04 4.55884429e-41 8.49009297e-38 0.</_>
    <_>
      0. 0. 2.52080135e-09 1.05021008e-05</_>
    <_>
      0. 0. 4.15325158e-05 1.64117225e-07</_>
    <_>
      0. 0. 4.00696420e-11 2.66579803e-09</_>
    <_>
      0. 0. 4.02970157e-11 4.24917926e-05</_>
    <_>
      0. 0. 4.09791368e-11 2.68040523e-09</_>
    <_>
      1.44958743e-37 0. 8.64702943e-38 0.</_>
    <_>
      4.23319688e+04 4.55884429e-41 1.49305683e-37 0.</_>
    <_>
      4.23319688e+04 4.55884429e-41 4.23319688e+04 4.55884429e-41</_>
    <_>
      4.23320312e+04 4.55884429e-41 4.23320312e+04 4.55884429e-41</_>
    <_>
      0. 0. 6.48930836e-07 1.68759371e-07</_>
    <_>
      4.23319688e+04 4.55884429e-41 4.23319688e+04 4.55884429e-41</_>
    <_>
      0. 0. 2.87223276e+20 2.52080468e-09</_>
    <_>
      0. 0. 4.14338841e-11 2.65135847e-09</_>
    <_>
      9.37192897e-38 0. 4.23314688e+04 4.55884429e-41</_>
    <_>
      0. 0. 2.87223276e+20 2.52080468e-09</_>
    <_>
      0. 0. 6.48989214e-07 6.56483735e-07</_>
    <_>
      0. 0. 2.59607464e-06 1.65954376e-07</_>
    <_>
      0. 0. 4.05572678e-08 6.73753886e-10</_>
    <_>
      0. 0. 1.62240042e-07 6.41026399e-10</_>
    <_>
      0. 0. 6.33707531e-10 1.72798318e-04</_>
    <_>
      0. 0. 1.62240042e-07 1.76639063e-04</_>
    <_>
      0. 0. 4.05627389e-08 1.72805798e-04</_>
    <_>
      0. 0. 1.81434439e+25 8.86491733e-04</_>
    <_>
      0. 0. 1.01397752e-08 6.63832168e-07</_>
    <_>
      0. 0. 2.87223276e+20 2.52080468e-09</_>
    <_>
      0. 0. 2.87223276e+20 2.52080468e-09</_>
    <_>
      0. 0. 4.14338841e-11 1.69967127e-04</_>
    <_>
      0. 0. 4.15353134e-05 1.04305835e-08</_>
    <_>
      0. 0. 6.33821218e-10 1.72794578e-04</_>
    <_>
      0. 0. 1.66122642e-04 4.14886223e-08</_>
    <_>
      0. 0. 4.09708933e-11 1.73770721e-04</_>
    <_>
      4.23319688e+04 4.55884429e-41 4.56426900e-38 0.</_>
    <_>
      0. 0. 4.14338841e-11 6.67616007e-07</_>
    <_>
      0. 0. 1.81434439e+25 8.86491733e-04</_>
    <_>
      0. 0. 4.16612578e-11 6.86256612e-07</_>
    <_>
      0. 0. 4.00622868e-11 1.06222496e-05</_>
    <_>
      0. 0. 4.05170342e-11 1.65023096e-07</_>
    <_>
      0. 0. 4.07444078e-11 6.56410919e-07</_>
    <_>
      0. 0. 4.09717815e-11 1.07402948e-05</_>
    <_>
      0. 0. 2.59601529e-06 1.06213192e-05</_>
    <_>
      0. 0. 6.48916625e-07 2.65152922e-09</_>
    <_>
      0. 0. 4.11991552e-11 2.69518474e-09</_>
    <_>
      0. 0. 2.87223276e+20 1.00832187e-08</_>
    <_>
      0. 0. 2.87223276e+20 1.00832187e-08</_>
    <_>
      0. 0. 4.02896605e-11 4.28910418e-08</_>
    <_>
      0. 0. 1.03831317e-05 6.51897203e-10</_>
    <_>
      0. 0. 1.01404600e-08 4.41560696e-05</_>
    <_>
      0. 0. 1.01397779e-08 1.65048505e-07</_>
    <_>
      0. 0. 4.07435197e-11 1.05018726e-05</_>
    <_>
      0. 0. 2.87223276e+20 2.52080468e-09</_>
    <_>
      0. 0. 4.00613986e-11 1.04310427e-08</_>
    <_>
      0. 0. 1.01397726e-08 2.64060259e-06</_>
    <_>
      0. 0. 1.81434439e+25 8.86491733e-04</_>
    <_>
      0. 0. 2.59595254e-06 1.67827949e-07</_>
    <_>
      0. 0. 4.15362556e-05 6.89967578e-07</_>
    <_>
      0. 0. 4.14338841e-11 2.68536451e-06</_>
    <_>
      0. 0. 6.33707586e-10 2.60793165e-09</_>
    <_>
      0. 0. 4.12065104e-11 1.69937397e-04</_>
    <_>
      0. 0. 1.71531454e-07 4.27292616e-05</_>
    <_>
      0. 0. 1.01399849e-08 6.55563714e-10</_>
    <_>
      0. 0. 1.66122598e-04 2.66602518e-09</_>
    <_>
      0. 0. 2.53505306e-09 2.59326627e-09</_>
    <_>
      0. 0. 1.01390940e-08 4.17287254e-08</_>
    <_>
      0. 0. 1.01395461e-08 2.66625233e-09</_>
    <_>
      0. 0. 4.12065104e-11 4.17223482e-08</_>
    <_>
      0. 0. 2.87223276e+20 2.52080468e-09</_>
    <_>
      4.23319688e+04 4.55884429e-41 1.40148501e-37 0.</_>
    <_>
      0. 0. 4.14338841e-11 1.10397123e-05</_>
    <_>
      0. 0. 2.87223276e+20 2.52080468e-09</_>
    <_>
      0. 0. 4.16612578e-11 1.10390129e-05</_>
    <_>
      1.46536269e-37 0. 9.37192897e-38 0.</_>
    <_>
      0. 0. 1.81434439e+25 8.86491733e-04</_>
    <_>
      0. 0. 2.87223276e+20 1.00832187e-08</_>
    <_>
      1.35116740e-37 0. 1.07051669e-37 0.</_>
    <_>
      0. 0. 1.81434439e+25 8.86491733e-04</_>
    <_>
      8.49009297e-38 0. 8.63997137e-38 0.</_>
    <_>
      1.02794951e-37 0. 4.56800879e-38 0.</_>
    <_>
      0. 0. 4.15381219e-05 2.73006867e-06</_>
    <_>
      0. 0. 4.14338841e-11 1.06636486e-08</_>
    <_>
      0. 0. 6.48960111e-07 1.10397168e-05</_>
    <_>
      0. 0. 4.18803880e-11 1.07216209e-08</_>
    <_>
      0. 0. 4.15316063e-05 1.06631939e-08</_>
    <_>
      0. 0. 4.05627389e-08 4.28892228e-08</_>
    <_>
      0. 0. 4.16612578e-11 1.65950794e-07</_>
    <_>
      0. 0. 4.16612578e-11 6.73753553e-10</_>
    <_>
      0. 0. 4.16612578e-11 2.57888333e-09</_>
    <_>
      0. 0. 2.87223276e+20 2.52080468e-09</_>
    <_>
      0. 0. 2.87223276e+20 4.02970678e-11</_>
    <_>
      0. 0. 4.05125933e-11 1.08015229e-05</_>
    <_>
      0. 0. 2.53522736e-09 6.89981789e-07</_>
    <_>
      0. 0. 1.81434439e+25 8.86491733e-04</_>
    <_>
      0. 0. 4.12065104e-11 1.07211662e-08</_>
    <_>
      0. 0. 6.67644485e-07 4.97676475e-39</_>
    <_>
      1.44866190e-37 0. 1.16131007e-37 0.</_>
    <_>
      0. 0. 2.53493937e-09 6.71355508e-07</_>
    <_>
      0. 0. 1.66133512e-04 1.08613685e-05</_>
    <_>
      4.23319688e+04 4.55884429e-41 8.62598080e-38 0.</_>
    <_>
      2.36942783e-38 2.36942783e-38 2.36942783e-38 2.36942783e-38</_>
    <_>
      4.23319688e+04 4.55884429e-41 8.56449407e-38 0.</_>
    <_>
      2.36942783e-38 2.36942783e-38 2.36942783e-38 2.36942783e-38</_>
    <_>
      0. 0. 2.53511390e-09 4.41579068e-05</_>
    <_>
      4.23320312e+04 4.55884429e-41 1.46453402e-37 0.</_>
    <_>
      0. 0. 4.05170342e-11 1.73766952e-04</_>
    <_>
      0. 0. 1.62240099e-07 1.71866981e-04</_>
    <_>
      0. 0. 2.53488652e-09 6.75037484e-07</_>
    <_>
      0. 0. 6.49032813e-07 1.09188695e-05</_>
    <_>
      0. 0. 1.03845268e-05 1.09796392e-05</_>
    <_>
      0. 0. 1.81434439e+25 8.86491733e-04</_>
    <_>
      1.25719028e-37 0. 1.44958743e-37 0.</_>
    <_>
      0. 0. 4.09717815e-11 2.68553936e-06</_>
    <_>
      0. 0. 6.33821495e-10 1.07225357e-08</_>
    <_>
      0. 0. 2.53494470e-09 2.75987031e-06</_>
    <_>
      0. 0. 4.12065104e-11 1.02568745e-08</_>
    <_>
      0. 0. 1.81434439e+25 8.86491733e-04</_>
    <_>
      4.23319688e+04 4.55884429e-41 1.44958743e-37 0.</_>
    <_>
      0. 0. 4.16530144e-11 1.08592676e-05</_>
    <_>
      0. 0. 2.87223276e+20 2.52080468e-09</_>
    <_>
      0. 0. 6.48916455e-07 6.71297244e-07</_>
    <_>
      0. 0. 1.03840584e-05 1.04899298e-08</_>
    <_>
      0. 0. 4.14338841e-11 1.05472262e-08</_>
    <_>
      0. 0. 6.33821495e-10 1.05023382e-05</_>
    <_>
      0. 0. 4.05161460e-11 4.34398826e-05</_>
    <_>
      0. 0. 2.87223276e+20 2.52080468e-09</_>
    <_>
      4.23319688e+04 4.55884429e-41 1.45156046e-37 0.</_>
    <_>
      0. 0. 6.48916682e-07 6.62839950e-10</_>
    <_>
      0. 0. 2.59572448e-06 1.08592667e-05</_>
    <_>
      0. 0. 1.01397761e-08 2.74514264e-06</_>
    <_>
      0. 0. 1.01402309e-08 2.75992807e-06</_>
    <_>
      4.23319688e+04 4.55884429e-41 1.25349713e-37 0.</_>
    <_>
      0. 0. 2.59601075e-06 2.57888488e-09</_>
    <_>
      0. 0. 2.59595254e-06 1.03143982e-08</_>
    <_>
      0. 0. 2.53483012e-09 6.71341297e-07</_>
    <_>
      0. 0. 6.48973582e-07 2.60764610e-09</_>
    <_>
      0. 0. 1.66148689e-04 4.26536566e-08</_>
    <_>
      0. 0. 1.01404547e-08 1.07793747e-08</_>
    <_>
      0. 0. 6.49003766e-07 6.66548594e-10</_>
    <_>
      4.23319688e+04 4.55884429e-41 1.06797687e-37 0.</_>
    <_>
      0. 0. 4.15362410e-05 4.36792070e-05</_>
    <_>
      0. 0. 4.12065104e-11 2.63697819e-09</_>
    <_>
      0. 0. 1.81434439e+25 8.86491733e-04</_>
    <_>
      0. 0. 1.81434439e+25 8.86491733e-04</_>
    <_>
      4.23319688e+04 4.55884429e-41 1.25488004e-37 0.</_>
    <_>
      0. 0. 4.12065104e-11 1.67831615e-07</_>
    <_>
      0. 0. 4.02887723e-11 4.26554863e-08</_>
    <_>
      0. 0. 4.05161460e-11 4.22459270e-05</_>
    <_>
      0. 0. 4.15306531e-05 2.60776067e-09</_>
    <_>
      0. 0. 1.66133774e-04 6.78835193e-07</_>
    <_>
      1.16251003e-37 0. 1.16757533e-37 0.</_>
    <_>
      0. 0. 2.87223276e+20 2.52080468e-09</_>
    <_>
      0. 0. 2.87223276e+20 2.52080468e-09</_>
    <_>
      0. 0. 2.87223276e+20 2.52080468e-09</_>
    <_>
      0. 0. 4.18803880e-11 1.71866966e-04</_>
    <_>
      0. 0. 4.18803880e-11 1.03728324e-08</_>
    <_>
      4.23319688e+04 4.55884429e-41 1.44958743e-37 0.</_>
    <_>
      0. 0. 6.33750108e-10 1.65026705e-07</_>
    <_>
      4.23319688e+04 4.55884429e-41 8.47799472e-38 0.</_>
    <_>
      4.23319688e+04 4.55884429e-41 8.73404894e-38 0.</_>
    <_>
      1.27344982e-37 0. 4.56587433e-38 0.</_>
    <_>
      8.64142423e-38 0. 1.49301737e-37 0.</_>
    <_>
      0. 0. 1.81434439e+25 8.86491733e-04</_>
    <_>
      0. 0. 1.66141253e-04 1.07414608e-05</_>
    <_>
      0. 0. 2.87223276e+20 1.00832187e-08</_>
    <_>
      0. 0. 4.14338841e-11 2.70038117e-06</_>
    <_>
      0. 0. 4.14338841e-11 4.36829323e-05</_>
    <_>
      0. 0. 4.02896605e-11 1.74716901e-04</_>
    <_>
      0. 0. 4.12065104e-11 6.55578314e-10</_>
    <_>
      0. 0. 4.12065104e-11 2.57894173e-09</_>
    <_>
      0. 0. 1.81434439e+25 8.86491733e-04</_>
    <_>
      0. 0. 4.02896605e-11 1.73763226e-04</_>
    <_>
      0. 0. 1.01390905e-08 6.62811195e-10</_>
    <_>
      0. 0. 2.87223276e+20 1.00832187e-08</_>
    <_>
      0. 0. 4.00622868e-11 2.72995180e-06</_>
    <_>
      0. 0. 4.00622868e-11 1.10394776e-05</_>
    <_>
      0. 0. 4.12065104e-11 1.05018780e-05</_>
    <_>
      0. 0. 4.14338841e-11 1.03739675e-08</_>
    <_>
      8.53912272e-38 0. 1.34893968e-37 0.</_>
    <_>
      4.23319688e+04 4.55884429e-41 8.66394366e-38 0.</_>
    <_>
      0. 0. 4.05645544e-08 2.72989382e-06</_>
    <_>
      4.23319688e+04 4.55884429e-41 4.23319688e+04 4.55884429e-41</_>
    <_>
      0. 0. 4.16530144e-11 1.09207340e-05</_>
    <_>
      0. 0. 4.15371796e-05 1.68998551e-04</_>
    <_>
      0. 0. 4.14338841e-11 2.67046312e-06</_>
    <_>
      0. 0. 2.87223276e+20 2.52080468e-09</_>
    <_>
      0. 0. 2.87223276e+20 2.52080468e-09</_>
    <_>
      0. 0. 4.14338841e-11 1.68755676e-07</_>
    <_>
      0. 0. 4.05636520e-08 2.72989359e-06</_>
    <_>
      0. 0. 1.03835937e-05 4.27274063e-05</_>
    <_>
      0. 0. 4.14338841e-11 6.55563825e-10</_>
    <_>
      0. 0. 2.87223276e+20 4.13008638e-05</_>
    <_>
      0. 0. 4.05645544e-08 2.59298161e-09</_>
    <_>
      0. 0. 2.59607259e-06 4.21907345e-08</_>
    <_>
      0. 0. 1.06203806e-05 4.12557810e-08</_>
    <_>
      0. 0. 1.81434439e+25 8.86491733e-04</_>
    <_>
      0. 0. 2.87223276e+20 4.03328748e-08</_>
    <_>
      4.23319688e+04 4.55884429e-41 4.56426900e-38 0.</_>
    <_>
      0. 0. 6.56323664e-07 6.82487723e-07</_>
    <_>
      0. 0. 4.15315153e-05 1.73774330e-04</_>
    <_>
      0. 0. 6.33734842e-10 6.82487780e-07</_>
    <_>
      0. 0. 1.01397575e-08 1.10401761e-05</_>
    <_>
      0. 0. 1.66129787e-04 6.78820527e-07</_>
    <_>
      0. 0. 2.87223276e+20 4.03328748e-08</_>
    <_>
      0. 0. 4.12065104e-11 1.02559605e-08</_>
    <_>
      2.36942783e-38 2.36942783e-38 2.36942783e-38 2.36942783e-38</_>
    <_>
      1.12097599e-37 0. 9.76559295e-38 0.</_>
    <_>
      4.56429142e-38 0. 5.05095369e-39 0.</_>
    <_>
      8.48998535e-38 0. 1.25755798e-37 0.</_>
    <_>
      7.35158393e-38 0. 5.76238143e-38 0.</_>
    <_>
      4.23319688e+04 4.55884429e-41 1.47909676e-37 0.</_>
    <_>
      4.23319688e+04 4.55884429e-41 8.47799472e-38 0.</_>
    <_>
      0. 0. 4.05609129e-08 1.09205066e-05</_>
    <_>
      0. 0. 1.03833636e-05 4.20121469e-05</_>
    <_>
      0. 0. 4.16612578e-11 1.66907583e-07</_>
    <_>
      0. 0. 1.66130107e-04 1.65961666e-07</_>
    <_>
      0. 0. 4.02905487e-11 1.71848340e-04</_>
    <_>
      0. 0. 4.11991552e-11 4.29676802e-05</_>
    <_>
      0. 0. 4.05609093e-08 4.17277981e-08</_>
    <_>
      0. 0. 2.53499999e-09 1.68048558e-04</_>
    <_>
      0. 0. 4.21077617e-11 1.08599634e-05</_>
    <_>
      0. 0. 4.14338841e-11 4.19606181e-08</_>
    <_>
      4.23319688e+04 4.55884429e-41 1.08685695e-37 0.</_>
    <_>
      4.23320312e+04 4.55884429e-41 1.45312274e-37 0.</_>
    <_>
      0. 0. 4.15381000e-05 4.19606465e-08</_>
    <_>
      0. 0. 6.48974662e-07 1.09204993e-05</_>
    <_>
      0. 0. 4.14338841e-11 2.60770339e-09</_>
    <_>
      0. 0. 4.14338841e-11 2.68524786e-06</_>
    <_>
      0. 0. 4.14338841e-11 4.27227569e-05</_>
    <_>
      0. 0. 2.87223276e+20 1.61331499e-07</_>
    <_>
      4.23319688e+04 4.55884429e-41 8.48990463e-38 0.</_>
    <_>
      0. 0. 6.48916512e-07 1.70898464e-04</_>
    <_>
      0. 0. 4.15333780e-05 4.26536673e-08</_>
    <_>
      0. 0. 4.14338841e-11 2.62236877e-09</_>
    <_>
      0. 0. 4.14338841e-11 1.09787106e-05</_>
    <_>
      0. 0. 2.59578178e-06 4.34407848e-05</_>
    <_>
      0. 0. 1.62232752e-07 1.69002349e-04</_>
    <_>
      0. 0. 1.03835937e-05 4.17269028e-08</_>
    <_>
      0. 0. 4.12065104e-11 1.09805778e-05</_>
    <_>
      0. 0. 1.62225504e-07 6.44706954e-10</_>
    <_>
      0. 0. 1.62250672e-07 2.66613842e-09</_>
    <_>
      0. 0. 2.87223276e+20 1.03252160e-05</_>
    <_>
      0. 0. 1.03842758e-05 1.68773809e-07</_>
    <_>
      0. 0. 4.12065104e-11 6.75095464e-07</_>
    <_>
      4.23319688e+04 4.55884429e-41 8.50681887e-38 0.</_>
    <_>
      0. 0. 4.02887723e-11 6.67557458e-07</_>
    <_>
      0. 0. 4.05572713e-08 1.05470042e-08</_>
    <_>
      0. 0. 1.81434439e+25 8.86491733e-04</_>
    <_>
      2.36942783e-38 2.36942783e-38 2.36942783e-38 2.36942783e-38</_>
    <_>
      0. 0. 4.09791368e-11 4.34398862e-05</_>
    <_>
      7.35089337e-38 0. 1.36152939e-37 0.</_>
    <_>
      1.06795355e-37 0. 1.34876569e-37 0.</_>
    <_>
      0. 0. 4.12065104e-11 1.70890940e-04</_>
    <_>
      0. 0. 2.59589888e-06 6.41026343e-10</_>
    <_>
      0. 0. 4.05636484e-08 6.66449285e-10</_>
    <_>
      0. 0. 1.62239999e-07 1.08613640e-05</_>
    <_>
      0. 0. 4.15325303e-05 4.14895176e-08</_>
    <_>
      0. 0. 1.66141195e-04 6.71384555e-07</_>
    <_>
      0. 0. 4.21077617e-11 1.04883409e-08</_>
    <_>
      4.23319688e+04 4.55884429e-41 8.66394366e-38 0.</_>
    <_>
      0. 0. 4.05591081e-08 4.28846754e-08</_>
    <_>
      0. 0. 4.02896605e-11 2.56427612e-09</_>
    <_>
      0. 0. 4.15353170e-05 4.27218220e-05</_>
    <_>
      2.36942783e-38 2.36942783e-38 2.36942783e-38 2.36942783e-38</_>
    <_>
      1.06795355e-37 0. 1.02799255e-37 0.</_>
    <_>
      8.47802162e-38 0. 8.64348695e-38 0.</_>
    <_>
      0. 0. 6.48931120e-07 2.67046244e-06</_>
    <_>
      0. 0. 4.14338841e-11 2.60787325e-09</_>
    <_>
      4.23319688e+04 4.55884429e-41 1.36152939e-37 0.</_>
    <_>
      0. 0. 4.05599998e-08 6.51925958e-10</_>
    <_>
      0. 0. 1.01406821e-08 1.68994899e-04</_>
    <_>
      0. 0. 6.33693154e-10 2.60770383e-09</_>
    <_>
      0. 0. 2.87223276e+20 1.00832187e-08</_>
    <_>
      0. 0. 4.14338841e-11 2.59320831e-09</_>
    <_>
      4.23319688e+04 4.55884429e-41 1.15917561e-37 0.</_>
    <_>
      0. 0. 2.87223276e+20 1.00832187e-08</_>
    <_>
      0. 0. 4.00622868e-11 4.36838745e-05</_>
    <_>
      0. 0. 4.14338841e-11 4.39166943e-05</_>
    <_>
      0. 0. 4.00622868e-11 4.24253699e-08</_>
    <_>
      0. 0. 1.01395461e-08 2.65550329e-06</_>
    <_>
      0. 0. 2.53477417e-09 1.66914816e-07</_>
    <_>
      0. 0. 4.14338841e-11 4.21879989e-08</_>
    <_>
      0. 0. 2.87223276e+20 2.52080468e-09</_>
    <_>
      0. 0. 1.01393223e-08 2.71505110e-06</_>
    <_>
      9.37271818e-38 0. 4.23314688e+04 4.55884429e-41</_>
    <_>
      8.57638605e-38 0. 1.25349713e-37 0.</_>
    <_>
      0. 0. 4.14256407e-11 4.24262971e-08</_>
    <_>
      0. 0. 4.15325121e-05 2.71493263e-06</_>
    <_>
      0. 0. 4.15306495e-05 2.68530653e-06</_>
    <_>
      0. 0. 2.53528554e-09 1.68991071e-04</_>
    <_>
      0. 0. 4.07435197e-11 1.05626386e-05</_>
    <_>
      0. 0. 2.87223276e+20 2.52080468e-09</_>
    <_>
      0. 0. 2.87223276e+20 2.52080468e-09</_>
    <_>
      0. 0. 4.00613986e-11 6.59187371e-10</_>
    <_>
      0. 0. 4.14338841e-11 4.39185751e-05</_>
    <_>
      0. 0. 1.03840430e-05 6.60208684e-07</_>
    <_>
      0. 0. 2.87223276e+20 1.03252160e-05</_>
    <_>
      0. 0. 1.66137499e-04 1.09796392e-05</_>
    <_>
      4.23319688e+04 4.55884429e-41 8.47260476e-38 0.</_>
    <_>
      0. 0. 6.48989214e-07 2.69484435e-09</_>
    <_>
      0. 0. 1.03132614e-08 4.41551201e-05</_>
    <_>
      8.64389949e-38 0. 1.15875590e-37 0.</_>
    <_>
      0. 0. 1.65943575e-07 2.68518988e-06</_>
    <_>
      0. 0. 4.12065104e-11 2.69501599e-09</_>
    <_>
      0. 0. 4.12065104e-11 2.71534191e-06</_>
    <_>
      0. 0. 4.12065104e-11 6.66534772e-10</_>
    <_>
      0. 0. 4.12065104e-11 2.65130251e-09</_>
    <_>
      0. 0. 4.15343711e-05 1.06809184e-05</_>
    <_>
      0. 0. 4.12065104e-11 4.24271924e-08</_>
    <_>
      9.75321668e-38 0. 8.73398616e-38 0.</_>
    <_>
      9.11123813e-38 0. 1.46535731e-37 0.</_>
    <_>
      0. 0. 4.09791368e-11 1.03150839e-08</_>
    <_>
      1.25654276e-37 0. 4.20389539e-45 1.40129846e-45</_>
    <_>
      8.48996741e-38 0. 8.50611934e-38 0.</_>
    <_>
      0. 0. 4.05161460e-11 4.17232577e-08</_>
    <_>
      0. 0. 1.74694578e-04 1.05028012e-05</_>
    <_>
      0. 0. 1.81434439e+25 8.86491733e-04</_>
    <_>
      0. 0. 1.62247360e-07 1.07809726e-08</_>
    <_>
      0. 0. 4.12065104e-11 4.26555040e-08</_>
    <_>
      0. 0. 2.59613103e-06 1.74728004e-04</_>
    <_>
      0. 0. 4.14338841e-11 6.82531379e-07</_>
    <_>
      0. 0. 1.03838274e-05 6.78820811e-07</_>
    <_>
      0. 0. 4.15334616e-05 4.24226521e-08</_>
    <_>
      1.06795355e-37 0. 1.44658305e-37 0.</_>
    <_>
      0. 0. 2.87223276e+20 1.00832187e-08</_>
    <_>
      0. 0. 1.66133745e-04 4.19597157e-08</_>
    <_>
      4.23319688e+04 4.55884429e-41 9.16456370e-38 0.</_>
    <_>
      0. 0. 2.59601552e-06 2.56393351e-09</_>
    <_>
      0. 0. 4.14265289e-11 4.34426474e-05</_>
    <_>
      4.23319688e+04 4.55884429e-41 8.47799472e-38 0.</_>
    <_>
      0. 0. 6.48916625e-07 4.36792179e-05</_>
    <_>
      0. 0. 4.05600140e-08 1.69697870e-07</_>
    <_>
      0. 0. 1.01397717e-08 4.24244604e-08</_>
    <_>
      0. 0. 6.48974549e-07 4.10256717e-08</_>
    <_>
      0. 0. 4.12065104e-11 6.75051865e-07</_>
    <_>
      0. 0. 2.87223276e+20 1.00832187e-08</_>
    <_>
      0. 0. 4.12065104e-11 1.09801067e-05</_>
    <_>
      0. 0. 4.11982670e-11 2.64031064e-06</_>
    <_>
      0. 0. 4.05161460e-11 6.44706621e-10</_>
    <_>
      0. 0. 4.12065104e-11 2.74496983e-06</_>
    <_>
      0. 0. 6.33805897e-10 1.06049862e-08</_>
    <_>
      0. 0. 2.59584021e-06 1.06640998e-08</_>
    <_>
      0. 0. 4.14338841e-11 1.72477385e-07</_>
    <_>
      0. 0. 2.56376320e-09 4.24852697e-05</_>
    <_>
      0. 0. 4.00578459e-11 1.71564253e-07</_>
    <_>
      0. 0. 4.02852196e-11 1.07225384e-08</_>
    <_>
      0. 0. 2.59584090e-06 4.26527684e-08</_>
    <_>
      0. 0. 4.05563796e-08 6.75109789e-07</_>
    <_>
      0. 0. 4.07399670e-11 2.68069100e-09</_>
    <_>
      0. 0. 2.87223276e+20 4.07518151e-11</_>
    <_>
      0. 0. 4.09673406e-11 1.09191024e-05</_>
    <_>
      0. 0. 4.07399670e-11 6.66548816e-10</_>
    <_>
      2.36942783e-38 2.36942783e-38 2.36942783e-38 2.36942783e-38</_>
    <_>
      8.73403101e-38 0. -1.40129846e-45 4.55884429e-41</_>
    <_>
      4.23319688e+04 4.55884429e-41 8.47799472e-38 0.</_>
    <_>
      8.36360392e-38 0. 4.20389539e-45 1.40129846e-45</_>
    <_>
      8.73040781e-38 0. 5.14278919e-39 0.</_>
    <_>
      1.45156943e-37 0. 8.70098334e-38 0.</_>
    <_>
      0. 0. 2.63652389e-09 1.08592658e-05</_>
    <_>
      0. 0. 4.15297109e-05 2.57894150e-09</_>
    <_>
      1.25654276e-37 0. 4.20389539e-45 1.40129846e-45</_>
    <_>
      0. 0. 4.05609057e-08 4.31238760e-08</_>
    <_>
      0. 0. 1.66133876e-04 2.60804534e-09</_>
    <_>
      0. 0. 1.81434439e+25 8.86491733e-04</_>
    <_>
      0. 0. 4.05170342e-11 1.65044895e-07</_>
    <_>
      4.23319688e+04 4.55884429e-41 1.40148501e-37 0.</_>
    <_>
      0. 0. 4.18812762e-11 1.66896598e-07</_>
    <_>
      0. 0. 1.68737500e-07 1.76642920e-04</_>
    <_>
      0. 0. 4.11991552e-11 1.64099063e-07</_>
    <_>
      0. 0. 2.87223276e+20 1.00832187e-08</_>
    <_>
      1.16251003e-37 0. 4.23314688e+04 4.55884429e-41</_>
    <_>
      0. 0. 4.12065104e-11 1.72470081e-07</_>
    <_>
      0. 0. 2.87223276e+20 2.52080468e-09</_>
    <_>
      0. 0. 1.66118858e-04 4.20130928e-05</_>
    <_>
      0. 0. 4.05644869e-08 1.65979912e-07</_>
    <_>
      0. 0. 6.33693320e-10 1.70913321e-04</_>
    <_>
      0. 0. 4.14338841e-11 1.70913379e-04</_>
    <_>
      0. 0. 4.05590974e-08 4.19551931e-08</_>
    <_>
      0. 0. 4.17186961e-08 2.73012665e-06</_>
    <_>
      0. 0. 1.66144964e-04 4.39148425e-05</_>
    <_>
      0. 0. 2.59560761e-06 2.71499266e-06</_>
    <_>
      4.23319688e+04 4.55884429e-41 8.73036297e-38 0.</_>
    <_>
      0. 0. 6.33706421e-10 2.60793076e-09</_>
    <_>
      0. 0. 4.14338841e-11 4.17223376e-08</_>
    <_>
      0. 0. 1.81434439e+25 8.86491733e-04</_>
    <_>
      0. 0. 1.62229085e-07 4.31174954e-08</_>
    <_>
      0. 0. 1.66118611e-04 2.60776023e-09</_>
    <_>
      4.23319688e+04 4.55884429e-41 1.45156046e-37 0.</_>
    <_>
      0. 0. 1.76601898e-04 6.63803348e-07</_>
    <_>
      2.36942783e-38 2.36942783e-38 2.36942783e-38 2.36942783e-38</_>
    <_>
      0. 0. 1.73740860e-04 1.72473690e-07</_>
    <_>
      2.36942783e-38 2.36942783e-38 2.36942783e-38 2.36942783e-38</_>
    <_>
      0. 0. 4.09791368e-11 6.63832395e-07</_>
    <_>
      0. 0. 1.81434439e+25 8.86491733e-04</_>
    <_>
      8.49455919e-38 0. 1.45321960e-37 0.</_>
    <_>
      1.45156943e-37 0. 9.52296936e+02 4.55884429e-41</_>
    <_>
      0. 0. 8.90502978e-38 0.</_>
    <_>
      2.36942783e-38 2.36942783e-38 2.36942783e-38 2.36942783e-38</_>
    <_>
      0. 0. 4.12065104e-11 6.86213241e-07</_>
    <_>
      0. 0. 4.12065104e-11 1.02573319e-08</_>
    <_>
      0. 0. 4.12065104e-11 4.26527684e-08</_>
    <_>
      0. 0. 4.00622868e-11 6.86213014e-07</_>
    <_>
      0. 0. 4.02896605e-11 1.03148565e-08</_>
    <_>
      0. 0. 1.03835937e-05 1.71863241e-04</_>
    <_>
      0. 0. 4.14338841e-11 1.07223102e-08</_>
    <_>
      0. 0. 1.62232780e-07 4.32005254e-05</_>
    <_>
      0. 0. 6.48945615e-07 4.24199307e-08</_>
    <_>
      0. 0. 1.62254565e-07 4.22477715e-05</_>
    <_>
      0. 0. 4.02896605e-11 1.07814246e-08</_>
    <_>
      4.23319688e+04 4.55884429e-41 1.47674348e-37 0.</_>
    <_>
      0. 0. 6.71224882e-07 2.57894128e-09</_>
    <_>
      4.23320312e+04 4.55884429e-41 1.46514745e-37 0.</_>
    <_>
      0. 0. 4.09791368e-11 4.14904271e-08</_>
    <_>
      0. 0. 4.09708933e-11 1.64113629e-07</_>
    <_>
      0. 0. 4.09791368e-11 1.65037662e-07</_>
    <_>
      0. 0. 1.01409130e-08 2.60758881e-09</_>
    <_>
      0. 0. 2.87223276e+20 2.52080468e-09</_>
    <_>
      0. 0. 1.81434439e+25 8.86491733e-04</_>
    <_>
      4.23319688e+04 4.55884429e-41 1.44959999e-37 0.</_>
    <_>
      0. 0. 4.15380928e-05 1.09207349e-05</_>
    <_>
      0. 0. 2.59613103e-06 6.63861442e-07</_>
    <_>
      4.23319688e+04 4.55884429e-41 7.42602987e-38 0.</_>
    <_>
      0. 0. 1.01397797e-08 1.67846125e-07</_>
    <_>
      0. 0. 4.05591152e-08 1.06638716e-08</_>
    <_>
      0. 0. 2.87223276e+20 4.13008638e-05</_>
    <_>
      0. 0. 4.12065104e-11 6.75095691e-07</_>
    <_>
      0. 0. 2.87223276e+20 4.13008638e-05</_>
    <_>
      4.23319688e+04 4.55884429e-41 1.44959999e-37 0.</_>
    <_>
      4.23319688e+04 4.55884429e-41 8.73398616e-38 0.</_>
    <_>
      0. 0. 4.12065104e-11 2.67028918e-06</_>
    <_>
      0. 0. 4.15325339e-05 6.73810341e-10</_>
    <_>
      0. 0. 2.53522892e-09 2.62225597e-09</_>
    <_>
      0. 0. 1.62258189e-07 4.31256808e-08</_>
    <_>
      0. 0. 1.62257948e-07 4.21898392e-08</_>
    <_>
      0. 0. 4.00613986e-11 2.74502599e-06</_>
    <_>
      0. 0. 6.33806951e-10 1.06645501e-08</_>
    <_>
      0. 0. 4.09791368e-11 1.05617155e-05</_>
    <_>
      0. 0. 4.05161460e-11 6.59201638e-10</_>
    <_>
      0. 0. 4.05636591e-08 4.41560478e-05</_>
    <_>
      0. 0. 4.07435197e-11 1.68056009e-04</_>
    <_>
      0. 0. 6.33821495e-10 1.09207394e-05</_>
    <_>
      0. 0. 6.48930893e-07 2.66574030e-09</_>
    <_>
      0. 0. 1.01390913e-08 1.65950738e-07</_>
    <_>
      9.10906780e-38 0. 1.15875590e-37 0.</_>
    <_>
      9.10557016e-38 0. 8.73404894e-38 0.</_>
    <_>
      0. 0. 1.81434439e+25 8.86491733e-04</_>
    <_>
      0. 0. 1.62225447e-07 2.68524673e-06</_>
    <_>
      0. 0. 6.49018261e-07 1.72499213e-07</_>
    <_>
      0. 0. 4.14338841e-11 6.48316179e-10</_>
    <_>
      0. 0. 4.00622868e-11 6.41011744e-10</_>
    <_>
      0. 0. 2.87223276e+20 1.00832187e-08</_>
    <_>
      0. 0. 4.16612578e-11 6.70200950e-10</_>
    <_>
      0. 0. 4.05600282e-08 6.71341127e-07</_>
    <_>
      0. 0. 2.87223276e+20 1.00832187e-08</_>
    <_>
      4.23319688e+04 4.55884429e-41 8.48998535e-38 0.</_>
    <_>
      0. 0. 2.87223276e+20 1.00832187e-08</_>
    <_>
      0. 0. 1.81434439e+25 8.86491733e-04</_>
    <_>
      0. 0. 4.09717815e-11 4.36755108e-05</_>
    <_>
      0. 0. 1.62225433e-07 4.19597299e-08</_>
    <_>
      0. 0. 1.62243737e-07 4.31211653e-08</_>
    <_>
      0. 0. 1.01395488e-08 4.14958770e-08</_>
    <_>
      4.23319688e+04 4.55884429e-41 4.23319688e+04 4.55884429e-41</_>
    <_>
      0. 0. 4.05591081e-08 4.21934772e-08</_>
    <_>
      0. 0. 4.18886315e-11 1.67842472e-07</_>
    <_>
      0. 0. 1.66133817e-04 6.78762603e-07</_>
    <_>
      0. 0. 4.16612578e-11 4.19597406e-08</_>
    <_>
      1.16251003e-37 0. 9.82081980e-38 0.</_>
    <_>
      0. 0. 4.16612578e-11 4.10247694e-08</_>
    <_>
      0. 0. 4.16612578e-11 6.78719005e-07</_>
    <_>
      4.23319688e+04 4.55884429e-41 1.47675962e-37 0.</_>
    <_>
      0. 0. 6.49031790e-07 4.29621032e-05</_>
    <_>
      0. 0. 4.16612578e-11 1.69955965e-04</_>
    <_>
      0. 0. 2.87223276e+20 1.03252160e-05</_>
    <_>
      0. 0. 1.66137237e-04 6.48259224e-10</_>
    <_>
      0. 0. 2.59572334e-06 1.06806847e-05</_>
    <_>
      0. 0. 4.15324466e-05 4.12557704e-08</_>
    <_>
      0. 0. 2.87223276e+20 4.03328748e-08</_>
    <_>
      1.25349713e-37 0. 4.56800879e-38 0.</_>
    <_>
      0. 0. 4.14338841e-11 1.03739666e-08</_>
    <_>
      0. 0. 1.69668766e-07 2.68507256e-06</_>
    <_>
      0. 0. 1.07991991e-05 6.66449285e-10</_>
    <_>
      0. 0. 2.64019559e-06 2.63697708e-09</_>
    <_>
      0. 0. 2.69979978e-06 1.07419255e-05</_>
    <_>
      0. 0. 4.12065104e-11 6.89952969e-07</_>
    <_>
      0. 0. 2.59601075e-06 2.63680811e-09</_>
    <_>
      8.50686371e-38 0. 4.40810522e-39 4.40817108e-39</_>
    <_>
      1.12097599e-37 0. 1.48305896e-37 0.</_>
    <_>
      8.50686371e-38 0. 4.40810522e-39 4.40817108e-39</_>
    <_>
      0. 0. 2.87223276e+20 1.03252160e-05</_>
    <_>
      0. 0. 4.16612578e-11 1.06804546e-05</_>
    <_>
      0. 0. 2.59566627e-06 6.62882471e-10</_>
    <_>
      0. 0. 1.03840594e-05 4.17259862e-08</_>
    <_>
      0. 0. 4.14338841e-11 4.31175096e-08</_>
    <_>
      0. 0. 4.21077617e-11 6.63904871e-07</_>
    <_>
      0. 0. 2.87223276e+20 2.52080468e-09</_>
    <_>
      0. 0. 6.33735842e-10 6.67645111e-07</_>
    <_>
      0. 0. 6.49017238e-07 6.59187871e-10</_>
    <_>
      0. 0. 6.48959997e-07 1.69959676e-04</_>
    <_>
      0. 0. 2.53476884e-09 2.68063460e-09</_>
    <_>
      8.57624256e-38 0. 8.63853644e-38 0.</_>
    <_>
      0. 0. 2.87223276e+20 4.05244414e-11</_>
    <_>
      8.73398616e-38 0. 8.68092964e-38 0.</_>
    <_>
      0. 0. 2.87223276e+20 4.12065625e-11</_>
    <_>
      0. 0. 2.87223276e+20 4.09791888e-11</_>
    <_>
      0. 0. 4.05125933e-11 4.17259969e-08</_>
    <_>
      1.45201246e-37 0. 1.08630630e-37 0.</_>
    <_>
      7.00649232e-45 5.60519386e-44 1.74706886e-40 0.</_>
    <_>
      0. 0. 9.52311646e+02 4.55884429e-41</_>
    <_>
      1.08105804e-37 0. 1.06796611e-37 0.</_>
    <_>
      4.23319688e+04 4.55884429e-41 1.46535731e-37 0.</_>
    <_>
      0. 0. 4.05161460e-11 6.73810452e-10</_>
    <_>
      0. 0. 4.14338841e-11 1.69676127e-07</_>
    <_>
      0. 0. 4.15315772e-05 2.65532913e-06</_>
    <_>
      0. 0. 6.33707420e-10 1.76616726e-04</_>
    <_>
      0. 0. 4.14265289e-11 2.65532822e-06</_>
    <_>
      0. 0. 4.16612578e-11 1.69948471e-04</_>
    <_>
      1.48069133e-37 0. 1.45309763e-37 0.</_>
    <_>
      0. 0. 4.16612578e-11 1.69705160e-07</_>
    <_>
      0. 0. 1.81434439e+25 8.86491733e-04</_>
    <_>
      0. 0. 2.87223276e+20 1.00832187e-08</_>
    <_>
      0. 0. 6.33750330e-10 6.66463329e-10</_>
    <_>
      0. 0. 4.11991552e-11 6.89923979e-07</_>
    <_>
      0. 0. 2.87223276e+20 1.00832187e-08</_>
    <_>
      0. 0. 4.14338841e-11 4.28910347e-08</_>
    <_>
      0. 0. 1.66118974e-04 6.78718834e-07</_>
    <_>
      0. 0. 4.14338841e-11 2.66619571e-09</_>
    <_>
      4.23319688e+04 4.55884429e-41 8.56078119e-38 0.</_>
    <_>
      0. 0. 1.62239758e-07 1.71538730e-07</_>
    <_>
      4.23319688e+04 4.55884429e-41 1.44959999e-37 0.</_>
    <_>
      0. 0. 4.31156941e-08 1.06063451e-08</_>
    <_>
      0. 0. 6.33792574e-10 6.41026010e-10</_>
    <_>
      4.23320312e+04 4.55884429e-41 8.47504414e-38 0.</_>
    <_>
      0. 0. 1.07207185e-08 1.68759243e-07</_>
    <_>
      0. 0. 2.87223276e+20 4.00696941e-11</_>
    <_>
      0. 0. 7.00649232e-44 4.55884429e-41</_>
    <_>
      4.56429142e-38 0. 1.45114444e-37 0.</_>
    <_>
      2.36942783e-38 2.36942783e-38 2.36942783e-38 2.36942783e-38</_>
    <_>
      0. 0. 2.87223276e+20 1.00832187e-08</_>
    <_>
      0. 0. 4.02896605e-11 4.29677020e-05</_>
    <_>
      0. 0. 1.62236361e-07 6.56352768e-07</_>
    <_>
      0. 0. 4.14338841e-11 2.75998582e-06</_>
    <_>
      0. 0. 4.02905487e-11 1.65979941e-07</_>
    <_>
      0. 0. 4.16612578e-11 1.05018717e-05</_>
    <_>
      4.23319688e+04 4.55884429e-41 1.45275863e-37 0.</_>
    <_>
      4.23319688e+04 4.55884429e-41 8.73398616e-38 0.</_>
    <_>
      0. 0. 1.81434439e+25 8.86491733e-04</_>
    <_>
      0. 0. 2.87223276e+20 1.00832187e-08</_>
    <_>
      0. 0. 2.59578246e-06 6.51968646e-10</_>
    <_>
      0. 0. 4.18886315e-11 1.06213165e-05</_>
    <_>
      4.23319688e+04 4.55884429e-41 8.73404894e-38 0.</_>
    <_>
      0. 0. 2.56376254e-09 2.66625300e-09</_>
    <_>
      0. 0. 4.05600069e-08 2.63692179e-09</_>
    <_>
      0. 0. 2.59595663e-06 6.67572010e-07</_>
    <_>
      0. 0. 1.03845232e-05 1.71560487e-07</_>
    <_>
      0. 0. 4.09791368e-11 1.65972665e-07</_>
    <_>
      0. 0. 2.87223276e+20 4.12065625e-11</_>
    <_>
      0. 0. 4.05243894e-11 4.29686370e-05</_>
    <_>
      0. 0. 4.11947143e-11 1.05614754e-05</_>
    <_>
      2.36942783e-38 2.36942783e-38 2.36942783e-38 2.36942783e-38</_>
    <_>
      1.47675603e-37 0. 7.34877685e-38 0.</_>
    <_>
      8.47805750e-38 0. 4.20389539e-45 1.40129846e-45</_>
    <_>
      1.34876569e-37 0. 1.02758001e-37 0.</_>
    <_>
      1.34876569e-37 0. 8.90495803e-38 0.</_>
    <_>
      4.23319688e+04 4.55884429e-41 9.09756146e-38 0.</_>
    <_>
      1.45195327e-37 0. 1.15965990e-37 0.</_>
    <_>
      9.72749556e-38 0. 2.36942783e-38 2.36942783e-38</_>
    <_>
      4.23319688e+04 4.55884429e-41 9.74731553e-38 0.</_>
    <_>
      1.40188140e-37 0. 1.21457287e-37 0.</_>
    <_>
      4.56430039e-38 0. 4.20389539e-45 1.40129846e-45</_>
    <_>
      8.53918550e-38 0. 4.20389539e-45 1.40129846e-45</_>
    <_>
      1.34876569e-37 0. 4.20389539e-45 1.40129846e-45</_>
    <_>
      0. 0. 1.36396518e-37 0.</_>
    <_>
      0. 0. 4.16530144e-11 6.82560767e-07</_>
    <_>
      0. 0. 4.21077617e-11 2.75986986e-06</_>
    <_>
      0. 0. 1.81434439e+25 8.86491733e-04</_>
    <_>
      0. 0. 4.16612578e-11 6.67528468e-07</_>
    <_>
      0. 0. 4.16612578e-11 4.12621581e-08</_>
    <_>
      0. 0. 4.05618188e-08 1.06816224e-05</_>
    <_>
      0. 0. 4.15362338e-05 4.24843274e-05</_>
    <_>
      0. 0. 4.16612578e-11 4.39157920e-05</_>
    <_>
      0. 0. 6.33749997e-10 4.20102770e-05</_>
    <_>
      0. 0. 1.62258175e-07 2.71510794e-06</_>
    <_>
      0. 0. 6.49032700e-07 4.20084143e-05</_>
    <_>
      0. 0. 4.18812762e-11 1.68052386e-04</_>
    <_>
      0. 0. 4.14338841e-11 1.06816169e-05</_>
    <_>
      0. 0. 4.12065104e-11 2.65164357e-09</_>
    <_>
      0. 0. 4.05170342e-11 6.82516941e-07</_>
    <_>
      0. 0. 1.81434439e+25 8.86491733e-04</_>
    <_>
      0. 0. 4.14256407e-11 2.69991642e-06</_>
    <_>
      0. 0. 2.53482946e-09 1.66889350e-07</_>
    <_>
      4.23320312e+04 4.55884429e-41 4.23320312e+04 4.55884429e-41</_>
    <_>
      0. 0. 1.03838265e-05 2.69490052e-09</_>
    <_>
      0. 0. 6.33821107e-10 2.65130340e-09</_>
    <_>
      0. 0. 4.16612578e-11 4.32005072e-05</_>
    <_>
      0. 0. 2.87223276e+20 1.00832187e-08</_>
    <_>
      0. 0. 2.87223276e+20 2.52080468e-09</_>
    <_>
      0. 0. 4.16612578e-11 2.57871235e-09</_>
    <_>
      0. 0. 2.53505705e-09 1.75681722e-04</_>
    <_>
      0. 0. 4.14338841e-11 6.55549393e-10</_>
    <_>
      0. 0. 4.02852196e-11 1.09205030e-05</_>
    <_>
      0. 0. 4.15325158e-05 4.24190141e-08</_>
    <_>
      0. 0. 4.05609129e-08 1.74724308e-04</_>
    <_>
      0. 0. 2.87223276e+20 4.02970678e-11</_>
    <_>
      4.23319688e+04 4.55884429e-41 9.74731553e-38 0.</_>
    <_>
      0. 0. 4.09791368e-11 6.73767764e-10</_>
    <_>
      1.48300336e-37 0. 1.47675603e-37 0.</_>
    <_>
      8.47803956e-38 0. 1.40129846e-45 0.</_>
    <_>
      2.36942783e-38 2.36942783e-38 2.36942783e-38 2.36942783e-38</_>
    <_>
      8.64204305e-38 0. 1.07049517e-37 0.</_>
    <_>
      1.40150474e-37 0. 4.20389539e-45 1.40129846e-45</_>
    <_>
      0. 0. 4.09791368e-11 4.20140022e-05</_>
    <_>
      4.23319688e+04 4.55884429e-41 7.07555728e-38 0.</_>
    <_>
      4.23319688e+04 4.55884429e-41 8.47799472e-38 0.</_>
    <_>
      0. 0. 4.12065104e-11 4.17277874e-08</_>
    <_>
      2.36942783e-38 2.36942783e-38 2.36942783e-38 2.36942783e-38</_>
    <_>
      9.82069424e-38 0. 1.47926716e-37 0.</_>
    <_>
      1.47674348e-37 0. 1.45326982e-37 0.</_>
    <_>
      8.49000329e-38 0. 1.08684440e-37 0.</_>
    <_>
      0. 0. 1.62250913e-07 1.68777461e-07</_>
    <_>
      0. 0. 4.14338841e-11 2.68080491e-09</_>
    <_>
      0. 0. 4.05179224e-11 1.65019429e-07</_>
    <_>
      0. 0. 6.48974662e-07 4.22468547e-05</_>
    <_>
      0. 0. 4.31157083e-08 1.73763183e-04</_>
    <_>
      0. 0. 4.21086499e-11 1.04892530e-08</_>
    <_>
      0. 0. 4.16539025e-11 2.71499130e-06</_>
    <_>
      0. 0. 4.14338841e-11 6.78776928e-07</_>
    <_>
      0. 0. 4.14338841e-11 2.72971829e-06</_>
    <_>
      0. 0. 1.81434439e+25 8.86491733e-04</_>
    <_>
      1.07049517e-37 0. 1.46545237e-37 0.</_>
    <_>
      0. 0. 4.40817388e-39 4.40817108e-39</_>
    <_>
      0. 0. 4.40817388e-39 4.40817108e-39</_>
    <_>
      0. 0. 2.59607305e-06 2.56433297e-09</_>
    <_>
      0. 0. 4.09673406e-11 2.68542249e-06</_>
    <_>
      0. 0. 4.14265879e-11 6.51883214e-10</_>
    <_>
      0. 0. 4.20389539e-45 1.40129846e-45</_>
    <_>
      1.08108136e-37 0. 8.50712379e-38 0.</_>
    <_>
      9.37207246e-38 0. 1.40129846e-45 1.87500000e+00</_>
    <_>
      4.23319688e+04 4.55884429e-41 1.27346596e-37 0.</_>
    <_>
      4.23319688e+04 4.55884429e-41 4.56426900e-38 0.</_>
    <_>
      4.23319688e+04 4.55884429e-41 7.42602987e-38 0.</_>
    <_>
      1.44546022e-37 0. 1.16131725e-37 0.</_>
    <_>
      0. 0. 1.03828943e-05 1.05032696e-05</_>
    <_>
      0. 0. 4.05618188e-08 6.66534550e-10</_>
    <_>
      4.23320312e+04 4.55884429e-41 4.23320312e+04 4.55884429e-41</_>
    <_>
      0. 0. 2.59584135e-06 2.71493445e-06</_>
    <_>
      0. 0. 1.01402273e-08 2.73012688e-06</_>
    <_>
      0. 0. 4.21086499e-11 1.07798357e-08</_>
    <_>
      0. 0. 1.81434439e+25 8.86491733e-04</_>
    <_>
      0. 0. 4.14338841e-11 1.65037719e-07</_>
    <_>
      0. 0. 4.14338841e-11 6.55606569e-10</_>
    <_>
      0. 0. 1.81434439e+25 8.86491733e-04</_>
    <_>
      0. 0. 4.14338841e-11 4.28883062e-08</_>
    <_>
      0. 0. 1.66118916e-04 1.70894724e-04</_>
    <_>
      0. 0. 6.49033041e-07 4.34445137e-05</_>
    <_>
      4.23319688e+04 4.55884429e-41 8.36369360e-38 0.</_>
    <_>
      1.25349713e-37 0. 1.21457287e-37 0.</_>
    <_>
      0. 0. 4.14338841e-11 1.75685476e-04</_>
    <_>
      0. 0. 4.05125933e-11 1.10392502e-05</_>
    <_>
      0. 0. 4.14338841e-11 4.26572981e-08</_>
    <_>
      2.36942783e-38 2.36942783e-38 2.36942783e-38 2.36942783e-38</_>
    <_>
      1.45323395e-37 0. 4.20389539e-45 1.40129846e-45</_>
    <_>
      9.14051966e-38 0. 4.20389539e-45 1.40129846e-45</_>
    <_>
      8.45064137e-38 0. 4.20389539e-45 1.40129846e-45</_>
    <_>
      8.66400644e-38 0. 4.20389539e-45 1.40129846e-45</_>
    <_>
      1.16313961e-37 0. 4.20389539e-45 1.40129846e-45</_>
    <_>
      8.56078119e-38 0. 8.45320631e-38 0.</_>
    <_>
      0. 0. 1.44144421e-37 0.</_>
    <_>
