<?xml version="1.0"?>
<opencv_storage>
<opencv_ml_ann_mlp>
  <format>3</format>
  <layer_sizes>
    5 8 8 2</layer_sizes>
  <activation_function>SIGMOID_SYM</activation_function>
  <f_param1>6.6666666666666663e-01</f_param1>
  <f_param2>1.7159000000000000e+00</f_param2>
  <min_val>-9.4999999999999996e-01</min_val>
  <max_val>9.4999999999999996e-01</max_val>
  <min_val1>-9.7999999999999998e-01</min_val1>
  <max_val1>9.7999999999999998e-01</max_val1>
  <training_params>
    <train_method>BACKPROP</train_method>
    <dw_scale>1.0000000000000001e-01</dw_scale>
    <moment_scale>1.0000000000000000e-03</moment_scale>
    <term_criteria>
      <iterations>64</iterations></term_criteria></training_params>
  <input_scale>
    1.0259877715513008e-01 -2.3081946355677023e+00
    1.0245813104972663e-01 -2.3066050189496190e+00
    1.3756053305128512e-02 -4.6462341248795863e-02
    1.3434697702762212e-02 2.8497913910134568e-03 1.0402932608341131e-01
    -1.0188429452361889e+00</input_scale>
  <output_scale>
    5.2631578947368418e-01 4.9999999999999994e-01 5.2631578947368418e-01
    4.9999999999999994e-01</output_scale>
  <inv_output_scale>
    1.8999999999999999e+00 -9.4999999999999996e-01
    1.8999999999999999e+00 -9.4999999999999996e-01</inv_output_scale>
  <weights>
    <_>
      -7.9154069644649221e+00 8.8582229119988902e+00
      -4.9037908011415174e+00 -1.2526209878501942e+00
      -9.5741420695788704e-01 -1.1773514662287290e+01
      7.2345743022895947e-01 -8.0575741666230316e-01
      8.6639781589693765e+00 -9.0864476018638474e+00
      -5.6557551829051311e+00 -2.2550427396839736e+00
      -8.3594888882734320e-01 1.1258961512165683e+01
      6.1407817711720336e-01 3.3830446439048140e-01
      -8.1795439475983767e-01 8.1828795716319924e-01
      -1.3340812585808832e+00 1.3140222627288898e+00
      1.3198009938412532e+00 7.5350864805839568e-01
      5.1390554004630884e-01 7.1477548345986974e-01
      -4.6685576525983780e-01 -8.5367756033193554e-01
      6.7551523039335903e-01 6.7934154816707195e-03
      -9.3325089928826033e-01 -1.0508919586054463e-01
      1.0256689548470082e+00 -7.1157839877785933e-01
      -6.0170618690848574e+00 2.4099191362040533e+00
      -2.2944503631170154e+00 -3.1139544050392298e+00
      4.4385853257404868e+00 4.9813856960564165e+00
      -1.2457957906507069e+01 3.9177969215112114e+00
      1.8246996223444398e+00 -2.2067808687738415e+00
      1.8352440861237256e+00 -5.1058526362736787e+00
      -2.2579398012763017e+00 -2.4831822970536330e+00
      -9.1710260882139707e+00 -1.3844200666214084e+00</_>
    <_>
      -1.3726126435835067e+00 -1.0262380095759183e+00
      1.3519811072095211e+00 -4.5229342831976244e-01
      -4.3638913819226630e+00 -1.5953146192674097e+00
      -1.8467228730077589e+00 1.0879124498760198e+00
      1.4164797852221254e+00 1.2449289610870364e+00
      -1.3782837945837172e+00 3.1030937577120214e+00
      4.1458408361361965e+00 1.2162860272346530e+00
      1.8408115581517808e+00 -9.7110398471216897e-01
      -1.1822300983585616e+00 -1.3879807847348474e-01
      1.1805807681324616e+00 -1.9407831590750144e+00
      -3.4328851855354778e+00 -1.3292550100620244e+00
      -1.6421184473505990e+00 1.2045030379209831e+00
      -1.4487636568063846e+00 -3.7510624011647525e-01
      1.4663790786631987e+00 5.5935637904474946e+00
      -3.7890233705742460e-02 -2.0600345478187916e+00
      -1.9600725840867947e+00 1.7311191259793959e+00
      1.7577169071791390e+00 2.2310901300403905e+00
      -1.7541686697162535e+00 2.7866865811410213e-01
      -1.6533606392564981e+00 1.5603496190308379e+00
      1.5727596298059525e+00 -1.5894773367363262e+00
      1.9921281071476895e+00 1.8267597805490727e+00
      -1.9572109285153152e+00 4.7798957296445419e+00
      6.5975221790139162e+00 2.4495813887548050e+00
      3.2537761079228451e+00 -1.4238267493559058e+00
      -1.4795308284297073e+00 3.5024555803004342e-01
      1.4183977493400717e+00 5.8477127320345499e+00
      -7.6952800683786124e+00 -2.0424738280487937e+00
      -3.6344042366597034e+00 7.9707239048854839e-01
      1.7559361111917247e+00 1.7795700685871889e+00
      -1.7257705530031893e+00 4.4440959635205585e-01
      -2.1826128630220662e-01 1.5908707293894915e+00
      1.2593921655269509e+00 -1.9333666277100037e+00
      -1.4319227338625329e+00 -1.9676526804404808e+00
      1.3623339786421913e+00 -3.7020766821856701e+00
      6.7524121330831912e+00 -6.8768542904456165e-01
      1.2620374079069563e+00 1.2955537172140466e+00</_>
    <_>
      4.3114079187568860e-01 2.7552777348393559e-01
      1.3938121007040840e-02 -1.3488340154282602e-02
      3.6206330668167946e-01 3.8799104894995856e-01
      -4.9932625224068322e-01 4.9941451769418466e-01
      -1.0059402453264266e+00 1.0063718840699669e+00
      1.2106270108224722e-01 -1.0424141018354401e-01
      -1.7934419512699268e-01 1.7595063586620924e-01
      1.1658401925384124e-01 -1.4571565180756432e-01
      -8.3088359991073724e-01 8.3090638089884883e-01</_></weights></opencv_ml_ann_mlp>
</opencv_storage>
